{"learner":{"attributes":{"scikit_learn":"{\"_estimator_type\": \"regressor\"}"},"feature_names":["open","high","low","close","volume","sma_20","sma_50","ema_200","rsi","macd","macd_signal","macd_histogram","adx","atr","bb_upper","bb_middle","bb_lower","volume_sma","dist_to_support_pips","dist_to_resistance_pips","dist_to_support_atr","dist_to_resistance_atr","dist_to_round_number_pips","body_ratio","tail_ratio","nose_ratio","range_atr_ratio","risk_reward_ratio","trend_alignment","volatility_regime","bb_width","htf_d_rsi","htf_d_adx","htf_d_macd_histogram","htf_d_close","htf_d_sma_20","htf_d_sma_50","htf_d_ema_200","htf_d_bb_upper","htf_d_bb_lower","htf_d_atr","htf_h4_rsi","htf_h4_adx","htf_h4_macd_histogram","htf_h4_close","htf_h4_sma_20","htf_h4_sma_50","htf_h4_ema_200","htf_h4_bb_upper","htf_h4_bb_lower","htf_h4_atr","htf_h1_rsi","htf_h1_adx","htf_h1_macd_histogram","htf_h1_close","htf_h1_sma_20","htf_h1_sma_50","htf_h1_ema_200","htf_h1_bb_upper","htf_h1_bb_lower","htf_h1_atr","pattern_type_double_bottom","pattern_type_double_top","pattern_type_false_breakout","pattern_type_head_and_shoulders","pattern_type_pin_bar","timeframe_D","timeframe_H1","timeframe_H4","timeframe_M15","trend_state_ranging","trend_state_strong_downtrend","trend_state_strong_uptrend","trend_state_unknown","trend_state_weak_downtrend","trend_state_weak_uptrend","trading_session_asian","trading_session_daily","trading_session_london","trading_session_new_york","trading_session_off_hours","trading_session_unknown","rsi_zone_neutral","rsi_zone_overbought","rsi_zone_oversold","rsi_zone_unknown","htf_d_trend_state_ranging","htf_d_trend_state_strong_downtrend","htf_d_trend_state_strong_uptrend","htf_d_trend_state_unknown","htf_d_trend_state_weak_downtrend","htf_d_trend_state_weak_uptrend","htf_h4_trend_state_ranging","htf_h4_trend_state_strong_downtrend","htf_h4_trend_state_strong_uptrend","htf_h4_trend_state_unknown","htf_h4_trend_state_weak_downtrend","htf_h4_trend_state_weak_uptrend","htf_h1_trend_state_ranging","htf_h1_trend_state_strong_downtrend","htf_h1_trend_state_strong_uptrend","htf_h1_trend_state_unknown","htf_h1_trend_state_weak_downtrend","htf_h1_trend_state_weak_uptrend"],"feature_types":["float","float","float","float","float","float","float","float","float","float","float","float","float","float","float","float","float","float","float","float","float","float","float","float","float","float","float","float","float","float","float","float","float","float","float","float","float","float","float","float","float","float","float","float","float","float","float","float","float","float","float","float","float","float","float","float","float","float","float","float","float","int","int","int","int","int","int","int","int","int","int","int","int","int","int","int","int","int","int","int","int","int","int","int","int","int","int","int","int","int","int","int","int","int","int","int","int","int","int","int","int","int","int","int"],"gradient_booster":{"model":{"cats":{"enc":[],"feature_segments":[],"sorted_idx":[]},"gbtree_model_param":{"num_parallel_tree":"1","num_trees":"300"},"iteration_indptr":[0,1,2,3,4,5,6,7,8,9,10,11,12,13,14,15,16,17,18,19,20,21,22,23,24,25,26,27,28,29,30,31,32,33,34,35,36,37,38,39,40,41,42,43,44,45,46,47,48,49,50,51,52,53,54,55,56,57,58,59,60,61,62,63,64,65,66,67,68,69,70,71,72,73,74,75,76,77,78,79,80,81,82,83,84,85,86,87,88,89,90,91,92,93,94,95,96,97,98,99,100,101,102,103,104,105,106,107,108,109,110,111,112,113,114,115,116,117,118,119,120,121,122,123,124,125,126,127,128,129,130,131,132,133,134,135,136,137,138,139,140,141,142,143,144,145,146,147,148,149,150,151,152,153,154,155,156,157,158,159,160,161,162,163,164,165,166,167,168,169,170,171,172,173,174,175,176,177,178,179,180,181,182,183,184,185,186,187,188,189,190,191,192,193,194,195,196,197,198,199,200,201,202,203,204,205,206,207,208,209,210,211,212,213,214,215,216,217,218,219,220,221,222,223,224,225,226,227,228,229,230,231,232,233,234,235,236,237,238,239,240,241,242,243,244,245,246,247,248,249,250,251,252,253,254,255,256,257,258,259,260,261,262,263,264,265,266,267,268,269,270,271,272,273,274,275,276,277,278,279,280,281,282,283,284,285,286,287,288,289,290,291,292,293,294,295,296,297,298,299,300],"tree_info":[0,0,0,0,0,0,0,0,0,0,0,0,0,0,0,0,0,0,0,0,0,0,0,0,0,0,0,0,0,0,0,0,0,0,0,0,0,0,0,0,0,0,0,0,0,0,0,0,0,0,0,0,0,0,0,0,0,0,0,0,0,0,0,0,0,0,0,0,0,0,0,0,0,0,0,0,0,0,0,0,0,0,0,0,0,0,0,0,0,0,0,0,0,0,0,0,0,0,0,0,0,0,0,0,0,0,0,0,0,0,0,0,0,0,0,0,0,0,0,0,0,0,0,0,0,0,0,0,0,0,0,0,0,0,0,0,0,0,0,0,0,0,0,0,0,0,0,0,0,0,0,0,0,0,0,0,0,0,0,0,0,0,0,0,0,0,0,0,0,0,0,0,0,0,0,0,0,0,0,0,0,0,0,0,0,0,0,0,0,0,0,0,0,0,0,0,0,0,0,0,0,0,0,0,0,0,0,0,0,0,0,0,0,0,0,0,0,0,0,0,0,0,0,0,0,0,0,0,0,0,0,0,0,0,0,0,0,0,0,0,0,0,0,0,0,0,0,0,0,0,0,0,0,0,0,0,0,0,0,0,0,0,0,0,0,0,0,0,0,0,0,0,0,0,0,0,0,0,0,0,0,0,0,0,0,0,0,0,0,0,0,0,0,0,0,0,0,0,0,0],"trees":[{"base_weights":[9.3735266E-4,-9.761989E-2,1.5760486E0,-3.0039623E-1,3.7423044E-1,1.425043E0,2.6301253E0,-3.8275927E-1,-2.013141E-1,1.7347357E0,3.6225224E-1,1.26792E0,1.6392703E0,2.5165148E0,4.0112257E0,-3.4529382E-1,-4.391868E-1,1.8579455E-1,-2.1483825E-1,6.5127426E-1,8.828494E0,3.157929E-1,4.5835817E-1,8.404908E-1,1.3062023E0,1.4050125E0,1.8459897E0,2.2427268E0,2.9825366E0,2.250648E-1,8.4397145E-2,-3.2986933E-1,-4.4084838E-1,-5.410656E-1,-4.2286772E-1,1.7759203E0,6.380716E-2,-2.451405E-1,-1.2724817E-1,1.1235088E0,4.26669E-1,1.3636096E0,2.9344648E-1,1.8771876E0,3.1406698E-1,5.999742E-1,4.16168E-1,-9.469996E-2,9.2494595E-1,1.732948E0,1.2719184E0,1.6563447E0,1.3122009E0,1.8250303E0,1.3840424E-1,1.857106E0,2.6510553E0,2.4305043E0,3.332995E0,-1.12674525E-2,-1.712227E-2,-1.7148487E-2,-2.6688084E-2,-2.3754525E-3,-2.7267108E-2,-2.0078273E-2,-2.7011758E-2,-6.236482E-3,3.5718182E-1,1.3733792E-1,1.7049244E-3,-6.8864836E-3,-1.4762095E-2,-1.3257865E-3,-9.895424E-3,9.689546E-2,3.9372254E-2,3.1520575E-2,-2.4720347E-3,5.0724067E-2,-2.8625712E-2,-1.394214E-2,2.039846E-1,6.285587E-2,1.5590613E-2,2.749733E-2,4.3796737E-2,5.9932124E-2,2.0612335E-2,-2.321208E-2,9.71469E-3,4.9654942E-2,1.07103875E-2,7.46649E-2,1.4043014E-1,5.6598164E-2,6.595758E-2,8.51322E-2,9.982919E-3,6.925732E-2,5.3798627E-2,8.89992E-2,1.0714897E-1,9.734949E-2,4.705911E-2,1.1447755E-1,1.461548E-1,8.91E-2,1.333003E-1,2.2019763E-1,1.48178E-1],"categories":[],"categories_nodes":[],"categories_segments":[],"categories_sizes":[],"default_left":[0,0,1,1,0,1,0,1,0,0,1,0,0,1,0,1,0,1,0,0,0,0,0,0,1,0,0,0,0,0,0,0,0,0,1,0,0,0,1,0,0,0,0,0,0,0,0,0,0,0,0,1,1,1,0,0,1,0,0,0,0,0,0,0,0,0,0,0,0,0,0,0,0,0,0,0,0,0,0,0,0,0,0,0,0,0,0,0,0,0,0,0,0,0,0,0,0,0,0,0,0,0,0,0,0,0,0,0,0,0,0],"id":0,"left_children":[1,3,5,7,9,11,13,15,17,19,21,23,25,27,29,31,33,35,37,39,41,43,45,47,49,51,53,55,57,-1,-1,59,61,63,65,67,69,71,73,75,77,-1,79,81,83,85,87,89,91,93,95,97,99,101,-1,103,105,107,109,-1,-1,-1,-1,-1,-1,-1,-1,-1,-1,-1,-1,-1,-1,-1,-1,-1,-1,-1,-1,-1,-1,-1,-1,-1,-1,-1,-1,-1,-1,-1,-1,-1,-1,-1,-1,-1,-1,-1,-1,-1,-1,-1,-1,-1,-1,-1,-1,-1,-1,-1,-1],"loss_changes":[9.071212E3,5.2618467E3,5.4396094E2,3.138164E2,2.6875146E2,9.9305176E1,5.7375977E1,4.425049E1,9.145892E1,1.1010076E3,7.302368E1,2.7406494E1,5.8955566E1,4.4347412E1,2.7697723E1,1.846521E1,1.3698486E1,1.143321E2,4.4752686E1,1.2884998E1,2.982936E3,2.9188599E1,3.1643677E1,1.1618912E1,2.1160889E1,1.182251E1,7.935547E0,3.5386475E1,1.9951416E1,0E0,0E0,1.4218872E1,1.57500305E1,2.4077454E0,1.7847046E1,4.293813E2,4.3665436E1,6.741565E1,3.0878822E1,9.421616E0,8.470498E0,0E0,9.322235E0,5.8121586E1,2.3080322E1,1.6402618E1,1.2135132E1,1.4785373E0,6.278076E0,2.5708435E1,8.303467E0,1.0316101E1,6.1433716E0,5.6384277E0,0E0,9.281616E0,5.30542E0,4.412628E0,2.0974487E1,0E0,0E0,0E0,0E0,0E0,0E0,0E0,0E0,0E0,0E0,0E0,0E0,0E0,0E0,0E0,0E0,0E0,0E0,0E0,0E0,0E0,0E0,0E0,0E0,0E0,0E0,0E0,0E0,0E0,0E0,0E0,0E0,0E0,0E0,0E0,0E0,0E0,0E0,0E0,0E0,0E0,0E0,0E0,0E0,0E0,0E0,0E0,0E0,0E0,0E0,0E0,0E0],"parents":[2147483647,0,0,1,1,2,2,3,3,4,4,5,5,6,6,7,7,8,8,9,9,10,10,11,11,12,12,13,13,14,14,15,15,16,16,17,17,18,18,19,19,20,20,21,21,22,22,23,23,24,24,25,25,26,26,27,27,28,28,31,31,32,32,33,33,34,34,35,35,36,36,37,37,38,38,39,39,40,40,42,42,43,43,44,44,45,45,46,46,47,47,48,48,49,49,50,50,51,51,52,52,53,53,55,55,56,56,57,57,58,58],"right_children":[2,4,6,8,10,12,14,16,18,20,22,24,26,28,30,32,34,36,38,40,42,44,46,48,50,52,54,56,58,-1,-1,60,62,64,66,68,70,72,74,76,78,-1,80,82,84,86,88,90,92,94,96,98,100,102,-1,104,106,108,110,-1,-1,-1,-1,-1,-1,-1,-1,-1,-1,-1,-1,-1,-1,-1,-1,-1,-1,-1,-1,-1,-1,-1,-1,-1,-1,-1,-1,-1,-1,-1,-1,-1,-1,-1,-1,-1,-1,-1,-1,-1,-1,-1,-1,-1,-1,-1,-1,-1,-1,-1,-1],"split_conditions":[1E0,1E0,1.5067E0,0E0,3.635E-1,4.592E-1,2.6032E0,2.4736994E1,3.382E1,2.377E3,8.034E-1,5.06E-1,9.595E-1,1.55432005E1,1.389E-1,6.176E1,3.64E1,1.951E1,5.943E1,2.5658573E-3,4.066879E-3,9.879461E0,7.234E-1,1.1949193E1,3.1868E3,8.85E-2,9.398E-1,6.818E-1,1.7059E0,2.250648E-1,8.4397145E-2,1.3265E2,5.316E1,1E0,6.756E1,-3.1629512E-3,3.5560294E-3,4.69E1,1.87E1,5.0020283E-1,4.61E2,1.3636096E0,4.444825E4,1.3886001E0,2.1832546E-3,1.356E-1,1.8E1,3.848E-1,1.06522804E2,2.3389304E0,1.151E-1,3.4306904E1,1.4526882E0,7.8128785E-1,1.3840424E-1,6.224E-1,1.2715483E0,2.9216966E-1,1.839193E1,-1.12674525E-2,-1.712227E-2,-1.7148487E-2,-2.6688084E-2,-2.3754525E-3,-2.7267108E-2,-2.0078273E-2,-2.7011758E-2,-6.236482E-3,3.5718182E-1,1.3733792E-1,1.7049244E-3,-6.8864836E-3,-1.4762095E-2,-1.3257865E-3,-9.895424E-3,9.689546E-2,3.9372254E-2,3.1520575E-2,-2.4720347E-3,5.0724067E-2,-2.8625712E-2,-1.394214E-2,2.039846E-1,6.285587E-2,1.5590613E-2,2.749733E-2,4.3796737E-2,5.9932124E-2,2.0612335E-2,-2.321208E-2,9.71469E-3,4.9654942E-2,1.07103875E-2,7.46649E-2,1.4043014E-1,5.6598164E-2,6.595758E-2,8.51322E-2,9.982919E-3,6.925732E-2,5.3798627E-2,8.89992E-2,1.0714897E-1,9.734949E-2,4.705911E-2,1.1447755E-1,1.461548E-1,8.91E-2,1.333003E-1,2.2019763E-1,1.48178E-1],"split_indices":[63,65,26,28,26,23,26,12,8,4,24,26,26,32,24,31,41,31,31,13,13,52,26,12,17,25,23,23,26,0,0,17,8,61,41,9,40,8,19,20,4,0,17,20,40,23,4,26,7,20,23,32,21,40,0,25,7,20,32,0,0,0,0,0,0,0,0,0,0,0,0,0,0,0,0,0,0,0,0,0,0,0,0,0,0,0,0,0,0,0,0,0,0,0,0,0,0,0,0,0,0,0,0,0,0,0,0,0,0,0,0],"split_type":[0,0,0,0,0,0,0,0,0,0,0,0,0,0,0,0,0,0,0,0,0,0,0,0,0,0,0,0,0,0,0,0,0,0,0,0,0,0,0,0,0,0,0,0,0,0,0,0,0,0,0,0,0,0,0,0,0,0,0,0,0,0,0,0,0,0,0,0,0,0,0,0,0,0,0,0,0,0,0,0,0,0,0,0,0,0,0,0,0,0,0,0,0,0,0,0,0,0,0,0,0,0,0,0,0,0,0,0,0,0,0],"sum_hessian":[5.8432E4,5.4992E4,3.44E3,3.8463E4,1.6529E4,3.011E3,4.29E2,2.1002E4,1.7461E4,1.43E2,1.6386E4,1.741E3,1.27E3,3.99E2,3E1,1.2626E4,8.376E3,5.89E2,1.6872E4,1.25E2,1.8E1,1.1049E4,5.337E3,1.45E2,1.596E3,5.99E2,6.71E2,2.55E2,1.44E2,2.4E1,6E0,1.0875E4,1.751E3,1.152E3,7.224E3,4.1E1,5.48E2,1.2534E4,4.338E3,3.9E1,8.6E1,5E0,1.3E1,1.1E1,1.1038E4,1.222E3,4.115E3,1.2E1,1.33E2,1.15E2,1.481E3,1.57E2,4.42E2,6.59E2,1.2E1,1.34E2,1.21E2,5.9E1,8.5E1,1.17E3,9.705E3,8.55E2,8.96E2,1E1,1.142E3,6.118E3,1.106E3,3.1E1,1E1,5E0,5.43E2,3.988E3,8.546E3,1.789E3,2.549E3,1E1,2.9E1,6E1,2.6E1,7E0,6E0,6E0,5E0,2.5E1,1.1013E4,1.037E3,1.85E2,1.9E1,4.096E3,5E0,7E0,1.21E2,1.2E1,9.6E1,1.9E1,3.8E2,1.101E3,1.52E2,5E0,3.34E2,1.08E2,5.83E2,7.6E1,1.21E2,1.3E1,5.6E1,6.5E1,1.8E1,4.1E1,1.9E1,6.6E1],"tree_param":{"num_deleted":"0","num_feature":"104","num_nodes":"111","size_leaf_vector":"1"}},{"base_weights":[-6.1024335E-4,-2.8692457E-1,5.456115E-1,-2.4315605E-1,-3.7725347E-1,3.471097E-1,1.5057125E0,-2.4596456E-1,5.2246034E-1,-2.4669348E-1,-4.0180668E-1,2.918302E-1,4.5206228E-1,1.2973585E0,1.8884277E0,-1.8986283E-1,-2.762553E-1,4.779637E-1,-8.579899E-2,-5.737601E-1,-9.1456935E-2,-3.303411E-1,-4.5601454E-1,-4.4732544E-1,2.999281E-1,4.2702952E-1,9.779359E-1,9.924592E-1,1.3593467E0,1.6806849E0,2.1349E0,7.3919594E-1,-1.9489715E-1,-2.6810658E-1,-4.3472818E-1,-1.2919118E-1,1.3712876E-2,3.4762826E-2,-5.848473E-1,2.8452491E-3,-1.8660533E-1,-5.267839E-1,-2.2475845E-1,-3.2755214E-1,-5.409018E-1,6.587973E-2,-5.2197886E-1,2.320278E-1,3.2560432E-1,3.2875115E-1,4.5549303E-1,1.1230517E1,3.952179E-1,9.4466656E-1,1.9064506E0,1.2889594E0,1.5458857E0,1.5736355E0,2.0563245E0,1.9443108E0,2.4994774E0,5.4152976E-3,2.6212618E-1,3.3258773E-2,-9.892308E-3,7.532266E-3,-1.35806175E-2,-1.116543E-2,-2.238088E-2,-1.8422088E-2,-2.749279E-3,-2.9799541E-2,-8.488032E-3,1.3048894E-2,-7.944051E-4,-2.4950022E-3,-1.1391907E-2,-2.9528353E-2,-2.2787116E-2,-1.6962063E-2,-6.1337287E-3,-1.1037811E-2,-1.9121723E-2,-2.4031056E-2,-2.9637698E-2,-1.5626462E-2,1.6208902E-2,-4.400316E-3,-2.7861327E-2,6.690342E-3,1.4022722E-2,1.5356453E-2,2.2250699E-2,1.3633683E-2,2.532411E-2,2.99375E-2,2.1647519E-2,1.3281351E0,-1.19387135E-2,1.4393038E-2,3.8335502E-2,4.4987317E-2,7.727089E-2,7.1480826E-2,1.2257653E-1,6.0188323E-2,7.43611E-2,5.517481E-2,8.209967E-2,7.292212E-2,9.283954E-2,1.060312E-1,3.4907546E-2,1.3798721E-1,9.3309134E-2,1.14803016E-1,1.4653473E-1],"categories":[],"categories_nodes":[],"categories_segments":[],"categories_sizes":[],"default_left":[0,0,0,0,0,1,1,0,0,0,0,0,0,1,0,0,0,0,0,0,0,0,0,0,0,0,0,0,1,1,0,1,0,0,0,0,0,0,1,0,0,0,1,0,0,0,0,0,1,0,0,0,1,0,0,0,0,1,1,1,0,0,0,0,0,0,0,0,0,0,0,0,0,0,0,0,0,0,0,0,0,0,0,0,0,0,0,0,0,0,0,0,0,0,0,0,0,0,0,0,0,0,0,0,0,0,0,0,0,0,0,0,0,0,0,0,0],"id":1,"left_children":[1,3,5,7,9,11,13,15,17,19,21,23,25,27,29,31,33,-1,35,37,39,41,43,45,47,49,51,53,55,57,59,61,63,65,67,69,-1,-1,71,73,75,77,79,81,83,85,87,89,91,93,95,97,99,101,103,105,107,109,111,113,115,-1,-1,-1,-1,-1,-1,-1,-1,-1,-1,-1,-1,-1,-1,-1,-1,-1,-1,-1,-1,-1,-1,-1,-1,-1,-1,-1,-1,-1,-1,-1,-1,-1,-1,-1,-1,-1,-1,-1,-1,-1,-1,-1,-1,-1,-1,-1,-1,-1,-1,-1,-1,-1,-1,-1,-1],"loss_changes":[9.165928E3,1.5193481E2,3.8408433E3,5.5830444E1,4.0128906E1,9.678015E1,2.7289307E2,4.3809814E1,5.2300916E2,1.0093442E2,4.0762573E1,6.5640564E1,7.542041E1,4.096826E1,5.8623535E1,4.248651E1,2.1525146E1,0E0,1.4415588E0,9.411255E0,1.211368E1,9.4439545E1,6.5284424E1,4.5935783E0,1.8798767E1,1.5238525E1,1.5548705E3,1.488559E1,2.2403076E1,2.3464844E1,3.3495605E1,1.386463E2,2.2971558E1,2.3444458E1,2.1291351E0,1.4177932E0,0E0,0E0,2.8360443E0,3.287579E0,3.7765217E0,6.9491577E0,3.4633255E1,1.3929718E1,1.1008301E1,1.6651934E0,1.5417995E0,1.4108307E1,1.7187988E1,1.2210648E1,1.350769E1,2.4682324E3,9.670116E0,8.459351E0,1.1736832E0,2.1096436E1,1.96167E1,1.4285645E1,1.1094971E1,1.8230835E1,9.586304E0,0E0,0E0,0E0,0E0,0E0,0E0,0E0,0E0,0E0,0E0,0E0,0E0,0E0,0E0,0E0,0E0,0E0,0E0,0E0,0E0,0E0,0E0,0E0,0E0,0E0,0E0,0E0,0E0,0E0,0E0,0E0,0E0,0E0,0E0,0E0,0E0,0E0,0E0,0E0,0E0,0E0,0E0,0E0,0E0,0E0,0E0,0E0,0E0,0E0,0E0,0E0,0E0,0E0,0E0,0E0,0E0],"parents":[2147483647,0,0,1,1,2,2,3,3,4,4,5,5,6,6,7,7,8,8,9,9,10,10,11,11,12,12,13,13,14,14,15,15,16,16,18,18,19,19,20,20,21,21,22,22,23,23,24,24,25,25,26,26,27,27,28,28,29,29,30,30,31,31,32,32,33,33,34,34,35,35,38,38,39,39,40,40,41,41,42,42,43,43,44,44,45,45,46,46,47,47,48,48,49,49,50,50,51,51,52,52,53,53,54,54,55,55,56,56,57,57,58,58,59,59,60,60],"right_children":[2,4,6,8,10,12,14,16,18,20,22,24,26,28,30,32,34,-1,36,38,40,42,44,46,48,50,52,54,56,58,60,62,64,66,68,70,-1,-1,72,74,76,78,80,82,84,86,88,90,92,94,96,98,100,102,104,106,108,110,112,114,116,-1,-1,-1,-1,-1,-1,-1,-1,-1,-1,-1,-1,-1,-1,-1,-1,-1,-1,-1,-1,-1,-1,-1,-1,-1,-1,-1,-1,-1,-1,-1,-1,-1,-1,-1,-1,-1,-1,-1,-1,-1,-1,-1,-1,-1,-1,-1,-1,-1,-1,-1,-1,-1,-1,-1,-1],"split_conditions":[9.63E-1,8.985E-1,1E0,1E0,4.192E1,7.98E-1,5.556E-1,8.589E-1,4.668E-3,1E0,1E0,5.929E-1,2.35E1,8.63E-2,7.247E-1,2.1832546E-3,4.303127E1,4.779637E-1,2.9874025E1,3E1,4.308E1,6.287325E-5,-4.6625908E-5,3.505E1,6.771E-1,-4.450268E-4,2.36E1,2.7994952E-1,6.361735E-3,9.515344E-3,1E0,2.873455E0,1.951E1,3.164E1,1.44E2,-3.5677884E-2,1.3712876E-2,3.4762826E-2,-3.8410533E-5,2.531E1,-1.5886133E-3,4.648E1,5.166E1,4.69E1,9.161E-1,-1.6829021E-4,1.3868752E1,2.88E1,2.4E-1,1.9448517E-3,-8.7258E-3,1.4E1,4.349346E-3,1E0,5.919137E-1,4.222E-1,3.1329212E-1,5.865E1,2.7864546E1,3.019E1,6.207E1,5.4152976E-3,2.6212618E-1,3.3258773E-2,-9.892308E-3,7.532266E-3,-1.35806175E-2,-1.116543E-2,-2.238088E-2,-1.8422088E-2,-2.749279E-3,-2.9799541E-2,-8.488032E-3,1.3048894E-2,-7.944051E-4,-2.4950022E-3,-1.1391907E-2,-2.9528353E-2,-2.2787116E-2,-1.6962063E-2,-6.1337287E-3,-1.1037811E-2,-1.9121723E-2,-2.4031056E-2,-2.9637698E-2,-1.5626462E-2,1.6208902E-2,-4.400316E-3,-2.7861327E-2,6.690342E-3,1.4022722E-2,1.5356453E-2,2.2250699E-2,1.3633683E-2,2.532411E-2,2.99375E-2,2.1647519E-2,1.3281351E0,-1.19387135E-2,1.4393038E-2,3.8335502E-2,4.4987317E-2,7.727089E-2,7.1480826E-2,1.2257653E-1,6.0188323E-2,7.43611E-2,5.517481E-2,8.209967E-2,7.292212E-2,9.283954E-2,1.060312E-1,3.4907546E-2,1.3798721E-1,9.3309134E-2,1.14803016E-1,1.4653473E-1],"split_indices":[27,27,63,64,8,24,23,27,29,62,62,24,22,23,23,40,12,0,12,4,31,10,10,8,24,43,22,11,40,40,68,21,31,8,4,10,0,0,53,31,43,31,31,8,27,11,42,18,23,11,11,18,50,88,10,23,20,8,42,8,8,0,0,0,0,0,0,0,0,0,0,0,0,0,0,0,0,0,0,0,0,0,0,0,0,0,0,0,0,0,0,0,0,0,0,0,0,0,0,0,0,0,0,0,0,0,0,0,0,0,0,0,0,0,0,0,0],"split_type":[0,0,0,0,0,0,0,0,0,0,0,0,0,0,0,0,0,0,0,0,0,0,0,0,0,0,0,0,0,0,0,0,0,0,0,0,0,0,0,0,0,0,0,0,0,0,0,0,0,0,0,0,0,0,0,0,0,0,0,0,0,0,0,0,0,0,0,0,0,0,0,0,0,0,0,0,0,0,0,0,0,0,0,0,0,0,0,0,0,0,0,0,0,0,0,0,0,0,0,0,0,0,0,0,0,0,0,0,0,0,0,0,0,0,0,0,0],"sum_hessian":[5.8607E4,3.8452E4,2.0155E4,2.5904E4,1.2548E4,1.6703E4,3.452E3,2.581E4,9.4E1,1.988E3,1.056E4,1.0943E4,5.76E3,2.238E3,1.214E3,9.052E3,1.6758E4,5E0,8.9E1,6.39E2,1.349E3,4.558E3,6.002E3,1.18E2,1.0825E4,5.5E3,2.6E2,3.81E2,1.857E3,6.63E2,5.51E2,4.8E1,9.004E3,1.5941E4,8.17E2,8E1,9E0,5E0,6.34E2,6.78E2,6.71E2,1.592E3,2.966E3,2.39E3,3.612E3,1.5E1,1.03E2,2.973E3,7.852E3,1.238E3,4.262E3,1.3E1,2.47E2,3.64E2,1.7E1,1.354E3,5.03E2,5.2E2,1.43E2,3.66E2,1.85E2,4.3E1,5E0,3E1,8.974E3,1.32E2,1.5809E4,4.8E1,7.69E2,1.8E1,6.2E1,6.17E2,1.7E1,4.5E1,6.33E2,1.56E2,5.15E2,8.35E2,7.57E2,1.397E3,1.569E3,8.13E2,1.577E3,1.675E3,1.937E3,6E0,9E0,8E0,9.5E1,9.83E2,1.99E3,6.803E3,1.049E3,9.43E2,2.95E2,5.76E2,3.686E3,5E0,8E0,1.93E2,5.4E1,3.41E2,2.3E1,1.1E1,6E0,9.52E2,4.02E2,9.2E1,4.11E2,3.74E2,1.46E2,1.36E2,7E0,2.9E1,3.37E2,1.3E2,5.5E1],"tree_param":{"num_deleted":"0","num_feature":"104","num_nodes":"117","size_leaf_vector":"1"}},{"base_weights":[-2.7296196E-3,-2.717114E-1,5.1204807E-1,-3.4961727E-1,-1.7850697E-1,3.275753E-1,1.4128708E0,-3.0794194E-1,-4.9519125E-1,2.1025059E-1,-1.9224188E-1,1.6409682E0,3.1707886E-1,1.2664788E0,2.4023829E0,-2.2761308E-1,-3.4297806E-1,-5.086746E-1,-1.4672428E-1,1.2380214E-1,2.468001E0,-6.880184E-2,-2.2069885E-1,4.566949E-1,1.3217297E0,-4.2897996E-1,3.2365415E-1,1.1188986E0,1.4757613E0,2.1336758E0,3.1070266E0,-1.6495393E-1,-2.8226474E-1,-3.096588E-1,-4.1077426E-1,-4.6287805E-1,-6.0063386E-1,-3.6352433E-2,-3.8687462E-1,1.3069593E0,3.3237442E-2,4.1195303E-1,2.8597963E-1,-8.716451E-2,2.6888745E0,-2.4678342E-1,-7.851271E-2,-2.7020166E-2,5.282679E-1,-6.2795895E-1,-2.2412452E-1,2.7183595E-1,3.864044E-1,8.282835E-1,1.1616703E0,1.2416867E0,1.684039E0,1.3811334E0,2.257721E0,3.5869277E0,2.3224454E0,-1.0439988E-2,-4.1958382E-3,4.8625093E-2,-1.4274487E-2,-9.159662E-3,-1.6198998E-2,-1.9439137E-2,-2.4857275E-2,-2.0153519E-2,-2.5319805E-2,-2.5818292E-2,-3.1118566E-2,5.735345E-3,-1.8465823E-2,-6.4449306E-3,-2.4944646E-2,-4.8288624E-3,3.1540212E-1,5.956365E-3,-4.797584E-3,3.9706904E-2,4.0343814E-4,4.712955E-2,-4.752005E-3,-1.3236521E-3,4.740828E-1,-7.3037082E-3,-1.3996649E-2,-1.4655846E-2,-2.0781185E-3,8.030075E-2,2.2328464E-2,-6.0720267E-3,-3.399203E-2,7.926087E-3,-1.7155787E-2,1.0419983E-1,1.3479269E-2,2.5684936E-2,1.7516E-2,4.512435E-2,1.6381014E-2,4.7778126E-2,6.0624868E-2,7.4912235E-2,5.9169542E-2,1.4718226E-1,8.318313E-2,3.282389E-2,8.970221E-2,1.01312034E-1,1.3140975E-1,1.5185224E-1,2.3131864E-1,8.3218865E-2,1.6633801E-1],"categories":[],"categories_nodes":[],"categories_segments":[],"categories_sizes":[],"default_left":[0,1,0,0,0,0,1,0,1,0,0,0,0,1,0,0,1,0,0,1,1,0,1,0,0,1,0,0,0,0,0,0,0,0,0,1,1,0,1,0,0,0,0,0,0,0,0,0,0,0,0,0,0,0,0,0,0,0,1,0,1,0,0,0,0,0,0,0,0,0,0,0,0,0,0,0,0,0,0,0,0,0,0,0,0,0,0,0,0,0,0,0,0,0,0,0,0,0,0,0,0,0,0,0,0,0,0,0,0,0,0,0,0,0,0,0,0],"id":2,"left_children":[1,3,5,7,9,11,13,15,17,19,21,23,25,27,29,31,33,35,37,39,41,43,45,47,-1,49,51,53,55,57,59,61,63,65,67,69,71,73,75,77,79,-1,81,83,85,87,89,-1,91,93,95,97,99,101,103,105,107,109,111,113,115,-1,-1,-1,-1,-1,-1,-1,-1,-1,-1,-1,-1,-1,-1,-1,-1,-1,-1,-1,-1,-1,-1,-1,-1,-1,-1,-1,-1,-1,-1,-1,-1,-1,-1,-1,-1,-1,-1,-1,-1,-1,-1,-1,-1,-1,-1,-1,-1,-1,-1,-1,-1,-1,-1,-1,-1],"loss_changes":[8.1067593E3,2.791587E2,3.3385376E3,1.26917725E2,9.353589E1,2.2941602E2,4.9164258E2,4.575757E1,2.1820435E1,1.1641151E2,5.939563E1,3.8637678E3,8.131616E1,9.02959E1,7.649194E1,1.690094E1,2.5484253E1,1.8614502E1,4.6244583E0,6.178342E1,2.7468042E2,1.6075777E2,5.09552E1,9.348873E0,0E0,5.7697334E0,5.3234375E1,2.0790527E1,5.77771E1,2.6846802E1,3.6475708E1,8.183132E0,1.0968811E1,1.37161255E1,6.897278E0,7.6014404E0,2.4042358E0,6.128339E0,1.5250845E0,2.883965E2,5.9700007E0,0E0,2.3943791E0,2.5635864E1,3.87591E2,3.872876E1,1.6893936E1,0E0,9.760807E0,1.8358097E0,3.3781943E0,3.6094788E1,3.3888794E1,8.174744E0,1.4796143E1,6.9315186E0,1.1708618E1,1.3184731E1,1.8172241E1,2.7102783E1,2.6186554E1,0E0,0E0,0E0,0E0,0E0,0E0,0E0,0E0,0E0,0E0,0E0,0E0,0E0,0E0,0E0,0E0,0E0,0E0,0E0,0E0,0E0,0E0,0E0,0E0,0E0,0E0,0E0,0E0,0E0,0E0,0E0,0E0,0E0,0E0,0E0,0E0,0E0,0E0,0E0,0E0,0E0,0E0,0E0,0E0,0E0,0E0,0E0,0E0,0E0,0E0,0E0,0E0,0E0,0E0,0E0,0E0],"parents":[2147483647,0,0,1,1,2,2,3,3,4,4,5,5,6,6,7,7,8,8,9,9,10,10,11,11,12,12,13,13,14,14,15,15,16,16,17,17,18,18,19,19,20,20,21,21,22,22,23,23,25,25,26,26,27,27,28,28,29,29,30,30,31,31,32,32,33,33,34,34,35,35,36,36,37,37,38,38,39,39,40,40,42,42,43,43,44,44,45,45,46,46,48,48,49,49,50,50,51,51,52,52,53,53,54,54,55,55,56,56,57,57,58,58,59,59,60,60],"right_children":[2,4,6,8,10,12,14,16,18,20,22,24,26,28,30,32,34,36,38,40,42,44,46,48,-1,50,52,54,56,58,60,62,64,66,68,70,72,74,76,78,80,-1,82,84,86,88,90,-1,92,94,96,98,100,102,104,106,108,110,112,114,116,-1,-1,-1,-1,-1,-1,-1,-1,-1,-1,-1,-1,-1,-1,-1,-1,-1,-1,-1,-1,-1,-1,-1,-1,-1,-1,-1,-1,-1,-1,-1,-1,-1,-1,-1,-1,-1,-1,-1,-1,-1,-1,-1,-1,-1,-1,-1,-1,-1,-1,-1,-1,-1,-1,-1,-1],"split_conditions":[9.63E-1,0E0,1E0,9.054E-1,3.382E1,3.635E-1,1.4838E0,8.537E-1,2.6032E0,-3.051568E-4,8.589E-1,2.3E1,1E0,4.592E-1,1.984E0,2.3256783E1,2.5581987E1,9.277E-1,2.41E-3,1.951E1,2.845E1,1E0,6.166E1,6.515E-1,1.3217297E0,0E0,7.765E-1,5.441E-1,9.595E-1,3.316E-1,1.304E-1,1E0,2.435E1,1.3975E2,4.2014454E1,5.174E1,1.423182E1,9.434E-1,5.6964225E-1,-3.1629512E-3,4.242E1,4.1195303E-1,9.28E-4,2.1832546E-3,2.6022707E1,4.507E1,-9.319983E-5,-2.7020166E-2,3.265E1,1.3196154E1,3.904E1,9.879461E0,7.267E-1,1E0,9E-2,5.67E-2,4.671E-1,1.6375E0,1.55432005E1,2.6032E0,1.5124874E1,-1.0439988E-2,-4.1958382E-3,4.8625093E-2,-1.4274487E-2,-9.159662E-3,-1.6198998E-2,-1.9439137E-2,-2.4857275E-2,-2.0153519E-2,-2.5319805E-2,-2.5818292E-2,-3.1118566E-2,5.735345E-3,-1.8465823E-2,-6.4449306E-3,-2.4944646E-2,-4.8288624E-3,3.1540212E-1,5.956365E-3,-4.797584E-3,3.9706904E-2,4.0343814E-4,4.712955E-2,-4.752005E-3,-1.3236521E-3,4.740828E-1,-7.3037082E-3,-1.3996649E-2,-1.4655846E-2,-2.0781185E-3,8.030075E-2,2.2328464E-2,-6.0720267E-3,-3.399203E-2,7.926087E-3,-1.7155787E-2,1.0419983E-1,1.3479269E-2,2.5684936E-2,1.7516E-2,4.512435E-2,1.6381014E-2,4.7778126E-2,6.0624868E-2,7.4912235E-2,5.9169542E-2,1.4718226E-1,8.318313E-2,3.282389E-2,8.970221E-2,1.01312034E-1,1.3140975E-1,1.5185224E-1,2.3131864E-1,8.3218865E-2,1.6633801E-1],"split_indices":[27,28,63,27,8,26,26,27,26,9,27,22,65,23,26,12,12,27,30,31,41,64,41,24,0,28,24,26,26,23,24,76,17,17,12,8,42,27,20,9,31,0,30,40,12,8,53,0,17,12,8,52,26,80,23,25,23,26,32,26,32,0,0,0,0,0,0,0,0,0,0,0,0,0,0,0,0,0,0,0,0,0,0,0,0,0,0,0,0,0,0,0,0,0,0,0,0,0,0,0,0,0,0,0,0,0,0,0,0,0,0,0,0,0,0,0,0],"split_type":[0,0,0,0,0,0,0,0,0,0,0,0,0,0,0,0,0,0,0,0,0,0,0,0,0,0,0,0,0,0,0,0,0,0,0,0,0,0,0,0,0,0,0,0,0,0,0,0,0,0,0,0,0,0,0,0,0,0,0,0,0,0,0,0,0,0,0,0,0,0,0,0,0,0,0,0,0,0,0,0,0,0,0,0,0,0,0,0,0,0,0,0,0,0,0,0,0,0,0,0,0,0,0,0,0,0,0,0,0,0,0,0,0,0,0,0,0],"sum_hessian":[5.8545E4,3.8453E4,2.0092E4,2.0944E4,1.7509E4,1.6678E4,3.414E3,1.6285E4,4.659E3,5.97E2,1.6912E4,1.31E2,1.6547E4,2.976E3,4.38E2,4.948E3,1.1337E4,4.485E3,1.74E2,5.76E2,2.1E1,3.169E3,1.3743E4,1.26E2,5E0,1.44E2,1.6403E4,1.749E3,1.227E3,3.2E2,1.18E2,2.307E3,2.641E3,7.605E3,3.732E3,2.998E3,1.487E3,1.2E2,5.4E1,4E1,5.36E2,5E0,1.6E1,3.149E3,2E1,1.1612E4,2.131E3,8E0,1.18E2,7.2E1,7.2E1,8.987E3,7.416E3,2.27E2,1.522E3,5.81E2,6.46E2,4.7E1,2.73E2,7.1E1,4.7E1,1.496E3,8.11E2,6E0,2.635E3,7.75E2,6.83E3,2.979E3,7.53E2,1.267E3,1.731E3,3.1E2,1.177E3,8.3E1,3.7E1,1.7E1,3.7E1,3.2E1,8E0,3.22E2,2.14E2,5E0,1.1E1,2.3E1,3.126E3,1.5E1,5E0,2.877E3,8.735E3,3.12E2,1.819E3,7E0,1.11E2,7E0,6.5E1,1.7E1,5.5E1,1E1,8.977E3,1.635E3,5.781E3,1.97E2,3E1,3.05E2,1.217E3,1.03E2,4.78E2,8E0,6.38E2,1.8E1,2.9E1,1.72E2,1.01E2,4.9E1,2.2E1,3E1,1.7E1],"tree_param":{"num_deleted":"0","num_feature":"104","num_nodes":"117","size_leaf_vector":"1"}},{"base_weights":[-2.6795948E-3,-2.5659266E-1,4.828477E-1,-3.3069178E-1,-1.6812746E-1,1.2794849E0,3.0645987E-1,-2.8367764E-1,-4.4799516E-1,1.8563117E-1,-1.8035212E-1,-3.5370833E-1,1.3521206E0,3.999537E-1,2.787592E-1,-2.235871E-1,-3.1776643E-1,-3.8924357E-1,-5.036909E-1,1.9150738E-1,1.4767466E-1,-1.4814751E-1,-2.6994404E-1,8.1909016E-2,-4.3746668E-1,1.2152563E0,2.2225316E0,6.39206E-1,3.7318912E-1,3.3792764E-1,2.3697828E-1,-1.4306267E-1,-2.5474846E-1,-2.8419515E-1,-3.8764176E-1,3.2172176E-1,-3.9624557E-1,-5.1878285E-1,-1.9577599E-1,1.6067606E0,5.687796E-2,-1.5294E-1,8.9786947E-1,-3.0309382E-1,-1.062936E-1,-2.0348156E-2,3.2179457E-1,-5.666143E-1,-2.3670958E-1,1.0723304E0,1.417658E0,1.8360475E0,2.593248E0,5.6717765E-1,2.1826966E-1,4.2267272E-1,2.6151666E-1,4.323197E-1,3.036113E-1,2.0502347E-1,3.0680278E-1,-5.5748145E-3,-1.583707E-2,-8.363093E-3,-1.402429E-2,-8.320972E-3,-1.49022555E-2,-1.1263429E-2,-1.9877441E-2,-9.586084E-3,1.1609377E-1,-1.8600041E-2,-2.4679545E-2,-2.3937419E-2,-2.8454155E-2,-4.180714E-3,-1.9162042E-2,4.3813044E-1,-1.1979284E-2,1.8969247E-3,3.8828667E-2,-9.808553E-3,-4.8501873E-3,4.7071275E-1,-5.102859E-3,-7.504839E-3,-1.7929634E-2,-7.5556985E-3,5.9503787E-3,3.177224E-2,5.600786E-3,-3.0712878E-2,-6.390209E-3,-1.4763901E-2,1.3564478E-2,1.2973851E-1,5.306766E-2,6.1568547E-2,7.966276E-2,1.23621784E-1,8.253431E-2,1.15877174E-1,1.7700773E-1,1.2667139E-1,2.5284654E-2,9.147707E-3,2.2364587E-2,1.1903921E-3,1.482854E-2,8.4911466E-2,2.1282401E-2,1.4416844E-2,2.9608665E-2,1.458061E-2,9.03901E-3,3.0698393E-2,1.4436312E-2],"categories":[],"categories_nodes":[],"categories_segments":[],"categories_sizes":[],"default_left":[0,1,0,0,0,0,1,0,0,0,0,0,1,0,0,0,1,0,1,0,1,0,1,0,0,1,0,0,1,0,1,1,0,0,0,1,0,0,0,0,0,0,0,0,1,0,0,1,0,1,0,0,0,0,0,0,0,1,1,0,0,0,0,0,0,0,0,0,0,0,0,0,0,0,0,0,0,0,0,0,0,0,0,0,0,0,0,0,0,0,0,0,0,0,0,0,0,0,0,0,0,0,0,0,0,0,0,0,0,0,0,0,0,0,0,0,0],"id":3,"left_children":[1,3,5,7,9,11,13,15,17,19,21,23,25,27,29,31,33,35,37,-1,39,41,43,45,47,49,51,53,55,57,59,61,63,65,67,69,71,73,75,77,79,81,83,85,87,-1,89,91,93,95,97,99,101,103,-1,105,107,109,111,113,115,-1,-1,-1,-1,-1,-1,-1,-1,-1,-1,-1,-1,-1,-1,-1,-1,-1,-1,-1,-1,-1,-1,-1,-1,-1,-1,-1,-1,-1,-1,-1,-1,-1,-1,-1,-1,-1,-1,-1,-1,-1,-1,-1,-1,-1,-1,-1,-1,-1,-1,-1,-1,-1,-1,-1,-1],"loss_changes":[7.2195015E3,2.5200464E2,2.825266E3,1.1526709E2,7.583896E1,4.3287842E2,4.253015E1,3.0532104E1,1.9388184E1,8.04976E1,4.8848022E1,5.7277412E0,4.1305615E2,2.384491E1,3.1328125E1,1.3541138E1,2.2245361E1,1.4648804E1,1.4160217E1,0E0,7.687961E1,6.262973E1,2.4266266E1,3.1800659E0,3.262354E0,8.5785645E1,6.30083E1,9.8707504E1,1.8594849E1,1.6893982E1,1.6559753E1,8.254086E0,8.734589E0,1.0456909E1,4.8811646E0,3.022716E1,6.634796E0,5.617798E0,3.0167804E0,4.513133E2,7.4401317E0,2.9990631E1,4.863592E2,3.1567291E1,7.652134E0,0E0,1.1131694E0,1.5730972E0,1.6569996E0,2.6876343E1,3.879663E1,2.3639832E1,5.4190308E1,4.357055E1,0E0,1.3751587E1,8.675598E0,1.1092773E1,1.6833832E1,1.0682556E1,1.2798889E1,0E0,0E0,0E0,0E0,0E0,0E0,0E0,0E0,0E0,0E0,0E0,0E0,0E0,0E0,0E0,0E0,0E0,0E0,0E0,0E0,0E0,0E0,0E0,0E0,0E0,0E0,0E0,0E0,0E0,0E0,0E0,0E0,0E0,0E0,0E0,0E0,0E0,0E0,0E0,0E0,0E0,0E0,0E0,0E0,0E0,0E0,0E0,0E0,0E0,0E0,0E0,0E0,0E0,0E0,0E0,0E0],"parents":[2147483647,0,0,1,1,2,2,3,3,4,4,5,5,6,6,7,7,8,8,9,9,10,10,11,11,12,12,13,13,14,14,15,15,16,16,17,17,18,18,20,20,21,21,22,22,23,23,24,24,25,25,26,26,27,27,28,28,29,29,30,30,31,31,32,32,33,33,34,34,35,35,36,36,37,37,38,38,39,39,40,40,41,41,42,42,43,43,44,44,46,46,47,47,48,48,49,49,50,50,51,51,52,52,53,53,55,55,56,56,57,57,58,58,59,59,60,60],"right_children":[2,4,6,8,10,12,14,16,18,20,22,24,26,28,30,32,34,36,38,-1,40,42,44,46,48,50,52,54,56,58,60,62,64,66,68,70,72,74,76,78,80,82,84,86,88,-1,90,92,94,96,98,100,102,104,-1,106,108,110,112,114,116,-1,-1,-1,-1,-1,-1,-1,-1,-1,-1,-1,-1,-1,-1,-1,-1,-1,-1,-1,-1,-1,-1,-1,-1,-1,-1,-1,-1,-1,-1,-1,-1,-1,-1,-1,-1,-1,-1,-1,-1,-1,-1,-1,-1,-1,-1,-1,-1,-1,-1,-1,-1,-1,-1,-1,-1],"split_conditions":[9.63E-1,0E0,1E0,8.985E-1,3.382E1,1.279E-3,7.267E-1,8.566E-1,9.152E-1,7.766E-1,9.073E-1,3.904E1,1.4621E0,1.699E2,7.32E-2,3.326E-3,2.5581987E1,1.2592424E1,2.6032E0,1.9150738E-1,2.1832546E-3,1E0,6.322E1,1.125E-1,1E0,4.592E-1,6.818E-1,2.46E2,1.463E-1,1.062E-1,7.437508E1,6.532E1,1.8485882E1,1.3975E2,1.2475E2,2.8243663E0,3.282962E1,9.299E-1,6.224E1,9.16E-3,-1.3774665E-4,6.061E1,8.279E-1,4.507E1,1.7610441E0,-2.0348156E-2,8.3512924E1,6.2E2,1E0,1.6218255E-3,9.701E-1,1E0,2.1252E0,8.2797396E-1,2.1826966E-1,1.3524692E1,1.4158429E1,8.654071E0,4.91E3,7.455473E-3,4.916219E-1,-5.5748145E-3,-1.583707E-2,-8.363093E-3,-1.402429E-2,-8.320972E-3,-1.49022555E-2,-1.1263429E-2,-1.9877441E-2,-9.586084E-3,1.1609377E-1,-1.8600041E-2,-2.4679545E-2,-2.3937419E-2,-2.8454155E-2,-4.180714E-3,-1.9162042E-2,4.3813044E-1,-1.1979284E-2,1.8969247E-3,3.8828667E-2,-9.808553E-3,-4.8501873E-3,4.7071275E-1,-5.102859E-3,-7.504839E-3,-1.7929634E-2,-7.5556985E-3,5.9503787E-3,3.177224E-2,5.600786E-3,-3.0712878E-2,-6.390209E-3,-1.4763901E-2,1.3564478E-2,1.2973851E-1,5.306766E-2,6.1568547E-2,7.966276E-2,1.23621784E-1,8.253431E-2,1.15877174E-1,1.7700773E-1,1.2667139E-1,2.5284654E-2,9.147707E-3,2.2364587E-2,1.1903921E-3,1.482854E-2,8.4911466E-2,2.1282401E-2,1.4416844E-2,2.9608665E-2,1.458061E-2,9.03901E-3,3.0698393E-2,1.4436312E-2],"split_indices":[27,28,65,27,8,29,26,27,27,27,27,8,26,17,25,30,12,52,26,0,40,64,41,25,28,23,23,4,25,23,16,41,12,17,17,21,12,27,41,30,9,41,27,8,37,0,37,18,92,13,26,82,26,38,0,12,12,12,18,40,40,0,0,0,0,0,0,0,0,0,0,0,0,0,0,0,0,0,0,0,0,0,0,0,0,0,0,0,0,0,0,0,0,0,0,0,0,0,0,0,0,0,0,0,0,0,0,0,0,0,0,0,0,0,0,0,0],"split_type":[0,0,0,0,0,0,0,0,0,0,0,0,0,0,0,0,0,0,0,0,0,0,0,0,0,0,0,0,0,0,0,0,0,0,0,0,0,0,0,0,0,0,0,0,0,0,0,0,0,0,0,0,0,0,0,0,0,0,0,0,0,0,0,0,0,0,0,0,0,0,0,0,0,0,0,0,0,0,0,0,0,0,0,0,0,0,0,0,0,0,0,0,0,0,0,0,0,0,0,0,0,0,0,0,0,0,0,0,0,0,0,0,0,0,0,0,0],"sum_hessian":[5.8559E4,3.8451E4,2.0108E4,2.0923E4,1.7528E4,3.644E3,1.6464E4,1.4939E4,5.984E3,5.85E2,1.6943E4,1.55E2,3.489E3,3.76E3,1.2704E4,5.41E3,9.529E3,2.916E3,3.068E3,5E0,5.8E2,1.2465E4,4.478E3,2.5E1,1.3E2,3.017E3,4.72E2,3.76E2,3.384E3,5.255E3,7.449E3,1.511E3,3.899E3,6.44E3,3.089E3,2.8E1,2.888E3,2.924E3,1.44E2,3.3E1,5.47E2,1.2409E4,5.6E1,3.723E3,7.55E2,8E0,1.7E1,7.8E1,5.2E1,1.772E3,1.245E3,2.34E2,2.38E2,3.7E2,6E0,2.343E3,1.041E3,1.398E3,3.857E3,5.113E3,2.336E3,1.28E3,2.31E2,8.88E2,3.011E3,6.79E2,5.761E3,1.79E2,2.91E3,2.3E1,5E0,2.316E3,5.72E2,1.634E3,1.29E3,9.1E1,5.3E1,6E0,2.7E1,5.34E2,1.3E1,6.998E3,5.411E3,5E0,5.1E1,9.92E2,2.731E3,6.3E2,1.25E2,6E0,1.1E1,7E1,8E0,4.7E1,5E0,1.1E1,1.761E3,6.08E2,6.37E2,5E1,1.84E2,1.87E2,5.1E1,1E1,3.6E2,2.19E2,2.124E3,1.34E2,9.07E2,6E0,1.392E3,3.665E3,1.92E2,1.116E3,3.997E3,1.28E2,2.208E3],"tree_param":{"num_deleted":"0","num_feature":"104","num_nodes":"117","size_leaf_vector":"1"}},{"base_weights":[-3.0845555E-3,-2.4502233E-1,4.5992762E-1,-3.1398427E-1,-1.6281275E-1,2.8522485E-1,1.30425E0,-2.732346E-1,-4.377359E-1,-4.4037692E-2,-1.895196E-1,-3.8069215E-1,2.9173777E-1,1.0993876E0,1.6578375E0,-2.2345613E-1,-3.171647E-1,-3.952943E-1,-5.034062E-1,-6.0311317E-2,2.2262793E0,7.577325E-4,-2.0536293E-1,-5.5608517E-1,-1.8467805E-1,3.2274523E-1,2.2112629E-1,1.0255196E0,1.2473398E0,2.4167595E0,1.5432862E0,-2.8378797E-1,-1.9405797E-1,-3.011734E-1,-4.0062386E-1,-1.5967366E-1,-4.0807298E-1,-5.114763E-1,-2.4293877E-1,1.5193832E0,-7.270354E-2,4.576671E-1,-2.0642397E-1,-3.1034116E-2,1.0334882E0,-2.3380832E-1,-7.491666E-2,-5.8787876E-1,-5.891578E-3,-6.259486E-2,-4.9259E-1,3.7993988E-1,2.8315192E-1,-7.2375378E-3,2.3179014E-1,1.346104E0,9.758192E-1,1.5686213E0,1.1957289E0,3.01648E0,2.164626E0,1.8591522E0,1.448309E0,-1.5244888E-2,-4.44854E-3,-6.874808E-3,-1.1844779E-2,-1.745039E-2,-1.2624222E-2,-2.049636E-2,3.8159505E-2,-1.739133E-2,1.636054E-3,-1.9006511E-2,-2.365749E-2,-1.4736629E-2,-2.6012568E-2,-2.1728012E-3,-2.0590385E-2,-1.1287058E-2,3.0195472E-1,-3.929875E-3,3.5305865E-2,-8.954135E-4,-1.9647492E-2,1.1383834E-3,-7.933673E-3,3.8359806E-1,-2.1297606E-2,-7.553705E-3,-1.341877E-2,-1.5065136E-2,-2.2549496E-3,-3.0544369E-2,-1.0306302E-2,-6.6256993E-3,1.9111201E-2,-3.2739848E-2,-2.5730657E-3,1.6244031E-2,2.1537697E-2,1.05893515E-1,1.4006585E-2,2.0984404E-2,-4.651807E-3,9.628162E-3,1.4682817E-2,7.638258E-2,3.9634716E-2,4.83686E-2,1.2984778E-1,1.5848833E-1,6.740738E-2,1.1509377E-1,5.8977675E-2,8.190537E-2,1.7014399E-1,6.455212E-2,1.16932414E-1,8.846011E-2,1.404808E-1,6.404121E-2,7.7023625E-2],"categories":[],"categories_nodes":[],"categories_segments":[],"categories_sizes":[],"default_left":[0,1,0,0,0,0,1,0,0,0,0,1,1,1,0,1,1,0,0,0,1,0,1,1,0,0,0,0,0,0,0,1,0,1,0,0,1,0,0,0,0,0,0,0,0,0,0,0,0,0,1,0,0,0,1,0,0,0,0,1,0,0,0,0,0,0,0,0,0,0,0,0,0,0,0,0,0,0,0,0,0,0,0,0,0,0,0,0,0,0,0,0,0,0,0,0,0,0,0,0,0,0,0,0,0,0,0,0,0,0,0,0,0,0,0,0,0,0,0,0,0,0,0],"id":4,"left_children":[1,3,5,7,9,11,13,15,17,19,21,23,25,27,29,31,33,35,37,39,41,43,45,47,49,51,53,55,57,59,61,63,65,67,69,71,73,75,77,79,81,-1,83,85,87,89,91,93,-1,95,97,99,101,103,105,107,109,111,113,115,117,119,121,-1,-1,-1,-1,-1,-1,-1,-1,-1,-1,-1,-1,-1,-1,-1,-1,-1,-1,-1,-1,-1,-1,-1,-1,-1,-1,-1,-1,-1,-1,-1,-1,-1,-1,-1,-1,-1,-1,-1,-1,-1,-1,-1,-1,-1,-1,-1,-1,-1,-1,-1,-1,-1,-1,-1,-1,-1,-1,-1,-1],"loss_changes":[6.5707656E3,2.1836572E2,2.969061E3,1.0552783E2,5.574774E1,7.245752E1,2.4815625E2,3.439917E1,1.4260742E1,1.193969E2,4.326007E1,5.4667835E0,3.6098877E1,2.2633057E1,1.0615698E2,1.3057495E1,1.1051392E1,9.437317E0,4.149048E0,6.287088E1,3.894737E2,3.6279053E1,4.913672E1,1.1150894E0,2.9012542E0,2.5882446E1,1.2285004E1,2.2028564E1,1.0129517E1,1.826886E1,3.0337402E1,9.925247E0,1.2019287E1,1.628247E1,1.4853943E1,5.9481225E0,5.262665E0,3.595398E0,2.10435E0,1.9854971E2,1.4661938E1,0E0,6.25898E-1,7.365277E0,3.229869E2,3.1060608E1,1.6004883E1,5.6798744E-1,0E0,1.8234267E0,1.540494E0,1.2987305E1,3.7009705E1,8.317341E0,1.1638306E1,1.8280243E1,1.4906738E1,2.9968704E1,8.521179E0,1.8925415E1,1.5071472E1,1.6488281E1,1.1163086E1,0E0,0E0,0E0,0E0,0E0,0E0,0E0,0E0,0E0,0E0,0E0,0E0,0E0,0E0,0E0,0E0,0E0,0E0,0E0,0E0,0E0,0E0,0E0,0E0,0E0,0E0,0E0,0E0,0E0,0E0,0E0,0E0,0E0,0E0,0E0,0E0,0E0,0E0,0E0,0E0,0E0,0E0,0E0,0E0,0E0,0E0,0E0,0E0,0E0,0E0,0E0,0E0,0E0,0E0,0E0,0E0,0E0,0E0,0E0,0E0],"parents":[2147483647,0,0,1,1,2,2,3,3,4,4,5,5,6,6,7,7,8,8,9,9,10,10,11,11,12,12,13,13,14,14,15,15,16,16,17,17,18,18,19,19,20,20,21,21,22,22,23,23,24,24,25,25,26,26,27,27,28,28,29,29,30,30,31,31,32,32,33,33,34,34,35,35,36,36,37,37,38,38,39,39,40,40,42,42,43,43,44,44,45,45,46,46,47,47,49,49,50,50,51,51,52,52,53,53,54,54,55,55,56,56,57,57,58,58,59,59,60,60,61,61,62,62],"right_children":[2,4,6,8,10,12,14,16,18,20,22,24,26,28,30,32,34,36,38,40,42,44,46,48,50,52,54,56,58,60,62,64,66,68,70,72,74,76,78,80,82,-1,84,86,88,90,92,94,-1,96,98,100,102,104,106,108,110,112,114,116,118,120,122,-1,-1,-1,-1,-1,-1,-1,-1,-1,-1,-1,-1,-1,-1,-1,-1,-1,-1,-1,-1,-1,-1,-1,-1,-1,-1,-1,-1,-1,-1,-1,-1,-1,-1,-1,-1,-1,-1,-1,-1,-1,-1,-1,-1,-1,-1,-1,-1,-1,-1,-1,-1,-1,-1,-1,-1,-1,-1,-1,-1],"split_conditions":[9.63E-1,0E0,1E0,9.023E-1,8.589E-1,1E0,5.395E-1,8.654E-1,9.233E-1,1E0,3.757E1,0E0,1.478E-1,3.636E-1,1E0,-5.017251E-4,6.061E1,5.46E-4,3.8633167E2,2.1832546E-3,5.58E1,3.90112E2,6.025E1,6.2E2,3.7166634E1,1.207E-1,3.284E1,2.0856508E1,2.9E0,5.56E-2,2.8542759E1,5.266E1,5.975E1,3.933E1,1E0,7.828397E1,5.993E1,4.16E-4,9.335E-1,1.56E1,7.105E1,4.576671E-1,9.75E1,1.090402E-4,3.644E-3,4.724E1,-2.1056751E-4,9.124E-1,-5.891578E-3,1E0,1.565406E0,2.288749E1,9.879461E0,8.999353E-1,9.2E1,3.2332505E-3,6.8707933E0,1E0,-1.7333858E-1,-8.57629E-3,7E1,1E0,6.561E-1,-1.5244888E-2,-4.44854E-3,-6.874808E-3,-1.1844779E-2,-1.745039E-2,-1.2624222E-2,-2.049636E-2,3.8159505E-2,-1.739133E-2,1.636054E-3,-1.9006511E-2,-2.365749E-2,-1.4736629E-2,-2.6012568E-2,-2.1728012E-3,-2.0590385E-2,-1.1287058E-2,3.0195472E-1,-3.929875E-3,3.5305865E-2,-8.954135E-4,-1.9647492E-2,1.1383834E-3,-7.933673E-3,3.8359806E-1,-2.1297606E-2,-7.553705E-3,-1.341877E-2,-1.5065136E-2,-2.2549496E-3,-3.0544369E-2,-1.0306302E-2,-6.6256993E-3,1.9111201E-2,-3.2739848E-2,-2.5730657E-3,1.6244031E-2,2.1537697E-2,1.05893515E-1,1.4006585E-2,2.0984404E-2,-4.651807E-3,9.628162E-3,1.4682817E-2,7.638258E-2,3.9634716E-2,4.83686E-2,1.2984778E-1,1.5848833E-1,6.740738E-2,1.1509377E-1,5.8977675E-2,8.190537E-2,1.7014399E-1,6.455212E-2,1.16932414E-1,8.846011E-2,1.404808E-1,6.404121E-2,7.7023625E-2],"split_indices":[27,28,63,27,27,65,23,27,27,64,8,28,25,23,82,10,41,29,7,40,18,34,41,18,42,23,8,32,22,25,32,8,41,41,74,37,8,29,27,22,8,0,19,33,29,8,53,23,0,87,35,32,52,7,19,10,10,82,33,9,19,78,23,0,0,0,0,0,0,0,0,0,0,0,0,0,0,0,0,0,0,0,0,0,0,0,0,0,0,0,0,0,0,0,0,0,0,0,0,0,0,0,0,0,0,0,0,0,0,0,0,0,0,0,0,0,0,0,0,0,0,0,0],"split_type":[0,0,0,0,0,0,0,0,0,0,0,0,0,0,0,0,0,0,0,0,0,0,0,0,0,0,0,0,0,0,0,0,0,0,0,0,0,0,0,0,0,0,0,0,0,0,0,0,0,0,0,0,0,0,0,0,0,0,0,0,0,0,0,0,0,0,0,0,0,0,0,0,0,0,0,0,0,0,0,0,0,0,0,0,0,0,0,0,0,0,0,0,0,0,0,0,0,0,0,0,0,0,0,0,0,0,0,0,0,0,0,0,0,0,0,0,0,0,0,0,0,0,0],"sum_hessian":[5.8655E4,3.8525E4,2.013E4,2.0949E4,1.7576E4,1.668E4,3.45E3,1.5762E4,5.187E3,3.227E3,1.4349E4,1.61E2,1.6519E4,2.187E3,1.263E3,7.392E3,8.37E3,3.155E3,2.032E3,3.205E3,2.2E1,1.103E3,1.3246E4,8.4E1,7.7E1,1.1476E4,5.043E3,1.464E3,7.23E2,1.63E2,1.1E3,2.419E3,4.973E3,7.028E3,1.342E3,1.63E2,2.992E3,1.97E3,6.2E1,2.4E1,3.181E3,5E0,1.7E1,1.071E3,3.2E1,1.0874E4,2.372E3,7.8E1,6E0,5.6E1,2.1E1,4.691E3,6.785E3,2.25E2,4.818E3,1.93E2,1.271E3,9.6E1,6.27E2,4.5E1,1.18E2,2.5E2,8.5E2,2.182E3,2.37E2,2.145E3,2.828E3,3.542E3,3.486E3,1.332E3,1E1,8.2E1,8.1E1,2.098E3,8.94E2,7.8E1,1.892E3,2.9E1,3.3E1,1.8E1,6E0,3.158E3,2.3E1,9E0,8E0,7.54E2,3.17E2,5E0,2.7E1,3.206E3,7.668E3,2.75E2,2.097E3,7.3E1,5E0,4.9E1,7E0,1.5E1,6E0,2.255E3,2.436E3,1E1,6.775E3,3.7E1,1.88E2,2.951E3,1.867E3,1.44E2,4.9E1,1.266E3,5E0,1E1,8.6E1,7E0,6.2E2,1.1E1,3.4E1,2.1E1,9.7E1,2.31E2,1.9E1,3.07E2,5.43E2],"tree_param":{"num_deleted":"0","num_feature":"104","num_nodes":"123","size_leaf_vector":"1"}},{"base_weights":[1.2830459E-3,-2.3036076E-1,4.4437554E-1,-2.9679015E-1,-1.5133837E-1,1.216197E0,2.9616496E-1,-2.4244061E-1,-3.88219E-1,1.880322E-1,-1.6288096E-1,1.0512532E0,1.7772365E0,1.5544711E0,2.848525E-1,-1.4950308E-1,-2.603611E-1,-3.4220967E-1,-4.5898324E-1,1.04189724E-1,2.7906764E0,-3.9831333E-2,-1.9067352E-1,-4.0301743E-1,1.079236E0,-2.756161E-1,1.9504834E0,5.459572E-1,1.2833905E0,6.7198664E-1,2.7643302E-1,-1.5422958E-1,5.7251495E-1,-2.3976012E-1,-3.4233838E-1,-3.0893677E-1,-3.964214E-1,-4.7147045E-1,-1.8025084E-1,3.8807336E-2,1.3022802E0,4.0445915E-1,1.3054413E-1,-5.6060355E-2,2.3655064E0,-2.1311931E-1,-8.3047286E-2,6.68629E-2,-5.4451865E-1,9.377648E-1,1.2470039E0,8.127618E-3,-3.5941344E-1,1.6779577E0,2.5785587E0,7.961859E-1,5.4598942E-2,-3.4292686E-1,8.356262E-1,3.716011E-1,2.521324E-1,-9.2738625E-3,-3.3470858E-3,-5.1997965E-3,4.799547E-2,-8.766879E-3,-1.298432E-2,-1.4500776E-2,-1.916706E-2,-1.1455421E-2,-1.705092E-2,-2.0188116E-2,-2.347742E-3,-2.1739012E-2,-2.587573E-2,-4.6987464E-3,-2.0956919E-2,7.6527166E-4,9.013105E-2,3.664043E-1,-1.2921649E-2,2.1127036E-2,-9.005081E-3,-3.106539E-3,7.5814925E-2,4.5179302E-1,-1.4186005E-2,-6.0640755E-3,-1.2188562E-2,-1.43747125E-2,-2.5780727E-3,1.7212545E-2,-9.022505E-3,-1.4714832E-2,-2.9172767E-2,5.8021493E-2,4.368063E-2,4.8177417E-2,6.681213E-2,-3.122037E-3,-2.3820926E-2,5.4836053E-2,8.828991E-2,1.10535674E-1,1.5526524E-1,2.4747549E-2,6.422477E-2,4.79664E-2,-3.3622452E-3,-2.1514988E-2,1.847621E-2,3.9659157E-2,1.0063102E-1,1.1746574E-2,2.0874219E-2,1.5142796E-2,1.075406E-2],"categories":[],"categories_nodes":[],"categories_segments":[],"categories_sizes":[],"default_left":[0,1,0,0,0,0,0,0,0,0,0,0,0,0,0,1,1,0,1,0,1,0,1,0,0,0,0,0,0,0,0,0,1,0,0,0,1,0,0,0,0,0,0,0,0,0,0,0,0,0,0,0,0,0,1,0,0,0,1,0,1,0,0,0,0,0,0,0,0,0,0,0,0,0,0,0,0,0,0,0,0,0,0,0,0,0,0,0,0,0,0,0,0,0,0,0,0,0,0,0,0,0,0,0,0,0,0,0,0,0,0,0,0,0,0,0,0],"id":5,"left_children":[1,3,5,7,9,11,13,15,17,19,21,23,25,27,29,31,33,35,37,39,41,43,45,47,49,51,53,55,-1,57,59,61,63,65,67,69,71,73,75,77,79,-1,81,83,85,87,89,91,93,95,97,-1,99,101,103,105,107,109,111,113,115,-1,-1,-1,-1,-1,-1,-1,-1,-1,-1,-1,-1,-1,-1,-1,-1,-1,-1,-1,-1,-1,-1,-1,-1,-1,-1,-1,-1,-1,-1,-1,-1,-1,-1,-1,-1,-1,-1,-1,-1,-1,-1,-1,-1,-1,-1,-1,-1,-1,-1,-1,-1,-1,-1,-1,-1],"loss_changes":[6.008114E3,2.0174243E2,2.2984634E3,1.0367578E2,6.880914E1,2.976831E2,2.3955103E2,2.1778992E1,2.5186157E1,1.2583584E2,5.8065125E1,1.02333984E2,2.615852E2,3.6337822E3,5.4283203E1,7.3230553E0,1.8462769E1,8.393188E0,1.0579529E1,4.3894844E1,2.5264917E2,1.22316185E2,3.3445343E1,3.2278638E0,5.7145996E1,2.1880288E0,1.1155322E2,1.7784557E1,0E0,5.924495E1,3.773413E1,5.734516E0,3.7688994E0,1.122406E1,4.6151123E0,7.4256287E0,4.578247E0,4.7282104E0,2.7017736E0,2.2066847E1,2.7462592E2,0E0,1.2552977E0,2.9778805E1,3.7366052E2,3.2233215E1,1.5382919E1,8.853401E-1,1.8877411E-1,1.8084473E1,2.7068481E1,0E0,1.6728706E0,2.2314941E1,3.2468506E1,1.3485447E1,5.576293E0,3.271451E0,1.3689896E1,2.0752502E1,2.442871E1,0E0,0E0,0E0,0E0,0E0,0E0,0E0,0E0,0E0,0E0,0E0,0E0,0E0,0E0,0E0,0E0,0E0,0E0,0E0,0E0,0E0,0E0,0E0,0E0,0E0,0E0,0E0,0E0,0E0,0E0,0E0,0E0,0E0,0E0,0E0,0E0,0E0,0E0,0E0,0E0,0E0,0E0,0E0,0E0,0E0,0E0,0E0,0E0,0E0,0E0,0E0,0E0,0E0,0E0,0E0,0E0],"parents":[2147483647,0,0,1,1,2,2,3,3,4,4,5,5,6,6,7,7,8,8,9,9,10,10,11,11,12,12,13,13,14,14,15,15,16,16,17,17,18,18,19,19,20,20,21,21,22,22,23,23,24,24,25,25,26,26,27,27,29,29,30,30,31,31,32,32,33,33,34,34,35,35,36,36,37,37,38,38,39,39,40,40,42,42,43,43,44,44,45,45,46,46,47,47,48,48,49,49,50,50,52,52,53,53,54,54,55,55,56,56,57,57,58,58,59,59,60,60],"right_children":[2,4,6,8,10,12,14,16,18,20,22,24,26,28,30,32,34,36,38,40,42,44,46,48,50,52,54,56,-1,58,60,62,64,66,68,70,72,74,76,78,80,-1,82,84,86,88,90,92,94,96,98,-1,100,102,104,106,108,110,112,114,116,-1,-1,-1,-1,-1,-1,-1,-1,-1,-1,-1,-1,-1,-1,-1,-1,-1,-1,-1,-1,-1,-1,-1,-1,-1,-1,-1,-1,-1,-1,-1,-1,-1,-1,-1,-1,-1,-1,-1,-1,-1,-1,-1,-1,-1,-1,-1,-1,-1,-1,-1,-1,-1,-1,-1,-1],"split_conditions":[9.63E-1,0E0,5.976E-1,8.9E-1,3.382E1,1.3202E0,3.635E-1,8.255E-1,9.152E-1,-3.2402488E-4,8.589E-1,1.401E-3,2.4915E2,2.35E1,1E0,2.6032E0,3.1862385E1,2.4736994E1,2.6032E0,1.5252E2,3.02E1,1E0,6.025E1,1E0,9.001E-1,1.6059347E1,1.8223E0,6.515504E-2,1.2833905E0,1.194E-3,7.267E-1,1E0,1.9693548E1,9.27E-4,6.742E-3,3.08E2,2.6032E0,9.299E-1,4.4742092E1,9.398E-1,8.288E3,4.0445915E-1,1.4147644E0,3.5613E0,7.4502467E-3,4.493E1,-1.7609293E-4,1.101E0,1.4428516E1,1.569E-1,2.745E-1,8.127618E-3,-5.6938326E-4,2.917E-1,1.55432005E1,2.3256783E1,-3.8912612E-1,4.963714E-4,1.588E0,7.105E-1,7.32E-2,-9.2738625E-3,-3.3470858E-3,-5.1997965E-3,4.799547E-2,-8.766879E-3,-1.298432E-2,-1.4500776E-2,-1.916706E-2,-1.1455421E-2,-1.705092E-2,-2.0188116E-2,-2.347742E-3,-2.1739012E-2,-2.587573E-2,-4.6987464E-3,-2.0956919E-2,7.6527166E-4,9.013105E-2,3.664043E-1,-1.2921649E-2,2.1127036E-2,-9.005081E-3,-3.106539E-3,7.5814925E-2,4.5179302E-1,-1.4186005E-2,-6.0640755E-3,-1.2188562E-2,-1.43747125E-2,-2.5780727E-3,1.7212545E-2,-9.022505E-3,-1.4714832E-2,-2.9172767E-2,5.8021493E-2,4.368063E-2,4.8177417E-2,6.681213E-2,-3.122037E-3,-2.3820926E-2,5.4836053E-2,8.828991E-2,1.10535674E-1,1.5526524E-1,2.4747549E-2,6.422477E-2,4.79664E-2,-3.3622452E-3,-2.1514988E-2,1.847621E-2,3.9659157E-2,1.0063102E-1,1.1746574E-2,2.0874219E-2,1.5142796E-2,1.075406E-2],"split_indices":[27,28,24,27,8,26,26,27,27,9,27,29,17,22,65,26,12,12,26,34,41,64,41,69,26,42,26,13,0,29,26,75,32,29,30,17,26,27,42,23,4,0,36,26,13,8,53,2,32,25,23,0,10,23,32,12,10,11,26,24,25,0,0,0,0,0,0,0,0,0,0,0,0,0,0,0,0,0,0,0,0,0,0,0,0,0,0,0,0,0,0,0,0,0,0,0,0,0,0,0,0,0,0,0,0,0,0,0,0,0,0,0,0,0,0,0,0],"split_type":[0,0,0,0,0,0,0,0,0,0,0,0,0,0,0,0,0,0,0,0,0,0,0,0,0,0,0,0,0,0,0,0,0,0,0,0,0,0,0,0,0,0,0,0,0,0,0,0,0,0,0,0,0,0,0,0,0,0,0,0,0,0,0,0,0,0,0,0,0,0,0,0,0,0,0,0,0,0,0,0,0,0,0,0,0,0,0,0,0,0,0,0,0,0,0,0,0,0,0,0,0,0,0,0,0,0,0,0,0,0,0,0,0,0,0,0,0],"sum_hessian":[5.8534E4,3.8439E4,2.0095E4,2.0882E4,1.7557E4,3.236E3,1.6859E4,1.3099E4,7.783E3,5.77E2,1.698E4,2.503E3,7.33E2,1.49E2,1.671E4,2.119E3,1.098E4,4.72E3,3.063E3,5.6E2,1.7E1,3.129E3,1.3851E4,4.7E1,2.456E3,5.7E1,6.76E2,1.44E2,5E0,3.54E2,1.6356E4,2.106E3,1.3E1,8.778E3,2.202E3,2.929E3,1.791E3,2.931E3,1.32E2,5.32E2,2.8E1,5E0,1.2E1,3.109E3,2E1,1.146E4,2.391E3,1.1E1,3.6E1,1.336E3,1.12E3,9E0,4.8E1,4.74E2,2.02E2,9.5E1,4.9E1,4.9E1,3.05E2,3.324E3,1.3032E4,1.55E3,5.56E2,5E0,8E0,2.076E3,6.702E3,9.71E2,1.231E3,8.42E2,2.087E3,1.754E3,3.7E1,1.637E3,1.294E3,9.8E1,3.4E1,5.26E2,6E0,5E0,2.3E1,6E0,6E0,3.098E3,1.1E1,5E0,1.5E1,2.869E3,8.591E3,3.18E2,2.073E3,5E0,6E0,6E0,3E1,2.95E2,1.041E3,2.71E2,8.49E2,1.4E1,3.4E1,6.4E1,4.1E2,1.22E2,8E1,6E1,3.5E1,5E0,4.4E1,4.4E1,5E0,2.96E2,9E0,8.37E2,2.487E3,5.498E3,7.534E3],"tree_param":{"num_deleted":"0","num_feature":"104","num_nodes":"117","size_leaf_vector":"1"}},{"base_weights":[2.4295822E-3,-2.2009185E-1,4.288669E-1,-1.72246E-1,-2.7649346E-1,1.0971878E0,2.8358546E-1,-1.7487822E-1,1.2695546E0,-2.5639713E-1,-3.797067E-1,-2.9380274E-1,1.1568525E0,1.473808E0,2.7373034E-1,-1.7755876E-1,6.1952853E-1,2.8806782E-1,4.143921E-1,-1.865576E-1,-2.7574626E-1,-2.0495653E-1,-3.987366E-1,1.2975256E-1,-3.8513216E-1,1.0398145E0,2.0290356E0,4.3548295E-1,8.951392E-1,1.9820064E-1,3.0974236E-1,-1.8400228E-1,5.9493802E-2,4.4463593E-1,-1.5368174E-1,2.4058042E-1,4.2557944E-2,-5.9348054E-2,-4.3367982E-1,-2.0497823E-1,-3.332971E-1,-4.549533E-1,-7.8879416E-2,-4.1196558E-1,-1.36977E-1,3.610364E-1,-2.3233807E-2,-1.7387643E-1,-4.93868E-1,9.077231E-1,1.2274867E0,1.7912486E0,2.5723433E0,8.1410265E-1,1.5707031E-1,1.481407E-1,2.579444E-1,3.996131E-1,2.855874E-1,-8.402098E-3,-1.2863906E-2,1.0671141E-1,1.6294286E-3,-2.7924826E-2,-3.496229E-3,1.776419E-2,-9.093045E-3,-3.5025254E-3,1.5757773E-2,1.0520472E-2,-2.2327075E-2,-1.3242072E-2,-2.3034934E-3,-1.17792515E-2,-1.962256E-2,-1.1717633E-2,-2.6108405E-2,2.7739562E-3,-1.2454378E-2,-2.2019612E-2,-1.4294258E-2,-2.0151913E-2,-1.7134578E-3,3.0663678E-2,1.0456475E-2,-2.1095023E-2,-5.6366425E-4,-2.6875883E-2,-1.2484842E-2,9.900889E-2,4.4782516E-2,5.1525593E-2,6.949873E-2,7.7845E-2,1.0861503E-1,1.01036966E-1,1.5882567E-1,3.0866107E-2,1.1427299E-1,-2.9039178E-2,1.5341635E-2,2.7550444E-2,6.715768E-3,1.36914505E-2,-1.2156763E-3,2.937307E-2,1.8600862E-2,4.288229E-2,1.4082873E-2],"categories":[],"categories_nodes":[],"categories_segments":[],"categories_sizes":[],"default_left":[0,0,0,1,0,0,0,0,0,0,1,0,1,0,0,1,1,0,1,0,0,0,0,0,0,1,0,0,0,0,0,0,0,0,0,1,0,0,0,1,0,0,0,0,1,0,0,1,0,1,0,1,0,0,0,0,1,0,0,0,0,0,0,0,0,0,0,0,0,0,0,0,0,0,0,0,0,0,0,0,0,0,0,0,0,0,0,0,0,0,0,0,0,0,0,0,0,0,0,0,0,0,0,0,0,0,0,0,0],"id":6,"left_children":[1,3,5,7,9,11,13,15,17,19,21,23,25,27,29,31,33,-1,35,37,39,41,43,45,47,49,51,53,-1,55,57,59,61,-1,63,65,-1,67,69,71,73,75,77,79,81,83,-1,85,87,89,91,93,95,97,99,101,103,105,107,-1,-1,-1,-1,-1,-1,-1,-1,-1,-1,-1,-1,-1,-1,-1,-1,-1,-1,-1,-1,-1,-1,-1,-1,-1,-1,-1,-1,-1,-1,-1,-1,-1,-1,-1,-1,-1,-1,-1,-1,-1,-1,-1,-1,-1,-1,-1,-1,-1,-1],"loss_changes":[5.547258E3,1.03615845E2,1.9459504E3,7.910803E1,3.6468994E1,2.9737207E2,1.9275085E2,4.42937E1,1.4357893E2,1.9892883E1,9.465729E0,5.7750664E0,3.4822363E2,2.2951172E3,4.4364014E1,3.1598633E1,4.4915073E2,0E0,2.3004289E0,1.0072763E2,4.699243E1,8.915473E0,8.905304E0,3.8797722E0,2.7165985E0,7.394946E1,4.771472E1,1.3364931E1,0E0,1.5741089E1,2.389087E1,2.350238E1,3.0520475E1,0E0,2.1648464E0,1.2759985E0,0E0,8.50724E0,9.115311E0,4.9311493E1,3.673236E1,1.286253E0,4.358914E0,8.70163E0,3.4293375E0,6.3807774E-1,0E0,1.7294116E0,7.1842194E-1,2.128601E1,3.8511353E1,2.2068115E1,3.3905823E1,1.4223991E1,8.465909E0,1.592799E1,1.0785126E1,1.1911682E1,1.9360046E1,0E0,0E0,0E0,0E0,0E0,0E0,0E0,0E0,0E0,0E0,0E0,0E0,0E0,0E0,0E0,0E0,0E0,0E0,0E0,0E0,0E0,0E0,0E0,0E0,0E0,0E0,0E0,0E0,0E0,0E0,0E0,0E0,0E0,0E0,0E0,0E0,0E0,0E0,0E0,0E0,0E0,0E0,0E0,0E0,0E0,0E0,0E0,0E0,0E0,0E0],"parents":[2147483647,0,0,1,1,2,2,3,3,4,4,5,5,6,6,7,7,8,8,9,9,10,10,11,11,12,12,13,13,14,14,15,15,16,16,18,18,19,19,20,20,21,21,22,22,23,23,24,24,25,25,26,26,27,27,29,29,30,30,31,31,32,32,34,34,35,35,37,37,38,38,39,39,40,40,41,41,42,42,43,43,44,44,45,45,47,47,48,48,49,49,50,50,51,51,52,52,53,53,54,54,55,55,56,56,57,57,58,58],"right_children":[2,4,6,8,10,12,14,16,18,20,22,24,26,28,30,32,34,-1,36,38,40,42,44,46,48,50,52,54,-1,56,58,60,62,-1,64,66,-1,68,70,72,74,76,78,80,82,84,-1,86,88,90,92,94,96,98,100,102,104,106,108,-1,-1,-1,-1,-1,-1,-1,-1,-1,-1,-1,-1,-1,-1,-1,-1,-1,-1,-1,-1,-1,-1,-1,-1,-1,-1,-1,-1,-1,-1,-1,-1,-1,-1,-1,-1,-1,-1,-1,-1,-1,-1,-1,-1,-1,-1,-1,-1,-1,-1],"split_conditions":[9.63E-1,8.863E-1,1E0,4.4356E0,9.291E-1,1.279E-3,3.635E-1,1E0,7.974E-1,4.454E1,3.834E1,3.904E1,1.5197E0,2.35E1,7.209E-1,2.2556E0,9.39345E3,2.8806782E-1,2.941308E0,1E0,1E0,1E0,3.08E0,-3.051568E-4,1.545E1,9.595E-1,1.984E0,7.407E-3,8.951392E-1,8.362158E-3,7.267E-1,3.2436916E1,3.2973967E-3,4.4463593E-1,6.4866547E-3,1.6122768E0,4.2557944E-2,4.7382854E1,4.5E1,6.129E1,8.618364E-5,2.5274384E1,3.97E1,3.7560417E1,2.08162E-3,1.1287613E2,-2.3233807E-2,2.7190437E0,5.5444036E-3,9.3645E2,4.592E-1,1.4771317E1,7.247E-1,2.74E2,1.0198E-2,-1.1953531E-3,1.3287126E0,1.699E2,1.097337E1,-8.402098E-3,-1.2863906E-2,1.0671141E-1,1.6294286E-3,-2.7924826E-2,-3.496229E-3,1.776419E-2,-9.093045E-3,-3.5025254E-3,1.5757773E-2,1.0520472E-2,-2.2327075E-2,-1.3242072E-2,-2.3034934E-3,-1.17792515E-2,-1.962256E-2,-1.1717633E-2,-2.6108405E-2,2.7739562E-3,-1.2454378E-2,-2.2019612E-2,-1.4294258E-2,-2.0151913E-2,-1.7134578E-3,3.0663678E-2,1.0456475E-2,-2.1095023E-2,-5.6366425E-4,-2.6875883E-2,-1.2484842E-2,9.900889E-2,4.4782516E-2,5.1525593E-2,6.949873E-2,7.7845E-2,1.0861503E-1,1.01036966E-1,1.5882567E-1,3.0866107E-2,1.1427299E-1,-2.9039178E-2,1.5341635E-2,2.7550444E-2,6.715768E-3,1.36914505E-2,-1.2156763E-3,2.937307E-2,1.8600862E-2,4.288229E-2,1.4082873E-2],"split_indices":[27,27,65,26,27,29,26,64,27,8,8,8,26,22,24,26,17,0,20,61,62,62,26,9,17,26,26,30,0,13,26,12,40,0,13,37,0,12,4,8,9,12,41,12,50,37,0,20,43,17,23,32,23,4,30,43,40,17,52,0,0,0,0,0,0,0,0,0,0,0,0,0,0,0,0,0,0,0,0,0,0,0,0,0,0,0,0,0,0,0,0,0,0,0,0,0,0,0,0,0,0,0,0,0,0,0,0,0,0],"split_type":[0,0,0,0,0,0,0,0,0,0,0,0,0,0,0,0,0,0,0,0,0,0,0,0,0,0,0,0,0,0,0,0,0,0,0,0,0,0,0,0,0,0,0,0,0,0,0,0,0,0,0,0,0,0,0,0,0,0,0,0,0,0,0,0,0,0,0,0,0,0,0,0,0,0,0,0,0,0,0,0,0,0,0,0,0,0,0,0,0,0,0,0,0,0,0,0,0,0,0,0,0,0,0,0,0,0,0,0,0],"sum_hessian":[5.8457E4,3.8413E4,2.0044E4,2.0785E4,1.7628E4,3.578E3,1.6466E4,2.0748E4,3.7E1,1.4758E4,2.87E3,1.47E2,3.431E3,1.34E2,1.6332E4,2.0679E4,6.9E1,5E0,3.2E1,3.204E3,1.1554E4,2.83E2,2.587E3,2.6E1,1.21E2,3.027E3,4.04E2,1.27E2,7E0,5.275E3,1.1057E4,2.0132E4,5.47E2,5E0,6.4E1,2.4E1,8E0,2.116E3,1.088E3,5.184E3,6.37E3,9.4E1,1.89E2,2.462E3,1.25E2,1.9E1,7E0,4.2E1,7.9E1,1.78E3,1.247E3,2.84E2,1.2E2,5.3E1,7.4E1,2.872E3,2.403E3,2.339E3,8.718E3,1.6534E4,3.598E3,6E0,5.41E2,1E1,5.4E1,1.9E1,5E0,2.058E3,5.8E1,2.1E1,1.067E3,3.765E3,1.419E3,2.404E3,3.966E3,2.3E1,7.1E1,1.06E2,8.3E1,2.007E3,4.55E2,3.4E1,9.1E1,6E0,1.3E1,1.6E1,2.6E1,6.6E1,1.3E1,1.8E1,1.762E3,5.67E2,6.8E2,1.79E2,1.05E2,6.5E1,5.5E1,4.8E1,5E0,1.2E1,6.2E1,9.4E1,2.778E3,2.275E3,1.28E2,2.97E2,2.042E3,5.8E1,8.66E3],"tree_param":{"num_deleted":"0","num_feature":"104","num_nodes":"109","size_leaf_vector":"1"}},{"base_weights":[-1.8306168E-3,-2.091799E-1,3.950351E-1,-2.6275265E-1,-1.2628952E-1,2.4991515E-1,1.0999151E0,-2.32087E-1,-3.8466668E-1,-1.1752433E-2,-1.516589E-1,1.4065475E0,2.3918201E-1,9.756102E-1,1.9209223E0,-2.3426504E-1,9.340137E-1,-3.938674E-1,-1.715568E-1,-2.8585393E-2,2.278118E0,-1.7299831E-1,-3.6801457E-2,5.1086885E-1,1.1632766E0,-3.2801116E-1,2.4419233E-1,8.13004E-1,1.1196681E0,1.6982073E0,2.4863958E0,-1.6710061E-1,-2.5860572E-1,2.2629756E-1,2.1584629E-1,-4.1352907E-1,-3.034279E-1,-9.603691E-2,-3.7350598E-1,1.8882416E0,-4.2053614E-2,4.4233686E-1,-5.012041E-1,-7.781412E-2,-2.1388902E-1,-1.4271276E-3,-1.5617661E-1,1.4175415E0,4.1305932E-1,1.5328485E-1,-3.9313084E-1,1.9708443E-1,2.8609344E-1,6.362965E-1,8.556769E-1,9.840826E-1,1.330939E0,1.0754614E0,1.8289676E0,2.9845166E0,1.9649915E0,4.7819354E-4,-8.970563E-3,-9.523029E-3,-1.3660279E-2,3.5803404E-2,-8.8512775E-4,-1.8470725E-2,-2.2776544E-2,-2.3168812E-3,-1.662209E-2,-8.027951E-3,1.1663179E-2,2.4631182E-3,-2.0928532E-2,-2.2070026E-2,3.5046834E-1,7.126762E-3,-4.2222287E-3,-3.656952E-2,-1.0418365E-2,-1.7551614E-2,-2.7055698E-3,-9.139053E-3,-1.4416777E-2,-4.4261754E-4,2.6026396E-2,-1.6031882E-2,-4.9779736E-3,1.2162766E-2,1.471357E-1,-1.482862E-2,2.6952622E-2,1.5289855E-2,-1.0135295E-2,-8.942676E-3,-2.5557702E-2,1.02160536E-1,9.745051E-3,4.9105998E-2,1.41618075E-2,1.762213E-2,3.759026E-2,2.4312763E-2,4.398296E-2,6.7676984E-2,4.682153E-2,6.3039854E-2,8.3139084E-2,4.07579E-2,7.5383484E-2,6.990912E-2,9.719435E-2,1.2925501E-1,1.6885987E-1,1.2172102E-1,5.1116955E-2],"categories":[],"categories_nodes":[],"categories_segments":[],"categories_sizes":[],"default_left":[0,1,0,0,0,0,1,1,1,0,1,0,0,0,0,0,0,0,0,0,0,0,1,0,0,0,1,0,1,0,0,0,0,0,0,0,0,0,0,0,0,0,0,0,0,0,0,0,0,0,0,0,0,0,0,1,1,0,1,0,0,0,0,0,0,0,0,0,0,0,0,0,0,0,0,0,0,0,0,0,0,0,0,0,0,0,0,0,0,0,0,0,0,0,0,0,0,0,0,0,0,0,0,0,0,0,0,0,0,0,0,0,0,0,0,0,0],"id":7,"left_children":[1,3,5,7,9,11,13,15,17,19,21,23,25,27,29,31,33,35,37,39,41,43,45,47,-1,49,51,53,55,57,59,61,63,65,-1,67,69,71,73,75,77,-1,79,81,83,85,87,89,91,93,95,97,99,101,103,105,107,109,111,113,115,-1,-1,-1,-1,-1,-1,-1,-1,-1,-1,-1,-1,-1,-1,-1,-1,-1,-1,-1,-1,-1,-1,-1,-1,-1,-1,-1,-1,-1,-1,-1,-1,-1,-1,-1,-1,-1,-1,-1,-1,-1,-1,-1,-1,-1,-1,-1,-1,-1,-1,-1,-1,-1,-1,-1,-1],"loss_changes":[4.817905E3,1.7073706E2,2.0549788E3,8.723633E1,4.3871902E1,2.0652295E2,3.4817578E2,4.762726E1,9.134277E0,1.0564069E2,3.0290314E1,2.9836443E3,4.700128E1,6.891846E1,5.245044E1,3.041681E1,8.281803E1,7.8728027E0,2.953361E0,7.02996E1,3.6956018E2,4.0555115E1,8.183596E0,1.2539295E1,0E0,4.604826E0,3.225006E1,1.0042603E1,4.3892456E1,2.4579346E1,2.6600769E1,1.0786804E1,1.3552429E1,3.5977976E0,0E0,6.6726074E0,6.0041656E0,3.0970442E0,1.0303707E0,2.297713E2,2.1154907E1,0E0,8.587074E-1,2.0276834E1,1.6832397E1,5.8025546E0,4.092988E0,2.4358015E1,1.2230043E1,1.03926E0,3.1456604E0,3.0671509E1,1.6944458E1,8.8172E0,9.565857E0,1.572168E1,1.219519E1,5.4088287E0,1.0549561E1,9.9383545E-1,2.5831696E1,0E0,0E0,0E0,0E0,0E0,0E0,0E0,0E0,0E0,0E0,0E0,0E0,0E0,0E0,0E0,0E0,0E0,0E0,0E0,0E0,0E0,0E0,0E0,0E0,0E0,0E0,0E0,0E0,0E0,0E0,0E0,0E0,0E0,0E0,0E0,0E0,0E0,0E0,0E0,0E0,0E0,0E0,0E0,0E0,0E0,0E0,0E0,0E0,0E0,0E0,0E0,0E0,0E0,0E0,0E0,0E0],"parents":[2147483647,0,0,1,1,2,2,3,3,4,4,5,5,6,6,7,7,8,8,9,9,10,10,11,11,12,12,13,13,14,14,15,15,16,16,17,17,18,18,19,19,20,20,21,21,22,22,23,23,25,25,26,26,27,27,28,28,29,29,30,30,31,31,32,32,33,33,35,35,36,36,37,37,38,38,39,39,40,40,42,42,43,43,44,44,45,45,46,46,47,47,48,48,49,49,50,50,51,51,52,52,53,53,54,54,55,55,56,56,57,57,58,58,59,59,60,60],"right_children":[2,4,6,8,10,12,14,16,18,20,22,24,26,28,30,32,34,36,38,40,42,44,46,48,-1,50,52,54,56,58,60,62,64,66,-1,68,70,72,74,76,78,-1,80,82,84,86,88,90,92,94,96,98,100,102,104,106,108,110,112,114,116,-1,-1,-1,-1,-1,-1,-1,-1,-1,-1,-1,-1,-1,-1,-1,-1,-1,-1,-1,-1,-1,-1,-1,-1,-1,-1,-1,-1,-1,-1,-1,-1,-1,-1,-1,-1,-1,-1,-1,-1,-1,-1,-1,-1,-1,-1,-1,-1,-1,-1,-1,-1,-1,-1,-1,-1],"split_conditions":[9.63E-1,1E0,1E0,9.091E-1,8.589E-1,3.635E-1,1.4838E0,4.4356E0,2.6032E0,1E0,6.166E1,2.32E1,1E0,8.757E-1,1.984E0,8.498E-1,4.131E-3,0E0,1.026E-3,2.1832546E-3,7.301E-1,4.546E1,2.7378128E1,3.26E0,1.1632766E0,3.505E1,7.569E-1,5.441E-1,5.439E-1,3.316E-1,1E0,6.15E-4,8.51E-4,2.2648027E1,2.1584629E-1,9.233E-1,3.81E1,1.32E3,5.8766636E-3,4.41E2,4.359E1,4.4233686E-1,2.968E4,1E0,9.061E-1,7.86E1,6.252E1,2.2333333E0,1.7279166E-1,-4.5992463E-4,1.545E1,9.879461E0,2.1832546E-3,1.724E-1,3.92E-2,3.9060807E-3,6.174E1,3.26E3,9.674515E-1,9.504233E-3,2.099E-1,4.7819354E-4,-8.970563E-3,-9.523029E-3,-1.3660279E-2,3.5803404E-2,-8.8512775E-4,-1.8470725E-2,-2.2776544E-2,-2.3168812E-3,-1.662209E-2,-8.027951E-3,1.1663179E-2,2.4631182E-3,-2.0928532E-2,-2.2070026E-2,3.5046834E-1,7.126762E-3,-4.2222287E-3,-3.656952E-2,-1.0418365E-2,-1.7551614E-2,-2.7055698E-3,-9.139053E-3,-1.4416777E-2,-4.4261754E-4,2.6026396E-2,-1.6031882E-2,-4.9779736E-3,1.2162766E-2,1.471357E-1,-1.482862E-2,2.6952622E-2,1.5289855E-2,-1.0135295E-2,-8.942676E-3,-2.5557702E-2,1.02160536E-1,9.745051E-3,4.9105998E-2,1.41618075E-2,1.762213E-2,3.759026E-2,2.4312763E-2,4.398296E-2,6.7676984E-2,4.682153E-2,6.3039854E-2,8.3139084E-2,4.07579E-2,7.5383484E-2,6.990912E-2,9.719435E-2,1.2925501E-1,1.6885987E-1,1.2172102E-1,5.1116955E-2],"split_indices":[27,28,63,27,27,26,26,26,26,64,41,22,65,26,26,27,29,28,29,40,26,8,52,18,0,8,24,26,23,23,82,29,29,42,0,27,8,19,40,4,8,0,4,62,27,8,51,18,20,10,17,52,40,23,23,13,8,19,7,13,24,0,0,0,0,0,0,0,0,0,0,0,0,0,0,0,0,0,0,0,0,0,0,0,0,0,0,0,0,0,0,0,0,0,0,0,0,0,0,0,0,0,0,0,0,0,0,0,0,0,0,0,0,0,0,0,0],"split_type":[0,0,0,0,0,0,0,0,0,0,0,0,0,0,0,0,0,0,0,0,0,0,0,0,0,0,0,0,0,0,0,0,0,0,0,0,0,0,0,0,0,0,0,0,0,0,0,0,0,0,0,0,0,0,0,0,0,0,0,0,0,0,0,0,0,0,0,0,0,0,0,0,0,0,0,0,0,0,0,0,0,0,0,0,0,0,0,0,0,0,0,0,0,0,0,0,0,0,0,0,0,0,0,0,0,0,0,0,0,0,0,0,0,0,0,0,0],"sum_hessian":[5.8546E4,3.8455E4,2.0091E4,2.3357E4,1.5098E4,1.6662E4,3.429E3,1.8665E4,4.692E3,2.738E3,1.236E4,1.52E2,1.651E4,2.98E3,4.49E2,1.8631E4,3.4E1,4.497E3,1.95E2,2.719E3,1.9E1,1.0423E4,1.937E3,1.47E2,5E0,1.44E2,1.6366E4,1.403E3,1.577E3,3.25E2,1.24E2,4.958E3,1.3673E4,2.9E1,5E0,3.691E3,8.06E2,1.43E2,5.2E1,1.8E1,2.701E3,5E0,1.4E1,3.133E3,7.29E3,1.495E3,4.42E2,1.3E1,1.34E2,1.7E1,1.27E2,7.707E3,8.659E3,2.76E2,1.127E3,9.64E2,6.13E2,5.8E1,2.67E2,6.1E1,6.3E1,3.23E2,4.635E3,2.415E3,1.1258E4,9E0,2E1,1.805E3,1.886E3,8.2E1,7.24E2,1.2E2,2.3E1,5E0,4.7E1,1.3E1,5E0,5.04E2,2.197E3,7E0,7E0,2.49E2,2.884E3,5.144E3,2.146E3,1.475E3,2E1,1.12E2,3.3E2,8E0,5E0,2E1,1.14E2,1.2E1,5E0,4.6E1,8.1E1,8E0,7.699E3,3.4E1,8.625E3,8.1E1,1.95E2,7E1,1.057E3,1.07E2,8.57E2,5.1E2,1.03E2,3.8E1,2E1,5.9E1,2.08E2,3.4E1,2.7E1,4.1E1,2.2E1],"tree_param":{"num_deleted":"0","num_feature":"104","num_nodes":"117","size_leaf_vector":"1"}},{"base_weights":[-1.7925628E-3,-6.9159046E-2,1.0650119E0,-2.0123963E-1,2.4032658E-1,9.5131487E-1,1.8299046E0,-2.080658E-1,-2.6691252E-2,1.430357E0,2.2996631E-1,8.2729596E-1,1.1052426E0,1.4957337E0,2.177142E0,-1.7262748E-1,-2.2444862E-1,2.0673239E-1,-4.3904047E-2,4.803857E-1,1.1441487E0,1.9476016E-1,3.022312E-1,1.385668E-1,8.198472E-1,9.4945055E-1,1.2321721E0,1.1921846E0,2.0066698E0,1.9883249E0,3.0192137E0,-3.2525402E-1,-5.8001094E-2,-1.4911902E-1,-2.828372E-1,4.110469E-1,-5.2505434E-2,2.521244E-1,9.2646503E-1,2.052091E-1,-6.5723364E-3,3.6758587E-1,2.2486573E-1,3.8768044E-1,8.4296393E-1,8.686186E-1,1.550856E0,2.5091226E0,1.2094622E0,7.7903146E-1,1.3767307E0,1.6871952E0,3.3850713E0,1.6903968E0,2.2127428E0,3.2432E0,7.819798E-2,-1.787923E-2,-9.780442E-3,-9.609399E-5,-7.0577236E-3,-1.176359E-2,-3.5771343E-3,-9.865908E-3,-1.5966909E-2,5.0712205E-2,5.184392E-3,-7.596197E-3,-1.8906021E-4,8.106167E-2,6.8876813E-3,5.6667347E-2,-9.894597E-3,9.990271E-3,2.2888474E-2,3.1002892E-2,-1.4618931E-3,1.507417E-2,2.1789884E-2,5.0391904E-3,1.3340177E-2,3.316941E-2,8.016387E-3,3.0735953E-2,4.4222664E-2,8.875399E-2,4.0872496E-2,1.6003968E-1,6.2986165E-2,2.0413752E-1,4.0092647E-2,5.9524596E-2,1.081356E-1,4.7913056E-2,8.074382E-3,7.3613934E-2,3.3890292E-2,7.60903E-2,1.4909624E-1,2.4319112E-1,9.294062E-2,8.702528E-2,5.04664E-2,1.3152497E-1,9.7366385E-2,8.629256E-2,1.7634892E-1],"categories":[],"categories_nodes":[],"categories_segments":[],"categories_sizes":[],"default_left":[0,0,1,1,0,1,0,0,0,0,1,1,0,1,0,0,0,0,0,0,0,1,0,0,0,0,0,0,0,0,0,1,1,0,0,0,0,0,0,1,0,0,0,1,1,0,0,0,0,0,0,1,0,1,0,0,0,0,0,0,0,0,0,0,0,0,0,0,0,0,0,0,0,0,0,0,0,0,0,0,0,0,0,0,0,0,0,0,0,0,0,0,0,0,0,0,0,0,0,0,0,0,0,0,0,0,0],"id":8,"left_children":[1,3,5,7,9,11,13,15,17,19,21,23,25,27,29,31,33,-1,35,37,-1,39,41,-1,43,45,47,49,51,53,55,57,59,61,63,65,67,69,71,73,75,77,79,81,83,85,87,89,91,93,95,97,99,101,103,105,-1,-1,-1,-1,-1,-1,-1,-1,-1,-1,-1,-1,-1,-1,-1,-1,-1,-1,-1,-1,-1,-1,-1,-1,-1,-1,-1,-1,-1,-1,-1,-1,-1,-1,-1,-1,-1,-1,-1,-1,-1,-1,-1,-1,-1,-1,-1,-1,-1,-1,-1],"loss_changes":[4.208166E3,2.251433E3,3.0072705E2,4.5989746E1,2.0279199E2,5.6928223E1,4.8844116E1,2.1529663E1,1.0432905E2,2.882878E3,4.149756E1,2.2084229E1,2.5506104E1,3.358954E1,2.8658203E1,2.0553027E2,1.1168579E2,0E0,5.691821E0,1.3716116E1,0E0,2.3112732E1,2.6962952E1,0E0,1.6427002E1,2.8306702E1,1.8425049E1,1.0211853E1,3.1719696E1,8.361328E0,7.314148E0,2.1051025E1,3.1294298E1,7.4129E1,4.4602905E1,4.900585E0,6.8925657E0,1.4182586E1,1.09242935E1,1.4162048E1,7.730304E0,1.2935577E1,1.2732628E1,5.3470535E0,1.4522705E1,2.3595459E1,3.0072784E1,2.8965515E1,1.0608032E1,5.1579933E0,5.7469482E0,1.0665619E1,2.4813416E1,1.0417328E0,5.965454E0,7.691864E0,0E0,0E0,0E0,0E0,0E0,0E0,0E0,0E0,0E0,0E0,0E0,0E0,0E0,0E0,0E0,0E0,0E0,0E0,0E0,0E0,0E0,0E0,0E0,0E0,0E0,0E0,0E0,0E0,0E0,0E0,0E0,0E0,0E0,0E0,0E0,0E0,0E0,0E0,0E0,0E0,0E0,0E0,0E0,0E0,0E0,0E0,0E0,0E0,0E0,0E0,0E0],"parents":[2147483647,0,0,1,1,2,2,3,3,4,4,5,5,6,6,7,7,8,8,9,9,10,10,11,11,12,12,13,13,14,14,15,15,16,16,18,18,19,19,21,21,22,22,24,24,25,25,26,26,27,27,28,28,29,29,30,30,31,31,32,32,33,33,34,34,35,35,36,36,37,37,38,38,39,39,40,40,41,41,42,42,43,43,44,44,45,45,46,46,47,47,48,48,49,49,50,50,51,51,52,52,53,53,54,54,55,55],"right_children":[2,4,6,8,10,12,14,16,18,20,22,24,26,28,30,32,34,-1,36,38,-1,40,42,-1,44,46,48,50,52,54,56,58,60,62,64,66,68,70,72,74,76,78,80,82,84,86,88,90,92,94,96,98,100,102,104,106,-1,-1,-1,-1,-1,-1,-1,-1,-1,-1,-1,-1,-1,-1,-1,-1,-1,-1,-1,-1,-1,-1,-1,-1,-1,-1,-1,-1,-1,-1,-1,-1,-1,-1,-1,-1,-1,-1,-1,-1,-1,-1,-1,-1,-1,-1,-1,-1,-1,-1,-1],"split_conditions":[1E0,1E0,1.4951E0,2.2556E0,3.635E-1,9.213E-1,6.818E-1,4.78E1,1.951E1,2.35E1,8.034E-1,1.1371012E-3,4.592E-1,1.5124874E1,2.2556E0,1E0,1E0,2.0673239E-1,2.892E1,2.3256783E1,1.1441487E0,1.8479E0,1.0025E0,1.385668E-1,3.92E-2,3.7861687E1,4.671E-1,8.93E1,1E0,1.7496E0,9.124E-1,5.166E1,4.802E1,5.156E1,5.296E1,9.28E-4,7.777528E-5,3.447E1,9.2E2,8.655485E1,8.79732E-1,9.685293E-4,-2.5131277E-4,6.001278E-1,4.986E-1,2.5658573E-3,2.7E0,8E0,9.398E-1,3.834E-1,3.8566223E1,3.8613987E-1,1.833245E1,3.403886E1,6.72E-2,7.176E-1,7.819798E-2,-1.787923E-2,-9.780442E-3,-9.609399E-5,-7.0577236E-3,-1.176359E-2,-3.5771343E-3,-9.865908E-3,-1.5966909E-2,5.0712205E-2,5.184392E-3,-7.596197E-3,-1.8906021E-4,8.106167E-2,6.8876813E-3,5.6667347E-2,-9.894597E-3,9.990271E-3,2.2888474E-2,3.1002892E-2,-1.4618931E-3,1.507417E-2,2.1789884E-2,5.0391904E-3,1.3340177E-2,3.316941E-2,8.016387E-3,3.0735953E-2,4.4222664E-2,8.875399E-2,4.0872496E-2,1.6003968E-1,6.2986165E-2,2.0413752E-1,4.0092647E-2,5.9524596E-2,1.081356E-1,4.7913056E-2,8.074382E-3,7.3613934E-2,3.3890292E-2,7.60903E-2,1.4909624E-1,2.4319112E-1,9.294062E-2,8.702528E-2,5.04664E-2,1.3152497E-1,9.7366385E-2,8.629256E-2,1.7634892E-1],"split_indices":[63,65,26,26,26,26,23,8,31,22,24,13,23,32,26,62,62,0,51,12,0,26,26,0,23,12,23,19,91,26,23,31,31,31,8,30,43,31,19,57,57,33,43,21,26,13,22,22,23,25,12,50,32,32,25,23,0,0,0,0,0,0,0,0,0,0,0,0,0,0,0,0,0,0,0,0,0,0,0,0,0,0,0,0,0,0,0,0,0,0,0,0,0,0,0,0,0,0,0,0,0,0,0,0,0,0,0],"split_type":[0,0,0,0,0,0,0,0,0,0,0,0,0,0,0,0,0,0,0,0,0,0,0,0,0,0,0,0,0,0,0,0,0,0,0,0,0,0,0,0,0,0,0,0,0,0,0,0,0,0,0,0,0,0,0,0,0,0,0,0,0,0,0,0,0,0,0,0,0,0,0,0,0,0,0,0,0,0,0,0,0,0,0,0,0,0,0,0,0,0,0,0,0,0,0,0,0,0,0,0,0,0,0,0,0,0,0],"sum_hessian":[5.8553E4,5.5076E4,3.477E3,3.8602E4,1.6474E4,3.029E3,4.48E2,3.7149E4,1.453E3,1.41E2,1.6333E4,1.681E3,1.348E3,2.31E2,2.17E2,1.1748E4,2.5401E4,5E0,1.448E3,1.36E2,5E0,1.0985E4,5.348E3,5E0,1.676E3,6.09E2,7.39E2,1.47E2,8.4E1,1.8E2,3.7E1,5.038E3,6.71E3,1.1093E4,1.4308E4,2.6E1,1.422E3,9.1E1,4.5E1,1.0443E4,5.42E2,2.897E3,2.451E3,8.6E1,1.59E3,5.39E2,7E1,1.1E1,7.28E2,4.7E1,1E2,7E1,1.4E1,8.1E1,9.9E1,3.1E1,6E0,4.031E3,1.007E3,4.008E3,2.702E3,5.255E3,5.838E3,4.282E3,1.0026E4,8E0,1.8E1,4.67E2,9.55E2,6E0,8.5E1,3.8E1,7E0,1.0226E4,2.17E2,1.8E1,5.24E2,1.474E3,1.423E3,6.2E2,1.831E3,3.8E1,4.8E1,2.47E2,1.343E3,2.7E1,5.12E2,9E0,6.1E1,5E0,6E0,7.16E2,1.2E1,3.6E1,1.1E1,8.7E1,1.3E1,6.4E1,6E0,6E0,8E0,7.4E1,7E0,3.5E1,6.4E1,6E0,2.5E1],"tree_param":{"num_deleted":"0","num_feature":"104","num_nodes":"107","size_leaf_vector":"1"}},{"base_weights":[-2.0536665E-4,-1.9074467E-1,3.621918E-1,-2.4220318E-1,-1.10879056E-1,2.3019184E-1,1.0009518E0,-1.8945917E-1,-3.1299946E-1,4.0942184E-3,-1.3911161E-1,-3.3965585E-1,2.3522422E-1,9.0922564E-1,1.4867127E0,-5.8978777E-2,-2.0389801E-1,-2.8037354E-1,-3.7005794E-1,5.744745E-1,-3.53146E-2,-1.7253457E-1,-2.1680225E-2,7.9119384E-2,-4.0622768E-1,2.563024E-1,1.495481E-1,8.1709146E-1,1.0738763E0,2.137098E0,1.359336E0,1.6616718E-1,-7.41816E-2,-1.3225068E-1,-2.215278E-1,-1.907605E-1,-2.953838E-1,-3.9326522E-1,-2.6259622E-1,3.959949E0,-2.0547172E-1,8.175915E-2,-8.685728E-2,-1.7841747E-1,5.622269E-1,-7.516313E-2,1.04098566E-1,1.4584779E-2,-4.8004102E-2,6.993512E-3,-4.297552E-1,2.5008497E-1,4.8873338E-1,6.426551E-2,2.0593856E-1,1.0913709E0,7.747294E-1,1.0315233E0,1.6561645E0,2.004879E0,1.6903253E-1,1.6825652E0,1.2071986E0,-4.0258984E-3,6.692602E-2,-6.8017403E-3,6.950973E-2,-1.5527554E-2,-1.0384388E-2,-1.0163522E-2,1.6285015E-2,-1.4171551E-2,-1.905946E-2,-1.2097857E-2,-2.0427916E-2,4.453073E-3,-1.4203615E-2,3.84334E-2,8.5355806E-1,-3.5178004E-5,-1.299804E-2,6.5336796E-3,-1.0221078E-3,-3.559433E-3,-1.6676499E-2,-7.3301047E-3,-1.2958336E-2,4.4262686E-1,-7.820148E-3,-4.2058523E-3,4.0337343E-2,-9.802203E-3,5.9455126E-3,6.9710608E-3,-1.605707E-2,-2.6150037E-2,-1.3216394E-2,1.1444398E-2,1.53682055E-2,7.296809E-2,2.1393657E-2,-6.4790635E-3,4.757077E-3,8.748101E-3,2.513862E-2,5.0479244E-2,8.902597E-2,5.7722956E-2,3.7677065E-2,4.8672527E-2,6.1364193E-2,5.5908736E-2,1.0591308E-1,9.026592E-2,1.5092696E-1,1.380289E-1,7.867351E-2,6.2286776E-2,1.4208402E-2],"categories":[],"categories_nodes":[],"categories_segments":[],"categories_sizes":[],"default_left":[0,1,0,0,0,0,1,0,0,1,1,0,1,1,0,0,0,0,0,0,0,0,0,0,0,1,0,0,0,1,0,0,1,1,0,0,1,0,0,0,1,1,0,0,0,0,0,0,0,0,0,1,0,0,1,0,0,0,1,0,0,0,0,0,0,0,0,0,0,0,0,0,0,0,0,0,0,0,0,0,0,0,0,0,0,0,0,0,0,0,0,0,0,0,0,0,0,0,0,0,0,0,0,0,0,0,0,0,0,0,0,0,0,0,0,0,0,0,0],"id":9,"left_children":[1,3,5,7,9,11,13,15,17,19,21,23,25,27,29,31,33,35,37,39,41,43,45,47,49,51,53,55,57,59,61,-1,63,65,67,69,71,73,75,77,79,81,83,85,87,89,91,-1,93,-1,95,97,99,101,103,105,107,109,111,113,-1,115,117,-1,-1,-1,-1,-1,-1,-1,-1,-1,-1,-1,-1,-1,-1,-1,-1,-1,-1,-1,-1,-1,-1,-1,-1,-1,-1,-1,-1,-1,-1,-1,-1,-1,-1,-1,-1,-1,-1,-1,-1,-1,-1,-1,-1,-1,-1,-1,-1,-1,-1,-1,-1,-1,-1,-1,-1],"loss_changes":[4.0487307E3,1.5790723E2,1.7033801E3,8.72063E1,4.8885162E1,4.8102173E1,1.5281519E2,2.5223938E1,1.8467346E1,6.677999E1,4.745227E1,4.1303024E0,2.9939636E1,4.33125E1,4.249341E1,6.894478E1,1.52039795E1,8.486481E0,8.939636E0,5.0778735E2,1.6776405E1,4.0783997E1,1.8036226E1,5.814945E-1,1.6918468E0,1.9128235E1,1.5760689E1,2.0905273E1,2.3989014E1,7.691284E0,2.063861E1,0E0,1.2022093E1,1.3923611E1,1.1858398E1,5.9714622E0,5.469269E0,6.7967224E0,4.9115868E0,1.4931742E3,1.7515659E0,4.2519226E0,7.435748E0,2.3951935E1,4.482094E2,1.4921251E1,3.5798082E0,0E0,7.6147366E-1,0E0,1.7436523E0,1.5684448E1,1.981472E1,7.835009E0,1.8062744E1,1.2180359E1,1.2204407E1,9.878174E0,1.4785049E1,1.1138062E1,0E0,1.2709137E1,1.0921936E1,0E0,0E0,0E0,0E0,0E0,0E0,0E0,0E0,0E0,0E0,0E0,0E0,0E0,0E0,0E0,0E0,0E0,0E0,0E0,0E0,0E0,0E0,0E0,0E0,0E0,0E0,0E0,0E0,0E0,0E0,0E0,0E0,0E0,0E0,0E0,0E0,0E0,0E0,0E0,0E0,0E0,0E0,0E0,0E0,0E0,0E0,0E0,0E0,0E0,0E0,0E0,0E0,0E0,0E0,0E0,0E0],"parents":[2147483647,0,0,1,1,2,2,3,3,4,4,5,5,6,6,7,7,8,8,9,9,10,10,11,11,12,12,13,13,14,14,15,15,16,16,17,17,18,18,19,19,20,20,21,21,22,22,23,23,24,24,25,25,26,26,27,27,28,28,29,29,30,30,32,32,33,33,34,34,35,35,36,36,37,37,38,38,39,39,40,40,41,41,42,42,43,43,44,44,45,45,46,46,48,48,50,50,51,51,52,52,53,53,54,54,55,55,56,56,57,57,58,58,59,59,61,61,62,62],"right_children":[2,4,6,8,10,12,14,16,18,20,22,24,26,28,30,32,34,36,38,40,42,44,46,48,50,52,54,56,58,60,62,-1,64,66,68,70,72,74,76,78,80,82,84,86,88,90,92,-1,94,-1,96,98,100,102,104,106,108,110,112,114,-1,116,118,-1,-1,-1,-1,-1,-1,-1,-1,-1,-1,-1,-1,-1,-1,-1,-1,-1,-1,-1,-1,-1,-1,-1,-1,-1,-1,-1,-1,-1,-1,-1,-1,-1,-1,-1,-1,-1,-1,-1,-1,-1,-1,-1,-1,-1,-1,-1,-1,-1,-1,-1,-1,-1,-1,-1,-1],"split_conditions":[9.63E-1,1E0,1E0,8.863E-1,4.359E1,1E0,7.247E-1,8.128E-1,9.152E-1,2.1832546E-3,5.943E1,4.54E-4,1.797E-1,4.592E-1,1E0,1.951E1,2.779E-3,1.783E2,0E0,2.274637E-3,3.674E1,1E0,6.255E1,-3.051568E-4,2.7231858E-4,4.282967E0,6.0693055E-1,2.0856508E1,7.04E1,1.5441E-2,4.894E-3,1.6616718E-1,7.336E1,5.1581112E1,3.729E1,8.7863155E-2,3.633975E1,7.94E1,3.466E1,4.5805E3,1.65E1,3.235528E1,1E0,9.042E-1,3.404242E-3,1E0,6.019E1,1.4584779E-2,5.038414E-4,6.993512E-3,1E0,4.4E2,8.102048E-1,3.291E-3,6.1392996E-2,1E0,-2.7814622E-3,2.580365E-1,1.6178132E0,1E0,1.6903253E-1,1.19738564E-1,8.7175E-2,-4.0258984E-3,6.692602E-2,-6.8017403E-3,6.950973E-2,-1.5527554E-2,-1.0384388E-2,-1.0163522E-2,1.6285015E-2,-1.4171551E-2,-1.905946E-2,-1.2097857E-2,-2.0427916E-2,4.453073E-3,-1.4203615E-2,3.84334E-2,8.5355806E-1,-3.5178004E-5,-1.299804E-2,6.5336796E-3,-1.0221078E-3,-3.559433E-3,-1.6676499E-2,-7.3301047E-3,-1.2958336E-2,4.4262686E-1,-7.820148E-3,-4.2058523E-3,4.0337343E-2,-9.802203E-3,5.9455126E-3,6.9710608E-3,-1.605707E-2,-2.6150037E-2,-1.3216394E-2,1.1444398E-2,1.53682055E-2,7.296809E-2,2.1393657E-2,-6.4790635E-3,4.757077E-3,8.748101E-3,2.513862E-2,5.0479244E-2,8.902597E-2,5.7722956E-2,3.7677065E-2,4.8672527E-2,6.1364193E-2,5.5908736E-2,1.0591308E-1,9.026592E-2,1.5092696E-1,1.380289E-1,7.867351E-2,6.2286776E-2,1.4208402E-2],"split_indices":[27,28,63,27,8,65,23,27,27,40,31,30,25,23,82,31,30,17,28,13,31,64,8,9,13,21,21,32,8,29,29,0,8,32,31,13,12,17,8,17,18,42,75,27,13,102,51,0,13,0,67,18,36,30,33,78,33,13,6,90,0,20,30,0,0,0,0,0,0,0,0,0,0,0,0,0,0,0,0,0,0,0,0,0,0,0,0,0,0,0,0,0,0,0,0,0,0,0,0,0,0,0,0,0,0,0,0,0,0,0,0,0,0,0,0,0,0,0,0],"split_type":[0,0,0,0,0,0,0,0,0,0,0,0,0,0,0,0,0,0,0,0,0,0,0,0,0,0,0,0,0,0,0,0,0,0,0,0,0,0,0,0,0,0,0,0,0,0,0,0,0,0,0,0,0,0,0,0,0,0,0,0,0,0,0,0,0,0,0,0,0,0,0,0,0,0,0,0,0,0,0,0,0,0,0,0,0,0,0,0,0,0,0,0,0,0,0,0,0,0,0,0,0,0,0,0,0,0,0,0,0,0,0,0,0,0,0,0,0,0,0],"sum_hessian":[5.8632E4,3.8428E4,2.0204E4,2.3369E4,1.5059E4,1.6745E4,3.459E3,1.3394E4,9.975E3,2.969E3,1.209E4,1.46E2,1.6599E4,2.912E3,5.47E2,1.335E3,1.2059E4,6.35E3,3.625E3,1.91E2,2.778E3,9.411E3,2.679E3,2E1,1.26E2,1.332E4,3.279E3,1.871E3,1.041E3,8.7E1,4.6E2,5E0,1.33E3,2.383E3,9.676E3,9.13E2,5.437E3,2.979E3,6.46E2,3.5E1,1.56E2,8.49E2,1.929E3,9.337E3,7.4E1,1.88E3,7.99E2,7E0,1.3E1,5E0,1.21E2,1.2975E4,3.45E2,1.306E3,1.973E3,2.47E2,1.624E3,9.73E2,6.8E1,8.1E1,6E0,1.44E2,3.16E2,1.325E3,5E0,2.378E3,5E0,1.299E3,8.377E3,8.92E2,2.1E1,4.776E3,6.61E2,2.75E2,2.704E3,3.7E1,6.09E2,2.9E1,6E0,3.3E1,1.23E2,5.74E2,2.75E2,1.815E3,1.14E2,6.7E3,2.637E3,5E0,6.9E1,1.862E3,1.8E1,3.7E1,7.62E2,8E0,5E0,7.6E1,4.5E1,9.474E3,3.501E3,1.9E1,3.26E2,1.79E2,1.127E3,1.788E3,1.85E2,2.23E2,2.4E1,8.3E1,1.541E3,7.55E2,2.18E2,3.3E1,3.5E1,7E1,1.1E1,1.1E1,1.33E2,3.03E2,1.3E1],"tree_param":{"num_deleted":"0","num_feature":"104","num_nodes":"119","size_leaf_vector":"1"}},{"base_weights":[3.3088445E-3,-5.7255514E-2,9.6129423E-1,-1.7970514E-1,2.2710031E-1,8.499484E-1,1.6879084E0,-2.3622632E-1,-1.1694775E-1,1.2120011E0,2.1850543E-1,7.5406414E-1,1.0135324E0,2.278109E0,1.4874445E0,-2.0551449E-1,-2.83311E-1,-1.571601E-1,-7.072625E-2,4.0323818E-1,7.404735E-1,2.9570737E-1,1.9662894E-1,1.3063315E-1,7.478013E-1,7.609589E-1,1.0912664E0,1.6401738E0,2.6796284E0,1.2340173E0,1.8403478E0,-1.9109355E-1,-2.8887254E-1,-3.6570972E-1,-2.6964077E-1,-9.424468E-2,-2.0823796E-1,1.4006813E-1,-7.376971E-2,3.1713852E-1,8.705952E-2,2.6931337E-1,4.401553E-1,1.6543731E-1,2.6470008E-1,7.203429E-1,1.0304517E0,8.686987E-1,4.764354E-1,1.4194455E0,1.0393976E0,2.0878062E0,1.2618587E0,2.9633784E0,1.9832859E0,1.026803E0,1.7176714E0,1.7576119E0,1.7182754E-1,-1.462207E-2,-9.13044E-3,-1.180064E-2,-1.810853E-2,-2.020719E-2,-1.5511681E-2,-1.2657391E-2,-1.816686E-2,-1.8153106E-3,-8.259045E-3,-5.1596714E-3,-1.1241277E-2,7.4034515E-3,-5.0460133E-3,4.775589E-2,8.851945E-3,1.3152006E-2,3.4702476E-2,6.9114916E-2,1.9294681E-2,1.3177215E-2,6.8096295E-3,9.610282E-2,1.2983533E-2,2.5727421E-2,3.7820462E-2,1.2661044E-1,4.7915474E-2,7.830963E-2,3.6708545E-2,1.8140366E-2,7.642105E-2,6.0082655E-2,1.6648667E-1,4.8558068E-2,6.348252E-2,7.058231E-2,1.3786873E-1,2.3162952E-2,7.076629E-2,1.300781E-1,1.9554996E-1,1.2405334E-1,6.0735043E-2,4.44548E-2,7.2713815E-2,1.3105816E-1,6.497599E-2,7.740103E-2,1.0652398E-1],"categories":[],"categories_nodes":[],"categories_segments":[],"categories_sizes":[],"default_left":[0,0,1,0,0,1,0,0,0,0,1,1,0,0,0,1,0,0,0,0,0,1,0,0,1,0,0,0,1,1,0,0,0,1,1,0,0,0,0,0,0,1,0,0,0,0,0,0,0,0,0,0,0,1,0,0,0,0,0,0,0,0,0,0,0,0,0,0,0,0,0,0,0,0,0,0,0,0,0,0,0,0,0,0,0,0,0,0,0,0,0,0,0,0,0,0,0,0,0,0,0,0,0,0,0,0,0,0,0],"id":10,"left_children":[1,3,5,7,9,11,13,15,17,19,21,23,25,27,29,31,33,35,37,39,-1,41,43,-1,45,47,49,51,53,55,57,59,61,63,65,67,69,-1,71,73,-1,75,77,79,81,83,85,87,89,91,93,95,97,99,101,103,105,107,-1,-1,-1,-1,-1,-1,-1,-1,-1,-1,-1,-1,-1,-1,-1,-1,-1,-1,-1,-1,-1,-1,-1,-1,-1,-1,-1,-1,-1,-1,-1,-1,-1,-1,-1,-1,-1,-1,-1,-1,-1,-1,-1,-1,-1,-1,-1,-1,-1,-1,-1],"loss_changes":[3.3927031E3,1.9150309E3,2.7987378E2,1.3633777E2,1.3987518E2,4.655786E1,5.1154053E1,2.918982E1,3.385208E1,1.5666177E3,2.7661804E1,2.02323E1,2.1001953E1,2.5061523E1,2.8763062E1,1.466449E1,8.892334E0,3.1287125E1,7.431351E1,1.5114622E1,0E0,1.3690582E1,2.711679E1,0E0,1.4011597E1,7.709564E0,1.2959595E1,5.324745E0,7.756256E0,1.8781372E1,1.284494E1,8.925842E0,6.9041443E0,2.2903748E0,1.0493561E1,1.7942093E1,9.344116E0,0E0,5.1030125E1,1.1361012E1,0E0,7.984024E0,2.7992805E1,2.514058E1,3.2993225E1,1.2495789E1,1.5557816E1,1.677214E1,8.410608E0,4.301201E1,1.0330627E1,5.162277E0,2.775982E0,5.9399414E0,5.7857437E0,7.3014526E0,1.9261536E1,7.4866333E0,0E0,0E0,0E0,0E0,0E0,0E0,0E0,0E0,0E0,0E0,0E0,0E0,0E0,0E0,0E0,0E0,0E0,0E0,0E0,0E0,0E0,0E0,0E0,0E0,0E0,0E0,0E0,0E0,0E0,0E0,0E0,0E0,0E0,0E0,0E0,0E0,0E0,0E0,0E0,0E0,0E0,0E0,0E0,0E0,0E0,0E0,0E0,0E0,0E0,0E0,0E0],"parents":[2147483647,0,0,1,1,2,2,3,3,4,4,5,5,6,6,7,7,8,8,9,9,10,10,11,11,12,12,13,13,14,14,15,15,16,16,17,17,18,18,19,19,21,21,22,22,24,24,25,25,26,26,27,27,28,28,29,29,30,30,31,31,32,32,33,33,34,34,35,35,36,36,38,38,39,39,41,41,42,42,43,43,44,44,45,45,46,46,47,47,48,48,49,49,50,50,51,51,52,52,53,53,54,54,55,55,56,56,57,57],"right_children":[2,4,6,8,10,12,14,16,18,20,22,24,26,28,30,32,34,36,38,40,-1,42,44,-1,46,48,50,52,54,56,58,60,62,64,66,68,70,-1,72,74,-1,76,78,80,82,84,86,88,90,92,94,96,98,100,102,104,106,108,-1,-1,-1,-1,-1,-1,-1,-1,-1,-1,-1,-1,-1,-1,-1,-1,-1,-1,-1,-1,-1,-1,-1,-1,-1,-1,-1,-1,-1,-1,-1,-1,-1,-1,-1,-1,-1,-1,-1,-1,-1,-1,-1,-1,-1,-1,-1,-1,-1,-1,-1],"split_conditions":[1E0,1E0,1.4951E0,0E0,3.635E-1,9.898E-1,1E0,2.5158258E1,5.888E1,2.35E1,7.267E-1,1.1371012E-3,2.745E-1,1.8223E0,7.114E-1,6.176E1,3.64E1,1.5728498E-5,1.951E1,3.3463936E1,7.404735E-1,5.42E1,4.4E2,1.3063315E-1,7.247E-1,1.6913159E0,2.9E0,1.2376652E0,1.34521E0,1.7121878E1,2.6032E0,3.685E1,5.112584E-4,3.897E1,6.784E1,4.395E1,3.456E1,1.4006813E-1,3.215E-3,4.242E1,8.705952E-2,4.5561874E1,5.488E1,9.478955E-1,1.0410522E1,5.441E-1,7.386128E-2,1.2479702E0,1.0914692E2,2.5E0,1.3277E0,6.07E3,9.667262E-1,9.7219E-1,1.3E1,2.56E3,3.1161183E-1,1.83E1,1.7182754E-1,-1.462207E-2,-9.13044E-3,-1.180064E-2,-1.810853E-2,-2.020719E-2,-1.5511681E-2,-1.2657391E-2,-1.816686E-2,-1.8153106E-3,-8.259045E-3,-5.1596714E-3,-1.1241277E-2,7.4034515E-3,-5.0460133E-3,4.775589E-2,8.851945E-3,1.3152006E-2,3.4702476E-2,6.9114916E-2,1.9294681E-2,1.3177215E-2,6.8096295E-3,9.610282E-2,1.2983533E-2,2.5727421E-2,3.7820462E-2,1.2661044E-1,4.7915474E-2,7.830963E-2,3.6708545E-2,1.8140366E-2,7.642105E-2,6.0082655E-2,1.6648667E-1,4.8558068E-2,6.348252E-2,7.058231E-2,1.3786873E-1,2.3162952E-2,7.076629E-2,1.300781E-1,1.9554996E-1,1.2405334E-1,6.0735043E-2,4.44548E-2,7.2713815E-2,1.3105816E-1,6.497599E-2,7.740103E-2,1.0652398E-1],"split_indices":[63,65,26,28,26,26,82,12,41,22,26,13,23,26,23,31,41,11,31,12,0,41,18,0,23,20,22,20,34,32,26,41,10,31,41,41,41,0,30,31,0,32,41,16,52,26,20,36,7,22,26,19,6,34,22,18,21,22,0,0,0,0,0,0,0,0,0,0,0,0,0,0,0,0,0,0,0,0,0,0,0,0,0,0,0,0,0,0,0,0,0,0,0,0,0,0,0,0,0,0,0,0,0,0,0,0,0,0,0],"split_type":[0,0,0,0,0,0,0,0,0,0,0,0,0,0,0,0,0,0,0,0,0,0,0,0,0,0,0,0,0,0,0,0,0,0,0,0,0,0,0,0,0,0,0,0,0,0,0,0,0,0,0,0,0,0,0,0,0,0,0,0,0,0,0,0,0,0,0,0,0,0,0,0,0,0,0,0,0,0,0,0,0,0,0,0,0,0,0,0,0,0,0,0,0,0,0,0,0,0,0,0,0,0,0,0,0,0,0,0,0],"sum_hessian":[5.8473E4,5.4997E4,3.476E3,3.8443E4,1.6554E4,3.016E3,4.6E2,2.0225E4,1.8218E4,1.42E2,1.6412E4,1.905E3,1.111E3,1.14E2,3.46E2,1.2244E4,7.981E3,9.741E3,8.477E3,1.35E2,7E0,3.621E3,1.2791E4,5E0,1.9E3,2.64E2,8.47E2,4.6E1,6.8E1,2.04E2,1.42E2,1.0441E4,1.803E3,1.132E3,6.849E3,4.366E3,5.375E3,8E0,8.469E3,1.28E2,7E0,3.064E3,5.57E2,8.774E3,4.017E3,1.735E3,1.65E2,1.9E2,7.4E1,1.12E2,7.35E2,1.9E1,2.7E1,4.6E1,2.2E1,1.45E2,5.9E1,1.37E2,5E0,8.04E2,9.637E3,1.05E3,7.53E2,6.65E2,4.67E2,5.827E3,1.022E3,2.404E3,1.962E3,7.34E2,4.641E3,9.23E2,7.546E3,2.2E1,1.06E2,3.021E3,4.3E1,2.9E1,5.28E2,2.013E3,6.761E3,1.1E1,4.006E3,2.61E2,1.474E3,6E0,1.59E2,2.9E1,1.61E2,6.8E1,6E0,1.02E2,1E1,5.71E2,1.64E2,1.1E1,8E0,5E0,2.2E1,3.6E1,1E1,1.2E1,1E1,1.12E2,3.3E1,1.7E1,4.2E1,9.1E1,4.6E1],"tree_param":{"num_deleted":"0","num_feature":"104","num_nodes":"109","size_leaf_vector":"1"}},{"base_weights":[-3.5332318E-4,-1.721302E-1,3.2728866E-1,-2.187307E-1,-1.0011105E-1,8.76914E-1,2.217315E-1,-1.6343318E-1,-2.7090648E-1,7.165523E-3,-1.2328781E-1,7.3637503E-1,1.2089022E0,1.1269351E0,2.1369125E-1,-1.6564353E-1,1.627882E0,-2.4948506E-1,-3.557855E-1,-9.84659E-3,1.967685E0,1.5561879E-1,-1.3097027E-1,-3.1487742E-1,7.539035E-1,-2.612214E-1,1.3248235E0,1.08442575E-1,7.6398654E0,5.022287E-1,2.0695604E-1,-8.839561E-2,-1.8425052E-1,1.7708924E-1,8.55355E-3,-1.8168235E-1,-2.6490864E-1,-3.766924E-1,-2.2259016E-1,1.4205594E0,-1.907128E-2,-3.755634E-1,4.3347412E-1,4.992044E-2,2.3860493E0,-1.5088786E-1,-2.3889972E-2,9.485555E-3,-4.154162E-1,6.674836E-1,8.73751E-1,7.8196414E-2,-3.8674322E-1,1.2649866E0,2.7941003E0,-2.2698893E-1,6.095044E-1,1.2796026E0,-5.0334193E-2,-1.1168272E-1,6.412141E-1,1.7724027E-1,2.639314E-1,5.456072E-3,-5.3229877E-3,-8.24744E-3,-1.2736228E-2,-3.6142932E-3,-1.1164437E-2,-1.3931003E-2,-9.294144E-3,-1.1647953E-2,-1.9292314E-2,-1.3460766E-2,-3.5817202E-3,-1.5555468E-2,2.3235686E-1,9.676389E-3,-3.4230046E-3,-3.3605874E-2,-1.049014E-2,1.431181E-3,5.7629216E-2,3.478754E-1,-2.977154E-2,-3.5110177E-3,-8.757937E-3,-6.166848E-3,9.697768E-4,-2.2462536E-2,-9.69625E-3,3.819872E-2,2.894522E-2,3.9265122E-2,5.12983E-2,1.7549658E-2,-8.84547E-3,-2.4458025E-2,-1.124244E-2,5.7218578E-2,8.132772E-2,1.7536224E-1,1.0232498E-1,1.0454742E-2,-5.065888E-2,5.012793E-2,-9.2296797E-4,-6.791906E-2,8.1931554E-2,-1.3896688E-2,2.6375836E-2,3.0090794E-2,8.814892E-2,6.5813504E-2,8.78674E-3,4.35954E-2,1.2991644E-2],"categories":[],"categories_nodes":[],"categories_segments":[],"categories_sizes":[],"default_left":[0,1,0,0,0,0,0,1,0,0,0,0,0,0,0,0,0,0,1,0,0,0,1,1,0,0,0,1,0,0,0,0,1,0,0,1,0,0,0,1,0,0,0,0,0,0,0,0,0,0,0,0,1,0,1,0,0,0,0,0,1,0,0,0,0,0,0,0,0,0,0,0,0,0,0,0,0,0,0,0,0,0,0,0,0,0,0,0,0,0,0,0,0,0,0,0,0,0,0,0,0,0,0,0,0,0,0,0,0,0,0,0,0,0,0,0,0],"id":11,"left_children":[1,3,5,7,9,11,13,15,17,19,21,23,25,27,29,31,33,35,37,39,41,43,45,47,49,51,53,55,57,59,61,63,65,-1,-1,67,69,71,73,75,77,79,-1,81,83,85,87,-1,89,91,93,95,97,99,101,103,105,-1,107,109,111,113,115,-1,-1,-1,-1,-1,-1,-1,-1,-1,-1,-1,-1,-1,-1,-1,-1,-1,-1,-1,-1,-1,-1,-1,-1,-1,-1,-1,-1,-1,-1,-1,-1,-1,-1,-1,-1,-1,-1,-1,-1,-1,-1,-1,-1,-1,-1,-1,-1,-1,-1,-1,-1,-1,-1],"loss_changes":[3.2839023E3,1.2844739E2,1.1641467E3,6.700757E1,3.7395172E1,1.4995288E2,1.2229999E2,4.495172E1,2.1649963E1,8.9170815E1,2.6521149E1,4.2140015E1,1.63948E2,9.8091034E2,3.233069E1,1.6185547E1,3.8428825E1,9.938904E0,6.618927E0,3.500717E1,3.644474E2,7.815082E1,2.5668701E1,2.006577E0,2.2585693E1,3.0551505E0,7.471155E1,2.1819628E1,2.7624062E3,3.2495018E1,2.7568848E1,7.825485E0,1.2313293E1,0E0,0E0,8.053833E0,8.37616E0,2.6454773E0,2.2963295E0,9.6430954E1,2.768079E1,7.438135E-1,0E0,7.434677E0,2.0858838E2,1.9858124E1,8.133806E0,0E0,1.5268803E-1,1.0703186E1,1.1768921E1,1.4539347E0,7.52213E-1,3.5512817E1,1.0949432E1,2.6953693E1,1.2853344E1,0E0,3.5364574E1,7.691613E0,1.2639603E1,1.8156311E1,1.3700104E1,0E0,0E0,0E0,0E0,0E0,0E0,0E0,0E0,0E0,0E0,0E0,0E0,0E0,0E0,0E0,0E0,0E0,0E0,0E0,0E0,0E0,0E0,0E0,0E0,0E0,0E0,0E0,0E0,0E0,0E0,0E0,0E0,0E0,0E0,0E0,0E0,0E0,0E0,0E0,0E0,0E0,0E0,0E0,0E0,0E0,0E0,0E0,0E0,0E0,0E0,0E0,0E0,0E0,0E0],"parents":[2147483647,0,0,1,1,2,2,3,3,4,4,5,5,6,6,7,7,8,8,9,9,10,10,11,11,12,12,13,13,14,14,15,15,16,16,17,17,18,18,19,19,20,20,21,21,22,22,23,23,24,24,25,25,26,26,27,27,28,28,29,29,30,30,31,31,32,32,35,35,36,36,37,37,38,38,39,39,40,40,41,41,43,43,44,44,45,45,46,46,48,48,49,49,50,50,51,51,52,52,53,53,54,54,55,55,56,56,58,58,59,59,60,60,61,61,62,62],"right_children":[2,4,6,8,10,12,14,16,18,20,22,24,26,28,30,32,34,36,38,40,42,44,46,48,50,52,54,56,58,60,62,64,66,-1,-1,68,70,72,74,76,78,80,-1,82,84,86,88,-1,90,92,94,96,98,100,102,104,106,-1,108,110,112,114,116,-1,-1,-1,-1,-1,-1,-1,-1,-1,-1,-1,-1,-1,-1,-1,-1,-1,-1,-1,-1,-1,-1,-1,-1,-1,-1,-1,-1,-1,-1,-1,-1,-1,-1,-1,-1,-1,-1,-1,-1,-1,-1,-1,-1,-1,-1,-1,-1,-1,-1,-1,-1,-1,-1],"split_conditions":[9.63E-1,1E0,5.976E-1,8.784E-1,8.589E-1,1.192E0,3.635E-1,4.4356E0,9.233E-1,1E0,3.229E1,1.401E-3,4.097E2,2.377E3,1E0,8.242E-1,8.376E-1,8.51E-4,1.7059E0,2.1832546E-3,-2.1917766E-4,1E0,6.184E1,2.1967806E-3,4.592E-1,-3.4290086E-4,2.6032E0,1.0052632E-2,4.705E3,2.512E-3,8.034E-1,1.2885E2,3.2049488E1,1.7708924E-1,8.55355E-3,-5.448353E-5,0E0,3.785E1,3.5613E0,6.05E0,4.359E1,6.142E-3,4.3347412E-1,1.999E4,1.9107E-2,4.427E1,4.407353E-4,9.485555E-3,1.1248E0,2.5771E-2,9.595E-1,1.256E-1,3.4361496E0,1.7059E0,5.3618394E-4,1.278452E-4,7.962056E1,1.2796026E0,5.316E1,4.963714E-4,1.588E0,9.879461E0,1.097337E1,5.456072E-3,-5.3229877E-3,-8.24744E-3,-1.2736228E-2,-3.6142932E-3,-1.1164437E-2,-1.3931003E-2,-9.294144E-3,-1.1647953E-2,-1.9292314E-2,-1.3460766E-2,-3.5817202E-3,-1.5555468E-2,2.3235686E-1,9.676389E-3,-3.4230046E-3,-3.3605874E-2,-1.049014E-2,1.431181E-3,5.7629216E-2,3.478754E-1,-2.977154E-2,-3.5110177E-3,-8.757937E-3,-6.166848E-3,9.697768E-4,-2.2462536E-2,-9.69625E-3,3.819872E-2,2.894522E-2,3.9265122E-2,5.12983E-2,1.7549658E-2,-8.84547E-3,-2.4458025E-2,-1.124244E-2,5.7218578E-2,8.132772E-2,1.7536224E-1,1.0232498E-1,1.0454742E-2,-5.065888E-2,5.012793E-2,-9.2296797E-4,-6.791906E-2,8.1931554E-2,-1.3896688E-2,2.6375836E-2,3.0090794E-2,8.814892E-2,6.5813504E-2,8.78674E-3,4.35954E-2,1.2991644E-2],"split_indices":[27,28,24,27,27,26,26,26,27,64,8,29,17,4,65,27,27,29,26,40,9,66,41,50,23,9,26,40,4,29,24,17,12,0,0,11,28,8,26,19,8,29,0,4,30,8,53,0,26,30,26,24,20,26,11,9,39,0,8,11,26,52,52,0,0,0,0,0,0,0,0,0,0,0,0,0,0,0,0,0,0,0,0,0,0,0,0,0,0,0,0,0,0,0,0,0,0,0,0,0,0,0,0,0,0,0,0,0,0,0,0,0,0,0,0,0,0],"split_type":[0,0,0,0,0,0,0,0,0,0,0,0,0,0,0,0,0,0,0,0,0,0,0,0,0,0,0,0,0,0,0,0,0,0,0,0,0,0,0,0,0,0,0,0,0,0,0,0,0,0,0,0,0,0,0,0,0,0,0,0,0,0,0,0,0,0,0,0,0,0,0,0,0,0,0,0,0,0,0,0,0,0,0,0,0,0,0,0,0,0,0,0,0,0,0,0,0,0,0,0,0,0,0,0,0,0,0,0,0,0,0,0,0,0,0,0,0],"sum_hessian":[5.8346E4,3.8278E4,2.0068E4,2.3239E4,1.5039E4,3.232E3,1.6836E4,1.1284E4,1.1955E4,2.672E3,1.2367E4,2.273E3,9.59E2,1.47E2,1.6689E4,1.1271E4,1.3E1,9.549E3,2.406E3,2.65E3,2.2E1,3.31E2,1.2036E4,3.7E1,2.236E3,7E1,8.89E2,1.28E2,1.9E1,3.79E2,1.631E4,2.189E3,9.082E3,5E0,8E0,1.772E3,7.777E3,2.078E3,3.28E2,1.6E1,2.634E3,1.7E1,5E0,3.17E2,1.4E1,1.0148E4,1.888E3,6E0,3.1E1,1.303E3,9.33E2,1.9E1,5.1E1,8.56E2,3.3E1,7.7E1,5.1E1,5E0,1.4E1,7E1,3.09E2,1.0722E4,5.588E3,1.83E2,2.006E3,7.132E3,1.95E3,4.89E2,1.283E3,6.625E3,1.152E3,1.26E2,1.952E3,2.5E2,7.8E1,1.1E1,5E0,4.96E2,2.138E3,5E0,1.2E1,3.12E2,5E0,5E0,9E0,2.348E3,7.8E3,5.72E2,1.316E3,2.6E1,5E0,6.2E2,6.83E2,5.94E2,3.39E2,9E0,1E1,3E1,2.1E1,6.45E2,2.11E2,1.5E1,1.8E1,5E1,2.7E1,3.1E1,2E1,8E0,6E0,5.6E1,1.4E1,3E2,9E0,1.3E1,1.0709E4,3.6E1,5.552E3],"tree_param":{"num_deleted":"0","num_feature":"104","num_nodes":"117","size_leaf_vector":"1"}},{"base_weights":[-1.6363212E-4,-1.6434929E-1,3.1122127E-1,-1.3449205E-1,-2.2571677E-1,8.3902854E-1,2.105172E-1,-1.3129965E-2,-1.4367986E-1,-1.3597451E-1,-2.4167372E-1,-2.5357163E-1,8.750066E-1,1.716217E-1,2.7878854E-1,1.1271217E-1,-2.4409408E-2,-1.6260482E-1,-1.058451E-1,-3.6003846E-1,-2.9154966E-2,-1.9577242E-1,-2.7566242E-1,2.8438063E-2,-3.5282746E-1,7.930056E-1,1.2522893E0,1.6823854E-1,6.671963E-1,2.4188897E-1,5.6620693E-1,7.4906605E-1,-3.435651E-2,-1.5216723E-1,-2.3281565E-1,-7.40103E-2,-1.352121E-1,3.9121684E-2,-3.707383E-1,1.13595545E-1,-3.9918434E-2,-3.390066E-1,-1.1732022E-1,-1.712121E-1,-3.4763387E-1,1.6220612E-2,-1.2883456E-1,-1.8711354E-3,-3.8383332E-1,1.8366475E0,7.7875143E-1,1.751076E0,1.1564391E0,3.5252607E-1,1.6100404E-1,3.3021072E-1,1.2290899E0,2.8483993E-1,1.8951021E-1,1.35262985E1,3.587762E-1,7.402046E-2,2.01931E-2,9.2483265E-4,-6.903878E-3,1.931565E-2,-7.777218E-3,-6.2395236E-3,-1.2118681E-2,-2.686857E-3,-6.21887E-3,-6.5465937E-3,-1.7871095E-2,1.081737E-2,-1.879869E-2,1.9011069E-3,-5.9573147E-3,-1.7207012E-2,9.600669E-3,-9.004427E-3,-2.767487E-4,-6.7764544E-3,-1.4594115E-2,2.706407E-2,-1.7462973E-2,9.999956E-3,-1.4799425E-2,-1.9303348E-3,-2.0779755E-2,6.847601E-2,1.4910275E-1,3.279714E-2,4.265466E-2,8.1421934E-2,1.4687647E-1,7.168685E-2,5.359903E-2,1.127647E-2,1.0271956E-1,2.914663E-3,8.849452E-3,2.4881432E-4,4.8002068E-2,4.8860397E-2,8.1213765E-2,2.224248E-2,1.2399227E-2,2.6887825E-2,8.342701E-3,-1.3826342E-2,1.2537371E0,3.7587076E-2,1.5588872E-2],"categories":[],"categories_nodes":[],"categories_segments":[],"categories_sizes":[],"default_left":[0,0,0,0,0,0,0,0,0,0,0,0,0,0,0,0,0,0,0,0,1,0,0,0,0,1,0,0,0,0,0,1,0,0,0,1,0,0,0,0,0,1,1,1,0,0,0,0,0,0,0,1,0,0,0,0,0,0,0,0,0,0,0,0,0,0,0,0,0,0,0,0,0,0,0,0,0,0,0,0,0,0,0,0,0,0,0,0,0,0,0,0,0,0,0,0,0,0,0,0,0,0,0,0,0,0,0,0,0,0,0,0,0],"id":12,"left_children":[1,3,5,7,9,11,13,15,17,19,21,23,25,27,29,-1,31,33,35,37,39,41,43,45,47,49,51,53,55,57,59,61,63,65,67,69,71,-1,73,-1,75,77,79,81,83,-1,85,-1,87,89,91,93,95,97,99,101,103,105,107,109,111,-1,-1,-1,-1,-1,-1,-1,-1,-1,-1,-1,-1,-1,-1,-1,-1,-1,-1,-1,-1,-1,-1,-1,-1,-1,-1,-1,-1,-1,-1,-1,-1,-1,-1,-1,-1,-1,-1,-1,-1,-1,-1,-1,-1,-1,-1,-1,-1,-1,-1,-1,-1],"loss_changes":[2.992956E3,7.020203E1,1.0740854E3,2.8753052E1,1.793042E1,1.2750659E2,4.5025757E1,4.649869E1,1.7147919E1,4.5369137E1,1.6559753E1,2.9211087E0,9.599634E1,1.802185E1,6.5183014E1,0E0,1.3936196E1,1.1673767E1,7.465393E0,7.771324E0,3.1916866E1,5.0908966E1,4.5917145E1,1.3451573E0,7.386503E-1,3.6920532E1,2.4652283E1,1.4267456E1,1.3416695E1,1.2229492E1,1.8769723E3,5.2087603E0,9.793379E0,2.5361145E1,2.1029053E0,3.9133186E0,3.907898E0,0E0,1.9470749E0,0E0,7.9086127E0,4.4386597E0,2.0564571E1,1.0712219E1,5.419861E0,0E0,1.1035484E0,0E0,7.515049E-1,1.410775E1,2.2675781E1,8.020691E0,9.4939575E0,8.7069824E1,1.6966248E1,9.622826E0,1.1003265E0,1.756955E1,1.9343193E1,1.7603462E3,1.2509163E1,0E0,0E0,0E0,0E0,0E0,0E0,0E0,0E0,0E0,0E0,0E0,0E0,0E0,0E0,0E0,0E0,0E0,0E0,0E0,0E0,0E0,0E0,0E0,0E0,0E0,0E0,0E0,0E0,0E0,0E0,0E0,0E0,0E0,0E0,0E0,0E0,0E0,0E0,0E0,0E0,0E0,0E0,0E0,0E0,0E0,0E0,0E0,0E0,0E0,0E0,0E0,0E0],"parents":[2147483647,0,0,1,1,2,2,3,3,4,4,5,5,6,6,7,7,8,8,9,9,10,10,11,11,12,12,13,13,14,14,16,16,17,17,18,18,19,19,20,20,21,21,22,22,23,23,24,24,25,25,26,26,27,27,28,28,29,29,30,30,31,31,32,32,33,33,34,34,35,35,36,36,38,38,40,40,41,41,42,42,43,43,44,44,46,46,48,48,49,49,50,50,51,51,52,52,53,53,54,54,55,55,56,56,57,57,58,58,59,59,60,60],"right_children":[2,4,6,8,10,12,14,16,18,20,22,24,26,28,30,-1,32,34,36,38,40,42,44,46,48,50,52,54,56,58,60,62,64,66,68,70,72,-1,74,-1,76,78,80,82,84,-1,86,-1,88,90,92,94,96,98,100,102,104,106,108,110,112,-1,-1,-1,-1,-1,-1,-1,-1,-1,-1,-1,-1,-1,-1,-1,-1,-1,-1,-1,-1,-1,-1,-1,-1,-1,-1,-1,-1,-1,-1,-1,-1,-1,-1,-1,-1,-1,-1,-1,-1,-1,-1,-1,-1,-1,-1,-1,-1,-1,-1,-1,-1],"split_conditions":[9.63E-1,8.985E-1,5.929E-1,8.128E-1,4.142E1,5.1395E2,7.98E-1,1.951E1,1E0,1E0,1E0,-3.4290086E-4,7.247E-1,2.545E-1,1E0,1.1271217E-1,4.755E1,3.5535786E1,8.695E-1,2.4E1,6.745E-1,6.287325E-5,8.618364E-5,1.256E-1,1.076408E1,2.388E1,1E0,7.4156077E-4,2.1859866E-3,1.48E1,1.7149057E-3,6.422677E-1,2.8569778E1,3.229E1,8.44E-4,5.124118E-3,4.7382854E1,3.9121684E-2,4.085E1,1.13595545E-1,4.308E1,6.081E1,5.741E1,5.208E1,2.254E1,1.6220612E-2,1.9680166E1,-1.8711354E-3,-1.9169114E-4,1.04166855E2,3.158E-1,1.5441E-2,3.929E-3,4.5568747E-3,3.834E1,1.8067546E-4,6.46E-1,1.6122587E1,-6.21446E-2,2.21E1,2.95E2,7.402046E-2,2.01931E-2,9.2483265E-4,-6.903878E-3,1.931565E-2,-7.777218E-3,-6.2395236E-3,-1.2118681E-2,-2.686857E-3,-6.21887E-3,-6.5465937E-3,-1.7871095E-2,1.081737E-2,-1.879869E-2,1.9011069E-3,-5.9573147E-3,-1.7207012E-2,9.600669E-3,-9.004427E-3,-2.767487E-4,-6.7764544E-3,-1.4594115E-2,2.706407E-2,-1.7462973E-2,9.999956E-3,-1.4799425E-2,-1.9303348E-3,-2.0779755E-2,6.847601E-2,1.4910275E-1,3.279714E-2,4.265466E-2,8.1421934E-2,1.4687647E-1,7.168685E-2,5.359903E-2,1.127647E-2,1.0271956E-1,2.914663E-3,8.849452E-3,2.4881432E-4,4.8002068E-2,4.8860397E-2,8.1213765E-2,2.224248E-2,1.2399227E-2,2.6887825E-2,8.342701E-3,-1.3826342E-2,1.2537371E0,3.7587076E-2,1.5588872E-2],"split_indices":[27,27,24,27,8,17,24,31,76,62,62,9,23,25,77,0,17,12,27,4,34,10,9,24,12,8,82,13,10,22,13,20,12,8,29,50,12,0,17,0,31,51,31,41,41,0,12,0,53,7,23,29,29,50,8,11,24,12,9,19,4,0,0,0,0,0,0,0,0,0,0,0,0,0,0,0,0,0,0,0,0,0,0,0,0,0,0,0,0,0,0,0,0,0,0,0,0,0,0,0,0,0,0,0,0,0,0,0,0,0,0,0,0],"split_type":[0,0,0,0,0,0,0,0,0,0,0,0,0,0,0,0,0,0,0,0,0,0,0,0,0,0,0,0,0,0,0,0,0,0,0,0,0,0,0,0,0,0,0,0,0,0,0,0,0,0,0,0,0,0,0,0,0,0,0,0,0,0,0,0,0,0,0,0,0,0,0,0,0,0,0,0,0,0,0,0,0,0,0,0,0,0,0,0,0,0,0,0,0,0,0,0,0,0,0,0,0,0,0,0,0,0,0,0,0,0,0,0,0],"sum_hessian":[5.854E4,3.833E4,2.021E4,2.5787E4,1.2543E4,3.237E3,1.6973E4,1.815E3,2.3972E4,1.895E3,1.0648E4,1.03E2,3.134E3,1.0815E4,6.158E3,8E0,1.807E3,1.5977E4,7.995E3,6.11E2,1.284E3,4.533E3,6.115E3,2.7E1,7.6E1,2.577E3,5.57E2,1.0743E4,7.2E1,5.459E3,6.99E2,2.2E1,1.785E3,1.3912E4,2.065E3,3.838E3,4.157E3,5E0,6.06E2,5E0,1.279E3,1.603E3,2.93E3,2.496E3,3.619E3,9E0,1.8E1,7E0,6.9E1,3.3E1,2.544E3,8.7E1,4.7E2,4.04E2,1.0339E4,4.6E1,2.6E1,2.997E3,2.462E3,1E1,6.89E2,6E0,1.6E1,1.183E3,6.02E2,8.6E1,1.3826E4,1.69E2,1.896E3,2.738E3,1.1E3,4.08E3,7.7E1,5E0,6.01E2,6.45E2,6.34E2,1.588E3,1.5E1,1.876E3,1.054E3,1.928E3,5.68E2,6E0,3.613E3,6E0,1.2E1,6E0,6.3E1,2.5E1,8E0,9.63E2,1.581E3,8.1E1,6E0,1.06E2,3.64E2,3.77E2,2.7E1,1.393E3,8.946E3,3.1E1,1.5E1,1.8E1,8E0,5.59E2,2.438E3,1.49E2,2.313E3,5E0,5E0,7.2E1,6.17E2],"tree_param":{"num_deleted":"0","num_feature":"104","num_nodes":"113","size_leaf_vector":"1"}},{"base_weights":[4.700496E-3,-1.5200138E-1,3.0199355E-1,-2.0167632E-1,-9.711477E-2,1.9493137E-1,8.20901E-1,-1.4012487E-1,-2.4504389E-1,2.3901933E-3,-1.20580845E-1,1.1194286E0,1.8721686E-1,7.5269604E-1,1.7009287E0,-8.338922E-2,-1.6526915E-1,-2.2525528E-1,-3.4424618E-1,1.9058425E0,-1.1435692E-2,-9.5681675E-2,-1.756091E-1,2.336991E-1,1.0283264E0,1.9718432E-1,6.7600687E-3,6.0092306E-1,8.991523E-1,2.16428E0,1.4575403E0,-6.480507E-2,-1.9881698E-1,-1.02407E-1,-1.8342641E-1,-1.9705701E-1,-2.8049472E-1,-3.5658935E-1,-1.0924088E-1,-2.5636992E-1,3.751221E-1,-1.8458555E-2,1.7187099E-1,-1.07574E-1,7.972633E-2,-1.4755654E-1,-2.8784198E-1,-4.9546503E-2,6.900851E-1,1.372937E-1,2.2422545E-1,-2.8054032E-2,3.5972407E-1,5.905565E-1,1.2196122E0,1.1718074E0,8.56329E-1,2.3348947E0,1.303901E0,1.8491933E0,1.1777594E0,-7.302437E-3,-1.0694158E-3,-5.5865753E-3,-1.4702481E-2,-6.8345377E-3,-2.3294162E-4,-1.4147247E-2,-8.6103575E-3,-7.764689E-3,-1.141618E-2,-5.867876E-3,-1.4662528E-2,-1.7924538E-2,9.857103E-3,-1.4667839E-2,2.1692791E-3,5.7117E-3,-2.681425E-2,-1.5435275E-3,8.053049E-2,3.3201983E-3,-5.8595436E-3,-1.0255639E-2,5.309443E-3,-9.993133E-4,-8.555425E-3,-1.7145792E-2,-1.1126741E-2,8.784154E-3,-2.6159806E-2,6.5024115E-2,1.0972886E-2,2.1870136E-3,8.867784E-3,4.1080803E-2,1.1049148E-2,-2.0654316E-4,-2.6483065E-2,3.0527804E-2,-1.1504388E-2,2.006644E-2,3.1028328E-2,7.925042E-2,-1.0082175E-2,5.087874E-2,1.3668175E-1,3.930815E-2,5.211205E-2,1.2302982E-1,3.129379E-2,8.9849934E-2,9.128579E-3,7.2852895E-2,1.2925296E-1,6.391976E-2,1.4678773E-3],"categories":[],"categories_nodes":[],"categories_segments":[],"categories_sizes":[],"default_left":[0,0,0,0,0,0,1,0,0,0,0,0,1,1,0,1,0,0,1,0,1,1,0,1,0,0,0,1,0,0,0,0,0,0,0,0,0,0,1,0,0,0,0,0,0,0,1,0,0,1,0,0,1,0,0,0,0,1,0,0,0,0,0,0,0,0,0,0,0,0,0,0,0,0,0,0,0,0,0,0,0,0,0,0,0,0,0,0,0,0,0,0,0,0,0,0,0,0,0,0,0,0,0,0,0,0,0,0,0,0,0,0,0,0,0,0,0],"id":13,"left_children":[1,3,5,7,9,11,13,15,17,19,21,23,25,27,29,31,33,35,37,39,41,43,45,47,-1,49,51,53,55,57,59,61,63,65,67,69,71,73,75,77,-1,79,-1,81,83,85,87,89,91,93,95,97,99,101,103,105,107,109,111,113,115,-1,-1,-1,-1,-1,-1,-1,-1,-1,-1,-1,-1,-1,-1,-1,-1,-1,-1,-1,-1,-1,-1,-1,-1,-1,-1,-1,-1,-1,-1,-1,-1,-1,-1,-1,-1,-1,-1,-1,-1,-1,-1,-1,-1,-1,-1,-1,-1,-1,-1,-1,-1,-1,-1,-1,-1],"loss_changes":[2.7188271E3,1.0417865E2,1.1189471E3,5.3512512E1,4.2399063E1,1.1889563E2,2.0549658E2,1.1818253E1,2.3022034E1,9.123623E1,2.011493E1,2.3722256E3,2.9790466E1,7.056726E1,2.4700745E1,5.4550457E0,6.5397034E0,1.5230011E1,5.6319275E0,3.0444928E2,8.343157E1,2.1114815E1,1.4364685E1,1.7227013E1,0E0,2.5389038E1,1.0676185E1,9.374878E0,1.7981812E1,9.139343E0,1.5902313E1,7.746434E0,2.8947086E0,4.322377E0,4.9276276E0,8.452209E0,6.8618774E0,2.0258636E0,2.7947223E0,2.0322766E0,0E0,6.95256E1,0E0,1.5862297E1,4.868432E0,1.1002174E1,3.21109E0,8.946349E0,1.4365349E1,1.830091E1,2.0761597E1,9.4898405E0,1.1680088E1,8.5529175E0,1.3302639E1,4.97312E1,1.7560547E1,1.3068207E1,8.518717E0,1.5566864E1,1.1403931E1,0E0,0E0,0E0,0E0,0E0,0E0,0E0,0E0,0E0,0E0,0E0,0E0,0E0,0E0,0E0,0E0,0E0,0E0,0E0,0E0,0E0,0E0,0E0,0E0,0E0,0E0,0E0,0E0,0E0,0E0,0E0,0E0,0E0,0E0,0E0,0E0,0E0,0E0,0E0,0E0,0E0,0E0,0E0,0E0,0E0,0E0,0E0,0E0,0E0,0E0,0E0,0E0,0E0,0E0,0E0,0E0],"parents":[2147483647,0,0,1,1,2,2,3,3,4,4,5,5,6,6,7,7,8,8,9,9,10,10,11,11,12,12,13,13,14,14,15,15,16,16,17,17,18,18,19,19,20,20,21,21,22,22,23,23,25,25,26,26,27,27,28,28,29,29,30,30,31,31,32,32,33,33,34,34,35,35,36,36,37,37,38,38,39,39,41,41,43,43,44,44,45,45,46,46,47,47,48,48,49,49,50,50,51,51,52,52,53,53,54,54,55,55,56,56,57,57,58,58,59,59,60,60],"right_children":[2,4,6,8,10,12,14,16,18,20,22,24,26,28,30,32,34,36,38,40,42,44,46,48,-1,50,52,54,56,58,60,62,64,66,68,70,72,74,76,78,-1,80,-1,82,84,86,88,90,92,94,96,98,100,102,104,106,108,110,112,114,116,-1,-1,-1,-1,-1,-1,-1,-1,-1,-1,-1,-1,-1,-1,-1,-1,-1,-1,-1,-1,-1,-1,-1,-1,-1,-1,-1,-1,-1,-1,-1,-1,-1,-1,-1,-1,-1,-1,-1,-1,-1,-1,-1,-1,-1,-1,-1,-1,-1,-1,-1,-1,-1,-1,-1,-1],"split_conditions":[9.63E-1,0E0,1E0,8.706E-1,8.589E-1,3.635E-1,1.7278E0,3.476E-3,9.233E-1,2.1832546E-3,9.091E-1,2.35E1,1.8763E0,9.001E-1,1E0,6.507E1,8.242E-1,2.5687292E1,2.6032E0,1.35E1,4.4356E0,6.554E1,2.067E-3,1.0012946E-2,1.0283264E0,7.156E-1,6.985E1,1.10646E2,2.9E0,3.5E-1,1.0892252E2,-1.6944658E-4,2.266E-3,1E0,3.895E1,5.381E1,1.2055E2,7.063E-2,2.3258857E-3,8.443E-1,3.751221E-1,1E0,1.7187099E-1,3.67E1,1E0,3.904E1,1.0394E0,4.61E2,1E0,2.23E1,1.097337E1,4.4356E0,6.604E1,5.06E-1,4.545E-1,2.5E0,1.3202E0,7.42E3,1.6E1,1.4831E-2,6.018E-1,-7.302437E-3,-1.0694158E-3,-5.5865753E-3,-1.4702481E-2,-6.8345377E-3,-2.3294162E-4,-1.4147247E-2,-8.6103575E-3,-7.764689E-3,-1.141618E-2,-5.867876E-3,-1.4662528E-2,-1.7924538E-2,9.857103E-3,-1.4667839E-2,2.1692791E-3,5.7117E-3,-2.681425E-2,-1.5435275E-3,8.053049E-2,3.3201983E-3,-5.8595436E-3,-1.0255639E-2,5.309443E-3,-9.993133E-4,-8.555425E-3,-1.7145792E-2,-1.1126741E-2,8.784154E-3,-2.6159806E-2,6.5024115E-2,1.0972886E-2,2.1870136E-3,8.867784E-3,4.1080803E-2,1.1049148E-2,-2.0654316E-4,-2.6483065E-2,3.0527804E-2,-1.1504388E-2,2.006644E-2,3.1028328E-2,7.925042E-2,-1.0082175E-2,5.087874E-2,1.3668175E-1,3.930815E-2,5.211205E-2,1.2302982E-1,3.129379E-2,8.9849934E-2,9.128579E-3,7.2852895E-2,1.2925296E-1,6.391976E-2,1.4678773E-3],"split_indices":[27,28,63,27,27,26,26,30,27,40,27,22,26,26,82,41,27,12,26,22,26,8,29,40,0,24,8,34,22,25,36,10,30,75,41,41,17,30,50,26,0,64,0,8,61,8,26,4,79,18,52,26,41,26,24,22,26,19,22,30,25,0,0,0,0,0,0,0,0,0,0,0,0,0,0,0,0,0,0,0,0,0,0,0,0,0,0,0,0,0,0,0,0,0,0,0,0,0,0,0,0,0,0,0,0,0,0,0,0,0,0,0,0,0,0,0,0],"split_type":[0,0,0,0,0,0,0,0,0,0,0,0,0,0,0,0,0,0,0,0,0,0,0,0,0,0,0,0,0,0,0,0,0,0,0,0,0,0,0,0,0,0,0,0,0,0,0,0,0,0,0,0,0,0,0,0,0,0,0,0,0,0,0,0,0,0,0,0,0,0,0,0,0,0,0,0,0,0,0,0,0,0,0,0,0,0,0,0,0,0,0,0,0,0,0,0,0,0,0,0,0,0,0,0,0,0,0,0,0,0,0,0,0,0,0,0,0],"sum_hessian":[5.8359E4,3.8216E4,2.0143E4,2.0059E4,1.8157E4,1.6699E4,3.444E3,8.293E3,1.1766E4,3.465E3,1.4692E4,1.37E2,1.6562E4,3.198E3,2.46E2,2.548E3,5.745E3,9.812E3,1.954E3,2.4E1,3.441E3,1.0117E4,4.575E3,1.32E2,5E0,1.5695E4,8.67E2,1.573E3,1.625E3,8.2E1,1.64E2,2.196E3,3.52E2,1.289E3,4.456E3,6.499E3,3.313E3,1.856E3,9.8E1,1.8E1,6E0,3.435E3,6E0,9.475E3,6.42E2,3.662E3,9.13E2,8.2E1,5E1,4.884E3,1.0811E4,7.9E2,7.7E1,1.549E3,2.4E1,2.17E2,1.408E3,6.7E1,1.5E1,6.6E1,9.8E1,7.64E2,1.432E3,1.85E2,1.67E2,9.54E2,3.35E2,4.49E2,4.007E3,2.785E3,3.714E3,2.41E2,3.072E3,1.85E3,6E0,4.4E1,5.4E1,8E0,1E1,3.41E3,2.5E1,4.96E2,8.979E3,5.4E1,5.88E2,5.71E2,3.091E3,4.93E2,4.2E2,5.6E1,2.6E1,2.1E1,2.9E1,1.465E3,3.419E3,5.7E1,1.0754E4,7.55E2,3.5E1,5.4E1,2.3E1,2.14E2,1.335E3,1.9E1,5E0,1.99E2,1.8E1,1.026E3,3.82E2,6.2E1,5E0,1E1,5E0,4.5E1,2.1E1,9E1,8E0],"tree_param":{"num_deleted":"0","num_feature":"104","num_nodes":"117","size_leaf_vector":"1"}},{"base_weights":[-1.8249124E-3,-1.4759126E-1,2.766147E-1,-1.8691656E-1,-8.692657E-2,1.7248403E-1,7.745063E-1,-1.3829501E-1,-2.3233244E-1,1.4100148E-1,-9.524349E-2,9.094801E-1,1.659231E-1,6.737406E-1,1.3358114E0,-1.4057599E-1,1.5860673E0,-2.1611719E-1,-3.3161065E-1,2.0411406E0,8.591861E-2,-1.11248314E-1,2.0010546E-2,2.578513E-1,5.4362357E-1,1.00117706E-1,1.9815874E-1,5.61496E-1,7.7856576E-1,1.1290087E0,1.6910627E0,-1.2195644E-1,-1.993773E-1,1.8676214E-1,6.8977633E-3,-1.0951187E-1,-2.2671989E-1,-3.4390154E-1,-5.380653E-2,2.5032532E-1,2.8903452E-3,2.9096803E-2,1.0130384E0,-6.7978375E-2,-1.559254E-1,-8.1134595E-2,9.689703E-2,1.2462577E-1,8.9103085E-1,-3.0389094E-1,1.0843525E-1,1.9100672E-1,4.576614E-1,5.4965174E-1,1.4620515E0,8.528415E-1,6.199572E-1,1.4669914E0,7.9035306E-1,2.5061846E0,1.4750574E0,-8.428743E-3,-4.923728E-3,-7.7445083E-3,-1.2215545E-2,-7.534242E-3,4.193354E-3,-1.059758E-2,-1.4815593E-2,-1.7396249E-2,-5.9329206E-3,-1.0953779E-2,5.209006E-3,5.451986E-3,-5.8586495E-3,3.169236E-1,-1.5279359E-2,-3.7455012E-3,6.287791E-2,-4.5438986E-3,-9.465002E-3,2.4058144E-3,-7.54434E-3,-1.0610236E-3,6.4825765E-3,-4.284158E-3,2.8798977E-2,8.92987E-2,2.0873375E-2,-7.3288674E-3,-2.2648437E-2,3.806932E-4,6.7929E-3,8.278337E-3,1.3112689E-2,7.904685E-2,1.9615326E-2,1.7629227E-2,2.9032443E-2,9.467225E-2,1.4184529E-2,4.5869075E-2,3.2287106E-2,6.760391E-2,2.7601307E-2,6.7853026E-2,1.456318E-1,3.306817E-2,6.2784664E-2,7.359757E-2,1.4833438E-1,6.660787E-2,1.2783536E-1],"categories":[],"categories_nodes":[],"categories_segments":[],"categories_sizes":[],"default_left":[0,1,0,0,0,0,1,1,0,0,1,0,0,0,1,0,0,0,1,1,0,0,0,1,0,0,1,1,0,0,0,1,1,0,0,0,1,0,0,0,0,0,0,0,0,0,1,0,0,0,1,1,0,0,0,0,1,0,1,0,0,0,0,0,0,0,0,0,0,0,0,0,0,0,0,0,0,0,0,0,0,0,0,0,0,0,0,0,0,0,0,0,0,0,0,0,0,0,0,0,0,0,0,0,0,0,0,0,0,0,0,0,0],"id":14,"left_children":[1,3,5,7,9,11,13,15,17,19,21,23,25,27,29,31,33,35,37,39,41,43,45,47,-1,49,51,53,55,57,59,61,63,-1,-1,65,67,69,71,-1,-1,73,75,77,79,81,83,85,87,89,91,93,95,97,99,101,103,105,107,109,111,-1,-1,-1,-1,-1,-1,-1,-1,-1,-1,-1,-1,-1,-1,-1,-1,-1,-1,-1,-1,-1,-1,-1,-1,-1,-1,-1,-1,-1,-1,-1,-1,-1,-1,-1,-1,-1,-1,-1,-1,-1,-1,-1,-1,-1,-1,-1,-1,-1,-1,-1,-1],"loss_changes":[2.3827485E3,9.191266E1,1.0457515E3,5.1590942E1,2.8745941E1,8.052716E1,1.9643872E2,4.4640945E1,1.9384644E1,5.571579E1,2.6977982E1,9.515457E2,3.5063965E1,3.439038E1,3.70282E1,1.2324539E1,4.6168407E1,1.1721313E1,5.7690125E0,8.793025E1,2.736445E1,2.4813278E1,1.3881485E1,1.1614393E1,0E0,1.8313309E1,2.0513855E1,1.4481384E1,1.7472351E1,3.7527924E1,3.0284851E1,9.363785E0,5.381363E0,0E0,0E0,7.512827E0,9.650482E0,1.4295654E0,1.9288754E0,0E0,0E0,5.754154E0,2.1260452E2,6.0046898E1,1.3696594E1,6.9582357E0,3.9257936E0,1.1060503E1,9.425911E0,2.513321E0,1.4738125E1,1.9539062E1,2.1183018E1,8.444916E0,8.612915E0,1.3281677E1,2.3672897E1,2.2746124E1,9.433655E0,1.4207611E1,2.0552063E1,0E0,0E0,0E0,0E0,0E0,0E0,0E0,0E0,0E0,0E0,0E0,0E0,0E0,0E0,0E0,0E0,0E0,0E0,0E0,0E0,0E0,0E0,0E0,0E0,0E0,0E0,0E0,0E0,0E0,0E0,0E0,0E0,0E0,0E0,0E0,0E0,0E0,0E0,0E0,0E0,0E0,0E0,0E0,0E0,0E0,0E0,0E0,0E0,0E0,0E0,0E0,0E0],"parents":[2147483647,0,0,1,1,2,2,3,3,4,4,5,5,6,6,7,7,8,8,9,9,10,10,11,11,12,12,13,13,14,14,15,15,16,16,17,17,18,18,19,19,20,