{"learner":{"attributes":{"scikit_learn":"{\"_estimator_type\": \"regressor\"}"},"feature_names":["open","high","low","close","volume","sma_20","sma_50","ema_200","rsi","macd","macd_signal","macd_histogram","adx","atr","bb_upper","bb_middle","bb_lower","volume_sma","dist_to_support_pips","dist_to_resistance_pips","dist_to_support_atr","dist_to_resistance_atr","dist_to_round_number_pips","body_ratio","tail_ratio","nose_ratio","range_atr_ratio","risk_reward_ratio","trend_alignment","volatility_regime","bb_width","htf_d_rsi","htf_d_adx","htf_d_macd_histogram","htf_d_close","htf_d_sma_20","htf_d_sma_50","htf_d_ema_200","htf_d_bb_upper","htf_d_bb_lower","htf_d_atr","htf_h4_rsi","htf_h4_adx","htf_h4_macd_histogram","htf_h4_close","htf_h4_sma_20","htf_h4_sma_50","htf_h4_ema_200","htf_h4_bb_upper","htf_h4_bb_lower","htf_h4_atr","htf_h1_rsi","htf_h1_adx","htf_h1_macd_histogram","htf_h1_close","htf_h1_sma_20","htf_h1_sma_50","htf_h1_ema_200","htf_h1_bb_upper","htf_h1_bb_lower","htf_h1_atr","pattern_type_double_bottom","pattern_type_double_top","pattern_type_false_breakout","pattern_type_head_and_shoulders","pattern_type_pin_bar","timeframe_D","timeframe_H1","timeframe_H4","timeframe_M15","trend_state_ranging","trend_state_strong_downtrend","trend_state_strong_uptrend","trend_state_unknown","trend_state_weak_downtrend","trend_state_weak_uptrend","trading_session_asian","trading_session_daily","trading_session_london","trading_session_new_york","trading_session_off_hours","trading_session_unknown","rsi_zone_neutral","rsi_zone_overbought","rsi_zone_oversold","rsi_zone_unknown","htf_d_trend_state_ranging","htf_d_trend_state_strong_downtrend","htf_d_trend_state_strong_uptrend","htf_d_trend_state_unknown","htf_d_trend_state_weak_downtrend","htf_d_trend_state_weak_uptrend","htf_h4_trend_state_ranging","htf_h4_trend_state_strong_downtrend","htf_h4_trend_state_strong_uptrend","htf_h4_trend_state_unknown","htf_h4_trend_state_weak_downtrend","htf_h4_trend_state_weak_uptrend","htf_h1_trend_state_ranging","htf_h1_trend_state_strong_downtrend","htf_h1_trend_state_strong_uptrend","htf_h1_trend_state_unknown","htf_h1_trend_state_weak_downtrend","htf_h1_trend_state_weak_uptrend"],"feature_types":["float","float","float","float","float","float","float","float","float","float","float","float","float","float","float","float","float","float","float","float","float","float","float","float","float","float","float","float","float","float","float","float","float","float","float","float","float","float","float","float","float","float","float","float","float","float","float","float","float","float","float","float","float","float","float","float","float","float","float","float","float","int","int","int","int","int","int","int","int","int","int","int","int","int","int","int","int","int","int","int","int","int","int","int","int","int","int","int","int","int","int","int","int","int","int","int","int","int","int","int","int","int","int","int"],"gradient_booster":{"model":{"cats":{"enc":[],"feature_segments":[],"sorted_idx":[]},"gbtree_model_param":{"num_parallel_tree":"1","num_trees":"300"},"iteration_indptr":[0,1,2,3,4,5,6,7,8,9,10,11,12,13,14,15,16,17,18,19,20,21,22,23,24,25,26,27,28,29,30,31,32,33,34,35,36,37,38,39,40,41,42,43,44,45,46,47,48,49,50,51,52,53,54,55,56,57,58,59,60,61,62,63,64,65,66,67,68,69,70,71,72,73,74,75,76,77,78,79,80,81,82,83,84,85,86,87,88,89,90,91,92,93,94,95,96,97,98,99,100,101,102,103,104,105,106,107,108,109,110,111,112,113,114,115,116,117,118,119,120,121,122,123,124,125,126,127,128,129,130,131,132,133,134,135,136,137,138,139,140,141,142,143,144,145,146,147,148,149,150,151,152,153,154,155,156,157,158,159,160,161,162,163,164,165,166,167,168,169,170,171,172,173,174,175,176,177,178,179,180,181,182,183,184,185,186,187,188,189,190,191,192,193,194,195,196,197,198,199,200,201,202,203,204,205,206,207,208,209,210,211,212,213,214,215,216,217,218,219,220,221,222,223,224,225,226,227,228,229,230,231,232,233,234,235,236,237,238,239,240,241,242,243,244,245,246,247,248,249,250,251,252,253,254,255,256,257,258,259,260,261,262,263,264,265,266,267,268,269,270,271,272,273,274,275,276,277,278,279,280,281,282,283,284,285,286,287,288,289,290,291,292,293,294,295,296,297,298,299,300],"tree_info":[0,0,0,0,0,0,0,0,0,0,0,0,0,0,0,0,0,0,0,0,0,0,0,0,0,0,0,0,0,0,0,0,0,0,0,0,0,0,0,0,0,0,0,0,0,0,0,0,0,0,0,0,0,0,0,0,0,0,0,0,0,0,0,0,0,0,0,0,0,0,0,0,0,0,0,0,0,0,0,0,0,0,0,0,0,0,0,0,0,0,0,0,0,0,0,0,0,0,0,0,0,0,0,0,0,0,0,0,0,0,0,0,0,0,0,0,0,0,0,0,0,0,0,0,0,0,0,0,0,0,0,0,0,0,0,0,0,0,0,0,0,0,0,0,0,0,0,0,0,0,0,0,0,0,0,0,0,0,0,0,0,0,0,0,0,0,0,0,0,0,0,0,0,0,0,0,0,0,0,0,0,0,0,0,0,0,0,0,0,0,0,0,0,0,0,0,0,0,0,0,0,0,0,0,0,0,0,0,0,0,0,0,0,0,0,0,0,0,0,0,0,0,0,0,0,0,0,0,0,0,0,0,0,0,0,0,0,0,0,0,0,0,0,0,0,0,0,0,0,0,0,0,0,0,0,0,0,0,0,0,0,0,0,0,0,0,0,0,0,0,0,0,0,0,0,0,0,0,0,0,0,0,0,0,0,0,0,0,0,0,0,0,0,0,0,0,0,0,0,0],"trees":[{"base_weights":[-9.155418E-4,-9.0727784E-2,1.6062671E0,-2.9754025E-1,3.9401042E-1,1.458525E0,2.7903023E0,-3.8077548E-1,-1.9837262E-1,5.3671656E0,3.7914002E-1,1.3220949E0,1.7508363E0,2.4463198E0,3.4523644E0,-3.416022E-1,-4.391159E-1,-7.843897E-2,-2.3063143E-1,2.0335026E0,7.4621934E-1,1.7942039E0,3.6715654E-1,1.2255812E0,1.5033295E0,1.4906547E0,1.9433857E0,2.502954E0,3.541551E-2,2.6732693E0,4.0824575E0,3.8812017E-1,-3.4476733E-1,-5.4758525E-1,-4.2134285E-1,-1.05417244E-1,4.489524E-1,-2.663593E-1,-9.9906586E-2,2.926385E-1,-1.0551065E-3,7.018341E-1,8.641043E0,3.2021314E-1,4.4080326E-1,8.4385204E-1,1.2476044E0,1.4135205E0,2.120646E0,1.6699094E0,1.3137587E0,1.9097675E0,1.4806645E-1,1.7476174E0,2.6188464E0,2.950637E0,1.6105937E0,1.6484796E-1,4.461848E0,-7.3394957E-3,2.1531461E-1,-1.6444994E-2,-2.181659E-2,-2.8883317E-2,-2.4487736E-2,-1.9955E-2,-2.6689395E-2,-3.9822697E-3,-2.2438593E-2,6.144191E-1,-9.8467395E-3,3.6355183E-2,-1.3597593E-2,-1.1574683E-2,-1.4356232E-3,2.6531084E-2,-8.106865E-3,4.773706E-2,8.363316E-3,1.3693517E0,2.832879E-2,1.5247597E-2,2.3080504E-2,2.9406024E-2,1.9872662E-2,-6.9961124E-3,4.663567E-2,6.178675E-2,1.2236837E-1,7.27633E-2,2.5362765E-2,9.395831E-2,2.4934684E-1,4.867219E-2,8.679917E-2,6.0474314E-2,9.182132E-2,8.940231E-2,1.0374669E-1,3.1885166E-2,9.58496E-2,1.4055885E-1,1.0831095E-1,1.899681E-1,1.3119203E-1,3.6166E-2,1.0115774E-1,1.6237898E-1,2.4548152E-1],"categories":[],"categories_nodes":[],"categories_segments":[],"categories_sizes":[],"default_left":[0,0,1,1,0,1,0,1,0,0,0,0,0,0,0,0,0,0,1,0,0,0,1,0,0,1,0,0,0,0,0,0,1,1,1,0,0,0,0,0,0,0,0,1,0,0,1,1,0,0,0,1,0,0,0,0,0,0,0,0,0,0,0,0,0,0,0,0,0,0,0,0,0,0,0,0,0,0,0,0,0,0,0,0,0,0,0,0,0,0,0,0,0,0,0,0,0,0,0,0,0,0,0,0,0,0,0,0,0],"id":0,"left_children":[1,3,5,7,9,11,13,15,17,19,21,23,25,27,29,31,33,35,37,-1,39,41,43,45,47,49,51,53,-1,55,57,59,61,63,65,67,69,71,73,-1,75,77,79,81,83,85,87,89,91,93,95,97,-1,99,101,103,105,-1,107,-1,-1,-1,-1,-1,-1,-1,-1,-1,-1,-1,-1,-1,-1,-1,-1,-1,-1,-1,-1,-1,-1,-1,-1,-1,-1,-1,-1,-1,-1,-1,-1,-1,-1,-1,-1,-1,-1,-1,-1,-1,-1,-1,-1,-1,-1,-1,-1,-1,-1],"loss_changes":[8.902169E3,5.8556147E3,5.669082E2,3.3786914E2,1.2897744E3,1.1349756E2,7.376782E1,5.071826E1,7.227258E1,8.452555E3,2.94688E2,3.286084E1,4.3243164E1,2.1948975E1,4.8485718E1,3.0900757E1,1.7000244E1,5.6419106E1,6.874219E1,0E0,1.7935794E2,1.0859103E3,5.957202E1,9.875977E0,3.4979004E1,1.0363098E1,1.2345093E1,1.581958E1,0E0,1.2048584E1,4.6601562E0,1.2219256E2,1.9127808E1,1.9003296E0,1.9005371E1,3.3324562E1,1.4782786E3,6.444165E1,2.9615686E1,0E0,3.683067E0,1.7010193E1,3.011761E3,2.2629272E1,4.2687866E1,6.5995483E0,1.444873E1,2.1999146E1,4.946158E1,7.1916504E0,8.89679E0,6.583374E0,0E0,5.169235E0,1.1321289E1,2.2349243E0,3.661377E0,0E0,6.3484497E0,0E0,0E0,0E0,0E0,0E0,0E0,0E0,0E0,0E0,0E0,0E0,0E0,0E0,0E0,0E0,0E0,0E0,0E0,0E0,0E0,0E0,0E0,0E0,0E0,0E0,0E0,0E0,0E0,0E0,0E0,0E0,0E0,0E0,0E0,0E0,0E0,0E0,0E0,0E0,0E0,0E0,0E0,0E0,0E0,0E0,0E0,0E0,0E0,0E0,0E0],"parents":[2147483647,0,0,1,1,2,2,3,3,4,4,5,5,6,6,7,7,8,8,9,9,10,10,11,11,12,12,13,13,14,14,15,15,16,16,17,17,18,18,20,20,21,21,22,22,23,23,24,24,25,25,26,26,27,27,29,29,30,30,31,31,32,32,33,33,34,34,35,35,36,36,37,37,38,38,40,40,41,41,42,42,43,43,44,44,45,45,46,46,47,47,48,48,49,49,50,50,51,51,53,53,54,54,55,55,56,56,58,58],"right_children":[2,4,6,8,10,12,14,16,18,20,22,24,26,28,30,32,34,36,38,-1,40,42,44,46,48,50,52,54,-1,56,58,60,62,64,66,68,70,72,74,-1,76,78,80,82,84,86,88,90,92,94,96,98,-1,100,102,104,106,-1,108,-1,-1,-1,-1,-1,-1,-1,-1,-1,-1,-1,-1,-1,-1,-1,-1,-1,-1,-1,-1,-1,-1,-1,-1,-1,-1,-1,-1,-1,-1,-1,-1,-1,-1,-1,-1,-1,-1,-1,-1,-1,-1,-1,-1,-1,-1,-1,-1,-1,-1],"split_conditions":[1E0,1E0,1.5749E0,0E0,1.5784899E-3,5.417E-1,1.9853E0,2.4720875E1,4.386E1,4.326E1,3.638E-1,9.898E-1,9.701E-1,6.205E-1,7.158E-1,4.08E-4,3.637E1,3.90112E2,5.939E1,2.0335026E0,-3.4452507E-5,2.384E3,7.889E-1,4.427E-1,3.805425E1,5.9871376E-1,9.375E-1,8.7575E-1,3.541551E-2,3.87066E4,1.1581782E0,7.044E1,6.173E1,4.041E1,6.753E1,1E0,2.2954678E-3,1.5784899E-3,6.094E1,2.926385E-1,5.34E0,6.388905E-2,2.911E-3,8.703998E1,7.26E-1,1.1949944E1,4.7057667E1,6.739E-1,1.9689005E5,9.173E-3,8E-1,2.8630795E-3,1.4806645E-1,-5.6756246E-3,2.111E-1,8.19E-2,3.5E-1,1.6484796E-1,2.1883E0,-7.3394957E-3,2.1531461E-1,-1.6444994E-2,-2.181659E-2,-2.8883317E-2,-2.4487736E-2,-1.9955E-2,-2.6689395E-2,-3.9822697E-3,-2.2438593E-2,6.144191E-1,-9.8467395E-3,3.6355183E-2,-1.3597593E-2,-1.1574683E-2,-1.4356232E-3,2.6531084E-2,-8.106865E-3,4.773706E-2,8.363316E-3,1.3693517E0,2.832879E-2,1.5247597E-2,2.3080504E-2,2.9406024E-2,1.9872662E-2,-6.9961124E-3,4.663567E-2,6.178675E-2,1.2236837E-1,7.27633E-2,2.5362765E-2,9.395831E-2,2.4934684E-1,4.867219E-2,8.679917E-2,6.0474314E-2,9.182132E-2,8.940231E-2,1.0374669E-1,3.1885166E-2,9.58496E-2,1.4055885E-1,1.0831095E-1,1.899681E-1,1.3119203E-1,3.6166E-2,1.0115774E-1,1.6237898E-1,2.4548152E-1],"split_indices":[63,65,26,28,40,23,26,12,8,41,26,26,26,25,23,30,41,34,31,0,11,4,24,26,12,21,23,0,0,17,21,41,31,31,41,61,13,40,41,0,18,13,29,46,26,12,32,24,17,30,23,9,0,9,24,24,23,0,26,0,0,0,0,0,0,0,0,0,0,0,0,0,0,0,0,0,0,0,0,0,0,0,0,0,0,0,0,0,0,0,0,0,0,0,0,0,0,0,0,0,0,0,0,0,0,0,0,0,0],"split_type":[0,0,0,0,0,0,0,0,0,0,0,0,0,0,0,0,0,0,0,0,0,0,0,0,0,0,0,0,0,0,0,0,0,0,0,0,0,0,0,0,0,0,0,0,0,0,0,0,0,0,0,0,0,0,0,0,0,0,0,0,0,0,0,0,0,0,0,0,0,0,0,0,0,0,0,0,0,0,0,0,0,0,0,0,0,0,0,0,0,0,0,0,0,0,0,0,0,0,0,0,0,0,0,0,0,0,0,0,0],"sum_hessian":[6.1671E4,5.8408E4,3.263E3,4.0941E4,1.7467E4,2.903E3,3.6E2,2.2257E4,1.8684E4,5.1E1,1.7416E4,1.983E3,9.2E2,2.4E2,1.2E2,1.332E4,8.937E3,3.961E3,1.4723E4,5E0,4.6E1,1.45E2,1.7271E4,1.299E3,6.84E2,3.95E2,5.25E2,2.32E2,8E0,5.6E1,6.4E1,5.7E1,1.3263E4,1.254E3,7.683E3,3.769E3,1.92E2,1.1562E4,3.161E3,5E0,4.1E1,1.26E2,1.9E1,1.0551E4,6.72E3,7.3E1,1.226E3,6E2,8.4E1,1.92E2,2.03E2,5.11E2,1.4E1,3.3E1,1.99E2,4.3E1,1.3E1,2.4E1,4E1,5.1E1,6E0,1.1308E4,1.955E3,8.19E2,4.35E2,6.418E3,1.265E3,3.507E3,2.62E2,9E0,1.83E2,6.4E1,1.1498E4,1.109E3,2.052E3,9E0,3.2E1,8.5E1,4.1E1,5E0,1.4E1,9.526E3,1.025E3,1.525E3,5.195E3,6E0,6.7E1,1.216E3,1E1,5.73E2,2.7E1,7.9E1,5E0,1.8E1,1.74E2,1.72E2,3.1E1,3.01E2,2.1E2,5E0,2.8E1,1.36E2,6.3E1,9E0,3.4E1,5E0,8E0,1.3E1,2.7E1],"tree_param":{"num_deleted":"0","num_feature":"104","num_nodes":"109","size_leaf_vector":"1"}},{"base_weights":[4.4786073E-3,-2.8020817E-1,5.6162506E-1,-1.8395263E-1,-3.189288E-1,1.2678138E1,5.389819E-1,1.391784E0,-1.9147953E-1,-2.9184982E-1,-4.0641657E-1,4.1511927E0,-1.0869716E-1,3.5681528E-1,1.534727E0,1.9289504E-3,4.8653364E-1,-1.9709775E-1,1.4932762E0,-2.4627468E-1,-3.120047E-1,-2.1956952E-1,-4.429968E-1,-6.619395E-2,1.4646795E-1,2.8318694E-1,4.2232957E-1,1.3046188E0,1.9200208E0,-3.273974E-1,5.872909E-1,8.1834245E-1,-1.9934975E-1,4.6738002E-1,6.329917E-2,-1.1647174E-1,-4.3804774E-1,-2.1704401E-1,-3.9307433E-1,-5.7002246E-1,-8.3156325E-2,-3.5788956E-1,-5.024113E-1,3.366482E-2,-2.02393E-2,-4.2852533E-1,2.9356644E-1,2.5813228E-1,4.192392E-1,1.2002943E0,1.5135003E0,1.8465784E0,2.7499642E0,-2.3014715E-2,-3.3772339E-3,-1.6152848E-2,8.828039E-2,-1.7027222E-2,2.3690282E-1,-8.7835975E-3,-1.4405059E-2,7.945264E-3,-1.6408397E-2,-2.7512517E-3,-1.0113145E-2,-2.6850864E-2,-1.9150196E-2,-1.3633407E-2,-3.6436224E-3,-1.5127075E-2,-2.2303144E-2,2.5309835E-2,-2.94446E-2,1.6435374E-3,-1.0195333E-2,-2.4555888E-2,-7.93947E-3,-1.7543675E-2,-2.9621447E-2,-1.0835489E-2,1.2842165E-2,-1.306612E-2,-3.1068875E-2,8.796504E-3,1.5375142E-2,2.644459E-2,1.8865563E-2,7.612809E-2,5.7259012E-2,7.246952E-2,9.506104E-2,8.198533E-2,1.0570621E-1,1.305091E-1,2.0771573E-1],"categories":[],"categories_nodes":[],"categories_segments":[],"categories_sizes":[],"default_left":[0,0,0,0,0,0,0,1,0,0,0,0,0,1,1,0,0,0,0,0,0,0,0,0,0,0,0,1,1,0,0,0,0,0,1,1,0,1,0,0,0,1,0,0,0,0,0,0,1,1,1,0,1,0,0,0,0,0,0,0,0,0,0,0,0,0,0,0,0,0,0,0,0,0,0,0,0,0,0,0,0,0,0,0,0,0,0,0,0,0,0,0,0,0,0],"id":1,"left_children":[1,3,5,7,9,11,13,15,17,19,21,-1,23,25,27,29,-1,31,33,35,37,39,41,-1,43,45,47,49,51,53,55,57,59,-1,61,63,65,67,69,71,73,75,77,-1,79,81,83,-1,85,87,89,91,93,-1,-1,-1,-1,-1,-1,-1,-1,-1,-1,-1,-1,-1,-1,-1,-1,-1,-1,-1,-1,-1,-1,-1,-1,-1,-1,-1,-1,-1,-1,-1,-1,-1,-1,-1,-1,-1,-1,-1,-1,-1,-1],"loss_changes":[9.81762E3,1.526211E2,5.7359824E3,1.3967389E2,6.908716E1,3.5089484E4,3.7894463E3,6.490126E2,1.1102908E2,2.0417236E1,4.707727E1,0E0,1.0736355E1,8.5086426E1,2.8395312E2,9.638257E0,0E0,2.6829254E1,4.374369E2,1.7036438E2,1.18978516E2,5.4069447E1,2.9001709E1,0E0,2.5605845E0,6.1587463E1,1.3473438E2,4.2332764E1,6.843164E1,1.073986E0,1.98786E1,1.1971864E2,2.4401733E1,0E0,1.3246531E0,2.1518024E1,1.4846252E1,5.711844E1,3.98833E1,6.735649E0,1.1439114E1,6.2947205E1,4.611725E1,0E0,1.307747E0,3.7070732E0,1.3390869E1,0E0,4.274121E1,2.234082E1,1.3923218E1,5.8024902E1,8.001587E0,0E0,0E0,0E0,0E0,0E0,0E0,0E0,0E0,0E0,0E0,0E0,0E0,0E0,0E0,0E0,0E0,0E0,0E0,0E0,0E0,0E0,0E0,0E0,0E0,0E0,0E0,0E0,0E0,0E0,0E0,0E0,0E0,0E0,0E0,0E0,0E0,0E0,0E0,0E0,0E0,0E0,0E0],"parents":[2147483647,0,0,1,1,2,2,3,3,4,4,5,5,6,6,7,7,8,8,9,9,10,10,12,12,13,13,14,14,15,15,17,17,18,18,19,19,20,20,21,21,22,22,24,24,25,25,26,26,27,27,28,28,29,29,30,30,31,31,32,32,34,34,35,35,36,36,37,37,38,38,39,39,40,40,41,41,42,42,44,44,45,45,46,46,48,48,49,49,50,50,51,51,52,52],"right_children":[2,4,6,8,10,12,14,16,18,20,22,-1,24,26,28,30,-1,32,34,36,38,40,42,-1,44,46,48,50,52,54,56,58,60,-1,62,64,66,68,70,72,74,76,78,-1,80,82,84,-1,86,88,90,92,94,-1,-1,-1,-1,-1,-1,-1,-1,-1,-1,-1,-1,-1,-1,-1,-1,-1,-1,-1,-1,-1,-1,-1,-1,-1,-1,-1,-1,-1,-1,-1,-1,-1,-1,-1,-1,-1,-1,-1,-1,-1,-1],"split_conditions":[9.633E-1,8.637E-1,6.5878895E-4,2.4875594E-4,9.152E-1,3.958E1,1E0,4.933677E-5,1E0,4.77E1,4.174E1,4.1511927E0,4.382E1,7.579E-1,5.333E-1,2.0153496E1,4.8653364E-1,1.5784899E-3,4.285E-3,1E0,1E0,1E0,1E0,-6.619395E-2,1.0184331E0,5.897E-1,1.5784899E-3,3.571E-1,6.996E1,1.5784899E-3,1E0,4.9108645E-4,3.2016506E1,4.6738002E-1,4.879442E-2,4.727E1,3.903E1,5.801E1,4.912E1,4E1,4.314E1,5.571E1,-8.226603E-5,3.366482E-2,8.348E-1,5.422E1,3.727E1,2.5813228E-1,3.782E1,4.4619697E-3,2.2683712E1,7.228E-1,1.3346914E0,-2.3014715E-2,-3.3772339E-3,-1.6152848E-2,8.828039E-2,-1.7027222E-2,2.3690282E-1,-8.7835975E-3,-1.4405059E-2,7.945264E-3,-1.6408397E-2,-2.7512517E-3,-1.0113145E-2,-2.6850864E-2,-1.9150196E-2,-1.3633407E-2,-3.6436224E-3,-1.5127075E-2,-2.2303144E-2,2.5309835E-2,-2.94446E-2,1.6435374E-3,-1.0195333E-2,-2.4555888E-2,-7.93947E-3,-1.7543675E-2,-2.9621447E-2,-1.0835489E-2,1.2842165E-2,-1.306612E-2,-3.1068875E-2,8.796504E-3,1.5375142E-2,2.644459E-2,1.8865563E-2,7.612809E-2,5.7259012E-2,7.246952E-2,9.506104E-2,8.198533E-2,1.0570621E-1,1.305091E-1,2.0771573E-1],"split_indices":[27,27,50,13,27,31,63,43,64,8,8,0,41,24,23,42,0,40,29,61,62,62,62,0,20,24,40,23,8,40,61,13,12,0,11,31,31,41,31,4,31,41,10,0,24,41,8,0,31,13,32,23,40,0,0,0,0,0,0,0,0,0,0,0,0,0,0,0,0,0,0,0,0,0,0,0,0,0,0,0,0,0,0,0,0,0,0,0,0,0,0,0,0,0,0],"split_type":[0,0,0,0,0,0,0,0,0,0,0,0,0,0,0,0,0,0,0,0,0,0,0,0,0,0,0,0,0,0,0,0,0,0,0,0,0,0,0,0,0,0,0,0,0,0,0,0,0,0,0,0,0,0,0,0,0,0,0,0,0,0,0,0,0,0,0,0,0,0,0,0,0,0,0,0,0,0,0,0,0,0,0,0,0,0,0,0,0,0,0,0,0,0,0],"sum_hessian":[6.1895E4,4.0964E4,2.0931E4,1.1753E4,2.9211E4,3.8E1,2.0893E4,5.5E1,1.1698E4,2.231E4,6.901E3,5E0,3.3E1,1.7663E4,3.23E3,4.8E1,7E0,1.166E4,3.8E1,6.845E3,1.5465E4,1.131E3,5.77E3,5E0,2.8E1,8.319E3,9.344E3,2.025E3,1.205E3,3.1E1,1.7E1,2.5E1,1.1635E4,5E0,3.3E1,4.083E3,2.762E3,7.124E3,8.341E3,3.16E2,8.15E2,2.375E3,3.395E3,6E0,2.2E1,1.19E2,8.2E3,5E0,9.339E3,1.355E3,6.7E2,1.11E3,9.5E1,2E1,1.1E1,1E1,7E0,2E1,5E0,9.187E3,2.448E3,2.7E1,6E0,2.38E3,1.703E3,9.84E2,1.778E3,5.14E3,1.984E3,3.082E3,5.259E3,5E0,3.11E2,4.16E2,3.99E2,1.422E3,9.53E2,1.267E3,2.128E3,1.3E1,9E0,6.5E1,5.4E1,8.7E2,7.33E3,2.58E3,6.759E3,1.94E2,1.161E3,5.79E2,9.1E1,6.3E2,4.8E2,8.9E1,6E0],"tree_param":{"num_deleted":"0","num_feature":"104","num_nodes":"95","size_leaf_vector":"1"}},{"base_weights":[4.3440046E-4,-2.6764208E-1,5.294856E-1,-3.4209126E-1,-1.783047E-1,1.2135953E1,5.0821716E-1,-2.9016042E-1,-4.6947813E-1,1.9330615E-1,-1.9095916E-1,2.9928234E0,-5.7049954E-1,3.3668154E-1,1.4429522E0,-2.2474432E-1,-3.2718125E-1,-4.2565233E-1,-5.554113E-1,2.525774E-1,1.4520328E-1,-6.389204E-2,-2.187505E-1,-7.7328525E-2,-1.6375445E-1,1.60068E0,3.2649502E-1,1.2919769E0,2.408791E0,-1.8922302E-1,-2.8879827E-1,-2.9500312E-1,-3.932891E-1,-2.1257764E-1,-4.4193605E-1,-5.710039E-1,-1.9430238E-1,2.003774E0,2.1693863E-2,-8.213552E-2,2.608366E0,-2.4516049E-1,-7.4213415E-2,-5.5228376E-1,3.1030333E-1,4.7573915E-1,1.0051368E0,-4.0447733E-1,3.3334327E-1,1.1772145E0,1.5502251E0,2.0847802E0,2.934694E0,-6.2279375E-3,-1.0871462E-2,3.3861097E-2,-1.4598264E-2,-8.311615E-3,-1.5472929E-2,-1.8972827E-2,-2.6049275E-2,5.186605E-2,-1.1835309E-2,-2.0681754E-2,-2.6440993E-2,-2.9044423E-2,-1.1875886E-2,-3.4001917E-3,-2.265263E-2,-1.4696008E-3,3.8497892E-1,6.3555497E-3,-6.41473E-3,-5.211418E-3,2.0972807E-2,4.7373793E-1,1.5750042E-3,-7.888302E-3,-1.4326234E-2,-3.049759E-3,-2.5925174E-2,-5.0631493E-2,-6.899436E-3,2.7842999E-2,6.01473E-4,3.1272576E-3,3.7869193E-2,-2.9683402E-2,-9.656119E-3,1.4433064E-2,2.0578008E-2,5.002768E-2,6.2025037E-2,6.414916E-2,8.744912E-2,8.3176866E-2,1.2870693E-1,1.9423972E-1,1.3318159E-1],"categories":[],"categories_nodes":[],"categories_segments":[],"categories_sizes":[],"default_left":[0,1,0,0,0,0,0,0,0,0,0,0,0,0,1,0,1,0,1,0,1,0,1,0,0,0,0,1,1,0,0,0,0,0,1,0,0,0,0,0,0,0,0,1,1,0,0,1,0,0,0,0,0,0,0,0,0,0,0,0,0,0,0,0,0,0,0,0,0,0,0,0,0,0,0,0,0,0,0,0,0,0,0,0,0,0,0,0,0,0,0,0,0,0,0,0,0,0,0],"id":2,"left_children":[1,3,5,7,9,11,13,15,17,19,21,-1,23,25,27,29,31,33,35,-1,37,39,41,-1,43,45,47,49,51,53,55,57,59,61,63,65,67,69,71,73,75,77,79,81,83,85,-1,87,89,91,93,95,97,-1,-1,-1,-1,-1,-1,-1,-1,-1,-1,-1,-1,-1,-1,-1,-1,-1,-1,-1,-1,-1,-1,-1,-1,-1,-1,-1,-1,-1,-1,-1,-1,-1,-1,-1,-1,-1,-1,-1,-1,-1,-1,-1,-1,-1,-1],"loss_changes":[8.771382E3,2.7294653E2,5.128094E3,1.4796729E2,8.7786194E1,2.307577E4,3.3284995E3,3.844934E1,2.4175293E1,1.4298917E2,6.3713135E1,0E0,1.2054116E1,2.253695E2,4.662754E2,1.3032776E1,2.1488037E1,1.48151245E1,1.2197632E1,0E0,1.3998262E2,1.5816846E2,5.6503418E1,0E0,4.4076385E0,2.904357E3,8.7262085E1,8.074463E1,6.783472E1,6.726944E0,6.469467E0,1.2671509E1,5.670166E0,9.504111E0,9.594666E0,6.7678833E0,2.9757297E0,4.4028592E2,9.076212E0,3.5715347E1,3.8896454E2,4.5211E1,1.3411056E1,2.3396173E0,8.022568E-1,1.5430357E1,0E0,6.363146E0,6.0147095E1,2.0370117E1,4.3117188E1,5.1787598E1,3.163086E1,0E0,0E0,0E0,0E0,0E0,0E0,0E0,0E0,0E0,0E0,0E0,0E0,0E0,0E0,0E0,0E0,0E0,0E0,0E0,0E0,0E0,0E0,0E0,0E0,0E0,0E0,0E0,0E0,0E0,0E0,0E0,0E0,0E0,0E0,0E0,0E0,0E0,0E0,0E0,0E0,0E0,0E0,0E0,0E0,0E0,0E0],"parents":[2147483647,0,0,1,1,2,2,3,3,4,4,5,5,6,6,7,7,8,8,9,9,10,10,12,12,13,13,14,14,15,15,16,16,17,17,18,18,20,20,21,21,22,22,24,24,25,25,26,26,27,27,28,28,29,29,30,30,31,31,32,32,33,33,34,34,35,35,36,36,37,37,38,38,39,39,40,40,41,41,42,42,43,43,44,44,45,45,47,47,48,48,49,49,50,50,51,51,52,52],"right_children":[2,4,6,8,10,12,14,16,18,20,22,-1,24,26,28,30,32,34,36,-1,38,40,42,-1,44,46,48,50,52,54,56,58,60,62,64,66,68,70,72,74,76,78,80,82,84,86,-1,88,90,92,94,96,98,-1,-1,-1,-1,-1,-1,-1,-1,-1,-1,-1,-1,-1,-1,-1,-1,-1,-1,-1,-1,-1,-1,-1,-1,-1,-1,-1,-1,-1,-1,-1,-1,-1,-1,-1,-1,-1,-1,-1,-1,-1,-1,-1,-1,-1,-1],"split_conditions":[9.633E-1,0E0,6.5878895E-4,8.984E-1,3.38E1,1.20099E0,1E0,8.572E-1,9.231E-1,2.471549E-3,8.587E-1,2.9928234E0,8.8E0,3.638E-1,1.486E0,2.8959131E1,2.5568354E1,1.1985E2,3.0895E0,2.525774E-1,1.945E1,1E0,6.164E1,-7.7328525E-2,5.177E1,2.32E1,1E0,5.417E-1,1.5573681E1,3.057E-3,1.1E1,1.3995E2,4.768918E1,-3.0388571E-2,3.0327202E1,3.8633167E2,6.317E1,-3.258493E-3,4.248E1,1E0,1.0639E-2,4.69E1,1E0,5E-1,2.5E-1,7.889E-1,1.0051368E0,0E0,8E-1,6.849E-1,9.595E-1,6.914E-1,1.849183E1,-6.2279375E-3,-1.0871462E-2,3.3861097E-2,-1.4598264E-2,-8.311615E-3,-1.5472929E-2,-1.8972827E-2,-2.6049275E-2,5.186605E-2,-1.1835309E-2,-2.0681754E-2,-2.6440993E-2,-2.9044423E-2,-1.1875886E-2,-3.4001917E-3,-2.265263E-2,-1.4696008E-3,3.8497892E-1,6.3555497E-3,-6.41473E-3,-5.211418E-3,2.0972807E-2,4.7373793E-1,1.5750042E-3,-7.888302E-3,-1.4326234E-2,-3.049759E-3,-2.5925174E-2,-5.0631493E-2,-6.899436E-3,2.7842999E-2,6.01473E-4,3.1272576E-3,3.7869193E-2,-2.9683402E-2,-9.656119E-3,1.4433064E-2,2.0578008E-2,5.002768E-2,6.2025037E-2,6.414916E-2,8.744912E-2,8.3176866E-2,1.2870693E-1,1.9423972E-1,1.3318159E-1],"split_indices":[27,28,50,27,8,34,63,27,27,40,27,0,22,26,26,12,12,17,26,0,31,64,41,0,8,22,65,23,32,30,4,17,12,9,12,7,41,9,31,71,30,8,62,19,19,24,0,28,24,26,26,23,32,0,0,0,0,0,0,0,0,0,0,0,0,0,0,0,0,0,0,0,0,0,0,0,0,0,0,0,0,0,0,0,0,0,0,0,0,0,0,0,0,0,0,0,0,0,0],"split_type":[0,0,0,0,0,0,0,0,0,0,0,0,0,0,0,0,0,0,0,0,0,0,0,0,0,0,0,0,0,0,0,0,0,0,0,0,0,0,0,0,0,0,0,0,0,0,0,0,0,0,0,0,0,0,0,0,0,0,0,0,0,0,0,0,0,0,0,0,0,0,0,0,0,0,0,0,0,0,0,0,0,0,0,0,0,0,0,0,0,0,0,0,0,0,0,0,0,0,0],"sum_hessian":[6.1844E4,4.1046E4,2.0798E4,2.2387E4,1.8659E4,3.7E1,2.0761E4,1.5906E4,6.481E3,6.14E2,1.8045E4,7E0,3E1,1.7543E4,3.218E3,5.751E3,1.0155E4,4.296E3,2.185E3,5E0,6.09E2,3.239E3,1.4806E4,8E0,2.2E1,1.39E2,1.7404E4,2.785E3,4.33E2,3.702E3,2.049E3,6.834E3,3.321E3,3.06E2,3.99E3,2.094E3,9.1E1,3.7E1,5.72E2,3.218E3,2.1E1,1.2518E4,2.288E3,1.2E1,1E1,1.32E2,7E0,1.61E2,1.7243E4,1.932E3,8.53E2,2.71E2,1.62E2,1.126E3,2.576E3,6E0,2.043E3,6.91E2,6.143E3,3E3,3.21E2,5E0,3.01E2,3.014E3,9.76E2,2.033E3,6.1E1,6.2E1,2.9E1,2.8E1,9E0,3.36E2,2.36E2,3.083E3,1.35E2,5E0,1.6E1,4.023E3,8.495E3,2.223E3,6.5E1,5E0,7E0,5E0,5E0,5.4E1,7.8E1,8.4E1,7.7E1,1.0977E4,6.266E3,5.14E2,1.418E3,3.67E2,4.86E2,1.48E2,1.23E2,3.3E1,1.29E2],"tree_param":{"num_deleted":"0","num_feature":"104","num_nodes":"99","size_leaf_vector":"1"}},{"base_weights":[-5.2375323E-3,-2.5466722E-1,4.8522595E-1,-3.2483265E-1,-1.7040828E-1,1.2963967E0,3.2402834E-1,-2.6567206E-1,-4.2437273E-1,1.0012252E0,-1.7552118E-1,-3.341427E-1,1.3741901E0,2.7381902E0,3.1732184E-1,-1.23320505E-1,-2.8272253E-1,-3.87691E-1,-5.2724314E-1,2.995728E-1,2.9423177E-1,-6.4267024E-2,-2.0023356E-1,-5.463906E-1,-1.2037116E-1,1.2427616E0,2.3196046E0,-3.168488E-1,7.1895117E-1,4.2029208E-1,2.884034E-1,2.0643981E-1,-1.4029202E-1,-2.5102186E-1,-3.4132355E-1,-3.641644E-1,-4.803096E-1,-5.4395914E-1,-2.2699203E-1,-3.841378E-1,2.8976452E0,-3.403164E-1,-3.9912567E-2,-2.2990176E-1,-6.791479E-2,-6.1461943E-1,-6.8737805E-2,1.0534261E-2,-4.2625606E-1,1.0780704E0,1.4338691E0,1.9068404E0,2.716799E0,4.7876242E-1,-6.4650905E-1,1.5030125E0,4.1560042E-1,2.6653147E-1,3.5687137E-1,2.7304137E-2,-7.5217173E-3,-6.3694767E-3,-1.3192658E-2,-2.2405505E-2,-1.6349405E-2,-1.3467523E-2,-1.9185256E-2,-2.4568114E-2,-3.6744305E-3,-2.2246115E-2,-2.8341508E-2,-1.3098485E-2,2.3187827E-2,-2.378614E-2,-3.115951E-3,3.8796517E-1,-1.5455693E-2,2.3131894E-2,-1.8472113E-2,-2.70378E-3,2.4405474E-2,-9.56462E-3,-1.6218873E-2,-1.2539311E-2,-1.9105448E-3,-3.2038536E-2,-1.1661818E-2,2.1716628E-2,-2.8017594E-2,-2.8423002E-2,4.489876E-3,-2.7291924E-3,-3.0434033E-2,1.5580033E-1,5.347541E-2,6.1226167E-2,8.026106E-2,8.125935E-2,1.2609993E-1,1.2508927E-1,1.6685557E-1,5.2068313E-3,4.180161E-2,-1.4203878E-2,-4.9432468E-2,1.720004E-2,1.6886827E-1,2.3621509E-2,1.5961388E-2,1.750861E-2,1.2304169E-2,2.4711823E-2,1.5358329E-2],"categories":[],"categories_nodes":[],"categories_segments":[],"categories_sizes":[],"default_left":[0,1,0,0,0,0,0,0,0,0,0,0,1,0,1,0,0,1,1,0,0,0,1,0,1,1,0,0,0,0,1,0,0,0,0,0,0,1,1,0,0,0,0,0,0,0,1,0,0,1,0,1,0,0,1,0,0,0,0,0,0,0,0,0,0,0,0,0,0,0,0,0,0,0,0,0,0,0,0,0,0,0,0,0,0,0,0,0,0,0,0,0,0,0,0,0,0,0,0,0,0,0,0,0,0,0,0,0,0,0,0,0,0],"id":3,"left_children":[1,3,5,7,9,11,13,15,17,19,21,23,25,27,29,31,33,35,37,-1,39,41,43,45,47,49,51,53,-1,55,57,-1,59,61,63,65,67,69,71,73,75,77,79,81,83,85,87,89,91,93,95,97,99,101,103,105,107,109,111,-1,-1,-1,-1,-1,-1,-1,-1,-1,-1,-1,-1,-1,-1,-1,-1,-1,-1,-1,-1,-1,-1,-1,-1,-1,-1,-1,-1,-1,-1,-1,-1,-1,-1,-1,-1,-1,-1,-1,-1,-1,-1,-1,-1,-1,-1,-1,-1,-1,-1,-1,-1,-1,-1],"loss_changes":[7.557195E3,2.420376E2,2.7226313E3,1.3145581E2,1.1164612E2,4.383286E2,2.80427E2,3.3984314E1,3.1217163E1,2.8401E2,5.0927124E1,7.103094E0,4.0653564E2,1.7115896E3,5.1474E1,1.0889866E2,2.3165161E1,1.3208496E1,1.0848022E1,0E0,1.282706E2,2.263631E1,5.9497437E1,2.532339E0,3.20785E0,8.957031E1,6.05625E1,1.0538499E1,0E0,1.8663208E1,2.0167969E1,0E0,1.0496471E1,1.2857178E1,6.5753784E0,8.97876E0,5.5440063E0,4.4364624E0,2.9483013E0,1.6798315E0,2.36251E2,6.555498E0,2.318698E1,4.510669E1,1.5080496E1,5.387306E-1,2.96386E0,2.666946E0,1.5940275E0,2.387085E1,4.5994873E1,3.0553528E1,1.8593018E1,1.519048E0,3.1912136E0,3.359654E1,2.0562561E1,1.7459717E1,2.219522E1,0E0,0E0,0E0,0E0,0E0,0E0,0E0,0E0,0E0,0E0,0E0,0E0,0E0,0E0,0E0,0E0,0E0,0E0,0E0,0E0,0E0,0E0,0E0,0E0,0E0,0E0,0E0,0E0,0E0,0E0,0E0,0E0,0E0,0E0,0E0,0E0,0E0,0E0,0E0,0E0,0E0,0E0,0E0,0E0,0E0,0E0,0E0,0E0,0E0,0E0,0E0,0E0,0E0,0E0],"parents":[2147483647,0,0,1,1,2,2,3,3,4,4,5,5,6,6,7,7,8,8,9,9,10,10,11,11,12,12,13,13,14,14,15,15,16,16,17,17,18,18,20,20,21,21,22,22,23,23,24,24,25,25,26,26,27,27,29,29,30,30,32,32,33,33,34,34,35,35,36,36,37,37,38,38,39,39,40,40,41,41,42,42,43,43,44,44,45,45,46,46,47,47,48,48,49,49,50,50,51,51,52,52,53,53,54,54,55,55,56,56,57,57,58,58],"right_children":[2,4,6,8,10,12,14,16,18,20,22,24,26,28,30,32,34,36,38,-1,40,42,44,46,48,50,52,54,-1,56,58,-1,60,62,64,66,68,70,72,74,76,78,80,82,84,86,88,90,92,94,96,98,100,102,104,106,108,110,112,-1,-1,-1,-1,-1,-1,-1,-1,-1,-1,-1,-1,-1,-1,-1,-1,-1,-1,-1,-1,-1,-1,-1,-1,-1,-1,-1,-1,-1,-1,-1,-1,-1,-1,-1,-1,-1,-1,-1,-1,-1,-1,-1,-1,-1,-1,-1,-1,-1,-1,-1,-1,-1,-1],"split_conditions":[9.633E-1,0E0,1E0,8.905E-1,1.5784899E-3,1.29E-3,1.5784899E-3,8.162E-1,9.231E-1,1E0,4.285E1,0E0,1.5208E0,1E0,7.26E-1,4.08E-4,2.6354425E1,3.1660227E1,2.6134E0,2.995728E-1,4.9108645E-4,1E0,6.059E1,6.6726E1,5.436E1,9.215E-1,6.8E-1,1.3870271E1,7.1895117E-1,7.794125E-1,4.6E2,2.0643981E-1,4.845E1,1.3245E2,3.508E1,2.0515E2,2.6134E0,1.2654603E1,7.257E1,2.657E-1,1E0,5.3E1,3.90112E2,9.024E-1,-2.6732014E-4,9.114E-1,8.672372E1,7.979E-1,2.03E1,1.463242E-3,4.526E-1,1.2407247E0,2.1262E0,1.2043275E0,1.6797853E1,1.0214125E-2,1.447E-1,1.1981411E0,4.44E-2,2.7304137E-2,-7.5217173E-3,-6.3694767E-3,-1.3192658E-2,-2.2405505E-2,-1.6349405E-2,-1.3467523E-2,-1.9185256E-2,-2.4568114E-2,-3.6744305E-3,-2.2246115E-2,-2.8341508E-2,-1.3098485E-2,2.3187827E-2,-2.378614E-2,-3.115951E-3,3.8796517E-1,-1.5455693E-2,2.3131894E-2,-1.8472113E-2,-2.70378E-3,2.4405474E-2,-9.56462E-3,-1.6218873E-2,-1.2539311E-2,-1.9105448E-3,-3.2038536E-2,-1.1661818E-2,2.1716628E-2,-2.8017594E-2,-2.8423002E-2,4.489876E-3,-2.7291924E-3,-3.0434033E-2,1.5580033E-1,5.347541E-2,6.1226167E-2,8.026106E-2,8.125935E-2,1.2609993E-1,1.2508927E-1,1.6685557E-1,5.2068313E-3,4.180161E-2,-1.4203878E-2,-4.9432468E-2,1.720004E-2,1.6886827E-1,2.3621509E-2,1.5961388E-2,1.750861E-2,1.2304169E-2,2.4711823E-2,1.5358329E-2],"split_indices":[27,28,65,27,40,29,40,27,27,28,8,28,26,78,26,30,12,12,26,0,13,62,41,44,41,26,23,12,0,57,18,0,17,17,41,17,26,42,51,25,90,4,34,27,53,23,36,26,19,13,23,37,26,35,42,40,25,47,25,0,0,0,0,0,0,0,0,0,0,0,0,0,0,0,0,0,0,0,0,0,0,0,0,0,0,0,0,0,0,0,0,0,0,0,0,0,0,0,0,0,0,0,0,0,0,0,0,0,0,0,0,0,0],"split_type":[0,0,0,0,0,0,0,0,0,0,0,0,0,0,0,0,0,0,0,0,0,0,0,0,0,0,0,0,0,0,0,0,0,0,0,0,0,0,0,0,0,0,0,0,0,0,0,0,0,0,0,0,0,0,0,0,0,0,0,0,0,0,0,0,0,0,0,0,0,0,0,0,0,0,0,0,0,0,0,0,0,0,0,0,0,0,0,0,0,0,0,0,0,0,0,0,0,0,0,0,0,0,0,0,0,0,0,0,0,0,0,0,0],"sum_hessian":[6.1772E4,4.0948E4,2.0824E4,2.2341E4,1.8607E4,3.451E3,1.7373E4,1.4015E4,8.326E3,8E1,1.8527E4,1.57E2,3.294E3,4.7E1,1.7326E4,1.5E3,1.2515E4,6.141E3,2.185E3,9E0,7.1E1,3.368E3,1.5159E4,7.8E1,7.9E1,2.894E3,4E2,3.8E1,9E0,3.796E3,1.353E4,5E0,1.495E3,8.125E3,4.39E3,4.901E3,1.24E3,2.069E3,1.16E2,5.7E1,1.4E1,2.72E2,3.096E3,1.2382E4,2.777E3,6.8E1,1E1,5.6E1,2.3E1,1.558E3,1.336E3,1.99E2,2.01E2,1.1E1,2.7E1,1.5E1,3.781E3,1.0258E4,3.272E3,2.1E1,1.474E3,7.65E2,7.36E3,5.16E2,3.874E3,8.4E2,4.061E3,1.207E3,3.3E1,3.92E2,1.677E3,1.11E2,5E0,4.4E1,1.3E1,5E0,9E0,9E0,2.63E2,3.016E3,8E1,8.792E3,3.59E3,3.87E2,2.39E3,6.3E1,5E0,5E0,5E0,6E0,5E1,8E0,1.5E1,5E0,1.553E3,6.05E2,7.31E2,1.39E2,6E1,1.53E2,4.8E1,6E0,5E0,1.4E1,1.3E1,1E1,5E0,2.376E3,1.405E3,2.012E3,8.246E3,8.67E2,2.405E3],"tree_param":{"num_deleted":"0","num_feature":"104","num_nodes":"113","size_leaf_vector":"1"}},{"base_weights":[1.85443E-3,-2.3954798E-1,4.7594312E-1,-3.0910707E-1,-1.5608664E-1,9.928341E0,4.559632E-1,-2.6659778E-1,-4.3561995E-1,-4.4280022E-2,-1.8983161E-1,2.8536735E0,-5.3353286E-1,2.9921362E-1,1.3193141E0,-2.0023727E-1,-3.012195E-1,-4.0199065E-1,-5.065498E-1,2.329824E0,-6.085251E-2,9.0169765E-2,-2.0093578E-1,-7.406388E-2,-1.6128174E0,-3.7213388E-1,3.058458E-1,1.2087721E0,1.9004322E0,-2.0434587E-1,1.3825951E0,-2.3415008E-1,-3.2653126E-1,-3.449773E-1,-4.41749E-1,-5.122179E-1,-1.541135E-1,-4.6131942E-1,7.1928277E0,-7.420724E-2,2.0529327E0,4.961214E-2,1.2146337E0,-2.2547221E-1,-8.245342E-2,-5.9599674E-1,3.2201478E-1,-2.8554335E-2,-1.1928727E-1,-5.3249705E-1,-1.3978419E-1,3.32802E-1,2.3715097E-1,1.0481969E0,1.370604E0,2.6440737E0,1.7600431E0,-7.304854E-3,-1.1989205E-2,2.0204614E-1,-1.7533049E-2,-1.7735552E-2,-1.0655309E-2,-1.588578E-2,-2.5279272E-2,-1.0018676E-2,-2.2431668E-2,-1.751948E-2,-2.3439012E-2,-1.8191656E-2,-2.6123166E-2,-1.68744E-2,9.665254E-3,-2.8252402E-2,-6.2555666E-3,-2.8599218E-2,6.879418E-1,-7.623195E-3,1.2423255E-3,4.6846533E-1,-1.7878531E-3,1.94713E-3,4.8657507E-2,2.4138577E-1,-2.102947E-2,-7.101384E-3,-1.3251281E-2,-2.2569101E-2,-3.4753233E-3,-3.114248E-3,-4.841608E-2,2.8589864E-3,3.769383E-2,-2.7743026E-4,-2.8268678E-2,4.280198E-3,-1.611174E-2,1.6059907E-2,4.7491644E-2,6.434428E-2,1.1684133E-2,6.783676E-2,5.0096493E-2,9.345006E-2,6.494518E-2,1.8242167E-1,1.195483E-1,1.0623526E-1,7.935669E-2],"categories":[],"categories_nodes":[],"categories_segments":[],"categories_sizes":[],"default_left":[0,1,0,0,0,0,0,0,0,0,0,0,0,0,1,1,0,0,0,0,0,0,1,0,0,1,1,1,0,0,0,0,1,0,0,0,0,0,0,0,0,0,0,0,0,0,0,0,0,0,0,1,0,0,0,0,0,0,0,0,0,0,0,0,0,0,0,0,0,0,0,0,0,0,0,0,0,0,0,0,0,0,0,0,0,0,0,0,0,0,0,0,0,0,0,0,0,0,0,0,0,0,0,0,0,0,0,0,0],"id":4,"left_children":[1,3,5,7,9,11,13,15,17,19,21,-1,23,25,27,29,31,33,35,37,39,41,43,45,47,49,51,53,55,57,59,61,63,65,67,69,71,73,75,77,79,81,83,85,87,89,91,-1,-1,93,95,97,99,101,103,105,107,-1,-1,-1,-1,-1,-1,-1,-1,-1,-1,-1,-1,-1,-1,-1,-1,-1,-1,-1,-1,-1,-1,-1,-1,-1,-1,-1,-1,-1,-1,-1,-1,-1,-1,-1,-1,-1,-1,-1,-1,-1,-1,-1,-1,-1,-1,-1,-1,-1,-1,-1,-1],"loss_changes":[7.0836436E3,2.3804663E2,3.939397E3,1.2017847E2,7.0337555E1,2.1732412E4,2.8198794E3,3.84115E1,1.3211548E1,1.7026874E2,4.454779E1,0E0,1.8228767E1,7.8651245E1,2.0339307E2,3.763701E1,1.8601013E1,8.506592E0,3.5267944E0,4.105184E2,1.2139605E2,2.4885996E1,4.003009E1,5.7735343E0,7.4945393E0,6.371603E0,3.2265625E1,6.854443E1,4.8589966E1,1.179303E1,7.0530426E1,7.5812836E0,1.24435425E1,2.3502884E1,5.384857E0,2.5098877E0,1.9764695E0,6.2679386E-1,5.686919E2,3.3095436E1,4.1293918E2,5.1747246E0,1.1428619E2,3.762787E1,1.1265051E1,2.3242579E0,1.7868477E0,0E0,0E0,1.7639332E0,2.9883833E0,8.9494995E1,1.7633911E1,1.7997803E1,4.538623E1,1.1359436E1,2.3866821E1,0E0,0E0,0E0,0E0,0E0,0E0,0E0,0E0,0E0,0E0,0E0,0E0,0E0,0E0,0E0,0E0,0E0,0E0,0E0,0E0,0E0,0E0,0E0,0E0,0E0,0E0,0E0,0E0,0E0,0E0,0E0,0E0,0E0,0E0,0E0,0E0,0E0,0E0,0E0,0E0,0E0,0E0,0E0,0E0,0E0,0E0,0E0,0E0,0E0,0E0,0E0,0E0],"parents":[2147483647,0,0,1,1,2,2,3,3,4,4,5,5,6,6,7,7,8,8,9,9,10,10,12,12,13,13,14,14,15,15,16,16,17,17,18,18,19,19,20,20,21,21,22,22,23,23,24,24,25,25,26,26,27,27,28,28,29,29,30,30,31,31,32,32,33,33,34,34,35,35,36,36,37,37,38,38,39,39,40,40,41,41,42,42,43,43,44,44,45,45,46,46,49,49,50,50,51,51,52,52,53,53,54,54,55,55,56,56],"right_children":[2,4,6,8,10,12,14,16,18,20,22,-1,24,26,28,30,32,34,36,38,40,42,44,46,48,50,52,54,56,58,60,62,64,66,68,70,72,74,76,78,80,82,84,86,88,90,92,-1,-1,94,96,98,100,102,104,106,108,-1,-1,-1,-1,-1,-1,-1,-1,-1,-1,-1,-1,-1,-1,-1,-1,-1,-1,-1,-1,-1,-1,-1,-1,-1,-1,-1,-1,-1,-1,-1,-1,-1,-1,-1,-1,-1,-1,-1,-1,-1,-1,-1,-1,-1,-1,-1,-1,-1,-1,-1,-1],"split_conditions":[9.633E-1,0E0,6.5878895E-4,9.02E-1,8.637E-1,1.20099E0,1E0,8.572E-1,9.262E-1,1.5784899E-3,3.38E1,2.8536735E0,1E0,1E0,7.228E-1,8.239E1,1.031E-3,5.177E1,1E0,2.6239662E1,1E0,3.90112E2,6.059E1,4.813E1,4.9745827E-6,1E0,1.538E-1,3.571E-1,1E0,1.301E-3,6.33E-2,3.824E1,6.974E1,1E0,1E0,4.83E-4,2.2293487E-1,1.3664324E-4,1.06E1,6.11E1,8.258E-1,8.444613E-5,8.895E-1,4.69E1,1E0,1.4150117E1,1.2069004E0,-2.8554335E-2,-1.1928727E-1,1.2400438E1,-3.0309867E-4,1.5E-1,3.5E1,2.0828081E1,1E0,1.1472E0,4.816E-3,-7.304854E-3,-1.1989205E-2,2.0204614E-1,-1.7533049E-2,-1.7735552E-2,-1.0655309E-2,-1.588578E-2,-2.5279272E-2,-1.0018676E-2,-2.2431668E-2,-1.751948E-2,-2.3439012E-2,-1.8191656E-2,-2.6123166E-2,-1.68744E-2,9.665254E-3,-2.8252402E-2,-6.2555666E-3,-2.8599218E-2,6.879418E-1,-7.623195E-3,1.2423255E-3,4.6846533E-1,-1.7878531E-3,1.94713E-3,4.8657507E-2,2.4138577E-1,-2.102947E-2,-7.101384E-3,-1.3251281E-2,-2.2569101E-2,-3.4753233E-3,-3.114248E-3,-4.841608E-2,2.8589864E-3,3.769383E-2,-2.7743026E-4,-2.8268678E-2,4.280198E-3,-1.611174E-2,1.6059907E-2,4.7491644E-2,6.434428E-2,1.1684133E-2,6.783676E-2,5.0096493E-2,9.345006E-2,6.494518E-2,1.8242167E-1,1.195483E-1,1.0623526E-1,7.935669E-2],"split_indices":[27,28,50,27,27,34,63,27,27,40,8,0,78,65,23,41,29,8,64,32,64,34,41,41,10,28,25,23,82,29,25,41,41,61,62,29,10,33,22,41,27,9,27,8,61,42,36,0,0,42,9,25,4,32,82,34,29,0,0,0,0,0,0,0,0,0,0,0,0,0,0,0,0,0,0,0,0,0,0,0,0,0,0,0,0,0,0,0,0,0,0,0,0,0,0,0,0,0,0,0,0,0,0,0,0,0,0,0,0],"split_type":[0,0,0,0,0,0,0,0,0,0,0,0,0,0,0,0,0,0,0,0,0,0,0,0,0,0,0,0,0,0,0,0,0,0,0,0,0,0,0,0,0,0,0,0,0,0,0,0,0,0,0,0,0,0,0,0,0,0,0,0,0,0,0,0,0,0,0,0,0,0,0,0,0,0,0,0,0,0,0,0,0,0,0,0,0,0,0,0,0,0,0,0,0,0,0,0,0,0,0,0,0,0,0,0,0,0,0,0,0],"sum_hessian":[6.1893E4,4.1011E4,2.0882E4,2.2367E4,1.8644E4,4.3E1,2.0839E4,1.6744E4,5.623E3,4.323E3,1.4321E4,7E0,3.6E1,1.7638E4,3.201E3,5.743E3,1.1001E4,3.819E3,1.804E3,2.9E1,4.294E3,5.46E2,1.3775E4,2.6E1,1E1,1.72E2,1.7466E4,2.692E3,5.09E2,5.729E3,1.4E1,3.017E3,7.984E3,1.573E3,2.246E3,1.775E3,2.9E1,1.9E1,1E1,4.268E3,2.6E1,5.28E2,1.8E1,1.1411E4,2.364E3,1.1E1,1.5E1,5E0,5E0,1.01E2,7.1E1,1.2541E4,4.925E3,1.355E3,1.337E3,7.8E1,4.31E2,2.169E3,3.56E3,5E0,9E0,4.46E2,2.571E3,7.612E3,3.72E2,6.58E2,9.15E2,5.16E2,1.73E3,1.17E2,1.658E3,1.9E1,1E1,1.4E1,5E0,5E0,5E0,2.384E3,1.884E3,5E0,2.1E1,5.23E2,5E0,5E0,1.3E1,3.671E3,7.74E3,7.9E1,2.285E3,5E0,6E0,1E1,5E0,6E0,9.5E1,3.2E1,3.9E1,1.2311E4,2.3E2,1.5E1,4.91E3,1.73E2,1.182E3,1.65E2,1.172E3,1.3E1,6.5E1,1.35E2,2.96E2],"tree_param":{"num_deleted":"0","num_feature":"104","num_nodes":"109","size_leaf_vector":"1"}},{"base_weights":[-9.923059E-5,-2.2624518E-1,4.4393173E-1,-2.9471013E-1,-1.501939E-1,1.1749845E0,3.0210587E-1,-2.4718258E-1,-4.101024E-1,-5.27584E-2,-1.8051384E-1,-3.0588794E-1,1.245575E0,4.517954E0,2.9241526E-1,6.3572335E-1,-2.4965978E-1,-3.7090126E-1,-4.8481217E-1,-6.1324567E-2,2.1652074E-1,6.8281926E-3,-1.9629773E-1,5.4297157E-2,-4.1530776E-1,1.1031058E0,2.0751665E0,-1.0621964E0,1.815792E0,1.50746E0,2.821371E-1,-7.1609676E-2,1.8696283E-1,-1.925617E-1,-2.8050894E-1,-3.168297E-1,-4.1811898E-1,-5.0331306E-1,-1.7432742E-1,2.9863389E0,-7.261607E-2,-2.1490064E-2,8.3682054E-1,-2.2346783E-1,-8.852415E-2,3.378335E-1,-2.036004E-1,1.2088629E-1,-4.6560892E-1,9.827962E-1,1.3096528E0,1.8035382E0,2.515205E0,-2.2344592E0,-2.679292E-1,4.7215062E-1,9.653764E-1,3.7308177E-1,2.5993517E-1,-2.0629408E-2,3.7042473E-2,-4.483124E-3,-1.0616589E-2,-1.3022992E-2,-1.8222278E-2,-2.1936102E-2,-1.3521264E-2,-2.1133514E-2,6.328293E-3,-2.5356088E-2,-6.562567E-3,-1.8740078E-2,-1.5941057E-3,-2.3683487E-2,4.7043166E-1,-4.233031E-3,9.8146275E-2,1.2790195E-3,-5.4641766E-3,3.857445E-1,-2.1954788E-2,-7.0764176E-3,-1.2943457E-2,-2.31281E-2,-3.6160287E-3,7.385094E-4,2.7103825E-2,-2.605485E-2,3.7218403E-4,1.5800832E-2,-4.7195884E-3,-2.4954597E-2,-4.210904E-3,1.403661E-1,4.8745472E-2,6.690065E-2,1.5012452E-2,1.0827744E-1,7.207854E-2,9.6401535E-2,1.434607E-1,-1.3528007E-2,-1.8367818E-1,8.931575E-3,-7.442649E-2,1.3089237E-2,4.528821E-2,1.2906476E-2,2.139449E-2,8.977446E-3,1.3878767E-2],"categories":[],"categories_nodes":[],"categories_segments":[],"categories_sizes":[],"default_left":[0,0,0,0,0,0,0,0,0,1,0,0,1,0,0,0,0,0,1,0,0,0,1,0,1,1,1,0,0,0,0,0,0,0,0,0,0,0,0,0,0,0,0,0,0,0,1,0,0,1,0,0,0,0,0,0,0,0,0,0,0,0,0,0,0,0,0,0,0,0,0,0,0,0,0,0,0,0,0,0,0,0,0,0,0,0,0,0,0,0,0,0,0,0,0,0,0,0,0,0,0,0,0,0,0,0,0,0,0,0,0],"id":5,"left_children":[1,3,5,7,9,11,13,15,17,19,21,23,25,27,29,31,33,35,37,39,-1,41,43,45,47,49,51,53,-1,55,57,59,-1,61,63,65,67,69,71,73,75,77,79,81,83,85,87,89,91,93,95,97,99,101,103,105,-1,107,109,-1,-1,-1,-1,-1,-1,-1,-1,-1,-1,-1,-1,-1,-1,-1,-1,-1,-1,-1,-1,-1,-1,-1,-1,-1,-1,-1,-1,-1,-1,-1,-1,-1,-1,-1,-1,-1,-1,-1,-1,-1,-1,-1,-1,-1,-1,-1,-1,-1,-1,-1,-1],"loss_changes":[6.2075044E3,2.1321753E2,2.1624556E3,1.1810217E2,5.7320465E1,3.5465186E2,7.1248083E2,3.3551758E1,1.822998E1,1.7324455E2,4.376471E1,6.131316E0,3.8005957E2,7.1360537E3,2.1728552E2,9.466272E1,2.6765503E1,1.0404297E1,1.2319855E1,1.5848087E2,0E0,2.7071014E1,3.995038E1,2.7743464E0,3.2658577E0,6.737256E1,5.1999878E1,3.1989464E1,0E0,2.6814563E3,3.4809937E1,1.0278785E1,0E0,1.0852402E1,1.6536804E1,1.0786789E1,5.507324E0,2.82135E0,3.5005121E0,3.8221692E2,1.12528404E2,4.6063766E0,3.3686954E2,3.1584595E1,1.6633615E1,1.1796949E0,1.3439943E0,4.9190956E-1,1.3499088E0,2.2444824E1,2.8625854E1,3.5664978E1,3.1468018E1,3.857366E1,1.2257486E1,1.24421215E1,0E0,2.124759E1,1.9659424E1,0E0,0E0,0E0,0E0,0E0,0E0,0E0,0E0,0E0,0E0,0E0,0E0,0E0,0E0,0E0,0E0,0E0,0E0,0E0,0E0,0E0,0E0,0E0,0E0,0E0,0E0,0E0,0E0,0E0,0E0,0E0,0E0,0E0,0E0,0E0,0E0,0E0,0E0,0E0,0E0,0E0,0E0,0E0,0E0,0E0,0E0,0E0,0E0,0E0,0E0,0E0,0E0],"parents":[2147483647,0,0,1,1,2,2,3,3,4,4,5,5,6,6,7,7,8,8,9,9,10,10,11,11,12,12,13,13,14,14,15,15,16,16,17,17,18,18,19,19,21,21,22,22,23,23,24,24,25,25,26,26,27,27,29,29,30,30,31,31,33,33,34,34,35,35,36,36,37,37,38,38,39,39,40,40,41,41,42,42,43,43,44,44,45,45,46,46,47,47,48,48,49,49,50,50,51,51,52,52,53,53,54,54,55,55,57,57,58,58],"right_children":[2,4,6,8,10,12,14,16,18,20,22,24,26,28,30,32,34,36,38,40,-1,42,44,46,48,50,52,54,-1,56,58,60,-1,62,64,66,68,70,72,74,76,78,80,82,84,86,88,90,92,94,96,98,100,102,104,106,-1,108,110,-1,-1,-1,-1,-1,-1,-1,-1,-1,-1,-1,-1,-1,-1,-1,-1,-1,-1,-1,-1,-1,-1,-1,-1,-1,-1,-1,-1,-1,-1,-1,-1,-1,-1,-1,-1,-1,-1,-1,-1,-1,-1,-1,-1,-1,-1,-1,-1,-1,-1,-1,-1],"split_conditions":[9.633E-1,0E0,1E0,8.984E-1,8.637E-1,1.29E-3,6.5878895E-4,4.08E-4,9.231E-1,4.4015E0,3.727E1,-4.0040826E-4,1.4643E0,1E0,3.638E-1,6.501E1,8.564E-1,5.505E1,2.6134E0,4.08E-4,2.1652074E-1,3.90112E2,5.889E1,3.903E1,1.1256414E1,9.898E-1,1.5573681E1,-3.656561E-6,1.815792E0,2.35E1,7.26E-1,2.052138E1,1.8696283E-1,1.5347749E1,3.1830023E1,3.913E1,1E0,1E0,2.218E-1,5.37E1,1E0,-6.691405E-5,3.609E-3,4.714E1,1E0,2.431512E1,1.8113165E0,8.7366527E-4,7.84403E-4,1.6866245E-3,6.712E-1,1.273E-1,1.7095E0,3.33E1,1E0,2.323756E1,9.653764E-1,7.391E-1,6.758E-1,-2.0629408E-2,3.7042473E-2,-4.483124E-3,-1.0616589E-2,-1.3022992E-2,-1.8222278E-2,-2.1936102E-2,-1.3521264E-2,-2.1133514E-2,6.328293E-3,-2.5356088E-2,-6.562567E-3,-1.8740078E-2,-1.5941057E-3,-2.3683487E-2,4.7043166E-1,-4.233031E-3,9.8146275E-2,1.2790195E-3,-5.4641766E-3,3.857445E-1,-2.1954788E-2,-7.0764176E-3,-1.2943457E-2,-2.31281E-2,-3.6160287E-3,7.385094E-4,2.7103825E-2,-2.605485E-2,3.7218403E-4,1.5800832E-2,-4.7195884E-3,-2.4954597E-2,-4.210904E-3,1.403661E-1,4.8745472E-2,6.690065E-2,1.5012452E-2,1.0827744E-1,7.207854E-2,9.6401535E-2,1.434607E-1,-1.3528007E-2,-1.8367818E-1,8.931575E-3,-7.442649E-2,1.3089237E-2,4.528821E-2,1.2906476E-2,2.139449E-2,8.977446E-3,1.3878767E-2],"split_indices":[27,28,65,27,27,29,50,30,27,26,8,9,26,70,26,41,27,41,26,30,0,34,41,8,42,26,32,33,0,22,26,42,0,12,12,41,64,64,24,8,64,33,29,8,61,32,20,9,11,13,24,24,26,17,78,12,0,24,24,0,0,0,0,0,0,0,0,0,0,0,0,0,0,0,0,0,0,0,0,0,0,0,0,0,0,0,0,0,0,0,0,0,0,0,0,0,0,0,0,0,0,0,0,0,0,0,0,0,0,0,0],"split_type":[0,0,0,0,0,0,0,0,0,0,0,0,0,0,0,0,0,0,0,0,0,0,0,0,0,0,0,0,0,0,0,0,0,0,0,0,0,0,0,0,0,0,0,0,0,0,0,0,0,0,0,0,0,0,0,0,0,0,0,0,0,0,0,0,0,0,0,0,0,0,0,0,0,0,0,0,0,0,0,0,0,0,0,0,0,0,0,0,0,0,0,0,0,0,0,0,0,0,0,0,0,0,0,0,0,0,0,0,0,0,0],"sum_hessian":[6.1816E4,4.0957E4,2.0859E4,2.1552E4,1.9405E4,3.388E3,1.7471E4,1.5267E4,6.285E3,4.606E3,1.4799E4,1.54E2,3.234E3,3.9E1,1.7432E4,4.2E1,1.5225E4,4.126E3,2.159E3,4.598E3,8E0,1.15E3,1.3649E4,3.6E1,1.18E2,2.762E3,4.72E2,3.4E1,5E0,1.45E2,1.7287E4,3.5E1,7E0,5.343E3,9.882E3,1.927E3,2.199E3,2.037E3,1.22E2,1.6E1,4.582E3,1.113E3,3.7E1,1.09E4,2.749E3,1.7E1,1.9E1,1E1,1.08E2,1.749E3,1.013E3,2.95E2,1.77E2,1.3E1,2.1E1,1.38E2,7E0,3.389E3,1.3898E4,2.5E1,1E1,8.62E2,4.481E3,7.98E3,1.902E3,5.29E2,1.398E3,2.181E3,1.8E1,2.016E3,2.1E1,5E1,7.2E1,1.1E1,5E0,4.556E3,2.6E1,7.25E2,3.88E2,5E0,3.2E1,3.29E3,7.61E3,1.13E2,2.636E3,7E0,1E1,7E0,1.2E1,5E0,5E0,9.9E1,9E0,6E0,1.743E3,9.85E2,2.8E1,1.45E2,1.5E2,6.9E1,1.08E2,6E0,7E0,1.6E1,5E0,9.4E1,4.4E1,1.096E3,2.293E3,2.503E3,1.1395E4],"tree_param":{"num_deleted":"0","num_feature":"104","num_nodes":"111","size_leaf_vector":"1"}},{"base_weights":[-1.3025645E-3,-2.2035493E-1,4.285228E-1,-1.9218251E-1,-3.0604893E-1,7.4571147E0,4.149746E-1,-1.9704244E-1,1.1150261E-1,-1.7819358E-1,-3.3250576E-1,-1.0568756E0,2.9999168E1,1.1558009E0,2.8934717E-1,-1.4503455E-1,-2.2055767E-1,1.3847904E-1,6.678268E-2,-4.4312525E-1,-7.177774E-2,-2.664426E-1,-3.810055E-1,-1.5872155E-1,-2.743835E-1,2.8441336E0,-9.420975E-2,-3.50816E-1,1.2108585E0,1.5274088E0,2.7907562E-1,7.7266794E-1,-1.4814454E-1,-2.146654E-1,-3.2590514E-1,6.171979E-1,4.0139537E-2,3.420427E-2,-4.5829296E-1,-8.556967E-2,5.504961E-1,-3.7294975E-1,-1.3887773E-1,-2.6519004E-1,-4.5310128E-1,-6.380913E-2,7.479305E-2,-5.7328805E-2,-4.5411113E-1,1.1060054E0,2.3111713E0,5.316741E-1,1.2336304E0,6.3399255E-1,2.7155486E-1,1.9126952E-1,-1.1755499E-2,-5.9784916E-3,-1.122416E-2,5.0831377E-3,-1.0853822E-2,-1.7571583E-2,-6.087048E-3,6.8206E-2,1.2592233E-2,-7.3250383E-3,6.4114756E-3,-2.3368223E-2,3.9731944E-3,-1.9098673E-3,-8.912847E-3,-8.2602E-3,1.5414903E-1,-2.0295586E-2,-9.201928E-3,-1.9768959E-2,-5.618151E-3,-1.1077442E-2,-1.6865766E-2,-2.3059374E-2,-1.5669115E-3,-9.785629E-3,2.6391614E-2,-2.7949015E-2,8.019731E-3,-2.5404904E-2,-1.3472234E-2,4.6140943E-2,6.535062E-2,1.4727812E-1,9.671535E-2,2.215163E-2,8.2428716E-2,-1.5776327E-2,3.928558E-2,1.1830287E-2,1.7341664E-2],"categories":[],"categories_nodes":[],"categories_segments":[],"categories_sizes":[],"default_left":[0,0,0,1,0,0,0,0,0,0,0,0,0,0,0,0,0,0,0,0,0,1,0,0,0,0,0,0,0,0,0,0,0,0,1,0,0,0,1,0,0,0,0,0,1,0,0,0,0,0,0,0,0,0,1,0,0,0,0,0,0,0,0,0,0,0,0,0,0,0,0,0,0,0,0,0,0,0,0,0,0,0,0,0,0,0,0,0,0,0,0,0,0,0,0,0,0],"id":6,"left_children":[1,3,5,7,9,11,13,15,17,19,21,23,25,27,29,31,33,-1,35,37,39,41,43,-1,45,-1,-1,47,49,51,53,55,57,59,61,63,65,-1,67,69,71,73,75,77,79,-1,81,83,85,87,89,91,-1,93,95,-1,-1,-1,-1,-1,-1,-1,-1,-1,-1,-1,-1,-1,-1,-1,-1,-1,-1,-1,-1,-1,-1,-1,-1,-1,-1,-1,-1,-1,-1,-1,-1,-1,-1,-1,-1,-1,-1,-1,-1,-1,-1],"loss_changes":[5.807341E3,9.857837E1,1.979675E3,4.540686E1,3.412915E1,7.7086187E3,1.9338997E3,3.6983887E1,5.746654E1,4.8882923E1,2.6725952E1,4.88381E1,9.53568E3,2.5035449E2,2.2556421E2,2.7019531E1,1.286676E1,0E0,6.984996E0,8.810829E0,1.0680652E1,4.815338E1,4.0176025E1,0E0,8.140959E0,0E0,0E0,3.2177553E0,3.3282812E2,3.3516682E3,4.68761E1,9.934631E1,2.0469162E1,1.50772705E1,5.7003937E0,5.660043E0,7.5323873E0,0E0,2.4323578E0,5.3192453E0,4.94468E1,1.1961853E1,1.0946096E1,5.760971E0,1.0124756E1,0E0,2.3091972E0,3.2570748E0,6.506939E-1,9.659253E1,5.4550293E1,1.3229153E1,0E0,5.2829834E1,4.5332764E1,0E0,0E0,0E0,0E0,0E0,0E0,0E0,0E0,0E0,0E0,0E0,0E0,0E0,0E0,0E0,0E0,0E0,0E0,0E0,0E0,0E0,0E0,0E0,0E0,0E0,0E0,0E0,0E0,0E0,0E0,0E0,0E0,0E0,0E0,0E0,0E0,0E0,0E0,0E0,0E0,0E0,0E0],"parents":[2147483647,0,0,1,1,2,2,3,3,4,4,5,5,6,6,7,7,8,8,9,9,10,10,11,11,12,12,13,13,14,14,15,15,16,16,18,18,19,19,20,20,21,21,22,22,24,24,27,27,28,28,29,29,30,30,31,31,32,32,33,33,34,34,35,35,36,36,38,38,39,39,40,40,41,41,42,42,43,43,44,44,46,46,47,47,48,48,49,49,50,50,51,51,53,53,54,54],"right_children":[2,4,6,8,10,12,14,16,18,20,22,24,26,28,30,32,34,-1,36,38,40,42,44,-1,46,-1,-1,48,50,52,54,56,58,60,62,64,66,-1,68,70,72,74,76,78,80,-1,82,84,86,88,90,92,-1,94,96,-1,-1,-1,-1,-1,-1,-1,-1,-1,-1,-1,-1,-1,-1,-1,-1,-1,-1,-1,-1,-1,-1,-1,-1,-1,-1,-1,-1,-1,-1,-1,-1,-1,-1,-1,-1,-1,-1,-1,-1,-1,-1],"split_conditions":[9.633E-1,9.062E-1,6.5878895E-4,2.6134E0,4.22E1,2.3320244E1,6E-1,8.591E-1,7.845E-1,1E0,1E0,1.2091444E0,1.05E1,5.2085E2,3.638E-1,4.08E-4,4.2730343E1,1.3847904E-1,4.7E0,3.5E1,6.6116E3,5.257E1,1.15058974E-4,-1.5872155E-1,4.382E1,2.8441336E0,-9.420975E-2,-3.414911E-4,1.7095E0,2.35E1,1E0,1.2E0,1E0,3.163E1,1.622E0,8.58E-1,6.803272E-5,3.420427E-2,2.0186977E-2,4.471E1,4.79139E0,6.078E1,-1.5168561E-4,5.202E1,3.0895E0,-6.380913E-2,5.228E1,1.6386E0,1.31105315E-2,9.595E-1,1E0,3.5189938E1,1.2336304E0,1.29E-3,8.077E-1,1.9126952E-1,-1.1755499E-2,-5.9784916E-3,-1.122416E-2,5.0831377E-3,-1.0853822E-2,-1.7571583E-2,-6.087048E-3,6.8206E-2,1.2592233E-2,-7.3250383E-3,6.4114756E-3,-2.3368223E-2,3.9731944E-3,-1.9098673E-3,-8.912847E-3,-8.2602E-3,1.5414903E-1,-2.0295586E-2,-9.201928E-3,-1.9768959E-2,-5.618151E-3,-1.1077442E-2,-1.6865766E-2,-2.3059374E-2,-1.5669115E-3,-9.785629E-3,2.6391614E-2,-2.7949015E-2,8.019731E-3,-2.5404904E-2,-1.3472234E-2,4.6140943E-2,6.535062E-2,1.4727812E-1,9.671535E-2,2.215163E-2,8.2428716E-2,-1.5776327E-2,3.928558E-2,1.1830287E-2,1.7341664E-2],"split_indices":[27,27,50,26,8,42,24,27,27,62,62,37,22,17,26,30,12,0,17,4,17,41,9,0,41,0,0,9,26,22,65,19,79,8,26,27,43,0,43,41,20,8,53,41,26,0,41,26,40,26,82,12,0,29,24,0,0,0,0,0,0,0,0,0,0,0,0,0,0,0,0,0,0,0,0,0,0,0,0,0,0,0,0,0,0,0,0,0,0,0,0,0,0,0,0,0,0],"split_type":[0,0,0,0,0,0,0,0,0,0,0,0,0,0,0,0,0,0,0,0,0,0,0,0,0,0,0,0,0,0,0,0,0,0,0,0,0,0,0,0,0,0,0,0,0,0,0,0,0,0,0,0,0,0,0,0,0,0,0,0,0,0,0,0,0,0,0,0,0,0,0,0,0,0,0,0,0,0,0,0,0,0,0,0,0,0,0,0,0,0,0,0,0,0,0,0,0],"sum_hessian":[6.1677E4,4.0856E4,2.0821E4,3.075E4,1.0106E4,3.9E1,2.0782E4,3.0266E4,4.84E2,1.734E3,8.372E3,2.9E1,1E1,3.012E3,1.777E4,9.426E3,2.084E4,7E0,4.77E2,4.96E2,1.238E3,3.547E3,4.825E3,7E0,2.2E1,5E0,5E0,1.06E2,2.906E3,1.45E2,1.7625E4,3.1E1,9.395E3,1.9739E4,1.101E3,2.1E1,4.56E2,6E0,4.9E2,1.212E3,2.6E1,1.932E3,1.615E3,1.853E3,2.972E3,5E0,1.7E1,2.8E1,7.8E1,2.655E3,2.51E2,1.4E2,5E0,3.64E2,1.7261E4,7E0,2.4E1,6.838E3,2.557E3,1.49E2,1.959E4,9.78E2,1.23E2,6E0,1.5E1,1.46E2,3.1E2,4.82E2,8E0,8.03E2,4.09E2,2.1E1,5E0,1.644E3,2.88E2,1.5E2,1.465E3,1.157E3,6.96E2,2.916E3,5.6E1,1.1E1,6E0,8E0,2E1,5.9E1,1.9E1,1.392E3,1.263E3,9.1E1,1.6E2,1.31E2,9E0,5E1,3.14E2,1.1791E4,5.47E3],"tree_param":{"num_deleted":"0","num_feature":"104","num_nodes":"97","size_leaf_vector":"1"}},{"base_weights":[-5.848749E-3,-2.0732793E-1,3.8823134E-1,-2.6722547E-1,-1.4069115E-1,2.556522E-1,1.1071113E0,-1.9932804E-1,-3.333795E-1,7.648193E-1,-1.4444232E-1,1.3711754E0,2.4581762E-1,9.769838E-1,1.926328E0,-1.2436907E-1,-2.2574249E-1,-2.988556E-1,-4.1663846E-1,3.1135798E-1,7.140428E-2,1.1871685E-1,-1.5315154E-1,4.5979968E-1,1.0222191E0,1.6342636E0,2.4182403E-1,8.787659E-1,1.1997851E0,1.8278972E0,3.32696E0,-1.3263518E-1,1.5792541E-1,-3.4830996E-1,-2.1302366E-1,-1.7568839E-1,-3.10879E-1,-2.230952E-1,-4.3670532E-1,-3.5847715E-1,2.0499797E0,3.838483E-2,1.3438271E0,-1.216694E-1,-2.1762377E-1,1.3959341E0,3.6693537E-1,-1.0835073E0,7.0678055E-1,-3.2015097E-1,2.4674934E-1,1.2767076E-1,8.731596E-1,9.829237E-1,1.3297668E0,1.5948784E0,2.2422228E0,1.9103271E-1,4.399868E-2,-5.014896E-3,-1.2047352E-2,4.224388E-2,-1.7880717E-2,-8.899E-3,-1.2322963E-2,3.286686E-2,-9.825026E-3,-1.463339E-2,-1.941975E-2,-1.4497603E-2,1.3148545E-4,-2.004478E-2,-2.4018621E-2,-2.1371154E-2,3.9853933E-3,2.2346394E-1,-3.3108667E-2,3.7635033E-4,3.483956E-2,7.87847E-3,3.8221368E-1,-6.6901557E-3,3.2618928E-3,-1.2164217E-2,-4.123012E-3,1.6483407E-2,1.1313905E-1,2.1896292E-2,-3.4173872E-2,-1.1390473E-2,-8.5789435E-2,-4.8968727E-3,-2.1736132E-2,1.0733972E-2,1.5987972E-2,2.044922E-2,4.448613E-2,4.6656948E-2,8.477423E-2,6.3904926E-2,8.214182E-2,9.712677E-2,6.442012E-2,1.6408049E-1,9.915864E-2],"categories":[],"categories_nodes":[],"categories_segments":[],"categories_sizes":[],"default_left":[0,0,0,0,0,0,1,0,0,0,0,0,0,1,0,1,0,0,0,0,0,1,0,0,0,1,0,1,0,1,0,1,0,0,0,0,1,1,0,1,0,0,0,1,1,0,0,1,0,0,1,0,0,0,1,0,0,0,0,0,0,0,0,0,0,0,0,0,0,0,0,0,0,0,0,0,0,0,0,0,0,0,0,0,0,0,0,0,0,0,0,0,0,0,0,0,0,0,0,0,0,0,0,0,0],"id":7,"left_children":[1,3,5,7,9,11,13,15,17,19,21,23,25,27,29,31,33,35,37,-1,39,41,43,45,-1,47,49,51,53,55,57,59,-1,61,63,65,67,69,71,73,75,77,79,81,83,85,87,89,-1,91,93,-1,95,97,99,101,103,-1,-1,-1,-1,-1,-1,-1,-1,-1,-1,-1,-1,-1,-1,-1,-1,-1,-1,-1,-1,-1,-1,-1,-1,-1,-1,-1,-1,-1,-1,-1,-1,-1,-1,-1,-1,-1,-1,-1,-1,-1,-1,-1,-1,-1,-1,-1,-1],"loss_changes":[4.905188E3,1.6312598E2,1.9916646E3,9.66261E1,6.584735E1,1.9326294E2,3.4500317E2,2.1011444E1,3.1212524E1,3.0256888E2,4.4192474E1,2.6675596E3,9.660693E1,6.0437256E1,5.5268677E1,7.5614426E1,1.2172607E1,1.1363037E1,1.2303589E1,0E0,6.1974678E1,6.076925E1,3.7842102E1,1.2353939E1,0E0,1.714106E3,4.836499E1,1.6115845E1,2.2850098E1,3.678003E1,3.0463654E1,9.660267E0,0E0,8.48423E0,8.298676E0,1.2057045E1,9.800415E0,4.558323E0,4.329651E0,1.8467336E0,8.825905E1,1.17989235E1,2.828057E2,2.844342E1,2.120639E1,1.1269793E1,1.0440737E1,2.2332878E1,0E0,3.8272476E0,4.042395E1,0E0,1.4620239E1,9.947144E0,6.5219727E0,2.6371887E1,3.334143E1,0E0,0E0,0E0,0E0,0E0,0E0,0E0,0E0,0E0,0E0,0E0,0E0,0E0,0E0,0E0,0E0,0E0,0E0,0E0,0E0,0E0,0E0,0E0,0E0,0E0,0E0,0E0,0E0,0E0,0E0,0E0,0E0,0E0,0E0,0E0,0E0,0E0,0E0,0E0,0E0,0E0,0E0,0E0,0E0,0E0,0E0,0E0,0E0],"parents":[2147483647,0,0,1,1,2,2,3,3,4,4,5,5,6,6,7,7,8,8,9,9,10,10,11,11,12,12,13,13,14,14,15,15,16,16,17,17,18,18,20,20,21,21,22,22,23,23,25,25,26,26,27,27,28,28,29,29,30,30,31,31,33,33,34,34,35,35,36,36,37,37,38,38,39,39,40,40,41,41,42,42,43,43,44,44,45,45,46,46,47,47,49,49,50,50,52,52,53,53,54,54,55,55,56,56],"right_children":[2,4,6,8,10,12,14,16,18,20,22,24,26,28,30,32,34,36,38,-1,40,42,44,46,-1,48,50,52,54,56,58,60,-1,62,64,66,68,70,72,74,76,78,80,82,84,86,88,90,-1,92,94,-1,96,98,100,102,104,-1,-1,-1,-1,-1,-1,-1,-1,-1,-1,-1,-1,-1,-1,-1,-1,-1,-1,-1,-1,-1,-1,-1,-1,-1,-1,-1,-1,-1,-1,-1,-1,-1,-1,-1,-1,-1,-1,-1,-1,-1,-1,-1,-1,-1,-1,-1,-1],"split_conditions":[9.633E-1,0E0,1E0,8.786E-1,1.5784899E-3,3.638E-1,1.486E0,1.007E-3,9.152E-1,1E0,3.38E1,2.35E1,1.5784899E-3,5.417E-1,2.6134E0,8.239E1,3.804E1,1.3995E2,8.07E1,3.1135798E-1,5.37E2,1.739605E4,9.017E-1,3.2E0,1.0222191E0,2.35E0,1E0,1.3982725E-3,9.325E-1,1.5638337E1,1.126E-1,6.077E1,1.5792541E-1,9.4E1,8.542E-1,1E0,6.024E1,3.5798E0,9.289E-1,1.205608E0,1.2069004E0,7.938E-1,-1.7610592E-3,6.536E1,6.295E1,2.3E0,2.94932E4,1.2654603E1,7.0678055E-1,-4.5988403E-4,8.101E-1,1.2767076E-1,1.92E-2,1E0,7.5811094E-1,1.273E-1,1.8412806E1,1.9103271E-1,4.399868E-2,-5.014896E-3,-1.2047352E-2,4.224388E-2,-1.7880717E-2,-8.899E-3,-1.2322963E-2,3.286686E-2,-9.825026E-3,-1.463339E-2,-1.941975E-2,-1.4497603E-2,1.3148545E-4,-2.004478E-2,-2.4018621E-2,-2.1371154E-2,3.9853933E-3,2.2346394E-1,-3.3108667E-2,3.7635033E-4,3.483956E-2,7.87847E-3,3.8221368E-1,-6.6901557E-3,3.2618928E-3,-1.2164217E-2,-4.123012E-3,1.6483407E-2,1.1313905E-1,2.1896292E-2,-3.4173872E-2,-1.1390473E-2,-8.5789435E-2,-4.8968727E-3,-2.1736132E-2,1.0733972E-2,1.5987972E-2,2.044922E-2,4.448613E-2,4.6656948E-2,8.477423E-2,6.3904926E-2,8.214182E-2,9.712677E-2,6.442012E-2,1.6408049E-1,9.915864E-2],"split_indices":[27,28,63,27,40,26,26,29,27,28,8,22,40,23,26,41,41,17,17,0,4,17,27,18,0,19,65,13,26,32,24,41,0,17,27,18,41,26,27,45,36,24,10,8,41,18,17,42,0,10,24,0,23,70,40,24,32,0,0,0,0,0,0,0,0,0,0,0,0,0,0,0,0,0,0,0,0,0,0,0,0,0,0,0,0,0,0,0,0,0,0,0,0,0,0,0,0,0,0,0,0,0,0,0,0],"split_type":[0,0,0,0,0,0,0,0,0,0,0,0,0,0,0,0,0,0,0,0,0,0,0,0,0,0,0,0,0,0,0,0,0,0,0,0,0,0,0,0,0,0,0,0,0,0,0,0,0,0,0,0,0,0,0,0,0,0,0,0,0,0,0,0,0,0,0,0,0,0,0,0,0,0,0,0,0,0,0,0,0,0,0,0,0,0,0,0,0,0,0,0,0,0,0,0,0,0,0,0,0,0,0,0,0],"sum_hessian":[6.1777E4,4.0878E4,2.0899E4,2.1526E4,1.9352E4,1.7646E4,3.253E3,1.0625E4,1.0901E4,7.9E1,1.9273E4,1.53E2,1.7493E4,2.809E3,4.44E2,2.77E3,7.855E3,7.709E3,3.192E3,8E0,7.1E1,6.17E2,1.8656E4,1.47E2,6E0,4.9E1,1.7444E4,1.953E3,8.56E2,4.17E2,2.7E1,2.764E3,6E0,7.36E2,7.119E3,6.87E2,7.022E3,3.01E2,2.891E3,5.9E1,1.2E1,5.8E2,3.7E1,1.2537E4,6.119E3,1.2E1,1.35E2,4.1E1,8E0,1.51E2,1.7293E4,5E0,1.948E3,3.24E2,5.32E2,2.7E2,1.47E2,2.2E1,5E0,2.13E3,6.34E2,5E0,7.31E2,3.479E3,3.64E3,1.6E1,6.71E2,5.69E3,1.332E3,2.32E2,6.9E1,1.594E3,1.297E3,5.1E1,8E0,6E0,6E0,5.55E2,2.5E1,3.2E1,5E0,1.1773E4,7.64E2,5.142E3,9.77E2,6E0,6E0,1.27E2,8E0,1.8E1,2.3E1,5.2E1,9.9E1,1.2018E4,5.275E3,6.8E1,1.88E3,3.05E2,1.9E1,4.61E2,7.1E1,1.24E2,1.46E2,2.7E1,1.2E2],"tree_param":{"num_deleted":"0","num_feature":"104","num_nodes":"105","size_leaf_vector":"1"}},{"base_weights":[-5.455817E-4,-6.0192436E-2,1.0661064E0,-1.9565938E-1,2.5927848E-1,9.608189E-1,1.90837E0,3.8671315E-1,-1.9791406E-1,7.0616546E0,2.432396E-1,8.3042496E-1,1.1389177E0,1.6694173E0,2.402783E0,3.3765414E0,-1.698233E-1,-2.0457266E-1,-1.4135461E-2,2.2554233E0,-7.4946856E-1,2.0958003E-1,3.1511888E-1,1.2291192E-1,8.2314813E-1,9.2369807E-1,1.2828006E0,1.414379E0,1.9922773E0,1.6734475E0,2.7646244E0,2.3803997E-1,6.637728E-1,-3.8973507E-1,3.389625E-2,-1.7719433E-1,-2.3010257E-1,1.6763048E-1,-3.300009E-2,-1.3036343E-1,-2.0883923E0,2.2028415E-1,7.948799E-2,3.826458E-1,2.6983693E-1,5.808308E-1,8.667044E-1,1.3247279E0,8.7777364E-1,1.2624564E0,2.2388911E0,1.2017188E0,1.6693968E0,2.838848E0,1.7891636E0,1.4319302E0,1.4218219E-1,2.5511477E0,2.2522227E-1,-2.3003908E-2,8.001353E-2,-2.2690028E-2,1.5793785E-2,1.0349078E-2,-9.175982E-3,-4.571413E-3,-1.4772131E-2,-6.3720657E-3,-1.5399602E-2,1.599025E-2,-3.2230478E-3,-5.2714646E-2,7.6666786E-3,-1.4964958E-1,-4.1786388E-2,2.2299783E-2,1.0669255E-2,2.0679576E-2,2.4142142E-3,7.9749875E-2,1.885011E-2,1.609952E-2,9.077196E-3,3.0989474E-2,-4.710836E-3,5.630673E-2,4.1397955E-2,2.2734007E-2,7.294551E-2,4.28361E-2,8.181062E-2,8.0901645E-2,6.0393807E-2,1.3833906E-1,6.578733E-2,4.0494405E-2,6.861114E-2,7.192726E-2,1.04112886E-1,8.925721E-2,2.032274E-1,1.0487413E-1,7.130837E-2,1.1372091E-1,5.750714E-2,1.1655535E-1,1.9825374E-1],"categories":[],"categories_nodes":[],"categories_segments":[],"categories_sizes":[],"default_left":[0,0,1,0,0,1,0,0,1,0,1,1,0,1,0,0,0,0,0,0,0,1,1,0,1,0,0,0,0,0,0,0,0,0,0,0,0,0,0,0,0,0,0,0,0,1,0,0,1,0,0,0,0,0,0,0,0,0,0,0,0,0,0,0,0,0,0,0,0,0,0,0,0,0,0,0,0,0,0,0,0,0,0,0,0,0,0,0,0,0,0,0,0,0,0,0,0,0,0,0,0,0,0,0,0,0,0],"id":8,"left_children":[1,3,5,7,9,11,13,15,17,19,21,23,25,27,29,31,33,35,37,-1,39,41,43,-1,45,47,49,51,53,55,57,59,-1,61,63,65,67,-1,69,71,73,75,77,79,81,83,85,87,89,91,93,95,97,99,101,103,-1,105,-1,-1,-1,-1,-1,-1,-1,-1,-1,-1,-1,-1,-1,-1,-1,-1,-1,-1,-1,-1,-1,-1,-1,-1,-1,-1,-1,-1,-1,-1,-1,-1,-1,-1,-1,-1,-1,-1,-1,-1,-1,-1,-1,-1,-1,-1,-1,-1,-1],"loss_changes":[3.9356846E3,2.5354343E3,2.8868164E2,5.409607E1,1.9015754E3,6.6726074E1,3.8874023E1,2.651412E2,5.0147095E1,1.2218527E4,4.2043945E1,1.7947632E1,3.687268E1,1.7602905E1,2.598639E1,7.7353394E2,6.0612545E0,2.760254E1,9.11874E1,0E0,2.874046E1,1.6493591E1,1.6864197E1,0E0,1.7228027E1,7.9720764E0,1.1450317E1,5.694824E0,1.3319519E1,7.515625E0,1.6735779E1,1.9756207E1,0E0,3.081688E0,2.7098212E0,1.9355756E2,1.6357971E2,0E0,1.5859677E1,6.714559E0,9.963425E0,1.6963928E1,9.394047E0,1.4622162E1,1.5252441E1,6.8698273E0,1.3361206E1,5.0571594E0,5.7510986E0,1.2038452E1,3.1820831E0,4.3001556E0,2.9137878E0,1.7283173E1,6.969391E0,5.930588E0,0E0,1.2535492E1,0E0,0E0,0E0,0E0,0E0,0E0,0E0,0E0,0E0,0E0,0E0,0E0,0E0,0E0,0E0,0E0,0E0,0E0,0E0,0E0,0E0,0E0,0E0,0E0,0E0,0E0,0E0,0E0,0E0,0E0,0E0,0E0,0E0,0E0,0E0,0E0,0E0,0E0,0E0,0E0,0E0,0E0,0E0,0E0,0E0,0E0,0E0,0E0,0E0],"parents":[2147483647,0,0,1,1,2,2,3,3,4,4,5,5,6,6,7,7,8,8,9,9,10,10,11,11,12,12,13,13,14,14,15,15,16,16,17,17,18,18,20,20,21,21,22,22,24,24,25,25,26,26,27,27,28,28,29,29,30,30,31,31,33,33,34,34,35,35,36,36,38,38,39,39,40,40,41,41,42,42,43,43,44,44,45,45,46,46,47,47,48,48,49,49,50,50,51,51,52,52,53,53,54,54,55,55,57,57],"right_children":[2,4,6,8,10,12,14,16,18,20,22,24,26,28,30,32,34,36,38,-1,40,42,44,-1,46,48,50,52,54,56,58,60,-1,62,64,66,68,-1,70,72,74,76,78,80,82,84,86,88,90,92,94,96,98,100,102,104,-1,106,-1,-1,-1,-1,-1,-1,-1,-1,-1,-1,-1,-1,-1,-1,-1,-1,-1,-1,-1,-1,-1,-1,-1,-1,-1,-1,-1,-1,-1,-1,-1,-1,-1,-1,-1,-1,-1,-1,-1,-1,-1,-1,-1,-1,-1,-1,-1,-1,-1],"split_conditions":[1E0,1E0,1.5749E0,4.08E-4,6.5878895E-4,4.569E-1,1.9853E0,1.2E0,2.2588E0,3.958E1,8.077E-1,8.835E2,9.215E-1,1.4785281E1,5.8E-1,7.476712E-1,1.6546E0,5.198E1,1.945E1,2.2554233E0,2.840429E1,1.7095E0,1.656879E1,1.2291192E-1,5.489E-1,3.03E-2,9.375E-1,6.914E-1,1.7860678E1,6.996E1,1E0,4.034E-1,6.637728E-1,5.258006E1,2.06E1,1E0,1E0,1.6763048E-1,3.284E1,4.382E1,5.066E1,7.212929E-4,1.3980369E1,8.612776E0,1.1159E0,1.0688464E2,2.0938873E1,1.48E1,6.915E1,2.8E0,1.3598897E0,7.67E1,1.77E1,2.4510908E1,4.4E2,8.19E-2,1.4218219E-1,4.3886494E1,2.2522227E-1,-2.3003908E-2,8.001353E-2,-2.2690028E-2,1.5793785E-2,1.0349078E-2,-9.175982E-3,-4.571413E-3,-1.4772131E-2,-6.3720657E-3,-1.5399602E-2,1.599025E-2,-3.2230478E-3,-5.2714646E-2,7.6666786E-3,-1.4964958E-1,-4.1786388E-2,2.2299783E-2,1.0669255E-2,2.0679576E-2,2.4142142E-3,7.9749875E-2,1.885011E-2,1.609952E-2,9.077196E-3,3.0989474E-2,-4.710836E-3,5.630673E-2,4.1397955E-2,2.2734007E-2,7.294551E-2,4.28361E-2,8.181062E-2,8.0901645E-2,6.0393807E-2,1.3833906E-1,6.578733E-2,4.0494405E-2,6.861114E-2,7.192726E-2,1.04112886E-1,8.925721E-2,2.032274E-1,1.0487413E-1,7.130837E-2,1.1372091E-1,5.750714E-2,1.1655535E-1,1.9825374E-1],"split_indices":[63,65,26,30,50,23,26,19,26,31,24,17,26,32,23,21,26,8,31,0,32,26,42,0,26,25,23,23,32,8,78,24,0,32,19,61,62,0,8,41,8,13,12,12,26,7,32,19,31,22,20,19,22,12,19,24,0,12,0,0,0,0,0,0,0,0,0,0,0,0,0,0,0,0,0,0,0,0,0,0,0,0,0,0,0,0,0,0,0,0,0,0,0,0,0,0,0,0,0,0,0,0,0,0,0,0,0],"split_type":[0,0,0,0,0,0,0,0,0,0,0,0,0,0,0,0,0,0,0,0,0,0,0,0,0,0,0,0,0,0,0,0,0,0,0,0,0,0,0,0,0,0,0,0,0,0,0,0,0,0,0,0,0,0,0,0,0,0,0,0,0,0,0,0,0,0,0,0,0,0,0,0,0,0,0,0,0,0,0,0,0,0,0,0,0,0,0,0,0,0,0,0,0,0,0,0,0,0,0,0,0,0,0,0,0,0,0],"sum_hessian":[6.1858E4,5.8583E4,3.275E3,4.1139E4,1.7444E4,2.913E3,3.62E2,1.58E2,4.0981E4,4E1,1.7404E4,1.685E3,1.228E3,2.47E2,1.15E2,2.4E1,1.34E2,3.9548E4,1.433E3,6E0,3.4E1,1.1856E4,5.548E3,6E0,1.679E3,4.95E2,7.33E2,1.41E2,1.06E2,4E1,7.5E1,1.9E1,5E0,6.4E1,7E1,1.9087E4,2.0461E4,7E0,1.426E3,2.4E1,1E1,1.0954E4,9.02E2,2.224E3,3.324E3,2.58E2,1.421E3,4.8E1,4.47E2,7.2E2,1.3E1,8E1,6.1E1,1.8E1,8.8E1,3.5E1,5E0,6.9E1,6E0,1.3E1,6E0,5.9E1,5E0,3.9E1,3.1E1,1.1064E4,8.023E3,8.828E3,1.1633E4,1.16E2,1.31E3,5E0,1.9E1,5E0,5E0,3.23E2,1.0631E4,7.6E1,8.26E2,9E0,2.215E3,2.088E3,1.236E3,2.44E2,1.4E1,1.81E2,1.24E3,7E0,4.1E1,4.37E2,1E1,9.2E1,6.28E2,7E0,6E0,2.6E1,5.4E1,4.2E1,1.9E1,1.1E1,7E0,4.5E1,4.3E1,7E0,2.8E1,6.2E1,7E0],"tree_param":{"num_deleted":"0","num_feature":"104","num_nodes":"107","size_leaf_vector":"1"}},{"base_weights":[2.4660287E-4,-1.8702695E-1,3.6832735E-1,-2.4281156E-1,-1.2033503E-1,9.8791685E0,3.5097077E-1,-2.0388806E-1,-3.3966002E-1,1.7235564E-1,-1.3048482E-1,2.5859368E0,-1.2368224E0,2.3080091E-1,1.0023936E0,-1.2865973E-1,-2.2434606E-1,-3.079684E-1,-3.995531E-1,2.2297814E-1,1.3072284E-1,-3.189756E-2,-1.5242949E-1,-1.7317111E0,2.012233E-2,-3.2155842E-1,2.3601505E-1,7.9496264E-1,1.2466253E0,1.4353193E-1,-1.3567081E-1,-2.0696604E-1,-2.9404756E-1,-1.4125049E-1,-3.2283193E-1,-1.682056E-1,-4.130878E-1,1.7615081E-1,8.638288E-2,-4.7819022E-2,2.7124627E0,-1.7463432E-1,-4.4855736E-2,7.165336E-3,-2.3646786E0,-1.330329E-1,-4.4589832E-1,2.003547E-1,3.0310524E-1,1.280633E-1,7.874518E-1,1.8510901E0,1.1464814E0,-4.396363E-3,-9.646238E-3,-9.473997E-3,-1.27540035E-2,-8.597799E-3,-1.5604575E-2,3.951523E-2,-9.005374E-3,-1.5048894E-2,-1.9521428E-2,-5.8948565E-3,-2.5020963E-2,-2.0910129E-2,-1.7582364E-3,1.5714141E-3,5.78475E-2,-2.594182E-3,8.087691E-2,-1.4720744E-2,4.6382165E-1,-5.172094E-3,-1.0349035E-2,-1.4656973E-2,-3.5033547E-5,-1.2606608E-2,-1.5789008E-1,1.1433445E-2,-1.1217194E-2,-1.3876954E-2,-2.7766807E-2,1.5237987E-1,9.904256E-3,5.413868E-2,1.3964121E-2,3.0227287E-2,4.2960044E-2,1.1040719E-1,6.6045456E-2,5.2661546E-2,6.595451E-2],"categories":[],"categories_nodes":[],"categories_segments":[],"categories_sizes":[],"default_left":[0,1,0,0,0,0,0,0,0,0,0,0,0,0,1,0,1,0,0,0,0,0,1,0,0,0,1,1,0,0,0,0,0,0,1,1,0,0,0,1,0,0,0,0,0,0,0,0,0,0,1,0,0,0,0,0,0,0,0,0,0,0,0,0,0,0,0,0,0,0,0,0,0,0,0,0,0,0,0,0,0,0,0,0,0,0,0,0,0,0,0,0,0],"id":9,"left_children":[1,3,5,7,9,11,13,15,17,19,21,-1,23,25,27,29,31,33,35,-1,37,39,41,43,-1,45,47,49,51,-1,53,55,57,59,61,63,65,-1,67,69,71,73,75,-1,77,79,81,83,85,-1,87,89,91,-1,-1,-1,-1,-1,-1,-1,-1,-1,-1,-1,-1,-1,-1,-1,-1,-1,-1,-1,-1,-1,-1,-1,-1,-1,-1,-1,-1,-1,-1,-1,-1,-1,-1,-1,-1,-1,-1,-1,-1],"loss_changes":[4.268394E3,1.5265894E2,3.4434749E3,8.417163E1,5.556067E1,1.773732E4,1.6314661E3,2.4507751E1,1.2034424E1,1.1132928E2,3.9086792E1,0E0,2.5845852E1,5.076239E1,1.6345508E2,7.2117096E1,1.5121826E1,1.0344727E1,6.8599243E0,0E0,9.3253265E1,1.4392741E2,3.529413E1,2.8822678E1,0E0,3.808487E0,4.1651733E1,2.1305664E1,8.801221E1,0E0,9.287891E0,8.394409E0,5.4516754E0,1.2630453E1,5.568451E0,2.0134342E0,4.0252686E0,0E0,3.6145683E1,2.223899E1,3.7773517E2,2.818814E1,2.7736145E1,0E0,2.9362976E1,2.264132E0,1.6699333E0,7.297958E1,1.1205115E2,0E0,2.2472656E1,3.6836792E1,1.9213379E1,0E0,0E0,0E0,0E0,0E0,0E0,0E0,0E0,0E0,0E0,0E0,0E0,0E0,0E0,0E0,0E0,0E0,0E0,0E0,0E0,0E0,0E0,0E0,0E0,0E0,0E0,0E0,0E0,0E0,0E0,0E0,0E0,0E0,0E0,0E0,0E0,0E0,0E0,0E0,0E0],"parents":[2147483647,0,0,1,1,2,2,3,3,4,4,5,5,6,6,7,7,8,8,9,9,10,10,12,12,13,13,14,14,15,15,16,16,17,17,18,18,20,20,21,21,22,22,23,23,25,25,26,26,27,27,28,28,30,30,31,31,32,32,33,33,34,34,35,35,36,36,38,38,39,39,40,40,41,41,42,42,44,44,45,45,46,46,47,47,48,48,50,50,51,51,52,52],"right_children":[2,4,6,8,10,12,14,16,18,20,22,-1,24,26,28,30,32,34,36,-1,38,40,42,44,-1,46,48,50,52,-1,54,56,58,60,62,64,66,-1,68,70,72,74,76,-1,78,80,82,84,86,-1,88,90,92,-1,-1,-1,-1,-1,-1,-1,-1,-1,-1,-1,-1,-1,-1,-1,-1,-1,-1,-1,-1,-1,-1,-1,-1,-1,-1,-1,-1,-1,-1,-1,-1,-1,-1,-1,-1,-1,-1,-1,-1],"split_conditions":[9.633E-1,0E0,6.5878895E-4,8.984E-1,3.38E1,1.20099E0,1E0,8.379E-1,9.231E-1,2.471549E-3,8.587E-1,2.5859368E0,1.20501E0,1E0,4.569E-1,2.4875594E-4,3.1830023E1,1.3245E2,2.505E1,2.2297814E-1,1.945E1,1E0,6.041E1,5.8365285E-1,2.012233E-2,9.96E-4,8E-1,6.5085E2,1E0,1.4353193E-1,2.6128061E1,6.077E1,3.279E-3,1E0,3.0327202E1,8.395E-1,1E0,1.7615081E-1,3.90112E2,8.327404E0,2.323756E1,4.701E1,1E0,7.165336E-3,1.278858E1,3.81E1,1.4290774E-5,1.5784899E-3,8.014E-1,1.280633E-1,1.143E-1,1.739E-1,7.158E-1,-4.396363E-3,-9.646238E-3,-9.473997E-3,-1.27540035E-2,-8.597799E-3,-1.5604575E-2,3.951523E-2,-9.005374E-3,-1.5048894E-2,-1.9521428E-2,-5.8948565E-3,-2.5020963E-2,-2.0910129E-2,-1.7582364E-3,1.5714141E-3,5.78475E-2,-2.594182E-3,8.087691E-2,-1.4720744E-2,4.6382165E-1,-5.172094E-3,-1.0349035E-2,-1.4656973E-2,-3.5033547E-5,-1.2606608E-2,-1.5789008E-1,1.1433445E-2,-1.1217194E-2,-1.3876954E-2,-2.7766807E-2,1.5237987E-1,9.904256E-3,5.413868E-2,1.3964121E-2,3.0227287E-2,4.2960044E-2,1.1040719E-1,6.6045456E-2,5.2661546E-2,6.595451E-2],"split_indices":[27,28,50,27,8,34,63,27,27,40,27,0,34,65,23,13,12,17,17,0,31,64,31,21,0,30,24,17,82,0,12,31,30,18,12,23,64,0,34,21,12,8,61,0,32,8,33,40,24,0,23,25,23,0,0,0,0,0,0,0,0,0,0,0,0,0,0,0,0,0,0,0,0,0,0,0,0,0,0,0,0,0,0,0,0,0,0,0,0,0,0,0,0],"split_type":[0,0,0,0,0,0,0,0,0,0,0,0,0,0,0,0,0,0,0,0,0,0,0,0,0,0,0,0,0,0,0,0,0,0,0,0,0,0,0,0,0,0,0,0,0,0,0,0,0,0,0,0,0,0,0,0,0,0,0,0,0,0,0,0,0,0,0,0,0,0,0,0,0,0,0,0,0,0,0,0,0,0,0,0,0,0,0,0,0,0,0,0,0],"sum_hessian":[6.192E4,4.104E4,2.088E4,2.2346E4,1.8694E4,3.7E1,2.0843E4,1.5942E4,6.404E3,6.26E2,1.8068E4,7E0,3E1,1.7598E4,3.245E3,3.41E3,1.2532E4,4.192E3,2.212E3,5E0,6.21E2,3.29E3,1.4778E4,2.3E1,7E0,1.64E2,1.7434E4,1.757E3,1.488E3,7E0,3.403E3,1.0034E4,2.498E3,3.44E2,3.848E3,1.23E2,2.089E3,7E0,6.14E2,3.272E3,1.8E1,1.2249E4,2.529E3,6E0,1.7E1,6.6E1,9.8E1,1.1386E4,6.048E3,6E0,1.751E3,2.09E2,1.279E3,1.857E3,1.546E3,7.363E3,2.671E3,3.23E2,2.175E3,1.3E1,3.31E2,2.912E3,9.36E2,1.08E2,1.5E1,2.061E3,2.8E1,5.85E2,2.9E1,3.265E3,7E0,1.3E1,5E0,3.828E3,8.421E3,3.81E2,2.148E3,5E0,1.2E1,1.3E1,5.3E1,4E1,5.8E1,8E0,1.1378E4,1.78E2,5.87E3,4.96E2,1.255E3,1.23E2,8.6E1,8.35E2,4.44E2],"tree_param":{"num_deleted":"0","num_feature":"104","num_nodes":"93","size_leaf_vector":"1"}},{"base_weights":[1.1644694E-3,-5.1529054E-2,9.5896465E-1,-1.7450404E-1,2.3717974E-1,8.7955487E-1,1.9916128E0,-2.3371364E-1,-1.0879359E-1,5.5150323E0,2.1532923E-1,7.5270593E-1,1.0533617E0,2.5812485E0,1.6638631E0,-2.0229293E-1,-2.7909318E-1,-1.4405161E-1,-5.7183567E-2,2.1846797E0,-6.3259685E-1,2.960447E-1,1.946513E-1,5.0194293E-1,7.9388076E-1,8.445E-1,1.1818389E0,1.8581301E0,2.895007E0,1.3510104E0,2.1234999E0,-1.8728897E-1,-2.8716263E-1,-3.605579E-1,-2.6582766E-1,-7.0200115E-2,-1.9074021E-1,1.4901586E-1,-6.06429E-2,-6.143599E-2,-3.0549107E0,4.88273E-1,2.7062643E-1,1.7258674E-1,2.6565838E-1,7.645035E-1,3.7158757E-1,1.1600796E0,7.602764E-1,7.786169E-1,1.3430334E0,1.1057173E0,1.4033623E0,1.4347856E-1,1.1929891E0,3.0424504E0,7.35196E-2,9.612938E-1,1.6454632E0,2.2464871E0,3.3134915E-2,-9.4643645E-3,1.2710497E-1,-8.289861E-3,-1.5806949E-2,-1.8175093E-2,1.5103117E-2,-1.249847E-2,-1.7455643E-2,9.463579E-2,-4.104709E-3,-1.0362517E-2,-3.452867E-3,1.0781471E-2,-4.4577173E-3,-2.841652E-2,1.0050395E-2,-2.5380922E-2,-2.7588E-1,1.2431564E-1,2.0596748E-2,4.6171797E-3,1.4733478E-2,1.2129172E-2,7.744547E-3,1.4307235E-2,1.3680089E-3,3.0736482E-2,5.815779E-2,6.960793E-3,2.8206322E-2,1.3608517E-2,6.598385E-2,3.7206616E-2,6.138425E-2,5.6146976E-2,3.386594E-2,1.61566E-1,5.229347E-2,7.448815E-2,5.2128192E-2,5.9791982E-2,8.2361564E-2,3.4930855E-2,6.909785E-2,1.6014923E-1,6.924405E-2,9.30677E-2,3.4738466E-2,6.2001538E-2,9.9380426E-2,8.885162E-2,1.3094719E-1],"categories":[],"categories_nodes":[],"categories_segments":[],"categories_sizes":[],"default_left":[0,0,1,0,0,1,0,0,0,0,0,0,0,0,1,1,0,0,0,0,0,0,1,1,1,0,0,0,0,0,0,1,0,1,1,0,1,0,0,1,0,0,0,0,0,0,0,0,1,0,0,0,1,0,0,1,0,1,1,0,0,0,0,0,0,0,0,0,0,0,0,0,0,0,0,0,0,0,0,0,0,0,0,0,0,0,0,0,0,0,0,0,0,0,0,0,0,0,0,0,0,0,0,0,0,0,0,0,0,0,0,0,0],"id":10,"left_children":[1,3,5,7,9,11,13,15,17,19,21,23,25,27,29,31,33,35,37,-1,39,41,43,45,47,49,51,53,55,57,59,61,63,65,67,69,71,-1,73,75,77,79,81,83,85,87,89,91,93,95,97,99,101,-1,103,105,-1,107,109,111,-1,-1,-1,-1,-1,-1,-1,-1,-1,-1,-1,-1,-1,-1,-1,-1,-1,-1,-1,-1,-1,-1,-1,-1,-1,-1,-1,-1,-1,-1,-1,-1,-1,-1,-1,-1,-1,-1,-1,-1,-1,-1,-1,-1,-1,-1,-1,-1,-1,-1,-1,-1,-1],"loss_changes":[3.114545E3,2.0767744E3,2.6213208E2,1.5957446E2,2.0138643E3,6.5128174E1,3.9960022E1,3.070935E1,3.5375183E1,1.692659E4,2.8986816E1,1.748462E1,3.278589E1,1.2771484E1,1.8700897E1,1.618573E1,9.441101E0,3.981816E1,8.31288E1,0E0,8.697476E1,1.7198914E1,2.1662903E1,8.169785E0,1.7404602E1,1.4818359E1,1.1550537E1,1.4740898E1,6.86911E0,8.97551E0,9.111206E0,5.9604675E1,6.678589E0,2.5150452E0,9.941223E0,1.0465665E2,1.42034E1,0E0,6.2136642E1,7.031869E0,7.247744E1,6.1969215E1,1.3410904E1,1.30598755E1,1.6019302E1,4.121292E0,7.3931446E0,1.7070877E1,9.378967E0,1.4202637E1,2.7482674E1,1.2586792E1,7.898773E0,0E0,7.161102E-1,8.336914E0,0E0,8.782085E0,4.6098633E0,4.788025E0,0E0,0E0,0E0,0E0,0E0,0E0,0E0,0E0,0E0,0E0,0E0,0E0,0E0,0E0,0E0,0E0,0E0,0E0,0E0,0E0,0E0,0E0,0E0,0E0,0E0,0E0,0E0,0E0,0E0,0E0,0E0,0E0,0E0,0E0,0E0,0E0,0E0,0E0,0E0,0E0,0E0,0E0,0E0,0E0,0E0,0E0,0E0,0E0,0E0,0E0,0E0,0E0,0E0],"parents":[2147483647,0,0,1,1,2,2,3,3,4,4,5,5,6,6,7,7,8,8,9,9,10,10,11,11,12,12,13,13,14,14,15,15,16,16,17,17,18,18,20,20,21,21,22,22,23,23,24,24,25,25,26,26,27,27,28,28,29,29,30,30,31,31,32,32,33,33,34,34,35,35,36,36,38,38,39,39,40,40,41,41,42,42,43,43,44,44,45,45,46,46,47,47,48,48,49,49,50,50,51,51,52,52,54,54,55,55,57,57,58,58,59,59],"right_children":[2,4,6,8,10,12,14,16,18,20,22,24,26,28,30,32,34,36,38,-1,40,42,44,46,48,50,52,54,56,58,60,62,64,66,68,70,72,-1,74,76,78,80,82,84,86,88,90,92,94,96,98,100,102,-1,104,106,-1,108,110,112,-1,-1,-1,-1,-1,-1,-1,-1,-1,-1,-1,-1,-1,-1,-1,-1,-1,-1,-1,-1,-1,-1,-1,-1,-1,-1,-1,-1,-1,-1,-1,-1,-1,-1,-1,-1,-1,-1,-1,-1,-1,-1,-1,-1,-1,-1,-1,-1,-1,-1,-1,-1,-1],"split_conditions":[1E0,1E0,1.7528E0,0E0,2.4875594E-4,9.898E-1,1E0,2.4720875E1,6.164E1,3.958E1,7.26E-1,5.43E-1,4.203E-1,1.9853E0,1.4052582E1,6.173E1,3.616E1,4.279E1,1.945E1,2.1846797E0,3.697839E1,1.8905E2,4.6E2,3.32E1,3.7685744E-3,3.8762074E1,1.4335E0,2.8959131E1,2.05E1,6.541E-1,1.0892388E2,7.986E1,5.344E1,5.195E1,6.78E1,4.08E-4,5.798E1,1.4901586E-1,3.205E-3,4.466E1,1E0,-1.2235318E-2,1.3980369E1,1.20176E0,1.7095E0,7.02E-3,2.3426222E1,2.0602106E-3,8E-1,8.0912E1,3.957643E1,2.9E0,1.6143585E0,1.4347856E-1,2.1558242E0,7.06E3,7.35196E-2,1.1942275E-1,1.3179042E0,2.1999495E1,3.3134915E-2,-9.4643645E-3,1.2710497E-1,-8.289861E-3,-1.5806949E-2,-1.8175093E-2,1.5103117E-2,-1.249847E-2,-1.7455643E-2,9.463579E-2,-4.104709E-3,-1.0362517E-2,-3.452867E-3,1.0781471E-2,-4.4577173E-3,-2.841652E-2,1.0050395E-2,-2.5380922E-2,-2.7588E-1,1.2431564E-1,2.0596748E-2,4.6171797E-3,1.4733478E-2,1.2129172E-2,7.744547E-3,1.4307235E-2,1.3680089E-3,3.0736482E-2,5.815779E-2,6.960793E-3,2.8206322E-2,1.3608517E-2,6.598385E-2,3.7206616E-2,6.138425E-2,5.6146976E-2,3.386594E-2,1.61566E-1,5.229347E-2,7.448815E-2,5.2128192E-2,5.9791982E-2,8.2361564E-2,3.4930855E-2,6.909785E-2,1.6014923E-1,6.924405E-2,9.30677E-2,3.4738466E-2,6.2001538E-2,9.9380426E-2,8.885162E-2,1.3094719E-1],"split_indices":[63,65,26,28,13,26,82,12,41,31,26,26,23,26,32,31,41,41,31,0,32,17,18,19,13,12,26,12,22,23,36,41,41,51,41,30,51,0,30,51,76,11,12,44,26,29,12,13,23,34,12,22,6,0,21,19,0,20,7,12,0,0,0,0,0,0,0,0,0,0,0,0,0,0,0,0,0,0,0,0,0,0,0,0,0,0,0,0,0,0,0,0,0,0,0,0,0,0,0,0,0,0,0,0,0,0,0,0,0,0,0,0,0],"split_type":[0,0,0,0,0,0,0,0,0,0,0,0,0,0,0,0,0,0,0,0,0,0,0,0,0,0,0,0,0,0,0,0,0,0,0,0,0,0,0,0,0,0,0,0,0,0,0,0,0,0,0,0,0,0,0,0,0,0,0,0,0,0,0,0,0,0,0,0,0,0,0,0,0,0,0,0,0,0,0,0,0,0,0,0,0,0,0,0,0,0,0,0,0,0,0,0,0,0,0,0,0,0,0,0,0,0,0,0,0,0,0,0,0],"sum_hessian":[6.1709E4,5.8492E4,3.217E3,4.102E4,1.7472E4,2.989E3,2.28E2,2.1576E4,1.9444E4,7.1E1,1.7401E4,1.731E3,1.258E3,7.9E1,1.49E2,1.2752E4,8.824E3,1.1551E4,7.893E3,9E0,6.2E1,3.546E3,1.3855E4,2.46E2,1.485E3,4.82E2,7.76E2,2.6E1,5.3E1,9.1E1,5.8E1,1.0839E4,1.913E3,1.232E3,7.592E3,4.475E3,7.076E3,8E0,7.885E3,5.1E1,1.1E1,4.12E2,3.134E3,1.0573E4,3.282E3,8E1,1.66E2,1.22E2,1.363E3,4.28E2,5.4E1,5.82E2,1.94E2,9E0,1.7E1,4.7E1,6E0,4.1E1,5E1,5.3E1,5E0,1.0832E4,7E0,3.7E2,1.543E3,1.227E3,5E0,6.381E3,1.211E3,2.6E1,4.449E3,6.23E3,8.46E2,7.37E2,7.148E3,1.7E1,3.4E1,6E0,5E0,1.4E1,3.98E2,3.73E2,2.761E3,2.131E3,8.442E3,3.022E3,2.6E2,6E1,2E1,7.6E1,9E1,1.9E1,1.03E2,1.32E3,4.3E1,9.5E1,3.33E2,6E0,4.8E1,7.9E1,5.03E2,1.08E2,8.6E1,6E0,1.1E1,4.2E1,5E0,8E0,3.3E1,2.5E1,2.5E1,2.6E1,2.7E1],"tree_param":{"num_deleted":"0","num_feature":"104","num_nodes":"113","size_leaf_vector":"1"}},{"base_weights":[2.706609E-3,-1.6903897E-1,3.3974487E-1,-2.1405922E-1,-9.8396406E-2,8.74168E0,3.2312468E-1,-1.7720985E-1,-2.9984018E-1,5.8060925E-4,-1.2344334E-1,3.0783989E1,-1.440792E0,9.087184E-1,2.2319472E-1,-1.7998552E-1,1.4944925E0,-2.7484837E-1,-3.8049808E-1,3.9979747E-1,-2.4966286E-2,-1.7963831E-1,-6.705124E-2,-1.558093E-1,3.0143225E0,-2.6109588E-1,-2.016664E-1,-2.9775122E-1,9.5307565E-1,1.3296832E0,2.1354778E-1,-1.13882184E-1,-1.9752212E-1,3.2058066E-1,2.970529E-1,1.933281E-1,-2.7826366E-1,-3.9080307E-1,-1.0449476E-1,2.2286289E0,-2.0420048E-1,6.5046456E-3,-1.5438151E-1,-1.4230552E-1,-2.506353E-1,5.129924E-1,-7.739671E-2,-5.8965463E-2,1.8481009E-1,-4.211568E-1,-3.924126E-2,8.6501855E-1,1.861118E0,3.129446E-1,7.3696747E0,2.9771817E-1,1.9022365E-1,7.8895904E-2,-5.994735E-3,-1.5197061E-2,-9.39532E-3,-1.551868E-3,3.1024555E-2,-3.9292155E-3,3.7138306E-2,-1.2886907E-2,-1.684691E-2,-2.0267129E-2,-1.538716E-2,9.2269137E-4,-1.8149003E-2,2.1293333E-2,7.3884934E-1,-4.1527203E-3,-1.9328818E-2,7.336558E-4,-1.9932544E-2,4.7470294E-3,-8.68317E-3,-3.0079451E-3,-8.988247E-3,-8.389591E-3,-1.3953184E-2,1.0962385E-3,4.5515108E-1,-5.702128E-3,7.6612615E-4,3.0896584E-2,-1.9923098E-2,-7.257531E-3,-2.2644686E-2,-1.1942162E-2,1.8993314E-2,3.593637E-2,5.159157E-2,9.758919E-2,1.3412917E-2,5.5611517E-2,9.255888E-3,1.303641E0,1.6752746E-2,1.0998035E-2,1.8881788E-2,9.3316045E-3,3.3234704E-2],"categories":[],"categories_nodes":[],"categories_segments":[],"categories_sizes":[],"default_left":[0,1,0,0,0,0,0,1,0,1,0,0,0,0,0,0,0,0,1,0,1,0,0,0,0,0,0,0,1,0,1,0,0,1,0,0,1,1,0,0,0,0,0,0,0,0,0,0,0,0,0,1,0,0,0,0,1,0,0,0,0,0,0,0,0,0,0,0,0,0,0,0,0,0,0,0,0,0,0,0,0,0,0,0,0,0,0,0,0,0,0,0,0,0,0,0,0,0,0,0,0,0,0,0,0],"id":11,"left_children":[1,3,5,7,9,11,13,15,17,19,21,23,25,27,29,31,33,35,37,39,41,43,45,-1,-1,47,-1,49,51,53,55,57,59,61,-1,63,65,67,69,71,73,75,77,79,81,83,85,-1,87,89,91,93,95,97,99,101,103,-1,-1,-1,-1,-1,-1,-1,-1,-1,-1,-1,-1,-1,-1,-1,-1,-1,-1,-1,-1,-1,-1,-1,-1,-1,-1,-1,-1,-1,-1,-1,-1,-1,-1,-1,-1,-1,-1,-1,-1,-1,-1,-1,-1,-1,-1,-1,-1],"loss_changes":[3.5645474E3,1.2971472E2,2.899909E3,7.869934E1,3.9367706E1,9.246605E3,1.2138774E3,8.114575E1,1.4983582E1,3.272758E1,4.0148087E1,1.3189667E4,8.764064E1,1.6211499E2,1.8890588E2,2.015039E1,1.4947179E2,9.196625E0,4.987747E0,2.1364491E2,1.2284623E1,1.6787155E1,3.800692E1,0E0,0E0,8.816121E0,0E0,3.4288425E0,2.3163232E2,9.372809E2,3.4440735E1,3.7327023E1,1.4015259E1,2.5501525E0,0E0,6.3331275E0,6.7501526E0,1.933075E0,2.0724244E0,1.0795488E3,3.193635E0,8.038006E0,2.8528528E0,1.2796341E1,5.1014404E0,4.6803006E2,2.112571E1,0E0,4.0356383E0,5.737114E-1,3.1022973E0,6.4195435E1,3.6591797E1,1.3280567E1,2.8857935E3,2.3599213E1,2.3327637E1,0E0,0E0,0E0,0E0,0E0,0E0,0E0,0E0,0E0,0E0,0E0,0E0,0E0,0E0,0E0,0E0,0E0,0E0,0E0,0E0,0E0,0E0,0E0,0E0,0E0,0E0,0E0,0E0,0E0,0E0,0E0,0E0,0E0,0E0,0E0,0E0,0E0,0E0,0E0,0E0,0E0,0E0,0E0,0E0,0E0,0E0,0E0,0E0],"parents":[2147483647,0,0,1,1,2,2,3,3,4,4,5,5,6,6,7,7,8,8,9,9,10,10,11,11,12,12,13,13,14,14,15,15,16,16,17,17,18,18,19,19,20,20,21,21,22,22,25,25,27,27,28,28,29,29,30,30,31,31,32,32,33,33,35,35,36,36,37,37,38,38,39,39,40,40,41,41,42,42,43,43,44,44,45,45,46,46,48,48,49,49,50,50,51,51,52,52,53,53,54,54,55,55,56,56],"right_children":[2,4,6,8,10,12,14,16,18,20,22,24,26,28,30,32,34,36,38,40,42,44,46,-1,-1,48,-1,50,52,54,56,58,60,62,-1,64,66,68,70,72,74,76,78,80,82,84,86,-1,88,90,92,94,96,98,100,102,104,-1,-1,-1,-1,-1,-1,-1,-1,-1,-1,-1,-1,-1,-1,-1,-1,-1,-1,-1,-1,-1,-1,-1,-1,-1,-1,-1,-1,-1,-1,-1,-1,-1,-1,-1,-1,-1,-1,-1,-1,-1,-1,-1,-1,-1,-1,-1,-1],"split_conditions":[9.633E-1,1E0,6.5878895E-4,8.984E-1,4.359E1,4.72E1,6E-1,4.4015E0,9.289E-1,1.5784899E-3,5.788E1,8.348E-1,1.9563908E1,5.2085E2,3.638E-1,8.379E-1,4.116E-3,7.74E-4,3.5798E0,1.525E-3,4.369E1,8.987E-1,8.015E-1,-1.558093E-1,3.0143225E0,1.2091444E0,-2.016664E-1,1E0,1.7095E0,2.384E3,7.26E-1,4.08E-4,3.616E1,1.7922336E0,2.970529E-1,5.988E1,5.76E1,1.5478E0,6.295E1,1.518E3,8.813E-1,1E0,1.3870271E1,-2.555002E-5,4.847E1,1E0,6.213E1,-5.8965463E-2,1E0,2.9E-4,5.9396715E0,9.595E-1,6.205E-1,1.855E-3,1.2071E0,7.865E-1,1E0,7.8895904E-2,-5.994735E-3,-1.5197061E-2,-9.39532E-3,-1.551868E-3,3.1024555E-2,-3.9292155E-3,3.7138306E-2,-1.2886907E-2,-1.684691E-2,-2.0267129E-2,-1.538716E-2,9.2269137E-4,-1.8149003E-2,2.1293333E-2,7.3884934E-1,-4.1527203E-3,-1.9328818E-2,7.336558E-4,-1.9932544E-2,4.7470294E-3,-8.68317E-3,-3.0079451E-3,-8.988247E-3,-8.389591E-3,-1.3953184E-2,1.0962385E-3,4.5515108E-1,-5.702128E-3,7.6612615E-4,3.0896584E-2,-1.9923098E-2,-7.257531E-3,-2.2644686E-2,-1.1942162E-2,1.8993314E-2,3.593637E-2,5.159157E-2,9.758919E-2,1.3412917E-2,5.5611517E-2,9.255888E-3,1.303641E0,1.6752746E-2,1.0998035E-2,1.8881788E-2,9.3316045E-3,3.3234704E-2],"split_indices":[27,28,50,27,8,41,24,26,27,40,41,24,12,17,26,27,29,30,26,29,41,27,27,0,0,37,0,28,26,4,26,30,41,20,0,51,41,26,41,4,27,61,12,11,8,71,8,0,78,29,20,26,25,30,0,24,28,0,0,0,0,0,0,0,0,0,0,0,0,0,0,0,0,0,0,0,0,0,0,0,0,0,0,0,0,0,0,0,0,0,0,0,0,0,0,0,0,0,0,0,0,0,0,0,0],"split_type":[0,0,0,0,0,0,0,0,0,0,0,0,0,0,0,0,0,0,0,0,0,0,0,0,0,0,0,0,0,0,0,0,0,0,0,0,0,0,0,0,0,0,0,0,0,0,0,0,0,0,0,0,0,0,0,0,0,0,0,0,0,0,0,0,0,0,0,0,0,0,0,0,0,0,0,0,0,0,0,0,0,0,0,0,0,0,0,0,0,0,0,0,0,0,0,0,0,0,0,0,0,0,0,0,0],"sum_hessian":[6.1578E4,4.0792E4,2.0786E4,2.4913E4,1.5879E4,4E1,2.0746E4,1.7429E4,7.484E3,3.207E3,1.2672E4,1.2E1,2.8E1,3.023E3,1.7723E4,1.7401E4,2.8E1,5.717E3,1.767E3,1.92E2,3.015E3,6.346E3,6.326E3,6E0,6E0,2E1,8E0,1.07E2,2.916E3,1.52E2,1.7571E4,3.65E3,1.3751E4,2.3E1,5E0,4.1E1,5.676E3,1.703E3,6.4E1,4.7E1,1.45E2,2.426E3,5.89E2,4.161E3,2.185E3,1.1E2,6.216E3,6E0,1.4E1,7.2E1,3.5E1,2.66E3,2.56E2,1.31E2,2.1E1,3.81E3,1.3761E4,1.2E1,3.638E3,1.137E3,1.2614E4,1.1E1,1.2E1,2.8E1,1.3E1,4.209E3,1.467E3,1.446E3,2.57E2,4.4E1,2E1,4.2E1,5E0,8.8E1,5.7E1,2.379E3,4.7E1,4.2E1,5.47E2,1.304E3,2.857E3,5.6E2,1.625E3,1.05E2,5E0,4.455E3,1.761E3,8E0,6E0,8E0,6.4E1,2.4E1,1.1E1,1.42E3,1.24E3,2.42E2,1.4E1,1.7E1,1.14E2,5E0,1.6E1,1.933E3,1.877E3,1.3659E4,1.02E2],"tree_param":{"num_deleted":"0","num_feature":"104","num_nodes":"105","size_leaf_vector":"1"}},{"base_weights":[1.982524E-3,-1.6290046E-1,3.249763E-1,-1.0612197E-1,-1.9477366E-1,1.0199173E1,3.079158E-1,-1.3285945E-1,-5.309153E-2,-1.776623E-1,-2.7367365E-1,3.3535824E0,-1.1374091E0,8.462729E-1,2.1412094E-1,1.0174694E0,-1.3461232E-1,1.2662442E0,-5.8718912E-2,-1.3750061E-1,-1.9572255E-1,-1.1547246E-1,-2.924921E-1,-1.2838855E-1,-4.355441E-1,-2.3513718E-1,8.888527E-1,1.7832196E-1,2.7690807E-1,7.077922E-2,9.218308E-3,-1.3619742E-1,9.05093E-1,1.2648106E-1,2.0472859E-1,-6.267926E-2,1.5643058E0,-4.1929837E-2,-2.9483905E-1,-1.2566213E-1,-2.5537568E-1,-3.505409E-1,-1.5070544E-2,-8.950764E-2,-3.027977E-1,-7.141891E-2,2.3381667E-1,2.259684E-1,-3.0448234E-1,6.878453E-1,1.088456E0,1.3835956E0,1.767064E-1,9.3491775E-1,2.5688908E-1,-4.692343E-3,-8.280471E-3,-6.630955E-3,1.2418822E-1,4.1403987E-2,-1.3385369E-2,-3.2130831E-3,6.197664E-2,1.8356816E-1,-2.3260796E-2,1.4775081E-3,-5.232473E-3,-1.3047623E-3,-1.5506034E-2,-8.731822E-3,-2.9268555E-4,-7.958085E-3,-1.4772192E-2,-1.8494105E-2,8.603564E-3,-4.471007E-3,6.8819397E-3,-1.1188877E-2,1.7736548E-3,-1.6111696E-2,-1.1632856E-2,-1.3378829E-2,2.7104959E-2,2.1939628E-2,-5.517365E-3,-1.846309E-2,-1.6975045E-3,1.2702085E-1,3.3741843E-2,7.8121625E-2,5.0608613E-2,-1.31844655E-2,1.9492356E-1,1.1132851E-3,9.241601E-3,7.8213345E-3,1.0632275E0,4.511125E-2,1.251961E-2],"categories":[],"categories_nodes":[],"categories_segments":[],"categories_sizes":[],"default_left":[0,0,0,0,0,0,0,0,0,0,0,0,0,0,0,0,1,0,1,0,0,0,0,0,0,0,0,0,0,0,0,0,0,0,0,0,0,1,0,1,1,1,1,0,0,0,0,1,1,1,0,1,0,0,0,0,0,0,0,0,0,0,0,0,0,0,0,0,0,0,0,0,0,0,0,0,0,0,0,0,0,0,0,0,0,0,0,0,0,0,0,0,0,0,0,0,0,0,0],"id":12,"left_children":[1,3,5,7,9,11,13,15,17,19,21,-1,23,25,27,29,31,33,35,37,39,41,43,-1,45,47,49,51,53,-1,-1,55,57,59,-1,61,63,65,67,69,71,73,75,77,79,-1,81,83,85,87,89,91,93,95,97,-1,-1,-1,-1,-1,-1,-1,-1,-1,-1,-1,-1,-1,-1,-1,-1,-1,-1,-1,-1,-1,-1,-1,-1,-1,-1,-1,-1,-1,-1,-1,-1,-1,-1,-1,-1,-1,-1,-1,-1,-1,-1,-1,-1],"loss_changes":[3.2918704E3,7.40365E1,3.515956E3,2.0857346E1,3.5334473E1,2.3286908E4,1.0528949E3,1.9861221E1,3.6706375E1,1.559668E1,1.38663025E1,0E0,3.000317E1,1.4267603E2,3.987451E1,4.714078E0,1.6221191E1,6.717821E1,3.1683958E1,1.005097E2,6.205597E1,1.1748176E1,8.700226E0,0E0,1.495439E1,3.841906E0,1.186936E2,2.1787964E1,8.4697235E1,0E0,0E0,1.2134186E1,2.490249E1,4.6466756E0,0E0,1.0182873E1,5.3023804E1,1.8653198E1,1.0365784E1,4.0097694E1,3.088263E1,1.5697308E0,3.986164E0,3.414512E0,5.337219E0,0E0,2.309044E0,1.1936371E0,1.792532E0,3.4097046E1,5.236438E1,6.3168724E1,1.4177826E1,3.0036968E3,2.6016052E1,0E0,0E0,0E0,0E0,0E0,0E0,0E0,0E0,0E0,0E0,0E0,0E0,0E0,0E0,0E0,0E0,0E0,0E0,0E0,0E0,0E0,0E0,0E0,0E0,0E0,0E0,0E0,0E0,0E0,0E0,0E0,0E0,0E0,0E0,0E0,0E0,0E0,0E0,0E0,0E0,0E0,0E0,0E0,0E0],"parents":[2147483647,0,0,1,1,2,2,3,3,4,4,5,5,6,6,7,7,8,8,9,9,10,10,12,12,13,13,14,14,15,15,16,16,17,17,18,18,19,19,20,20,21,21,22,22,24,24,25,25,26,26,27,27,28,28,31,31,32,32,33,33,35,35,36,36,37,37,38,38,39,39,40,40,41,41,42,42,43,43,44,44,46,46,47,47,48,48,49,49,50,50,51,51,52,52,53,53,54,54],"right_children":[2,4,6,8,10,12,14,16,18,20,22,-1,24,26,28,30,32,34,36,38,40,42,44,-1,46,48,50,52,54,-1,-1,56,58,60,-1,62,64,66,68,70,72,74,76,78,80,-1,82,84,86,88,90,92,94,96,98,-1,-1,-1,-1,-1,-1,-1,-1,-1,-1,-1,-1,-1,-1,-1,-1,-1,-1,-1,-1,-1,-1,-1,-1,-1,-1,-1,-1,-1,-1,-1,-1,-1,-1,-1,-1,-1,-1,-1,-1,-1,-1,-1,-1],"split_conditions":[9.633E-1,8.705E-1,6.5878895E-4,1E0,9.226E-1,1.20099E0,6E-1,4.7E0,1.945E1,4.77E1,3.835E1,3.3535824E0,4.583E1,1.271E-3,8E-1,8.405E-1,8.327404E0,2.2764024E-4,8.239E1,1E0,1E0,1E0,2.505E1,-1.2838855E-1,1.2091444E0,3.755E1,4.569E-1,9.730631E0,8.014E-1,7.077922E-2,9.218308E-3,-5.9091646E-5,3.7280598E1,9.281521E-4,2.0472859E-1,2.7012527E-1,4.26E1,4.354E1,8.4E1,6.092E1,4.368E1,-1.7321188E-4,1.6108749E0,2.605E-1,3.7840028E0,-7.141891E-2,3E1,4.076E1,5.9396715E0,1.632158E-3,1E0,2.2040833E1,3.284E1,2.34E1,1.1E1,-4.692343E-3,-8.280471E-3,-6.630955E-3,1.2418822E-1,4.1403987E-2,-1.3385369E-2,-3.2130831E-3,6.197664E-2,1.8356816E-1,-2.3260796E-2,1.4775081E-3,-5.232473E-3,-1.3047623E-3,-1.5506034E-2,-8.731822E-3,-2.9268555E-4,-7.958085E-3,-1.4772192E-2,-1.8494105E-2,8.603564E-3,-4.471007E-3,6.8819397E-3,-1.1188877E-2,1.7736548E-3,-1.6111696E-2,-1.1632856E-2,-1.3378829E-2,2.7104959E-2,2.1939628E-2,-5.517365E-3,-1.846309E-2,-1.6975045E-3,1.2702085E-1,3.3741843E-2,7.8121625E-2,5.0608613E-2,-1.31844655E-2,1.9492356E-1,1.1132851E-3,9.241601E-3,7.8213345E-3,1.0632275E0,4.511125E-2,1.251961E-2],"split_indices":[27,27,50,76,27,34,24,17,31,8,8,0,41,29,24,27,21,10,41,61,62,62,17,0,37,8,23,52,24,0,0,11,42,13,0,11,19,31,4,8,31,53,48,24,21,0,4,41,20,13,82,32,8,22,4,0,0,0,0,0,0,0,0,0,0,0,0,0,0,0,0,0,0,0,0,0,0,0,0,0,0,0,0,0,0,0,0,0,0,0,0,0,0,0,0,0,0,0,0],"split_type":[0,0,0,0,0,0,0,0,0,0,0,0,0,0,0,0,0,0,0,0,0,0,0,0,0,0,0,0,0,0,0,0,0,0,0,0,0,0,0,0,0,0,0,0,0,0,0,0,0,0,0,0,0,0,0,0,0,0,0,0,0,0,0,0,0,0,0,0,0,0,0,0,0,0,0,0,0,0,0,0,0,0,0,0,0,0,0,0,0,0,0,0,0,0,0,0,0,0,0],"sum_hessian":[6.181E4,4.0921E4,2.0889E4,1.4714E4,2.6207E4,3.5E1,2.0854E4,9.781E3,4.933E3,2.1539E4,4.668E3,5E0,3E1,3.093E3,1.7761E4,1.4E1,9.767E3,2E1,4.913E3,6.684E3,1.4855E4,4.97E2,4.171E3,9E0,2.1E1,1.17E2,2.976E3,1.1314E4,6.447E3,9E0,5E0,9.753E3,1.4E1,1.5E1,5E0,4.902E3,1.1E1,4.159E3,2.525E3,6.833E3,8.022E3,1.48E2,3.49E2,2.02E2,3.969E3,8E0,1.3E1,1.5E1,1.02E2,1.485E3,1.491E3,1.4E1,1.13E4,1.89E2,6.258E3,3.999E3,5.754E3,9E0,5E0,5E0,1E1,4.897E3,5E0,5E0,6E0,1.944E3,2.215E3,1.36E2,2.389E3,4.85E3,1.983E3,2.36E3,5.662E3,1.43E2,5E0,2.35E2,1.14E2,9.7E1,1.05E2,3.105E3,8.64E2,5E0,8E0,9E0,6E0,8.2E1,2E1,9E0,1.476E3,2.04E2,1.287E3,9E0,5E0,5.65E2,1.0735E4,1.83E2,6E0,6.1E1,6.197E3],"tree_param":{"num_deleted":"0","num_feature":"104","num_nodes":"99","size_leaf_vector":"1"}},{"base_weights":[3.10411E-3,-1.5110828E-1,3.0569193E-1,-1.999217E-1,-9.2260174E-2,5.8825245E0,2.9492876E-1,-1.754361E-1,-3.0902725E-1,7.801742E-1,-9.6519955E-2,1.92844E0,-1.020018E0,1.9315057E-1,8.468526E-1,-7.7505015E-2,-1.8907225E-1,-3.1619397E-1,2.4028618E-2,2.637189E-1,2.1570249E-1,-7.1818545E-3,-1.1905756E-1,-2.1366189E0,-4.6574187E-1,1.221855E0,1.8449737E-1,7.2607166E-1,1.4106358E0,9.902219E-2,-8.581314E-2,-1.6202179E-1,-2.3385976E-1,-2.8703243E-1,-3.668398E-1,1.2847939E-1,-2.4014848E-1,1.8614946E-1,-1.14520326E-1,-2.9619284E-2,4.2294857E-1,-1.6622384E-1,-7.549723E-2,-1.6267408E-1,-3.3182647E-2,-7.72891E-2,6.990885E-2,3.0618075E-1,1.1268278E0,9.80702E-2,2.0415296E-1,6.442369E-1,8.6043763E-1,1.292672E0,2.2069597E0,2.6777247E-2,-4.656705E-3,-5.361409E-3,-9.246471E-3,-1.005259E-2,-1.3443877E-2,-1.1244868E-2,-1.642833E-2,-1.5210464E-2,-1.9076696E-2,-1.198755E-3,2.554738E-2,8.4665E-3,-1.754923E-2,-1.5579459E-2,1.1018515E-1,5.7904612E-2,-1.8361442E-3,4.8985764E-1,-8.605215E-3,-5.193128E-3,-1.0131872E-2,-8.428948E-3,-2.2287883E-3,1.1856853E-2,-1.3809952E-2,6.193989E-2,1.12766065E-2,-1.7845346E-2,5.5928444E-3,8.891176E-2,1.0134598E-2,8.451039E-2,3.161892E-2,4.8238147E-2,3.0242965E-2,6.858426E-2,2.9430164E-2,1.9023158E-1,9.59165E-2],"categories":[],"categories_nodes":[],"categories_segments":[],"categories_sizes":[],"default_left":[0,1,0,0,0,0,0,0,1,0,0,0,0,0,1,0,0,0,0,0,0,0,0,0,0,0,0,1,0,0,0,0,0,0,1,0,0,0,0,0,0,0,0,0,0,0,0,0,0,1,0,1,0,0,0,0,0,0,0,0,0,0,0,0,0,0,0,0,0,0,0,0,0,0,0,0,0,0,0,0,0,0,0,0,0,0,0,0,0,0,0,0,0,0,0],"id":13,"left_children":[1,3,5,7,9,11,13,15,17,19,21,-1,23,25,27,29,31,33,35,-1,37,39,41,43,45,47,49,51,53,-1,55,57,59,61,63,65,67,-1,69,71,73,75,77,-1,-1,-1,79,81,-1,83,85,87,89,91,93,-1,-1,-1,-1,-1,-1,-1,-1,-1,-1,-1,-1,-1,-1,-1,-1,-1,-1,-1,-1,-1,-1,-1,-1,-1,-1,-1,-1,-1,-1,-1,-1,-1,-1,-1,-1,-1,-1,-1,-1],"loss_changes":[2.8740542E3,1.1717975E2,1.2463531E3,5.9520508E1,6.8828354E1,9.064076E3,1.1656676E3,2.4309753E1,9.760529E0,2.271789E2,3.7069077E1,0E0,2.004766E1,1.5576593E2,2.1898853E2,3.826361E1,1.933197E1,5.802368E0,2.4314888E0,0E0,9.423944E1,3.5817814E1,3.0193863E1,1.5936928E1,1.3992647E1,2.8426292E3,2.9503052E1,2.872754E1,5.0597412E1,0E0,1.0148508E1,1.2495697E1,6.8598022E0,6.488907E0,1.2257385E0,3.6857169E0,1.1940573E0,0E0,3.495037E1,2.9799925E1,1.0280652E3,1.6006256E1,2.1996502E1,0E0,0E0,0E0,1.0494401E0,1.0325825E1,0E0,2.025032E1,3.2199097E1,1.950885E1,2.6213013E1,2.689679E1,2.5903229E1,0E0,0E0,0E0,0E0,0E0,0E0,0E0,0E0,0E0,0E0,0E0,0E0,0E0,0E0,0E0,0E0,0E0,0E0,0E0,0E0,0E0,0E0,0E0,0E0,0E0,0E0,0E0,0E0,0E0,0E0,0E0,0E0,0E0,0E0,0E0,0E0,0E0,0E0,0E0,0E0],"parents":[2147483647,0,0,1,1,2,2,3,3,4,4,5,5,6,6,7,7,8,8,9,9,10,10,12,12,13,13,14,14,15,15,16,16,17,17,18,18,20,20,21,21,22,22,23,23,24,24,25,25,26,26,27,27,28,28,30,30,31,31,32,32,33,33,34,34,35,35,36,36,38,38,39,39,40,40,41,41,42,42,46,46,47,47,49,49,50,50,51,51,52,52,53,53,54,54],"right_children":[2,4,6,8,10,12,14,16,18,20,22,-1,24,26,28,30,32,34,36,-1,38,40,42,44,46,48,50,52,54,-1,56,58,60,62,64,66,68,-1,70,72,74,76,78,-1,-1,-1,80,82,-1,84,86,88,90,92,94,-1,-1,-1,-1,-1,-1,-1,-1,-1,-1,-1,-1,-1,-1,-1,-1,-1,-1,-1,-1,-1,-1,-1,-1,-1,-1,-1,-1,-1,-1,-1,-1,-1,-1,-1,-1,-1,-1,-1,-1],"split_conditions":[9.633E-1,0E0,6.5878895E-4,9.1E-1,1.5784899E-3,1.20099E0,1E0,8.258E-1,3.5798E0,1E0,4.344E1,1.92844E0,5.066E1,3.638E-1,1.3681E0,2.4875594E-4,2.514891E1,9.289E-1,9.451E-1,2.637189E-1,-1.9929193E-4,3.90112E2,5.644E1,1.2017155E0,8.4E0,2.35E1,6.786E-1,9.595E-1,2.1883E0,9.902219E-2,4.845E1,1.007E-3,8.744E-1,5.166E1,1.4291348E1,2.5484455E-4,1.6E0,1.8614946E-1,2.02E1,7.77E-1,2.2954678E-3,5.003E1,1E0,-1.6267408E-1,-3.3182647E-2,-7.72891E-2,1.264E-1,3.33E1,1.1268278E0,0E0,1.5784899E-3,9.4615E2,3.636E-1,5.14E-1,2.639E1,2.6777247E-2,-4.656705E-3,-5.361409E-3,-9.246471E-3,-1.005259E-2,-1.3443877E-2,-1.1244868E-2,-1.642833E-2,-1.5210464E-2,-1.9076696E-2,-1.198755E-3,2.554738E-2,8.4665E-3,-1.754923E-2,-1.5579459E-2,1.1018515E-1,5.7904612E-2,-1.8361442E-3,4.8985764E-1,-8.605215E-3,-5.193128E-3,-1.0131872E-2,-8.428948E-3,-2.2287883E-3,1.1856853E-2,-1.3809952E-2,6.193989E-2,1.12766065E-2,-1.7845346E-2,5.5928444E-3,8.891176E-2,1.0134598E-2,8.451039E-2,3.161892E-2,4.8238147E-2,3.0242965E-2,6.858426E-2,2.9430164E-2,1.9023158E-1,9.59165E-2],"split_indices":[27,28,50,27,40,34,63,27,26,28,8,0,8,26,26,13,12,27,27,0,9,34,41,45,22,22,24,26,26,0,17,29,27,8,42,9,22,0,22,27,13,8,61,0,0,0,25,17,0,28,40,17,25,25,8,0,0,0,0,0,0,0,0,0,0,0,0,0,0,0,0,0,0,0,0,0,0,0,0,0,0,0,0,0,0,0,0,0,0,0,0,0,0,0,0],"split_type":[0,0,0,0,0,0,0,0,0,0,0,0,0,0,0,0,0,0,0,0,0,0,0,0,0,0,0,0,0,0,0,0,0,0,0,0,0,0,0,0,0,0,0,0,0,0,0,0,0,0,0,0,0,0,0,0,0,0,0,0,0,0,0,0,0,0,0,0,0,0,0,0,0,0,0,0,0,0,0,0,0,0,0,0,0,0,0,0,0,0,0,0,0,0,0],"sum_hessian":[6.159E4,4.0798E4,2.0792E4,2.2299E4,1.8499E4,3.9E1,2.0753E4,1.8214E4,4.085E3,8.9E1,1.841E4,6E0,3.3E1,1.7523E4,3.23E3,2.227E3,1.5987E4,3.999E3,8.6E1,9E0,8E1,3.709E3,1.4701E4,1E1,2.3E1,1.45E2,1.7378E4,2.662E3,5.68E2,8E0,2.219E3,9.97E3,6.017E3,2.542E3,1.457E3,6.2E1,2.4E1,6E0,7.4E1,3.526E3,1.83E2,7.057E3,7.644E3,5E0,5E0,7E0,1.6E1,1.4E2,5E0,3.221E3,1.4157E4,1.658E3,1.004E3,4.97E2,7.1E1,2.5E1,2.194E3,2.941E3,7.029E3,3.11E3,2.907E3,1.021E3,1.521E3,2.81E2,1.176E3,4.5E1,1.7E1,5E0,1.9E1,6.9E1,5E0,2E1,3.506E3,1E1,1.73E2,2.603E3,4.454E3,1.905E3,5.739E3,1.1E1,5E0,1E1,1.3E2,9.4E1,3.127E3,1.2E1,1.4145E4,1.7E1,1.641E3,7.11E2,2.93E2,4.46E2,5.1E1,9E0,6.2E1],"tree_param":{"num_deleted":"0","num_feature":"104","num_nodes":"95","size_leaf_vector":"1"}},{"base_weights":[-1.9148135E-4,-1.4479728E-1,2.836756E-1,-1.8281026E-1,-8.482647E-2,6.1443624E0,2.72995E-1,-1.2929936E-1,-2.3029031E-1,1.8445645E-2,-1.0657474E-1,2.175156E0,-2.2198772E0,1.7652501E-1,7.920275E-1,-1.324108E-1,2.5031044E0,-2.0095064E-1,-2.791554E-1,9.866112E-4,2.1051366E0,-1.2067096E-1,2.6290916E-2,-3.057744E-1,-4.2961717E-1,1.9789791E-1,9.974602E-2,7.2781694E-1,1.7541367E0,6.8043226E-1,-1.3481687E-1,2.6663017E-1,1.6932454E-2,-1.1923861E-1,-2.1331474E-1,-2.848963E-1,-3.5383403E-2,-1.0379138E-2,7.1674156E-1,4.503815E-1,-3.126463E-1,-3.8701706E-2,-1.4994395E-1,-1.6656835E-1,7.100263E-2,-7.5519614E-2,-4.5491215E-2,1.7326306E-1,2.7198154E-1,-6.2171984E-2,1.166362E-1,6.414006E-1,9.5487255E-1,1.4552767E0,2.1165228E0,-1.7716335E-3,2.0731758E-1,-3.4572117E-3,-7.5957584E-3,-3.0353768E-3,-9.926706E-3,-1.0277527E-2,-1.7318629E-2,-1.2887857E-2,-1.6668623E-2,-7.533863E-3,6.8541854E-3,-7.433227E-4,8.616037E-2,1.1233802E-1,1.2282771E-2,-2.546096E-3,-2.1963252E-2,2.2498227E-3,-5.1607946E-3,-1.6208859E-3,-8.4371E-3,-1.6928153E-2,-3.1703857E-3,1.3919527E-2,2.161338E-3,1.121088E-2,-3.1113923E-2,-7.02907E-3,8.974997E-3,1.2895188E-2,3.310499E-2,1.6427835E-2,-7.5861975E-3,5.2586418E-2,5.6138556E-3,7.198002E-2,3.1638995E-2,4.9862422E-2,2.7169539E-2,9.258176E-2,4.3172546E-2,1.427268E-1,8.685929E-2],"categories":[],"categories_nodes":[],"categories_segments":[],"categories_sizes":[],"default_left":[0,1,0,0,0,0,0,1,0,0,1,0,0,1,1,0,0,0,1,0,0,0,0,0,0,1,0,1,1,1,0,0,0,1,0,0,1,1,0,0,0,0,1,0,0,0,1,0,1,0,0,1,0,0,1,0,0,0,0,0,0,0,0,0,0,0,0,0,0,0,0,0,0,0,0,0,0,0,0,0,0,0,0,0,0,0,0,0,0,0,0,0,0,0,0,0,0,0,0],"id":14,"left_children":[1,3,5,7,9,11,13,15,17,19,21,-1,23,25,27,29,31,33,35,37,39,41,43,-1,45,47,49,51,53,55,57,-1,-1,59,61,63,65,67,69,-1,71,73,75,77,79,-1,81,83,85,87,89,91,93,95,97,-1,-1,-1,-1,-1,-1,-1,-1,-1,-1,-1,-1,-1,-1,-1,-1,-1,-1,-1,-1,-1,-1,-1,-1,-1,-1,-1,-1,-1,-1,-1,-1,-1,-1,-1,-1,-1,-1,-1,-1,-1,-1,-1,-1],"loss_changes":[2.543878E3,9.358093E1,1.3075117E3,6.381299E1,3.5780586E1,1.197072E4,1.0452438E3,9.711125E1,1.9030518E1,1.00986336E2,2.4648712E1,0E0,2.2054564E2,2.887323E1,2.0085962E2,2.3175568E1,8.393466E1,8.382263E0,6.976074E0,2.2378944E1,3.8665698E2,2.8540878E1,1.0902762E1,0E0,9.479826E0,2.5087341E1,1.0498039E1,5.9605347E1,1.901361E1,8.6986465E1,1.3204788E1,0E0,0E0,5.0747566E0,7.394928E0,6.3302917E0,2.3272457E0,2.1091555E1,3.0441212E1,0E0,5.7413745E-1,1.6916561E1,1.9360931E1,4.2013865E0,5.898115E0,0E0,2.9396887E0,2.0260956E1,1.869426E1,1.275141E1,1.404248E1,1.440625E1,1.4174866E1,2.5377335E1,2.0237152E1,0E0,0E0,0E0,0E0,0E0,0E0,0E0,0E0,0E0,0E0,0E0,0E0,0E0,0E0,0E0,0E0,0E0,0E0,0E0,0E0,0E0,0E0,0E0,0E0,0E0,0E0,0E0,0E0,0E0,0E0,0E0,0E0,0E0,0E0,0E0,0E0,0E0,0E0,0E0,0E0,0E0,0E0,0E0,0E0],"parents":[2147483647,0,0,1,1,2,2,3,3,4,4,5,5,6,6,7,7,8,8,9,9,10,10,12,12,13,13,14,14,15,15,16,16,17,17,18,18,19,19,20,20,21,21,22,22,24,24,25,25,26,26,27,27,28,28,29,29,30,30,33,33,34,34,35,35,36,36,37,37,38,38,40,40,41,41,42,42,43,43,44,44,46,46,47,47,48,48,49,49,50,50,51,51,52,52,53,53,54,54],"right_children":[2,4,6,8,10,12,14,16,18,20,22,-1,24,26,28,30,32,34,36,38,40,42,44,-1,46,48,50,52,54,56,58,-1,-1,60,62,64,66,68,70,-1,72,74,76,78,80,-1,82,84,86,88,90,92,94,96,98,-1,-1,-1,-1,-1,-1,-1,-1,-1,-1,-1,-1,-1,-1,-1,-1,-1,-1,-1,-1,-1,-1,-1,-1,-1,-1,-1,-1,-1,-1,-1,-1,-1,-1,-1,-1,-1,-1,-1,-1,-1,-1,-1,-1],"split_conditions":[9.633E-1,1E0,6.5878895E-4,8.772E-1,8.587E-1,-1.13918664E-4,1E0,4.4015E0,9.096E-1,1E0,6.528E1,2.175156E0,-3.656561E-6,1.739E-1,1.7987E0,4.08E-4,8.369E-1,1.8485E2,3.5798E0,2.8283E0,7.471018E-3,4.506E1,5.707E1,-3.057744E-1,4.21E1,4.2E2,3.606E1,1.1349E0,1.5573681E1,1.1291443E-4,2.811E-3,2.6663017E-1,1.6932454E-2,5.292E1,2.706E4,9.289E-1,4.531E1,8.327404E0,1.237E-3,4.503815E-1,4.052557E-4,4.041E1,2.5E-1,3.354E-1,1.6947178E1,-7.5519614E-2,1.25E0,6.122E-1,2.7692733E0,9.5415E-1,-4.0641945E-2,9.4615E2,4.912E-1,1.273E-1,1.5066667E1,-1.7716335E-3,2.0731758E-1,-3.4572117E-3,-7.5957584E-3,-3.0353768E-3,-9.926706E-3,-1.0277527E-2,-1.7318629E-2,-1.2887857E-2,-1.6668623E-2,-7.533863E-3,6.8541854E-3,-7.433227E-4,8.616037E-2,1.1233802E-1,1.2282771E-2,-2.546096E-3,-2.1963252E-2,2.2498227E-3,-5.1607946E-3,-1.6208859E-3,-8.4371E-3,-1.6928153E-2,-3.1703857E-3,1.3919527E-2,2.161338E-3,1.121088E-2,-3.1113923E-2,-7.02907E-3,8.974997E-3,1.2895188E-2,3.310499E-2,1.6427835E-2,-7.5861975E-3,5.2586418E-2,5.6138556E-3,7.198002E-2,3.1638995E-2,4.9862422E-2,2.7169539E-2,9.258176E-2,4.3172546E-2,1.427268E-1,8.685929E-2],"split_indices":[27,28,50,27,27,33,63,26,27,64,31,0,33,25,26,30,27,17,26,26,13,8,51,0,31,18,8,26,32,43,30,0,0,41,18,27,51,21,30,0,11,31,19,24,32,0,18,24,21,0,53,17,24,24,18,0,0,0,0,0,0,0,0,0,0,0,0,0,0,0,0,0,0,0,0,0,0,0,0,0,0,0,0,0,0,0,0,0,0,0,0,0,0,0,0,0,0,0,0],"split_type":[0,0,0,0,0,0,0,0,0,0,0,0,0,0,0,0,0,0,0,0,0,0,0,0,0,0,0,0,0,0,0,0,0,0,0,0,0,0,0,0,0,0,0,0,0,0,0,0,0,0,0,0,0,0,0,0,0,0,0,0,0,0,0,0,0,0,0,0,0,0,0,0,0,0,0,0,0,0,0,0,0,0,0,0,0,0,0,0,0,0,0,0,0,0,0,0,0,0,0],"sum_hessian":[6.197E4,4.1056E4,2.0914E4,2.5127E4,1.5929E4,3.7E1,2.0877E4,1.1815E4,1.3312E4,2.771E3,1.3158E4,6E0,3.1E1,1.7606E4,3.271E3,1.1802E4,1.3E1,8.321E3,4.991E3,2.749E3,2.2E1,1.1896E4,1.262E3,9E0,2.2E1,1.3771E4,3.835E3,3.068E3,2.03E2,3.4E1,1.1768E4,5E0,8E0,1.095E3,7.226E3,4.876E3,1.15E2,2.707E3,4.2E1,5E0,1.7E1,3.131E3,8.765E3,2.37E2,1.025E3,5E0,1.7E1,1.0337E4,3.434E3,3.62E2,3.473E3,2.225E3,8.43E2,1.14E2,8.9E1,2.9E1,5E0,2.432E3,9.336E3,6.31E2,4.64E2,6.83E3,3.96E2,3.13E3,1.746E3,6.9E1,4.6E1,2.701E3,6E0,9E0,3.3E1,6E0,1.1E1,1.363E3,1.768E3,1.209E3,7.556E3,8.8E1,1.49E2,1.2E2,9.05E2,1.2E1,5E0,2.01E2,1.0136E4,3.316E3,1.18E2,6.7E1,2.95E2,1.5E1,3.458E3,2.2E1,2.203E3,7.63E2,8E1,6.7E1,4.7E1,2.8E1,6.1E1],"tree_param":{"num_deleted":"0","num_feature":"104","num_nodes":"99","size_leaf_vector":"1"}},{"base_weights":[3.5796393E-4,-1.385361E-1,2.7496403E-1,-1.821095E-1,-8.9698665E-2,7.918021E0,2.6131627E-1,-1.4379255E-1,-2.5200865E-1,4.8502657E-1,-9.222689E-2,2.5844152E0,-2.2210107E0,1.689475E-1,7.5495285E-1,8.170124E-1,-1.457731E-1,-2.202732E-1,-2.9653817E-1,2.8706586E-1,-1.3564414E-1,-1.0460299E-1,1.6739704E-2,-4.6301665E0,3.5362802E-2,1.1230923E0,1.6056517E-1,6.864363E-1,1.5725245E0,-2.740343E-1,2.1425822E-1,-1.20115474E-1,-1.8879424E-1,8.491022E-2,-2.2470433E-1,-3.0785954E-1,-4.5416217E-2,-2.228097E-1,3.8392074E-2,-7.452645E-2,-1.4813459E-1,5.38983E-2,-2.3196895E-1,-3.5908735E-1,-7.499076E-2,2.6098937E-2,-2.1089205E-1,3.3311036E-1,7.650564E-1,-4.018183E-1,1.6296855E-1,5.61598E-1,8.461671E-1,1.173679E0,1.8229301E0,-2.701276E-2,2.0582495E-2,-2.4377354E-3,-6.923651E-3,-5.2792965E-3,-1.0323661E-2,1.1040341E-1,-6.4410376E-3,-1.0599776E-2,-1.5789581E-2,-1.5532225E-2,1.4376027E-3,-5.780687E-3,8.738533E-3,1.28395995E-2,-1.3963926E-2,-4.1931407E-3,9.290636E-3,-6.039287E-3,-1.1861071E-2,2.3087875E-3,7.55452E-2,-6.586431E-3,-1.5512935E-2,5.718241E-3,-2.2977812E-2,1.2507001E-2,6.605501E-2,2.321082E-3,-2.1748614E-2,1.1864911E-2,7.225775E-3,7.140591E-2,2.7572889E-2,2.7035195E-2,4.7039244E-2,4.8489995E-2,9.472359E-2,7.3098764E-2,1.1150171E-1],"categories":[],"categories_nodes":[],"categories_segments":[],"categories_sizes":[],"default_left":[0,0,0,0,0,0,0,0,0,0,1,0,0,0,1,1,0,0,0,0,1,0,0,0,0,0,0,1,0,0,0,0,0,1,0,0,0,0,0,1,0,0,1,0,0,0,0,1,0,0,0,1,0,0,1,0,0,0,0,0,0,0,0,0,0,0,0,0,0,0,0,0,0,0,0,0,0,0,0,0,0,0,0,0,0,0,0,0,0,0,0,0,0,0,0],"id":15,"left_children":[1,3,5,7,9,11,13,15,17,19,21,-1,23,25,27,29,31,33,35,-1,37,39,41,43,45,47,49,51,53,55,-1,57,59,61,63,65,67,69,-1,71,73,75,77,-1,-1,-1,79,81,-1,83,85,87,89,91,93,-1,-1,-1,-1,-1,-1,-1,-1,-1,-1,-1,-1,-1,-1,-1,-1,-1,-1,-1,-1,-1,-1,-1,-1,-1,-1,-1,-1,-1,-1,-1,-1,-1,-1,-1,-1,-1,-1,-1,-1],"loss_changes":[2.359221E3,8.739813E1,2.1651914E3,5.8104797E1,2.8191528E1,1.6534967E4,9.455917E2,2.680545E1,1.0794861E1,2.7808496E2,2.6011826E1,0E0,1.6867838E2,1.3956818E2,1.8204077E2,1.1090782E2,1.5426392E1,6.092285E0,9.06955E0,0E0,6.2350507E0,2.2665695E1,1.82001E1,1.0903885E2,2.147217E0,1.6973624E3,2.347821E1,5.97052E1,2.3028564E1,4.4208946E0,0E0,1.1482025E1,7.667343E0,2.9780447E1,5.0578156E0,2.8746948E0,2.1686692E0,1.9945762E0,0E0,2.4917267E1,1.7211472E1,1.9204567E1,1.9681644E0,0E0,0E0,0E0,1.0231137E0,1.155575E1,0E0,1.1198997E0,2.3624573E1,1.4123535E1,3.7700073E1,1.28582E1,1.9222473E1,0E0,0E0,0E0,0E0,0E0,0E0,0E0,0E0,0E0,0E0,0E0,0E0,0E0,0E0,0E0,0E0,0E0,0E0,0E0,0E0,0E0,0E0,0E0,0E0,0E0,0E0,0E0,0E0,0E0,0E0,0E0,0E0,0E0,0E0,0E0,0E0,0E0,0E0,0E0,0E0],"parents":[2147483647,0,0,1,1,2,2,3,3,4,4,5,5,6,6,7,7,8,8,9,9,10,10,12,12,13,13,14,14,15,15,16,16,17,17,18,18,20,20,21,21,22,22,23,23,24,24,25,25,26,26,27,27,28,28,29,29,31,31,32,32,33,33,34,34,35,35,36,36,37,37,39,39,40,40,41,41,42,42,46,46,47,47,49,49,50,50,51,51,52,52,53,53,54,54],"right_children":[2,4,6,8,10,12,14,16,18,20,22,-1,24,26,28,30,32,34,36,-1,38,40,42,44,46,48,50,52,54,56,-1,58,60,62,64,66,68,70,-1,72,74,76,78,-1,-1,-1,80,82,-1,84,86,88,90,92,94,-1,-1,-1,-1,-1,-1,-1,-1,-1,-1,-1,-1,-1,-1,-1,-1,-1,-1,-1,-1,-1,-1,-1,-1,-1,-1,-1,-1,-1,-1,-1,-1,-1,-1,-1,-1,-1,-1,-1,-1],"split_conditions":[9.633E-1,0E0,6.5878895E-4,8.924E-1,2.4875594E-4,3.958E1,1E0,4.08E-4,9.152E-1,1E0,6.4E1,2.5844152E0,-3.656561E-6,3.638E-1,1.7095E0,5.163E1,2.5675528E1,1.283421E1,2.6134E0,2.8706586E-1,2.0566668E1,8.951E-1,1E0,1.0314E0,1.3870271E1,2.35E1,0E0,9.595E-1,2.0807272E1,1.2080295E0,2.1425822E-1,8.388E-1,8.232E-1,1.5E0,3.6770298E1,1E0,8.610435E1,-9.2189664E-5,3.8392074E-2,2.2588E0,2.035E-3,2.4133E-2,5.007E1,-3.5908735E-1,-7.499076E-2,2.6098937E-2,2.1333334E0,3.5214584E1,7.650564E-1,1.1949944E1,7.26E-1,9.4615E2,2.739E-1,4.93E3,-8.9683026E-2,-2.701276E-2,2.0582495E-2,-2.4377354E-3,-6.923651E-3,-5.2792965E-3,-1.0323661E-2,1.1040341E-1,-6.4410376E-3,-1.0599776E-2,-1.5789581E-2,-1.5532225E-2,1.4376027E-3,-5.780687E-3,8.738533E-3,1.28395995E-2,-1.3963926E-2,-4.1931407E-3,9.290636E-3,-6.039287E-3,-1.1861071E-2,2.3087875E-3,7.55452E-2,-6.586431E-3,-1.5512935E-2,5.718241E-3,-2.2977812E-2,1.2507001E-2,6.605501E-2,2.321082E-3,-2.1748614E-2,1.1864911E-2,7.225775E-3,7.140591E-2,2.7572889E-2,2.7035195E-2,4.7039244E-2,4.8489995E-2,9.472359E-2,7.3098764E-2,1.1150171E-1],"split_indices":[27,28,50,27,13,31,63,30,27,28,31,0,33,26,26,41,12,52,26,0,18,27,62,26,12,22,28,26,12,45,0,27,27,18,12,64,47,9,0,26,29,30,41,0,0,0,19,42,0,12,26,17,23,18,33,0,0,0,0,0,0,0,0,0,0,0,0,0,0,0,0,0,0,0,0,0,0,0,0,0,0,0,0,0,0,0,0,0,0,0,0,0,0,0,0],"split_type":[0,0,0,0,0,0,0,0,0,0,0,0,0,0,0,0,0,0,0,0,0,0,0,0,0,0,0,0,0,0,0,0,0,0,0,0,0,0,0,0,0,0,0,0,0,0,0,0,0,0,0,0,0,0,0,0,0,0,0,0,0,0,0,0,0,0,0,0,0,0,0,0,0,0,0,0,0,0,0,0,0,0,0,0,0,0,0,0,0,0,0,0,0,0,0],"sum_hessian":[6.1853E4,4.1077E4,2.0776E4,2.1707E4,1.937E4,3.6E1,2.074E4,1.4023E4,7.684E3,8.4E1,1.9286E4,6E0,3E1,1.7472E4,3.268E3,2.8E1,1.3995E4,4.49E3,3.194E3,8E0,7.6E1,1.7319E4,1.967E3,1.4E1,1.6E1,1.51E2,1.7321E4,3.017E3,2.51E2,2.2E1,6E0,8.769E3,5.226E3,6.4E1,4.426E3,3.056E3,1.38E2,7E1,6E0,1.0244E4,7.075E3,1.712E3,2.55E2,7E0,7E0,5E0,1.1E1,1.44E2,7E0,7.3E1,1.7248E4,1.696E3,1.321E3,9.9E1,1.52E2,1.6E1,6E0,1.795E3,6.974E3,9.17E2,4.309E3,5E0,5.9E1,3.887E3,5.39E2,3.031E3,2.5E1,1.05E2,3.3E1,7E0,6.3E1,9.89E3,3.54E2,5.415E3,1.66E3,1.704E3,8E0,1.13E2,1.42E2,5E0,6E0,1.34E2,1E1,5E0,6.8E1,3.428E3,1.382E4,1.8E1,1.678E3,3.14E2,1.007E3,7.9E1,2E1,8.3E1,6.9E1],"tree_param":{"num_deleted":"0","num_feature":"104","num_nodes":"95","size_leaf_vector":"1"}},{"base_weights":[2.2495762E-3,-1.2782553E-1,2.5641564E-1,-9.037378E-2,-1.7209715E-1,5.373314E0,2.4733388E-1,8.731476E-1,-9.338219E-2,-1.5762657E-1,-2.4526067E-1,1.8548192E0,-1.963292E0,1.614832E-1,7.2112453E-1,-1.964516E-1,5.9701147E0,-9.83171E-2,2.3605989E-1,-1.6250168E-1,4.338734E-2,-2.5648975E-1,-8.430107E-2,-4.705562E0,-4.3337473E-1,1.1612117E0,1.5343465E-1,6.615078E-1,1.5107554E0,-5.0309956E-1,6.3994306E-1,6.154265E-1,-1.5784284E-2,-1.005718E-1,5.8174324E-1,1.3010006E-1,1.7598595E-1,-1.4823458E-1,-2.1734825E-1,-5.2842015E-4,2.6226634E-1,-2.3636621E-1,-3.1811818E-1,-4.377773E-1,-4.7542423E-2,-3.7180632E-1,-5.9536885E-2,1.2261201E-1,-7.814321E-2,3.1062412E-1,8.699757E-1,1.9533592E-1,1.1426672E-1,5.8448094E-1,8.7456757E-1,2.0343127E0,1.2281562E0,-8.588615E-3,-3.56565E-2,-3.3418458E-2,7.458837E-2,-4.0907464E-3,-7.354243E-3,4.4324017E-1,-8.435305E-3,6.575229E-2,5.175024E-3,-7.5891414E-3,2.0813985E-1,-1.1177431E-2,-2.0606582E-4,1.7162567E-2,-1.0202522E-3,7.913357E-3,2.1586582E-2,-1.0788263E-2,