{"learner":{"attributes":{"scikit_learn":"{\"_estimator_type\": \"classifier\"}"},"feature_names":["open","high","low","close","volume","sma_20","sma_50","ema_200","rsi","macd","macd_signal","macd_histogram","adx","atr","bb_upper","bb_middle","bb_lower","volume_sma","dist_to_support_pips","dist_to_resistance_pips","dist_to_support_atr","dist_to_resistance_atr","dist_to_round_number_pips","body_ratio","tail_ratio","nose_ratio","range_atr_ratio","risk_reward_ratio","trend_alignment","volatility_regime","bb_width","htf_d_rsi","htf_d_adx","htf_d_macd_histogram","htf_d_close","htf_d_sma_20","htf_d_sma_50","htf_d_ema_200","htf_d_bb_upper","htf_d_bb_lower","htf_d_atr","htf_h4_rsi","htf_h4_adx","htf_h4_macd_histogram","htf_h4_close","htf_h4_sma_20","htf_h4_sma_50","htf_h4_ema_200","htf_h4_bb_upper","htf_h4_bb_lower","htf_h4_atr","htf_h1_rsi","htf_h1_adx","htf_h1_macd_histogram","htf_h1_close","htf_h1_sma_20","htf_h1_sma_50","htf_h1_ema_200","htf_h1_bb_upper","htf_h1_bb_lower","htf_h1_atr","pattern_type_double_bottom","pattern_type_double_top","pattern_type_false_breakout","pattern_type_head_and_shoulders","pattern_type_pin_bar","timeframe_D","timeframe_H1","timeframe_H4","timeframe_M15","trend_state_ranging","trend_state_strong_downtrend","trend_state_strong_uptrend","trend_state_unknown","trend_state_weak_downtrend","trend_state_weak_uptrend","trading_session_asian","trading_session_daily","trading_session_london","trading_session_new_york","trading_session_off_hours","trading_session_unknown","rsi_zone_neutral","rsi_zone_overbought","rsi_zone_oversold","rsi_zone_unknown","htf_d_trend_state_ranging","htf_d_trend_state_strong_downtrend","htf_d_trend_state_strong_uptrend","htf_d_trend_state_unknown","htf_d_trend_state_weak_downtrend","htf_d_trend_state_weak_uptrend","htf_h4_trend_state_ranging","htf_h4_trend_state_strong_downtrend","htf_h4_trend_state_strong_uptrend","htf_h4_trend_state_unknown","htf_h4_trend_state_weak_downtrend","htf_h4_trend_state_weak_uptrend","htf_h1_trend_state_ranging","htf_h1_trend_state_strong_downtrend","htf_h1_trend_state_strong_uptrend","htf_h1_trend_state_unknown","htf_h1_trend_state_weak_downtrend","htf_h1_trend_state_weak_uptrend"],"feature_types":["float","float","float","float","float","float","float","float","float","float","float","float","float","float","float","float","float","float","float","float","float","float","float","float","float","float","float","float","float","float","float","float","float","float","float","float","float","float","float","float","float","float","float","float","float","float","float","float","float","float","float","float","float","float","float","float","float","float","float","float","float","int","int","int","int","int","int","int","int","int","int","int","int","int","int","int","int","int","int","int","int","int","int","int","int","int","int","int","int","int","int","int","int","int","int","int","int","int","int","int","int","int","int","int"],"gradient_booster":{"model":{"cats":{"enc":[],"feature_segments":[],"sorted_idx":[]},"gbtree_model_param":{"num_parallel_tree":"1","num_trees":"300"},"iteration_indptr":[0,1,2,3,4,5,6,7,8,9,10,11,12,13,14,15,16,17,18,19,20,21,22,23,24,25,26,27,28,29,30,31,32,33,34,35,36,37,38,39,40,41,42,43,44,45,46,47,48,49,50,51,52,53,54,55,56,57,58,59,60,61,62,63,64,65,66,67,68,69,70,71,72,73,74,75,76,77,78,79,80,81,82,83,84,85,86,87,88,89,90,91,92,93,94,95,96,97,98,99,100,101,102,103,104,105,106,107,108,109,110,111,112,113,114,115,116,117,118,119,120,121,122,123,124,125,126,127,128,129,130,131,132,133,134,135,136,137,138,139,140,141,142,143,144,145,146,147,148,149,150,151,152,153,154,155,156,157,158,159,160,161,162,163,164,165,166,167,168,169,170,171,172,173,174,175,176,177,178,179,180,181,182,183,184,185,186,187,188,189,190,191,192,193,194,195,196,197,198,199,200,201,202,203,204,205,206,207,208,209,210,211,212,213,214,215,216,217,218,219,220,221,222,223,224,225,226,227,228,229,230,231,232,233,234,235,236,237,238,239,240,241,242,243,244,245,246,247,248,249,250,251,252,253,254,255,256,257,258,259,260,261,262,263,264,265,266,267,268,269,270,271,272,273,274,275,276,277,278,279,280,281,282,283,284,285,286,287,288,289,290,291,292,293,294,295,296,297,298,299,300],"tree_info":[0,0,0,0,0,0,0,0,0,0,0,0,0,0,0,0,0,0,0,0,0,0,0,0,0,0,0,0,0,0,0,0,0,0,0,0,0,0,0,0,0,0,0,0,0,0,0,0,0,0,0,0,0,0,0,0,0,0,0,0,0,0,0,0,0,0,0,0,0,0,0,0,0,0,0,0,0,0,0,0,0,0,0,0,0,0,0,0,0,0,0,0,0,0,0,0,0,0,0,0,0,0,0,0,0,0,0,0,0,0,0,0,0,0,0,0,0,0,0,0,0,0,0,0,0,0,0,0,0,0,0,0,0,0,0,0,0,0,0,0,0,0,0,0,0,0,0,0,0,0,0,0,0,0,0,0,0,0,0,0,0,0,0,0,0,0,0,0,0,0,0,0,0,0,0,0,0,0,0,0,0,0,0,0,0,0,0,0,0,0,0,0,0,0,0,0,0,0,0,0,0,0,0,0,0,0,0,0,0,0,0,0,0,0,0,0,0,0,0,0,0,0,0,0,0,0,0,0,0,0,0,0,0,0,0,0,0,0,0,0,0,0,0,0,0,0,0,0,0,0,0,0,0,0,0,0,0,0,0,0,0,0,0,0,0,0,0,0,0,0,0,0,0,0,0,0,0,0,0,0,0,0,0,0,0,0,0,0,0,0,0,0,0,0,0,0,0,0,0,0],"trees":[{"base_weights":[-2.2901292E-3,-9.051709E-2,1.2300031E0,-2.5157022E-1,2.976162E-1,9.942311E-1,1.5984966E0,-3.7640306E-1,-1.279528E-1,6.7358387E-1,1.8025053E-1,7.715361E-1,1.170721E0,1.1460695E0,1.7586496E0,-2.603619E-1,-6.9704527E-1,3.2327905E-2,-1.6022623E-1,8.0764616E-1,1.1381962E-1,2.4307238E-2,7.253036E-1,-4.9808707E-2,8.0959946E-1,1.0458803E0,1.6583437E0,2.0324771E-1,1.2294071E0,1.6436704E0,9.544058E-2,-2.1953122E-1,-8.250344E-1,-1.1958033E0,-6.100664E-1,6.319709E-1,-2.2805337E-2,-2.3509927E-1,-5.8423206E-2,1.0428437E0,6.455153E-1,3.89691E-1,-3.969903E-1,-1.20161444E-1,2.2427087E-1,2.2741245E-1,9.194988E-1,4.694351E-2,-7.2146356E-1,8.500431E-1,3.405247E-2,3.5666681E-3,1.0636134E0,4.8845973E-2,1.7088432E0,4.694351E-2,-3.5745014E-2,1.6559604E0,1.0808717E0,1.6600844E0,4.694351E-2,-4.8764035E-4,-1.6516795E-2,-1.4848224E-2,-4.990938E-2,2.484917E-3,-6.2437117E-2,-2.4782022E-2,-5.419609E-2,4.5218274E-2,-5.533042E-2,-8.526808E-3,5.8864714E-3,-2.195131E-2,-1.0237157E-2,-5.5645085E-3,1.0341094E-2,5.90817E-2,2.716263E-2,2.9260043E-2,7.821413E-2,3.8425133E-2,6.768371E-4,1.2965991E-2,-3.840074E-2,6.8413033E-3,-1.4728722E-2,6.9627077E-3,3.2258913E-2,-1.9149855E-2,2.4928132E-2,3.6322303E-2,5.7658643E-2,-6.655803E-2,3.250568E-4,1.5522184E-2,4.526095E-2,4.0303703E-2,-3.818422E-2,3.250568E-4,5.3909827E-2,6.5217786E-2,9.0260595E-2,8.700901E-2,5.0259538E-2,3.5275448E-2,6.63184E-2,7.623939E-2,8.827164E-2],"categories":[],"categories_nodes":[],"categories_segments":[],"categories_sizes":[],"default_left":[0,1,1,0,0,1,0,0,0,1,1,0,0,0,0,1,0,0,0,0,0,0,0,0,1,1,0,0,0,0,0,0,0,1,1,0,1,0,1,1,0,0,0,0,0,0,0,0,0,0,0,0,0,0,0,0,0,0,1,0,0,0,0,0,0,0,0,0,0,0,0,0,0,0,0,0,0,0,0,0,0,0,0,0,0,0,0,0,0,0,0,0,0,0,0,0,0,0,0,0,0,0,0,0,0,0,0,0,0],"id":0,"left_children":[1,3,5,7,9,11,13,15,17,19,21,23,25,27,29,31,33,35,37,39,41,43,45,47,49,51,53,55,57,59,-1,61,63,65,67,69,71,73,75,77,79,81,83,85,87,89,91,-1,93,95,97,-1,99,-1,101,-1,-1,103,105,107,-1,-1,-1,-1,-1,-1,-1,-1,-1,-1,-1,-1,-1,-1,-1,-1,-1,-1,-1,-1,-1,-1,-1,-1,-1,-1,-1,-1,-1,-1,-1,-1,-1,-1,-1,-1,-1,-1,-1,-1,-1,-1,-1,-1,-1,-1,-1,-1,-1],"loss_changes":[2.2401445E3,1.2020049E3,1.1801294E2,2.0966034E2,2.4871011E2,3.219586E1,3.6784546E1,2.5138202E2,3.533323E1,1.005567E2,3.6538123E2,1.1772293E1,2.6747559E1,1.0975647E1,3.6585693E0,1.14315216E2,7.718518E1,3.788547E1,4.3319458E1,4.0582397E1,3.683765E1,9.6619545E1,9.225424E1,1.233983E1,1.1222122E1,6.4085083E0,1.5536499E0,9.31704E0,6.5143585E0,1.1036377E0,0E0,1.076768E2,3.0290085E1,1.7578552E1,8.249628E1,4.6696087E1,2.1820015E1,2.0186676E1,3.3825905E1,2.9856201E1,3.4719116E1,2.4146584E1,2.2548676E1,8.707707E1,5.0108322E1,4.4823475E1,3.0182922E1,0E0,4.9012933E0,9.868057E0,1.2206532E1,0E0,5.6727905E0,0E0,9.923401E-1,0E0,0E0,3.1585693E-3,8.287987E0,4.9493408E-1,0E0,0E0,0E0,0E0,0E0,0E0,0E0,0E0,0E0,0E0,0E0,0E0,0E0,0E0,0E0,0E0,0E0,0E0,0E0,0E0,0E0,0E0,0E0,0E0,0E0,0E0,0E0,0E0,0E0,0E0,0E0,0E0,0E0,0E0,0E0,0E0,0E0,0E0,0E0,0E0,0E0,0E0,0E0,0E0,0E0,0E0,0E0,0E0,0E0],"parents":[2147483647,0,0,1,1,2,2,3,3,4,4,5,5,6,6,7,7,8,8,9,9,10,10,11,11,12,12,13,13,14,14,15,15,16,16,17,17,18,18,19,19,20,20,21,21,22,22,23,23,24,24,25,25,26,26,27,27,28,28,29,29,31,31,32,32,33,33,34,34,35,35,36,36,37,37,38,38,39,39,40,40,41,41,42,42,43,43,44,44,45,45,46,46,48,48,49,49,50,50,52,52,54,54,57,57,58,58,59,59],"right_children":[2,4,6,8,10,12,14,16,18,20,22,24,26,28,30,32,34,36,38,40,42,44,46,48,50,52,54,56,58,60,-1,62,64,66,68,70,72,74,76,78,80,82,84,86,88,90,92,-1,94,96,98,-1,100,-1,102,-1,-1,104,106,108,-1,-1,-1,-1,-1,-1,-1,-1,-1,-1,-1,-1,-1,-1,-1,-1,-1,-1,-1,-1,-1,-1,-1,-1,-1,-1,-1,-1,-1,-1,-1,-1,-1,-1,-1,-1,-1,-1,-1,-1,-1,-1,-1,-1,-1,-1,-1,-1,-1],"split_conditions":[1E0,1E0,5.417E-1,0E0,4.427E1,2.544E-1,9.215E-1,2.9409729E1,1E0,4.939E1,6.041E1,1.273E-1,1.2466E0,9.173E-3,1.4335E0,6.501E1,3.616E1,3.81E1,7.865E-1,3.738E1,1E0,5.94E1,6.094E1,4.94E1,7.361E-1,6.8000764E-1,1.58E1,1.57E-1,6.22E-2,1.34447E2,9.544058E-2,-9.733938E-5,5.076E1,1.157075E-1,6.78E1,1E0,9.215E-1,3.835E1,3.845E-3,3.708202E1,1E0,4.382E1,2.5076881E1,5.6104862E-5,4.249325E0,5.636E1,6.229E1,4.694351E-2,1.79246E0,5.43E-1,7.52E-2,3.5666681E-3,5.626E-3,4.8845973E-2,3.368E-1,4.694351E-2,-3.5745014E-2,8.74497E4,1.2011101E0,1.304577E0,4.694351E-2,-4.8764035E-4,-1.6516795E-2,-1.4848224E-2,-4.990938E-2,2.484917E-3,-6.2437117E-2,-2.4782022E-2,-5.419609E-2,4.5218274E-2,-5.533042E-2,-8.526808E-3,5.8864714E-3,-2.195131E-2,-1.0237157E-2,-5.5645085E-3,1.0341094E-2,5.90817E-2,2.716263E-2,2.9260043E-2,7.821413E-2,3.8425133E-2,6.768371E-4,1.2965991E-2,-3.840074E-2,6.8413033E-3,-1.4728722E-2,6.9627077E-3,3.2258913E-2,-1.9149855E-2,2.4928132E-2,3.6322303E-2,5.7658643E-2,-6.655803E-2,3.250568E-4,1.5522184E-2,4.526095E-2,4.0303703E-2,-3.818422E-2,3.250568E-4,5.3909827E-2,6.5217786E-2,9.0260595E-2,8.700901E-2,5.0259538E-2,3.5275448E-2,6.63184E-2,7.623939E-2,8.827164E-2],"split_indices":[63,28,23,28,8,23,26,12,65,31,31,24,26,30,26,41,41,8,24,31,76,41,41,19,24,7,18,24,25,0,0,11,8,21,41,61,26,8,29,42,97,41,52,11,21,51,8,0,0,26,23,0,30,0,23,0,0,17,7,15,0,0,0,0,0,0,0,0,0,0,0,0,0,0,0,0,0,0,0,0,0,0,0,0,0,0,0,0,0,0,0,0,0,0,0,0,0,0,0,0,0,0,0,0,0,0,0,0,0],"split_type":[0,0,0,0,0,0,0,0,0,0,0,0,0,0,0,0,0,0,0,0,0,0,0,0,0,0,0,0,0,0,0,0,0,0,0,0,0,0,0,0,0,0,0,0,0,0,0,0,0,0,0,0,0,0,0,0,0,0,0,0,0,0,0,0,0,0,0,0,0,0,0,0,0,0,0,0,0,0,0,0,0,0,0,0,0,0,0,0,0,0,0,0,0,0,0,0,0,0,0,0,0,0,0,0,0,0,0,0,0],"sum_hessian":[2.0602408E4,1.922678E4,1.375629E3,1.3588627E4,5.6381514E3,8.411417E2,5.344873E2,6.7600586E3,6.828569E3,1.340208E3,4.2979434E3,3.742654E2,4.6687634E2,1.4186877E2,3.9261853E2,4.965019E3,1.7950396E3,1.1445161E3,5.6840527E3,1.0808936E3,2.5931445E2,3.3426372E3,9.553061E2,1.6562614E1,3.577028E2,3.74215E2,9.266136E1,1.1800875E1,1.300679E2,2.2912407E2,1.6349446E2,4.63151E3,3.335092E2,2.6466092E2,1.5303787E3,9.5489174E1,1.0490269E3,3.2744697E3,2.409583E3,4.3884457E2,6.42049E2,1.6853268E2,9.078177E1,1.9408333E3,1.4018041E3,2.686623E2,6.8664386E2,6.539134E0,1.002348E1,3.3988235E2,1.7820442E1,6.777394E0,3.674376E2,7.796961E0,8.48644E1,6.539134E0,5.26174E0,3.0973064E1,9.909483E1,2.2258493E2,6.539134E0,1.6011871E3,3.0303228E3,8.302394E1,2.5048526E2,1.0793047E1,2.5386786E2,1.2343542E3,2.9602438E2,8.2969604E1,1.25195675E1,5.1131583E2,5.3771106E2,4.225297E2,2.85194E3,2.0096189E3,3.9996408E2,3.4236716E2,9.647743E1,6.040329E2,3.8016113E1,8.345004E1,8.508264E1,3.2894794E1,5.788697E1,7.84756E2,1.1560773E3,1.1673488E3,2.3445532E2,8.2508286E1,1.8615399E2,3.7825366E2,3.0839017E2,5.0039134E0,5.019567E0,3.2144794E1,3.0773755E2,9.050875E0,8.7695675E0,5.019567E0,3.6241803E2,1.9125229E1,6.5739174E1,2.5941757E1,5.031307E0,4.0715237E1,5.83796E1,1.04216156E2,1.18368774E2],"tree_param":{"num_deleted":"0","num_feature":"104","num_nodes":"109","size_leaf_vector":"1"}},{"base_weights":[2.4656618E-3,-7.9967976E-2,1.1724925E0,1.3591348E-1,-1.8804486E-1,8.004349E-1,1.4163097E0,2.0074046E-1,-2.378521E-1,-4.6629857E-2,-2.3453636E-1,9.79667E-1,6.769226E-1,1.296752E0,1.6699411E0,3.4265357E-1,7.59537E-2,-1.9995971E-1,-1.0156136E0,-3.9376166E-1,5.7305527E-1,-8.27665E-2,-5.741912E-1,4.6534297E-1,1.047772E0,8.2222664E-1,4.7995397E-1,1.1860601E0,1.3848636E0,8.422475E-2,4.0661965E-2,4.3199214E-1,8.384519E-2,5.5941973E-2,8.9015746E-1,-6.276439E-1,-1.2649278E-1,-1.4662741E0,5.1477402E-2,-2.0434128E-1,-1.0722462E0,6.8606275E-1,-5.6751452E-2,-2.4345681E-1,1.2689643E-1,-1.08664304E-1,-8.6851174E-1,8.048279E-1,-1.9004166E-2,7.218248E-1,1.161876E0,5.453015E-1,9.307849E-1,5.2835554E-1,-3.4289688E-2,1.6462387E0,1.1349864E0,7.921481E-1,1.410047E0,1.4206508E-2,2.5757566E-2,1.1371625E-2,-1.2075844E-2,5.7493076E-3,-4.478007E-3,-4.8318896E-3,6.336347E-2,2.0513227E-2,-4.146486E-2,9.022788E-3,-1.0005394E-2,-1.8543938E-2,-8.194681E-2,-1.180153E-2,2.6584322E-2,-6.608923E-2,-3.1155149E-2,4.860898E-2,2.7265007E-2,4.4629313E-3,-6.299326E-2,-2.5579423E-2,-7.792674E-3,1.9378722E-2,-3.3824474E-3,1.7503984E-2,-2.0753963E-2,-3.4546286E-2,-6.0869362E-2,-5.3268713E-3,5.7067808E-2,5.154232E-2,8.559887E-3,6.1833914E-2,2.3412159E-2,-3.0059693E-2,3.4995224E-2,7.287477E-2,4.0905062E-2,1.4713312E-2,4.1195255E-2,5.0070506E-2,9.123177E-2,6.92262E-2,5.2568983E-2,-9.8191565E-3,6.996584E-2,6.421443E-2,7.628901E-2],"categories":[],"categories_nodes":[],"categories_segments":[],"categories_sizes":[],"default_left":[0,0,1,0,0,1,0,0,1,0,0,0,1,0,0,0,0,0,0,0,1,1,0,0,0,0,0,0,0,0,0,1,0,0,0,0,0,0,0,1,0,0,0,0,0,0,0,0,0,1,1,0,0,0,0,0,0,0,0,0,0,0,0,0,0,0,0,0,0,0,0,0,0,0,0,0,0,0,0,0,0,0,0,0,0,0,0,0,0,0,0,0,0,0,0,0,0,0,0,0,0,0,0,0,0,0,0,0,0],"id":1,"left_children":[1,3,5,7,9,11,13,15,17,19,21,23,25,27,29,31,33,35,37,39,41,43,45,47,49,51,53,55,57,-1,-1,59,61,63,65,67,69,71,-1,73,75,77,79,81,83,85,87,89,-1,91,93,95,97,99,-1,101,103,105,107,-1,-1,-1,-1,-1,-1,-1,-1,-1,-1,-1,-1,-1,-1,-1,-1,-1,-1,-1,-1,-1,-1,-1,-1,-1,-1,-1,-1,-1,-1,-1,-1,-1,-1,-1,-1,-1,-1,-1,-1,-1,-1,-1,-1,-1,-1,-1,-1,-1,-1],"loss_changes":[1.9956174E3,4.5100586E2,1.2240173E2,1.5630756E2,8.467639E1,1.132254E1,2.2742065E1,9.730786E1,2.7902573E1,6.860564E2,4.9965985E2,7.1713867E0,8.871841E0,3.8457642E0,1.8677979E0,5.9418762E1,4.7624153E1,2.8532394E1,4.2117317E1,2.6248752E2,8.154135E1,2.2579774E2,4.1007355E2,8.1603565E0,6.3127594E0,5.0516205E0,8.253384E0,4.1569214E0,3.4707642E0,0E0,0E0,2.3355286E1,3.0939812E1,2.4553265E1,2.6217152E1,2.8226841E1,1.76241E1,6.298485E0,0E0,3.742601E1,4.9151245E1,3.8576324E1,3.0878317E1,8.903761E1,1.4751056E2,1.6329967E2,1.1278015E2,6.2085543E0,0E0,8.756571E0,6.7256775E0,1.0079395E1,6.6081467E0,9.086601E0,0E0,8.6357117E-1,3.4258118E0,9.162939E0,2.3127441E0,0E0,0E0,0E0,0E0,0E0,0E0,0E0,0E0,0E0,0E0,0E0,0E0,0E0,0E0,0E0,0E0,0E0,0E0,0E0,0E0,0E0,0E0,0E0,0E0,0E0,0E0,0E0,0E0,0E0,0E0,0E0,0E0,0E0,0E0,0E0,0E0,0E0,0E0,0E0,0E0,0E0,0E0,0E0,0E0,0E0,0E0,0E0,0E0,0E0,0E0],"parents":[2147483647,0,0,1,1,2,2,3,3,4,4,5,5,6,6,7,7,8,8,9,9,10,10,11,11,12,12,13,13,14,14,15,15,16,16,17,17,18,18,19,19,20,20,21,21,22,22,23,23,24,24,25,25,26,26,27,27,28,28,31,31,32,32,33,33,34,34,35,35,36,36,37,37,39,39,40,40,41,41,42,42,43,43,44,44,45,45,46,46,47,47,49,49,50,50,51,51,52,52,53,53,55,55,56,56,57,57,58,58],"right_children":[2,4,6,8,10,12,14,16,18,20,22,24,26,28,30,32,34,36,38,40,42,44,46,48,50,52,54,56,58,-1,-1,60,62,64,66,68,70,72,-1,74,76,78,80,82,84,86,88,90,-1,92,94,96,98,100,-1,102,104,106,108,-1,-1,-1,-1,-1,-1,-1,-1,-1,-1,-1,-1,-1,-1,-1,-1,-1,-1,-1,-1,-1,-1,-1,-1,-1,-1,-1,-1,-1,-1,-1,-1,-1,-1,-1,-1,-1,-1,-1,-1,-1,-1,-1,-1,-1,-1,-1,-1,-1,-1],"split_conditions":[1E0,8.793E-1,3.659E-1,3.403161E1,4.44E1,4.748E1,7.158E-1,8.572E-1,7.438E1,1E0,1E0,5.6E-2,6.2096655E-1,5.243E-1,2.249E-1,1E0,6.725E1,3.784E1,1E0,1E0,5.612E1,5.715E1,5.279E1,1.48E1,8.7E0,5.566E1,1.181E4,2.472E-3,2.071E-3,8.422475E-2,4.0661965E-2,3E-1,2.4015682E1,1E0,1E0,1E0,8.18E-1,6.805E1,5.1477402E-2,5.974E1,4.727E1,3.72E1,9.343E-1,4.693E1,9.451E-1,4.491E1,9.152E-1,3.14E1,-1.9004166E-2,-6.0342514E-4,6.184E-1,4.452E3,5.798E1,7.575E-3,-3.4289688E-2,1.379E3,4.012E1,2.2568779E1,9.822302E-3,1.4206508E-2,2.5757566E-2,1.1371625E-2,-1.2075844E-2,5.7493076E-3,-4.478007E-3,-4.8318896E-3,6.336347E-2,2.0513227E-2,-4.146486E-2,9.022788E-3,-1.0005394E-2,-1.8543938E-2,-8.194681E-2,-1.180153E-2,2.6584322E-2,-6.608923E-2,-3.1155149E-2,4.860898E-2,2.7265007E-2,4.4629313E-3,-6.299326E-2,-2.5579423E-2,-7.792674E-3,1.9378722E-2,-3.3824474E-3,1.7503984E-2,-2.0753963E-2,-3.4546286E-2,-6.0869362E-2,-5.3268713E-3,5.7067808E-2,5.154232E-2,8.559887E-3,6.1833914E-2,2.3412159E-2,-3.0059693E-2,3.4995224E-2,7.287477E-2,4.0905062E-2,1.4713312E-2,4.1195255E-2,5.0070506E-2,9.123177E-2,6.92262E-2,5.2568983E-2,-9.8191565E-3,6.996584E-2,6.421443E-2,7.628901E-2],"split_indices":[63,27,23,12,8,8,23,27,31,62,62,23,21,23,24,79,8,41,61,61,31,8,8,22,22,8,18,29,29,0,0,23,12,79,61,61,27,41,0,41,31,31,27,41,27,31,27,18,0,11,24,4,8,29,0,4,8,32,13,0,0,0,0,0,0,0,0,0,0,0,0,0,0,0,0,0,0,0,0,0,0,0,0,0,0,0,0,0,0,0,0,0,0,0,0,0,0,0,0,0,0,0,0,0,0,0,0,0,0],"split_type":[0,0,0,0,0,0,0,0,0,0,0,0,0,0,0,0,0,0,0,0,0,0,0,0,0,0,0,0,0,0,0,0,0,0,0,0,0,0,0,0,0,0,0,0,0,0,0,0,0,0,0,0,0,0,0,0,0,0,0,0,0,0,0,0,0,0,0,0,0,0,0,0,0,0,0,0,0,0,0,0,0,0,0,0,0,0,0,0,0,0,0,0,0,0,0,0,0,0,0,0,0,0,0,0,0,0,0,0,0],"sum_hessian":[2.0688814E4,1.9328002E4,1.3608126E3,6.447997E3,1.2880004E4,5.4042426E2,8.203883E2,5.4953335E3,9.526635E2,3.1872434E3,9.692761E3,2.1765186E2,3.227724E2,5.6171686E2,2.5867148E2,2.5704062E3,2.9249272E3,9.0960486E2,4.3058674E1,2.04311E3,1.1441335E3,6.7001426E3,2.992618E3,2.6366535E1,1.9128532E2,1.8391998E2,1.3885242E2,2.553675E2,3.0634937E2,2.5340036E2,5.271117E0,1.9103125E3,6.600937E2,2.8558052E3,6.912206E1,1.3223894E2,7.773659E2,3.5515686E1,7.5429883E0,1.5982181E3,4.4489185E2,9.6999585E2,1.741377E2,3.7929673E3,2.9071753E3,1.1596957E3,1.8329224E3,1.8846611E1,7.519925E0,5.1499294E1,1.3978603E2,5.3491005E1,1.3042897E2,1.3384209E2,5.0103283E0,2.2390882E1,2.3297661E2,1.3808495E1,2.9254086E2,6.892325E2,1.22108E3,4.5818887E2,2.0190483E2,2.0315999E3,8.242054E2,1.931746E1,4.98046E1,2.134449E1,1.1089445E2,1.5009058E2,6.272753E2,5.2645526E0,3.0251135E1,1.5328992E3,6.531893E1,2.8474707E2,1.6014478E2,3.1790652E2,6.520893E2,1.5611711E2,1.8020588E1,9.3286475E2,2.8601025E3,1.2419934E3,1.6651819E3,4.6435373E2,6.953419E2,1.216616E3,6.1630634E2,5.2668004E0,1.357981E1,3.2428005E1,1.9071291E1,1.25472046E2,1.4313975E1,6.0128255E0,4.7478176E1,2.08829E1,1.09546074E2,7.58003E1,5.8041794E1,6.2853613E0,1.610552E1,5.4563374E1,1.7841324E2,5.5116067E0,8.296887E0,1.4599559E2,1.4654526E2],"tree_param":{"num_deleted":"0","num_feature":"104","num_nodes":"109","size_leaf_vector":"1"}},{"base_weights":[1.880275E-3,-7.4880555E-2,1.101658E0,-2.215554E-1,2.778543E-1,8.9439183E-1,1.4768432E0,1.2028548E-1,-2.8476694E-1,2.0555162E-1,7.590502E-1,7.527243E-1,1.0934416E0,7.6377016E-1,1.5811918E0,2.3399457E-1,-1.706986E-1,-4.880784E-1,-1.300333E-1,5.329362E-1,2.3646874E-2,2.1959339E-1,9.686985E-1,2.2210716E-1,8.019885E-1,9.370162E-1,1.3347658E0,3.2885873E-1,1.0243417E0,1.4231465E0,8.527596E-2,2.69978E-1,-5.4857695E-1,-9.0148836E-1,-1.1009183E-1,-3.6326745E-1,-1.2201371E0,-1.9068536E-1,-4.6301797E-2,7.2452426E-1,2.237881E-1,1.5901141E-1,-2.3563424E-1,5.6127924E-1,-3.3683765E-1,5.8403265E-1,1.075481E0,-3.272913E-1,9.014994E-1,4.2276794E-1,8.5034573E-1,9.6746236E-1,-1.4057343E-3,1.4047495E0,7.197215E-1,-2.1305894E-2,6.7590326E-1,1.3344077E0,1.19202964E-1,1.4611351E0,2.87709E-2,-1.6032634E-2,1.5312708E-2,2.5736576E-2,-3.742188E-2,-1.0060363E-2,-6.453222E-2,2.9088565E-4,-3.1945925E-2,-1.3456173E-2,-3.890617E-2,-6.573893E-2,-2.094978E-3,1.2600135E-4,-1.1607121E-2,4.3922E-3,-5.532477E-3,4.1818738E-2,2.1621048E-2,3.5300773E-2,4.724576E-3,3.419276E-3,3.1603634E-2,-2.1476783E-2,1.2284434E-2,-2.8309062E-2,3.5292126E-2,2.3493802E-2,-3.0091548E-2,3.9250147E-2,1.9606312E-3,3.7185337E-2,5.9706688E-2,6.687241E-3,-4.7415566E-2,5.6940556E-2,9.339419E-3,-5.4581757E-3,4.0195547E-2,4.8927557E-2,3.5653554E-2,2.1976365E-2,5.1009346E-2,7.17738E-2,2.8106779E-2,3.9455662E-3,6.1309513E-2,5.327631E-2,-3.1044532E-3,7.869144E-2,1.5980706E-2,-1.9772021E-2,3.0649802E-2,3.2521196E-2,7.4144505E-2],"categories":[],"categories_nodes":[],"categories_segments":[],"categories_sizes":[],"default_left":[0,1,1,0,1,0,0,1,0,0,0,0,1,0,0,1,0,0,0,0,0,1,0,0,0,0,0,0,0,0,0,0,1,0,1,0,1,0,1,1,0,0,1,0,1,0,0,1,1,0,1,0,0,1,1,0,0,0,0,1,0,0,0,0,0,0,0,0,0,0,0,0,0,0,0,0,0,0,0,0,0,0,0,0,0,0,0,0,0,0,0,0,0,0,0,0,0,0,0,0,0,0,0,0,0,0,0,0,0,0,0,0,0,0,0],"id":2,"left_children":[1,3,5,7,9,11,13,15,17,19,21,23,25,27,29,31,33,35,37,39,41,43,45,47,49,51,53,55,57,59,-1,61,63,65,67,69,71,73,75,77,79,81,83,85,87,89,91,93,95,97,99,101,-1,103,105,-1,107,109,111,113,-1,-1,-1,-1,-1,-1,-1,-1,-1,-1,-1,-1,-1,-1,-1,-1,-1,-1,-1,-1,-1,-1,-1,-1,-1,-1,-1,-1,-1,-1,-1,-1,-1,-1,-1,-1,-1,-1,-1,-1,-1,-1,-1,-1,-1,-1,-1,-1,-1,-1,-1,-1,-1,-1,-1],"loss_changes":[1.7443838E3,9.9937274E2,1.03513794E2,2.9483344E2,1.972251E2,2.3736267E1,3.4374268E1,7.050907E1,3.6215973E2,2.9379144E2,8.355899E1,1.3206116E1,1.2335846E1,6.8002625E0,5.7510986E0,4.3282524E1,2.6430723E1,4.5417163E2,3.320192E1,1.04203735E2,1.1138182E2,3.9847637E1,2.1270111E1,1.7047375E1,8.225128E0,6.542511E0,4.980179E0,6.856283E0,1.0761204E1,5.2554626E0,0E0,3.148951E1,1.4765305E1,1.2203449E1,3.3977783E1,1.6586847E2,8.07135E1,3.0374207E1,2.3733906E1,3.516681E1,4.2059536E1,8.933876E1,1.016996E2,2.1524548E1,1.7381126E1,1.2892124E1,1.5491882E1,7.441658E0,3.235962E0,1.122487E1,6.591858E0,5.5354004E0,0E0,2.401413E0,5.1838827E0,0E0,5.1155796E0,6.5147285E0,3.0444763E0,2.2194824E0,0E0,0E0,0E0,0E0,0E0,0E0,0E0,0E0,0E0,0E0,0E0,0E0,0E0,0E0,0E0,0E0,0E0,0E0,0E0,0E0,0E0,0E0,0E0,0E0,0E0,0E0,0E0,0E0,0E0,0E0,0E0,0E0,0E0,0E0,0E0,0E0,0E0,0E0,0E0,0E0,0E0,0E0,0E0,0E0,0E0,0E0,0E0,0E0,0E0,0E0,0E0,0E0,0E0,0E0,0E0],"parents":[2147483647,0,0,1,1,2,2,3,3,4,4,5,5,6,6,7,7,8,8,9,9,10,10,11,11,12,12,13,13,14,14,15,15,16,16,17,17,18,18,19,19,20,20,21,21,22,22,23,23,24,24,25,25,26,26,27,27,28,28,29,29,31,31,32,32,33,33,34,34,35,35,36,36,37,37,38,38,39,39,40,40,41,41,42,42,43,43,44,44,45,45,46,46,47,47,48,48,49,49,50,50,51,51,53,53,54,54,56,56,57,57,58,58,59,59],"right_children":[2,4,6,8,10,12,14,16,18,20,22,24,26,28,30,32,34,36,38,40,42,44,46,48,50,52,54,56,58,60,-1,62,64,66,68,70,72,74,76,78,80,82,84,86,88,90,92,94,96,98,100,102,-1,104,106,-1,108,110,112,114,-1,-1,-1,-1,-1,-1,-1,-1,-1,-1,-1,-1,-1,-1,-1,-1,-1,-1,-1,-1,-1,-1,-1,-1,-1,-1,-1,-1,-1,-1,-1,-1,-1,-1,-1,-1,-1,-1,-1,-1,-1,-1,-1,-1,-1,-1,-1,-1,-1,-1,-1,-1,-1,-1,-1],"split_conditions":[1E0,1E0,1.1297E0,8.572E-1,6.333E1,4.526E-1,2.568E-1,3.080416E1,0E0,4.69E1,6.094E1,4.977E-1,9.215E-1,1.2813586E0,1.3953E0,6.599E1,3.396E1,9.195E-1,7.778E-1,4.518E1,8.984E-1,1.03938E0,1.6854993E-4,2.5039663E1,5.44E-2,2.35E1,3.239E-1,3.631E-1,1.5531324E-2,5.14E-1,8.527596E-2,3.707E1,1.4785281E1,4.051E-3,6.528E1,3.1830023E1,2.6134E0,9.289E-1,9.9377E-1,-1.8166476E-4,8.576E-1,6.165E1,5.889E1,-1.1304917E-3,1.565893E-1,4.206E-3,2.900748E-4,7.67E1,-3.2892812E-3,6.9634984E-6,-1.6658869E-5,1.765689E-1,-1.4057343E-3,1.082446E2,1.519E2,-2.1305894E-2,3.475554E-4,3.2196815E1,4.2312E-2,1.1949944E1,2.87709E-2,-1.6032634E-2,1.5312708E-2,2.5736576E-2,-3.742188E-2,-1.0060363E-2,-6.453222E-2,2.9088565E-4,-3.1945925E-2,-1.3456173E-2,-3.890617E-2,-6.573893E-2,-2.094978E-3,1.2600135E-4,-1.1607121E-2,4.3922E-3,-5.532477E-3,4.1818738E-2,2.1621048E-2,3.5300773E-2,4.724576E-3,3.419276E-3,3.1603634E-2,-2.1476783E-2,1.2284434E-2,-2.8309062E-2,3.5292126E-2,2.3493802E-2,-3.0091548E-2,3.9250147E-2,1.9606312E-3,3.7185337E-2,5.9706688E-2,6.687241E-3,-4.7415566E-2,5.6940556E-2,9.339419E-3,-5.4581757E-3,4.0195547E-2,4.8927557E-2,3.5653554E-2,2.1976365E-2,5.1009346E-2,7.17738E-2,2.8106779E-2,3.9455662E-3,6.1309513E-2,5.327631E-2,-3.1044532E-3,7.869144E-2,1.5980706E-2,-1.9772021E-2,3.0649802E-2,3.2521196E-2,7.4144505E-2],"split_indices":[63,28,26,27,31,23,23,12,28,8,41,26,26,6,26,41,41,27,24,31,27,54,53,12,23,22,25,24,9,25,0,41,32,30,31,12,26,27,34,43,27,8,41,9,21,30,43,19,33,11,9,21,0,5,19,0,9,12,30,12,0,0,0,0,0,0,0,0,0,0,0,0,0,0,0,0,0,0,0,0,0,0,0,0,0,0,0,0,0,0,0,0,0,0,0,0,0,0,0,0,0,0,0,0,0,0,0,0,0,0,0,0,0,0,0],"split_type":[0,0,0,0,0,0,0,0,0,0,0,0,0,0,0,0,0,0,0,0,0,0,0,0,0,0,0,0,0,0,0,0,0,0,0,0,0,0,0,0,0,0,0,0,0,0,0,0,0,0,0,0,0,0,0,0,0,0,0,0,0,0,0,0,0,0,0,0,0,0,0,0,0,0,0,0,0,0,0,0,0,0,0,0,0,0,0,0,0,0,0,0,0,0,0,0,0,0,0,0,0,0,0,0,0,0,0,0,0,0,0,0,0,0,0],"sum_hessian":[2.0661217E4,1.9314088E4,1.3471273E3,1.3641873E4,5.672216E3,8.699298E2,4.7719754E2,2.1287786E3,1.1513094E4,4.932504E3,7.3971216E2,5.1101343E2,3.5891635E2,6.197899E1,4.1521854E2,1.5307836E3,5.97995E2,4.9745967E3,6.5384976E3,1.7610713E3,3.1714326E3,2.0759254E2,5.321196E2,4.3881466E1,4.6713196E2,2.2072562E2,1.3819073E2,2.4068726E1,3.7910263E1,1.8829913E2,2.269194E2,1.4641171E3,6.6666565E1,4.4733154E1,5.5326184E2,4.2512793E3,7.233172E2,3.7910913E3,2.7474065E3,1.0864335E3,6.7463776E2,2.0838767E3,1.087556E3,1.2860919E2,7.898335E1,1.1702533E2,4.150943E2,2.4548386E1,1.933308E1,5.3932465E1,4.131995E2,2.1397318E2,6.752441E0,1.2292009E2,1.5270643E1,7.507883E0,1.6560843E1,2.788401E1,1.0026255E1,1.7953036E2,8.768768E0,8.4267944E1,1.3798491E3,1.029882E1,5.636775E1,1.6520952E1,2.82122E1,4.546086E2,9.8653244E1,3.4663115E3,7.849677E2,6.694297E2,5.3887524E1,6.699258E2,3.1211655E3,8.9053735E2,1.856869E3,7.842642E2,3.0216928E2,1.4169785E2,5.329399E2,1.7498053E3,3.3407135E2,7.7532367E2,3.1223233E2,1.4284749E1,1.1432444E2,1.9338472E1,5.9644882E1,8.516812E1,3.1857208E1,1.11259766E2,3.0383453E2,1.4539277E1,1.0009109E1,1.406843E1,5.2646513E0,2.28108E1,3.1121666E1,2.1048865E2,2.0271086E2,2.027674E1,1.9369644E2,1.179166E2,5.0034866E0,7.251491E0,8.019152E0,1.0548137E1,6.0127053E0,2.2115416E1,5.7685943E0,5.007006E0,5.0192485E0,5.4991274E0,1.7403123E2],"tree_param":{"num_deleted":"0","num_feature":"104","num_nodes":"115","size_leaf_vector":"1"}},{"base_weights":[6.0422076E-3,-1.523812E-1,3.6294863E-1,-2.0570429E-1,2.349933E-1,2.7742177E-1,1.04513E0,6.714281E-2,-2.6623595E-1,5.334542E-1,-6.968213E-2,1.2599495E-1,4.819045E-1,7.7940834E-1,1.380684E0,-5.128471E-1,1.2026161E-1,-4.2889628E-1,-9.822749E-2,-9.8750494E-2,1.1033328E0,-3.2030366E-2,-7.057068E-1,4.993649E-1,-5.2000083E-2,8.4457636E-1,3.893625E-1,1.1076711E0,6.8277276E-1,9.643918E-1,1.5246894E0,2.8594548E-1,-7.2635007E-1,1.6888699E-1,-3.4277174E-1,-3.4959066E-1,-1.1841397E0,8.257978E-1,-1.4924574E-1,1.0828565E-1,-5.111537E-1,7.767578E-1,1.3116775E0,1.105906E-2,-4.2701176E-1,1.2059035E-1,-1.1782236E0,6.3178504E-1,4.9814872E-2,2.8569004E-1,-1.2798826E-1,6.2935543E-1,1.042486E0,7.4019593E-1,2.2352874E-1,7.487398E-1,1.4741644E0,-2.8144399E-2,7.209999E-1,1.1475701E0,5.649864E-1,9.63844E-3,1.5720712E0,-1.0505376E-2,4.017706E-2,-2.4851087E-2,-5.7962637E-2,1.2430086E-2,-6.512536E-3,-2.0395631E-2,6.274188E-2,-1.47310095E-2,-4.251158E-2,-6.640528E-2,-2.629148E-2,-7.186583E-2,5.080014E-2,-1.4814094E-2,-5.6803534E-3,-6.732274E-2,7.0653087E-3,-3.7219256E-2,2.7524576E-2,-8.1811816E-4,4.22186E-2,5.1513273E-2,7.53408E-2,-7.484452E-3,5.545722E-3,-4.0998515E-2,7.1579986E-3,-3.9069284E-2,2.9830968E-2,-9.0804644E-2,-3.3374507E-2,2.4491701E-2,4.3760475E-2,-1.491569E-2,1.1116189E-2,-8.956615E-3,1.9484784E-2,1.6555062E-2,-9.394515E-3,3.492422E-2,-1.0907198E-2,5.454365E-2,-8.666794E-3,3.3680525E-2,6.9703214E-2,1.5877983E-2,-1.1842842E-2,1.2881495E-2,4.5309186E-2,7.7625625E-2,3.838497E-2,2.6399625E-2,4.388599E-2,2.8009055E-2,6.2811814E-2,-1.3423363E-2,5.123484E-2,3.5232574E-2,7.948651E-2],"categories":[],"categories_nodes":[],"categories_segments":[],"categories_sizes":[],"default_left":[1,1,0,0,0,0,0,0,0,0,0,0,1,0,1,0,1,0,0,0,1,0,0,0,0,0,0,0,0,1,0,1,0,0,0,1,0,0,0,1,0,0,0,0,0,1,0,1,0,0,0,0,1,0,0,0,0,0,0,0,0,0,0,0,0,0,0,0,0,0,0,0,0,0,0,0,0,0,0,0,0,0,0,0,0,0,0,0,0,0,0,0,0,0,0,0,0,0,0,0,0,0,0,0,0,0,0,0,0,0,0,0,0,0,0,0,0,0,0,0,0,0,0],"id":3,"left_children":[1,3,5,7,9,11,13,15,17,19,21,23,25,27,29,31,33,35,37,39,41,43,45,47,49,51,53,55,57,59,61,63,65,67,69,71,73,75,77,79,81,83,85,87,89,91,93,95,97,99,101,103,105,107,109,111,113,-1,115,117,119,-1,121,-1,-1,-1,-1,-1,-1,-1,-1,-1,-1,-1,-1,-1,-1,-1,-1,-1,-1,-1,-1,-1,-1,-1,-1,-1,-1,-1,-1,-1,-1,-1,-1,-1,-1,-1,-1,-1,-1,-1,-1,-1,-1,-1,-1,-1,-1,-1,-1,-1,-1,-1,-1,-1,-1,-1,-1,-1,-1,-1,-1],"loss_changes":[1.1670217E3,2.9531982E2,3.699143E2,2.075503E2,1.5736009E2,1.7456451E2,6.191986E1,7.037691E1,2.8100977E2,3.1501898E2,2.0500671E1,2.1544954E2,8.019037E1,1.1824036E1,1.7169617E1,3.289801E1,4.715198E1,3.1253833E2,2.3867522E2,3.5514095E1,3.0264465E1,1.3793297E1,1.8824951E1,6.226819E1,5.638602E1,2.0081543E1,1.1114606E2,1.0549736E1,1.5119537E1,5.3975296E0,1.4167725E1,1.0733041E1,1.4467934E1,4.5185352E1,2.123323E1,1.2991876E2,4.6319397E1,1.1549968E2,2.5100006E1,1.3511427E1,3.482223E1,9.74855E0,1.3782257E1,1.1757484E1,1.7977673E1,8.330309E0,8.7355995E0,2.750238E1,1.4432253E1,1.9585575E1,4.9378128E1,1.3964493E1,1.5020691E1,2.5778198E1,5.6377686E1,3.3843155E0,1.1771622E0,0E0,8.618011E0,2.8505478E0,1.09851055E1,0E0,2.2693481E0,0E0,0E0,0E0,0E0,0E0,0E0,0E0,0E0,0E0,0E0,0E0,0E0,0E0,0E0,0E0,0E0,0E0,0E0,0E0,0E0,0E0,0E0,0E0,0E0,0E0,0E0,0E0,0E0,0E0,0E0,0E0,0E0,0E0,0E0,0E0,0E0,0E0,0E0,0E0,0E0,0E0,0E0,0E0,0E0,0E0,0E0,0E0,0E0,0E0,0E0,0E0,0E0,0E0,0E0,0E0,0E0,0E0,0E0,0E0,0E0],"parents":[2147483647,0,0,1,1,2,2,3,3,4,4,5,5,6,6,7,7,8,8,9,9,10,10,11,11,12,12,13,13,14,14,15,15,16,16,17,17,18,18,19,19,20,20,21,21,22,22,23,23,24,24,25,25,26,26,27,27,28,28,29,29,30,30,31,31,32,32,33,33,34,34,35,35,36,36,37,37,38,38,39,39,40,40,41,41,42,42,43,43,44,44,45,45,46,46,47,47,48,48,49,49,50,50,51,51,52,52,53,53,54,54,55,55,56,56,58,58,59,59,60,60,62,62],"right_children":[2,4,6,8,10,12,14,16,18,20,22,24,26,28,30,32,34,36,38,40,42,44,46,48,50,52,54,56,58,60,62,64,66,68,70,72,74,76,78,80,82,84,86,88,90,92,94,96,98,100,102,104,106,108,110,112,114,-1,116,118,120,-1,122,-1,-1,-1,-1,-1,-1,-1,-1,-1,-1,-1,-1,-1,-1,-1,-1,-1,-1,-1,-1,-1,-1,-1,-1,-1,-1,-1,-1,-1,-1,-1,-1,-1,-1,-1,-1,-1,-1,-1,-1,-1,-1,-1,-1,-1,-1,-1,-1,-1,-1,-1,-1,-1,-1,-1,-1,-1,-1,-1,-1],"split_conditions":[1E0,5.658E-3,9.633E-1,8.613E-1,1E0,6.041E1,5.243E-1,3.744E1,9.633E-1,9.633E-1,2.857E-1,4.493E1,1.6067088E-2,-2.6681102E-4,8.932E-1,1.39E2,6.599E1,9.283E-1,1E0,8.779E-1,8.613E-1,2.146E-1,3.13E-2,4.382E1,8.591E-1,5.374354E-3,8.637E-1,8.72E-1,1.618E-3,1.948E-1,3.615E-3,3.5626255E1,8.493E-1,6.6116E3,0E0,6.501E1,0E0,6.4236E1,1.28E1,4.4433E3,1E0,1.485E3,4.737E-1,9.79E1,2.358E-1,1.3040018E0,8.015E1,1.0106E0,2.739E-1,3.1573625E-5,3.45E1,1E0,2.3024662E-1,1.9474E0,4.193E-3,1.5686E4,1.94E3,-2.8144399E-2,2.5E-1,1.2549E-2,8.934003E-3,9.63844E-3,-2.3538579E-1,-1.0505376E-2,4.017706E-2,-2.4851087E-2,-5.7962637E-2,1.2430086E-2,-6.512536E-3,-2.0395631E-2,6.274188E-2,-1.47310095E-2,-4.251158E-2,-6.640528E-2,-2.629148E-2,-7.186583E-2,5.080014E-2,-1.4814094E-2,-5.6803534E-3,-6.732274E-2,7.0653087E-3,-3.7219256E-2,2.7524576E-2,-8.1811816E-4,4.22186E-2,5.1513273E-2,7.53408E-2,-7.484452E-3,5.545722E-3,-4.0998515E-2,7.1579986E-3,-3.9069284E-2,2.9830968E-2,-9.0804644E-2,-3.3374507E-2,2.4491701E-2,4.3760475E-2,-1.491569E-2,1.1116189E-2,-8.956615E-3,1.9484784E-2,1.6555062E-2,-9.394515E-3,3.492422E-2,-1.0907198E-2,5.454365E-2,-8.666794E-3,3.3680525E-2,6.9703214E-2,1.5877983E-2,-1.1842842E-2,1.2881495E-2,4.5309186E-2,7.7625625E-2,3.838497E-2,2.6399625E-2,4.388599E-2,2.8009055E-2,6.2811814E-2,-1.3423363E-2,5.123484E-2,3.5232574E-2,7.948651E-2],"split_indices":[28,29,27,27,65,41,23,41,27,27,23,8,21,9,26,4,41,27,65,27,26,25,25,41,27,50,27,26,29,25,30,42,27,17,28,41,28,44,18,17,64,4,23,19,25,7,18,26,23,53,41,87,60,26,29,4,18,0,23,30,13,0,9,0,0,0,0,0,0,0,0,0,0,0,0,0,0,0,0,0,0,0,0,0,0,0,0,0,0,0,0,0,0,0,0,0,0,0,0,0,0,0,0,0,0,0,0,0,0,0,0,0,0,0,0,0,0,0,0,0,0,0,0],"split_type":[0,0,0,0,0,0,0,0,0,0,0,0,0,0,0,0,0,0,0,0,0,0,0,0,0,0,0,0,0,0,0,0,0,0,0,0,0,0,0,0,0,0,0,0,0,0,0,0,0,0,0,0,0,0,0,0,0,0,0,0,0,0,0,0,0,0,0,0,0,0,0,0,0,0,0,0,0,0,0,0,0,0,0,0,0,0,0,0,0,0,0,0,0,0,0,0,0,0,0,0,0,0,0,0,0,0,0,0,0,0,0,0,0,0,0,0,0,0,0,0,0,0,0],"sum_hessian":[2.0637814E4,1.4293705E4,6.3441084E3,1.2564622E4,1.7290836E3,5.6385903E3,7.0551794E2,2.2813418E3,1.028328E4,8.7307043E2,8.560132E2,3.2404998E3,2.3980906E3,3.955828E2,3.0993515E2,1.9068196E2,2.09066E3,5.2240107E3,5.0592695E3,4.1429352E2,4.5877695E2,8.0916223E2,4.68509E1,1.0455352E3,2.1949646E3,4.858641E2,1.9122264E3,8.758883E1,3.0799396E2,8.163656E1,2.282986E2,4.0145115E1,1.5053685E2,1.8925493E3,1.9811053E2,4.7289067E3,4.95104E2,2.6392697E2,4.795343E3,2.763145E2,1.3797899E2,1.8052959E2,2.7824738E2,7.30448E2,7.871425E1,1.7315619E1,2.9535282E1,8.073234E2,2.3821172E2,4.026841E2,1.7922805E3,2.3475494E2,2.5110916E2,6.1265234E2,1.2995741E3,4.578828E1,4.1800545E1,8.761726E0,2.9923224E2,5.4683846E1,2.6952711E1,8.016608E0,2.20282E2,2.08025E1,1.9342613E1,9.9810684E1,5.0726166E1,1.4944695E3,3.980798E2,1.9106474E2,7.0457945E0,4.2624746E3,4.66432E2,4.0542432E2,8.967969E1,1.9953835E1,2.4397313E2,9.341136E2,3.861229E3,5.2499146E0,2.710646E2,1.13371414E2,2.4607576E1,1.4240878E1,1.6628871E2,1.16508514E2,1.6173885E2,2.796944E2,4.507536E2,4.633936E1,3.237489E1,5.7600517E0,1.1555567E1,1.1996574E1,1.7538708E1,5.1185284E2,2.9547058E2,7.868783E1,1.595239E2,7.34955E1,3.291886E2,2.0634259E2,1.585938E3,2.1721309E2,1.7541847E1,2.415969E2,9.512261E0,5.578726E2,5.47797E1,1.0794196E3,2.2015448E2,1.1755631E1,3.403265E1,3.654956E1,5.2509828E0,1.360499E2,1.6318236E2,9.497996E0,4.518585E1,9.72938E0,1.722333E1,5.2111335E0,2.1507086E2],"tree_param":{"num_deleted":"0","num_feature":"104","num_nodes":"123","size_leaf_vector":"1"}},{"base_weights":[-3.7260598E-3,-7.454908E-2,1.0220512E0,-2.110361E-1,2.5514486E-1,8.165433E-1,1.3514913E0,8.2120806E-2,-2.6523325E-1,6.1293954E-1,1.7824644E-1,6.324733E-1,9.536331E-1,1.2332629E0,1.4745944E0,1.257903E-1,-3.7786108E-1,-4.4907698E-1,-1.2627003E-1,6.706626E-1,-2.7566805E-1,-1.3289674E-2,4.0251386E-1,4.7219583E-1,7.983718E-1,1.2816597E0,9.179991E-1,1.0160341E-2,1.2609025E0,1.5153451E0,1.2116091E0,-7.558228E-2,2.5721532E-1,-2.2837254E-1,-9.101536E-1,-2.985152E-1,-9.7648597E-1,-1.5669423E-1,-1.3510412E-2,7.014224E-1,-5.1509726E-1,-1.137965E-1,-8.4653504E-2,3.219558E-1,-8.832257E-2,5.054525E-1,8.299325E-2,3.870763E-1,1.1350075E0,9.050233E-1,4.5327887E-1,1.9624772E-2,1.3924254E0,6.9608814E-1,9.7965205E-1,2.4574863E-2,1.2856148E0,7.6626055E-2,4.3238994E-2,7.467806E-2,9.7760004E-1,-1.738262E-2,3.7031248E-3,3.6738034E-2,8.283223E-3,-2.8382806E-2,5.8034933E-3,-1.45558445E-2,-7.190302E-2,-3.6939096E-2,-1.2211893E-2,-4.022881E-2,-6.1798185E-2,5.387061E-3,-8.884574E-3,8.046439E-3,-4.146553E-3,2.6026651E-2,4.1698586E-2,-5.0081063E-2,1.8992722E-2,-1.6775636E-2,5.42155E-2,2.1484053E-2,-9.231653E-3,1.37289185E-2,-7.3982435E-3,1.8036615E-2,3.7890997E-2,2.8079975E-2,-1.920751E-2,2.7090034E-2,1.6132919E-3,2.3231631E-2,6.921575E-2,2.1695066E-2,5.0536174E-2,-1.50674945E-2,3.1421825E-2,7.486396E-2,3.790955E-2,4.0341776E-2,-7.6525807E-3,6.1288536E-2,4.5363434E-2,3.9679885E-2,6.584513E-2,1.27912825E-2,6.526723E-2],"categories":[],"categories_nodes":[],"categories_segments":[],"categories_sizes":[],"default_left":[0,1,1,0,0,0,0,1,0,1,0,0,0,0,0,1,0,0,1,0,0,0,0,0,1,0,0,0,0,1,0,0,0,0,0,0,0,0,0,0,0,1,0,0,0,0,0,0,1,0,0,0,0,0,0,0,0,0,0,0,0,0,0,0,0,0,0,0,0,0,0,0,0,0,0,0,0,0,0,0,0,0,0,0,0,0,0,0,0,0,0,0,0,0,0,0,0,0,0,0,0,0,0,0,0,0,0,0,0],"id":4,"left_children":[1,3,5,7,9,11,13,15,17,19,21,23,25,27,29,31,33,35,37,39,41,43,45,47,49,51,53,-1,55,57,59,61,63,65,67,69,71,73,75,77,79,81,-1,83,85,87,89,91,93,95,97,-1,99,101,103,-1,105,-1,-1,-1,107,-1,-1,-1,-1,-1,-1,-1,-1,-1,-1,-1,-1,-1,-1,-1,-1,-1,-1,-1,-1,-1,-1,-1,-1,-1,-1,-1,-1,-1,-1,-1,-1,-1,-1,-1,-1,-1,-1,-1,-1,-1,-1,-1,-1,-1,-1,-1,-1],"loss_changes":[1.498564E3,8.6832153E2,8.909082E1,2.1684314E2,1.5533487E2,2.0163269E1,5.60791E0,4.2833763E1,2.941892E2,5.1428406E1,1.9981784E2,9.042526E0,4.31369E0,7.3280945E0,7.88208E-1,5.152352E1,1.4507769E1,3.9339178E2,2.2505669E1,3.4587738E1,1.3951293E1,6.3162827E1,7.043579E1,9.86414E0,5.9432373E0,3.7377472E0,5.162781E0,0E0,4.2973022E0,9.9920654E-1,1.0366669E0,3.1347075E1,5.1370804E1,1.7095394E1,1.2723137E1,9.2016785E1,4.8098145E1,2.8706696E1,1.6908367E1,2.1506622E1,1.0962711E1,1.5345826E1,0E0,2.5140495E1,4.4446884E1,5.890988E1,1.172171E2,8.950634E0,2.743946E0,6.078377E0,5.8411484E0,0E0,1.4110565E0,9.183014E0,4.7999573E0,0E0,2.8120117E0,0E0,0E0,0E0,5.24259E0,0E0,0E0,0E0,0E0,0E0,0E0,0E0,0E0,0E0,0E0,0E0,0E0,0E0,0E0,0E0,0E0,0E0,0E0,0E0,0E0,0E0,0E0,0E0,0E0,0E0,0E0,0E0,0E0,0E0,0E0,0E0,0E0,0E0,0E0,0E0,0E0,0E0,0E0,0E0,0E0,0E0,0E0,0E0,0E0,0E0,0E0,0E0,0E0],"parents":[2147483647,0,0,1,1,2,2,3,3,4,4,5,5,6,6,7,7,8,8,9,9,10,10,11,11,12,12,13,13,14,14,15,15,16,16,17,17,18,18,19,19,20,20,21,21,22,22,23,23,24,24,25,25,26,26,28,28,29,29,30,30,31,31,32,32,33,33,34,34,35,35,36,36,37,37,38,38,39,39,40,40,41,41,43,43,44,44,45,45,46,46,47,47,48,48,49,49,50,50,52,52,53,53,54,54,56,56,60,60],"right_children":[2,4,6,8,10,12,14,16,18,20,22,24,26,28,30,32,34,36,38,40,42,44,46,48,50,52,54,-1,56,58,60,62,64,66,68,70,72,74,76,78,80,82,-1,84,86,88,90,92,94,96,98,-1,100,102,104,-1,106,-1,-1,-1,108,-1,-1,-1,-1,-1,-1,-1,-1,-1,-1,-1,-1,-1,-1,-1,-1,-1,-1,-1,-1,-1,-1,-1,-1,-1,-1,-1,-1,-1,-1,-1,-1,-1,-1,-1,-1,-1,-1,-1,-1,-1,-1,-1,-1,-1,-1,-1,-1],"split_conditions":[1E0,1E0,5.417E-1,8.572E-1,4.22E1,2.544E-1,7.158E-1,6.599E1,0E0,4.813E1,6.041E1,7.02E-3,2.58E-3,5.34E0,9.4969E4,-1.8100649E-4,1.716E-3,9.109E-1,2.3297828E-3,1E0,8.3E2,8.591E-1,1E0,2.9440848E-2,1.1919554E-2,1.277E-1,1.1241E4,1.0160341E-2,1.21E3,4.744E1,4.725E1,4.642E1,4.781E1,7.257E1,3.571E-1,3.824E1,9.283E-1,8.98E-1,4.736E1,1.5389602E0,3.1795443E-4,9.946197E-2,-8.4653504E-2,5.6E2,3.508E1,6.229E1,4.993E1,5.818E-3,1.3558733E1,5.44E-2,6.6E2,1.9624772E-2,3.0442928E1,1E0,1.447E-1,2.4574863E-2,7E-1,7.6626055E-2,4.3238994E-2,7.467806E-2,7.659904E-3,-1.738262E-2,3.7031248E-3,3.6738034E-2,8.283223E-3,-2.8382806E-2,5.8034933E-3,-1.45558445E-2,-7.190302E-2,-3.6939096E-2,-1.2211893E-2,-4.022881E-2,-6.1798185E-2,5.387061E-3,-8.884574E-3,8.046439E-3,-4.146553E-3,2.6026651E-2,4.1698586E-2,-5.0081063E-2,1.8992722E-2,-1.6775636E-2,5.42155E-2,2.1484053E-2,-9.231653E-3,1.37289185E-2,-7.3982435E-3,1.8036615E-2,3.7890997E-2,2.8079975E-2,-1.920751E-2,2.7090034E-2,1.6132919E-3,2.3231631E-2,6.921575E-2,2.1695066E-2,5.0536174E-2,-1.50674945E-2,3.1421825E-2,7.486396E-2,3.790955E-2,4.0341776E-2,-7.6525807E-3,6.1288536E-2,4.5363434E-2,3.9679885E-2,6.584513E-2,1.27912825E-2,6.526723E-2],"split_indices":[63,28,23,27,8,23,23,41,28,41,41,29,29,18,4,10,29,27,33,61,19,27,62,11,10,25,4,0,4,41,8,41,8,51,23,41,27,27,8,46,10,33,0,18,41,8,8,29,32,23,19,0,32,80,25,0,22,0,0,0,9,0,0,0,0,0,0,0,0,0,0,0,0,0,0,0,0,0,0,0,0,0,0,0,0,0,0,0,0,0,0,0,0,0,0,0,0,0,0,0,0,0,0,0,0,0,0,0,0],"split_type":[0,0,0,0,0,0,0,0,0,0,0,0,0,0,0,0,0,0,0,0,0,0,0,0,0,0,0,0,0,0,0,0,0,0,0,0,0,0,0,0,0,0,0,0,0,0,0,0,0,0,0,0,0,0,0,0,0,0,0,0,0,0,0,0,0,0,0,0,0,0,0,0,0,0,0,0,0,0,0,0,0,0,0,0,0,0,0,0,0,0,0,0,0,0,0,0,0,0,0,0,0,0,0,0,0,0,0,0,0],"sum_hessian":[2.0625508E4,1.9294293E4,1.3312139E3,1.3645625E4,5.648669E3,8.219512E2,5.0926263E2,2.129027E3,1.1516598E4,9.980322E2,4.6506367E3,3.5325317E2,4.6869803E2,2.653949E2,2.4386774E2,1.9450917E3,1.8393546E2,4.956751E3,6.5598467E3,9.3738586E2,6.0646355E1,2.5088706E3,2.1417659E3,1.8162668E2,1.716265E2,4.249996E1,4.2619806E2,7.153516E0,2.582414E2,2.0702606E2,3.684168E1,7.683035E2,1.1767882E3,1.4472113E2,3.921431E1,3.8571882E3,1.0995625E3,5.16568E3,1.3941665E3,9.140821E2,2.330378E1,5.5399815E1,5.246539E0,4.5822772E2,2.050643E3,1.6194519E3,5.2231396E2,1.6236008E2,1.9266605E1,1.2986804E2,4.1758457E1,5.211164E0,3.72888E1,9.533696E1,3.3086108E2,8.6863365E0,2.4955505E2,2.0037999E2,6.646074E0,1.4267998E1,2.2573679E1,2.721616E2,4.961419E2,1.8818039E2,9.8860785E2,7.258007E1,7.214106E1,1.8763369E1,2.0450943E1,4.2195117E2,3.435237E3,6.6384863E2,4.3571387E2,3.7969843E2,4.785982E3,3.9650824E2,9.976582E2,3.886376E2,5.2544446E2,1.501951E1,8.284269E0,4.7356247E1,8.04357E0,3.7799875E2,8.022898E1,2.8894113E2,1.7617019E3,1.03078E3,5.8867194E2,2.5789178E2,2.6442218E2,1.1269113E2,4.9668945E1,5.9990816E0,1.3267525E1,2.473325E1,1.0513479E2,7.730938E0,3.402752E1,3.0830952E1,6.4578476E0,8.43815E1,1.0955462E1,7.157088E1,2.5929022E2,1.6496851E1,2.330582E2,7.6053586E0,1.496832E1],"tree_param":{"num_deleted":"0","num_feature":"104","num_nodes":"109","size_leaf_vector":"1"}},{"base_weights":[1.2695247E-3,-1.4682198E-1,3.0481395E-1,-1.9167787E-1,1.8286845E-1,1.2242884E-1,4.8220256E-1,9.471007E-2,-2.4234754E-1,4.9775222E-1,-4.16878E-2,4.558939E-1,-4.0334906E-2,4.07118E-1,8.725865E-1,-5.0967157E-1,1.465135E-1,-3.7464875E-1,-9.527559E-2,-1.2824135E-1,9.939547E-1,-4.7060883E-1,1.4299782E-2,5.8797425E-1,1.2018407E-2,7.4692346E-2,-3.0249867E-1,3.202979E-1,6.983018E-1,9.1982913E-1,-8.767378E-1,1.2397361E-1,-7.492768E-1,2.1317247E-1,-3.5696217E-1,-2.567513E-1,-8.720156E-1,8.82215E-1,-1.3862297E-1,1.5462066E-2,-8.900629E-1,7.9090077E-1,1.3190901E0,-3.1860906E-1,-1.271808E0,-1.3881513E-1,1.1247712E-1,3.9146113E-1,6.9124687E-1,2.9653418E-1,-1.8407524E-1,2.24442E-1,-6.932112E-2,-4.3459478E-1,5.542684E-2,4.778004E-1,9.7134784E-2,8.962711E-1,-7.1623474E-2,3.125861E-1,9.9999136E-1,1.8815374E-2,-7.71886E-2,-1.8421464E-2,4.493192E-2,-6.377403E-2,-2.0260938E-2,2.2044813E-2,5.7868385E-3,-6.142502E-3,-3.241015E-2,-1.0647633E-2,-4.3396953E-2,-4.7294166E-2,1.2608747E-2,-6.6818185E-2,5.0567776E-2,-9.186328E-3,-2.539311E-3,-5.8076777E-2,4.8971092E-3,-2.614895E-2,-7.255609E-2,3.161305E-2,5.1676184E-2,7.187959E-2,3.9398964E-2,-3.5012092E-2,9.242985E-4,-3.130877E-2,-7.9856314E-2,-3.2378968E-3,-3.305246E-2,-2.3599079E-2,7.611832E-3,3.017813E-2,6.6700177E-3,3.6004826E-2,-8.96982E-3,-5.638147E-2,2.1212345E-2,-1.933707E-2,1.4479332E-2,1.945199E-2,3.0388234E-3,-1.4332567E-2,1.1026831E-2,-1.005251E-2,-3.2557484E-2,-5.1506754E-2,1.1582333E-2,2.7156804E-2,3.4480838E-3,1.1449994E-2,-2.0348623E-2,3.2891862E-2,5.6989994E-2,2.5400862E-3,-3.4844372E-2,2.47617E-2,-4.138707E-2,3.9065275E-2,5.8502663E-2],"categories":[],"categories_nodes":[],"categories_segments":[],"categories_sizes":[],"default_left":[0,0,0,0,1,0,1,0,0,0,0,0,0,0,0,0,1,0,1,0,1,0,0,1,0,0,0,0,0,0,0,0,0,0,0,1,1,0,0,0,0,0,0,1,0,1,0,0,0,0,0,1,0,0,0,0,0,1,1,0,1,0,0,0,0,0,0,0,0,0,0,0,0,0,0,0,0,0,0,0,0,0,0,0,0,0,0,0,0,0,0,0,0,0,0,0,0,0,0,0,0,0,0,0,0,0,0,0,0,0,0,0,0,0,0,0,0,0,0,0,0,0,0],"id":5,"left_children":[1,3,5,7,9,11,13,15,17,19,21,23,25,27,29,31,33,35,37,39,41,43,45,47,49,51,53,55,57,59,61,63,65,67,69,71,73,75,77,79,81,83,85,87,89,91,93,95,97,99,101,103,105,107,109,111,113,115,117,119,121,-1,-1,-1,-1,-1,-1,-1,-1,-1,-1,-1,-1,-1,-1,-1,-1,-1,-1,-1,-1,-1,-1,-1,-1,-1,-1,-1,-1,-1,-1,-1,-1,-1,-1,-1,-1,-1,-1,-1,-1,-1,-1,-1,-1,-1,-1,-1,-1,-1,-1,-1,-1,-1,-1,-1,-1,-1,-1,-1,-1,-1,-1],"loss_changes":[9.2581226E2,2.0474097E2,2.1842877E2,1.7684052E2,1.1727481E2,1.808154E2,9.998419E1,5.744761E1,2.0141962E2,2.1457043E2,2.3273836E1,6.405347E1,6.7553604E1,7.240393E1,4.6368683E1,2.2090809E1,5.6746838E1,3.1935968E2,2.0792844E2,3.3529747E1,2.4389252E1,1.322188E1,1.2913278E1,1.6818909E1,1.4091634E1,3.359966E1,3.2322247E1,7.7803345E1,1.0050873E2,2.5842407E1,1.31261835E1,1.5822988E1,1.8542953E1,3.304928E1,1.3406918E1,1.1779108E2,8.692798E1,6.105635E1,1.8598938E1,2.5213171E1,9.250877E0,8.569748E0,8.093567E0,1.228429E1,2.6774826E0,1.293874E1,1.2232996E1,1.5923565E1,1.3961151E1,1.9219212E1,1.446904E1,2.054881E1,5.011922E1,2.5110214E1,3.563557E1,3.463968E1,6.109439E1,2.9692688E1,1.0424011E1,1.3763304E1,1.6721191E1,0E0,0E0,0E0,0E0,0E0,0E0,0E0,0E0,0E0,0E0,0E0,0E0,0E0,0E0,0E0,0E0,0E0,0E0,0E0,0E0,0E0,0E0,0E0,0E0,0E0,0E0,0E0,0E0,0E0,0E0,0E0,0E0,0E0,0E0,0E0,0E0,0E0,0E0,0E0,0E0,0E0,0E0,0E0,0E0,0E0,0E0,0E0,0E0,0E0,0E0,0E0,0E0,0E0,0E0,0E0,0E0,0E0,0E0,0E0,0E0,0E0,0E0],"parents":[2147483647,0,0,1,1,2,2,3,3,4,4,5,5,6,6,7,7,8,8,9,9,10,10,11,11,12,12,13,13,14,14,15,15,16,16,17,17,18,18,19,19,20,20,21,21,22,22,23,23,24,24,25,25,26,26,27,27,28,28,29,29,30,30,31,31,32,32,33,33,34,34,35,35,36,36,37,37,38,38,39,39,40,40,41,41,42,42,43,43,44,44,45,45,46,46,47,47,48,48,49,49,50,50,51,51,52,52,53,53,54,54,55,55,56,56,57,57,58,58,59,59,60,60],"right_children":[2,4,6,8,10,12,14,16,18,20,22,24,26,28,30,32,34,36,38,40,42,44,46,48,50,52,54,56,58,60,62,64,66,68,70,72,74,76,78,80,82,84,86,88,90,92,94,96,98,100,102,104,106,108,110,112,114,116,118,120,122,-1,-1,-1,-1,-1,-1,-1,-1,-1,-1,-1,-1,-1,-1,-1,-1,-1,-1,-1,-1,-1,-1,-1,-1,-1,-1,-1,-1,-1,-1,-1,-1,-1,-1,-1,-1,-1,-1,-1,-1,-1,-1,-1,-1,-1,-1,-1,-1,-1,-1,-1,-1,-1,-1,-1,-1,-1,-1,-1,-1,-1,-1],"split_conditions":[1E0,5.498E-3,6.059E1,8.564E-1,6E-1,4.506E1,6.561E1,3.707E1,9.633E-1,9.633E-1,6.354E-1,4.382E1,9.013E-1,9.633E-1,1E0,1.944E-3,6.501E1,9.152E-1,5.556E-1,9.017E-1,1.0654E0,1.0544E2,1.003E2,7.438E-1,1.3664324E-4,1.0926959E-4,5.411E1,8.869E-1,1E0,1.9203061E-4,2.768E-1,3.6244404E1,1.1350321E-2,3.317E-3,2.117343E-3,6.753E1,2.6134E0,1.6661449E-1,8.101E-1,6.216E-1,3.5762E-2,1.2971809E0,3.636E-1,7.1E1,4.2674E4,1.5337266E0,1.037095E4,-1.2724446E-4,5.150237E-1,9.4E1,2.8565674E1,-9.310169E-4,5.257E1,-8.0795886E-5,5.564E1,3.372797E-2,3.724E-3,9.783E-1,1.1061E0,1E0,1.1107E0,1.8815374E-2,-7.71886E-2,-1.8421464E-2,4.493192E-2,-6.377403E-2,-2.0260938E-2,2.2044813E-2,5.7868385E-3,-6.142502E-3,-3.241015E-2,-1.0647633E-2,-4.3396953E-2,-4.7294166E-2,1.2608747E-2,-6.6818185E-2,5.0567776E-2,-9.186328E-3,-2.539311E-3,-5.8076777E-2,4.8971092E-3,-2.614895E-2,-7.255609E-2,3.161305E-2,5.1676184E-2,7.187959E-2,3.9398964E-2,-3.5012092E-2,9.242985E-4,-3.130877E-2,-7.9856314E-2,-3.2378968E-3,-3.305246E-2,-2.3599079E-2,7.611832E-3,3.017813E-2,6.6700177E-3,3.6004826E-2,-8.96982E-3,-5.638147E-2,2.1212345E-2,-1.933707E-2,1.4479332E-2,1.945199E-2,3.0388234E-3,-1.4332567E-2,1.1026831E-2,-1.005251E-2,-3.2557484E-2,-5.1506754E-2,1.1582333E-2,2.7156804E-2,3.4480838E-3,1.1449994E-2,-2.0348623E-2,3.2891862E-2,5.6989994E-2,2.5400862E-3,-3.4844372E-2,2.47617E-2,-4.138707E-2,3.9065275E-2,5.8502663E-2],"split_indices":[28,29,41,27,24,8,8,41,27,27,24,41,27,27,62,30,41,27,24,27,26,2,19,26,33,11,41,27,65,33,23,42,53,30,13,41,26,50,24,26,30,7,25,19,4,20,17,11,50,17,42,33,41,9,51,11,29,26,26,96,26,0,0,0,0,0,0,0,0,0,0,0,0,0,0,0,0,0,0,0,0,0,0,0,0,0,0,0,0,0,0,0,0,0,0,0,0,0,0,0,0,0,0,0,0,0,0,0,0,0,0,0,0,0,0,0,0,0,0,0,0,0,0],"split_type":[0,0,0,0,0,0,0,0,0,0,0,0,0,0,0,0,0,0,0,0,0,0,0,0,0,0,0,0,0,0,0,0,0,0,0,0,0,0,0,0,0,0,0,0,0,0,0,0,0,0,0,0,0,0,0,0,0,0,0,0,0,0,0,0,0,0,0,0,0,0,0,0,0,0,0,0,0,0,0,0,0,0,0,0,0,0,0,0,0,0,0,0,0,0,0,0,0,0,0,0,0,0,0,0,0,0,0,0,0,0,0,0,0,0,0,0,0,0,0,0,0,0,0],"sum_hessian":[2.059342E4,1.3841181E4,6.7522393E3,1.2183921E4,1.6572593E3,3.3300657E3,3.4221733E3,1.8314713E3,1.035245E4,6.893718E2,9.678875E2,1.0916755E3,2.2383901E3,2.8718572E3,5.503162E2,1.4389027E2,1.6875809E3,5.449083E3,4.903367E3,3.051481E2,3.8422375E2,1.1089731E2,8.569902E2,8.4107825E2,2.5059732E2,1.5562732E3,6.82117E2,2.2138655E3,6.579917E2,5.363068E2,1.400944E1,3.9613495E1,1.0427679E2,1.4907817E3,1.9679929E2,4.406151E3,1.0429319E3,2.073877E2,4.6959795E3,2.5754648E2,4.7601627E1,2.38628E2,1.4559573E2,9.43881E1,1.6509207E1,3.3465564E2,5.2233453E2,2.9139175E2,5.4968646E2,1.0203733E2,1.4855998E2,7.626685E2,7.9360474E2,4.980809E2,1.8403612E2,1.2971974E3,9.1666797E2,5.2327814E2,1.3471355E2,6.3113125E1,4.731937E2,5.0182834E0,8.991158E0,2.4539663E1,1.5073832E1,4.015556E1,6.412122E1,4.4566403E2,1.0451177E3,1.0988817E2,8.691112E1,4.112772E3,2.9337912E2,9.787775E2,6.415434E1,1.0893519E1,1.9649417E2,3.1020205E3,1.593959E3,1.600934E1,2.4153712E2,2.9942972E1,1.7658655E1,1.4646642E2,9.21616E1,1.1764088E2,2.7954855E1,4.3764286E1,5.0623814E1,6.5113897E0,9.997817E0,2.9407703E2,4.057861E1,3.2577633E1,4.897569E2,1.592031E2,1.3218867E2,5.3222363E2,1.7462835E1,7.7529025E0,9.4284424E1,1.0417153E2,4.438846E1,3.795647E2,3.8310382E2,4.5355115E2,3.400536E2,2.4056784E2,2.5751306E2,2.502564E1,1.5901047E2,1.1181755E3,1.7902184E2,7.270349E2,1.8963309E2,2.6627505E2,2.5700308E2,1.13424126E2,2.1289423E1,5.4887436E1,8.22569E0,2.0945088E2,2.637428E2],"tree_param":{"num_deleted":"0","num_feature":"104","num_nodes":"123","size_leaf_vector":"1"}},{"base_weights":[-3.5546354E-3,-4.647843E-2,2.9464683E-1,1.00239135E-1,-1.18504286E-1,5.232628E-1,-7.880181E-2,1.8992399E-1,-9.285923E-2,4.4774104E-2,-1.6276278E-1,7.4724846E-2,8.8094515E-1,-2.8209528E-1,9.952379E-2,1.4482436E-1,5.1781374E-1,-1.2132677E-1,6.7071E-1,2.0451333E-1,-9.613126E-1,-2.6815904E-2,-4.536203E-1,2.915858E-1,-3.1380087E-1,5.7916343E-1,1.1497284E0,-6.021009E-1,-1.792807E-1,-1.0755202E-1,2.8163287E-1,2.274691E-1,-5.5144954E-2,2.4006855E-1,6.730437E-1,-7.734603E-2,-5.6860954E-1,-3.7939455E-2,8.4754384E-1,5.661717E-1,-1.5839644E-1,-1.0251396E0,4.9441394E-1,-1.802413E-1,1.7569908E-1,-1.9237375E-2,-7.7804184E-1,2.1725127E-1,8.003831E-1,-5.124266E-1,4.505905E-1,3.470463E-1,6.863805E-1,8.262708E-1,1.3377969E0,-7.3825294E-1,5.797541E-1,-1.1518393E-1,-8.425819E-1,7.547923E-1,-1.5631032E-1,-3.5644746E-1,3.4680188E-1,2.6861915E-2,7.939282E-3,-1.4229367E-2,3.38395E-3,3.4316156E-2,-7.535069E-3,1.8865561E-2,4.259555E-2,-8.320896E-3,5.218059E-3,2.8834036E-2,-3.385036E-2,7.4001834E-2,2.9921645E-2,4.490465E-2,2.2043524E-2,-1.043606E-2,1.9798342E-2,-5.383153E-2,1.4408904E-2,5.294999E-2,-1.2535909E-2,-1.7140923E-2,1.0549602E-3,2.1160834E-2,-4.0753772E-3,4.6038893E-3,-2.0169524E-2,-2.8495172E-2,-5.5405617E-2,1.3624281E-2,-4.444414E-2,6.0708832E-2,1.7390264E-2,1.4592627E-2,-3.1679437E-2,-3.0187404E-2,3.864604E-2,3.1230364E-2,3.5990574E-3,4.406159E-2,2.6718227E-2,1.4434048E-3,4.3113187E-2,6.1547827E-2,7.692832E-2,-6.498514E-2,-2.8296972E-2,6.062456E-2,-1.2871357E-2,-1.6963646E-2,2.7254007E-3,-7.4353494E-2,-1.8030973E-2,2.150596E-3,6.682986E-2,1.0308124E-3,-2.2842098E-2,-4.9400765E-2,9.100139E-3,2.058137E-2,-1.1384255E-2],"categories":[],"categories_nodes":[],"categories_segments":[],"categories_sizes":[],"default_left":[0,0,0,0,0,0,0,1,1,0,0,0,1,0,0,0,0,1,0,0,1,1,1,0,0,0,0,1,0,0,1,0,1,0,0,0,0,0,0,0,1,1,0,0,0,1,0,0,0,0,0,0,1,0,0,1,0,0,0,0,0,0,1,0,0,0,0,0,0,0,0,0,0,0,0,0,0,0,0,0,0,0,0,0,0,0,0,0,0,0,0,0,0,0,0,0,0,0,0,0,0,0,0,0,0,0,0,0,0,0,0,0,0,0,0,0,0,0,0,0,0,0,0,0,0],"id":6,"left_children":[1,3,5,7,9,11,13,15,17,19,21,23,25,27,29,31,33,35,37,39,41,43,45,47,49,51,53,55,57,59,61,63,65,67,69,71,73,-1,75,77,79,81,83,85,87,89,91,93,95,97,99,101,103,105,107,109,111,113,115,117,119,121,123,-1,-1,-1,-1,-1,-1,-1,-1,-1,-1,-1,-1,-1,-1,-1,-1,-1,-1,-1,-1,-1,-1,-1,-1,-1,-1,-1,-1,-1,-1,-1,-1,-1,-1,-1,-1,-1,-1,-1,-1,-1,-1,-1,-1,-1,-1,-1,-1,-1,-1,-1,-1,-1,-1,-1,-1,-1,-1,-1,-1,-1,-1],"loss_changes":[2.6249664E2,1.8945575E2,2.2035306E2,1.0225296E2,8.690312E1,2.5674915E2,3.558187E1,5.9541245E1,4.0793404E1,4.1244098E2,3.7406955E2,6.00204E1,7.156439E1,1.4978668E1,1.9759842E1,5.8605263E1,2.0838272E1,3.5492622E1,1.7698635E1,2.9073834E2,3.3179657E1,2.0038399E2,4.2463452E2,1.7110355E1,3.8988342E1,1.02517395E1,2.7484253E1,1.8301613E1,1.47181225E1,1.0441863E1,1.1710777E1,5.3292267E1,2.9259455E1,3.0826134E1,1.6176758E1,2.6656326E1,2.0448593E1,0E0,8.649197E0,4.574292E1,3.0941055E1,2.3112946E1,6.763078E0,1.20114395E2,1.7701575E2,5.5172756E1,1.1787537E2,2.4687895E1,1.0417709E1,1.9975613E1,1.8540619E1,1.0277401E1,8.039139E0,5.0094376E0,4.446106E0,8.943089E0,6.687011E0,1.2145693E1,8.952429E0,5.4550533E0,1.2410393E1,9.128805E0,9.5282955E0,0E0,0E0,0E0,0E0,0E0,0E0,0E0,0E0,0E0,0E0,0E0,0E0,0E0,0E0,0E0,0E0,0E0,0E0,0E0,0E0,0E0,0E0,0E0,0E0,0E0,0E0,0E0,0E0,0E0,0E0,0E0,0E0,0E0,0E0,0E0,0E0,0E0,0E0,0E0,0E0,0E0,0E0,0E0,0E0,0E0,0E0,0E0,0E0,0E0,0E0,0E0,0E0,0E0,0E0,0E0,0E0,0E0,0E0,0E0,0E0,0E0,0E0],"parents":[2147483647,0,0,1,1,2,2,3,3,4,4,5,5,6,6,7,7,8,8,9,9,10,10,11,11,12,12,13,13,14,14,15,15,16,16,17,17,18,18,19,19,20,20,21,21,22,22,23,23,24,24,25,25,26,26,27,27,28,28,29,29,30,30,31,31,32,32,33,33,34,34,35,35,36,36,38,38,39,39,40,40,41,41,42,42,43,43,44,44,45,45,46,46,47,47,48,48,49,49,50,50,51,51,52,52,53,53,54,54,55,55,56,56,57,57,58,58,59,59,60,60,61,61,62,62],"right_children":[2,4,6,8,10,12,14,16,18,20,22,24,26,28,30,32,34,36,38,40,42,44,46,48,50,52,54,56,58,60,62,64,66,68,70,72,74,-1,76,78,80,82,84,86,88,90,92,94,96,98,100,102,104,106,108,110,112,114,116,118,120,122,124,-1,-1,-1,-1,-1,-1,-1,-1,-1,-1,-1,-1,-1,-1,-1,-1,-1,-1,-1,-1,-1,-1,-1,-1,-1,-1,-1,-1,-1,-1,-1,-1,-1,-1,-1,-1,-1,-1,-1,-1,-1,-1,-1,-1,-1,-1,-1,-1,-1,-1,-1,-1,-1,-1,-1,-1,-1,-1,-1,-1,-1,-1],"split_conditions":[1E0,8.793E-1,1E0,2.6128061E1,4.33E1,9.633E-1,7.195E-1,1.5478E0,2.2588E0,1E0,1E0,8.779E-1,4.082E-1,6.354E-1,7.2195554E-1,1E0,5.306E1,4.6797794E1,3.765E1,1E0,4.0043447E-5,5.715E1,8.444613E-5,1.6546E0,1E0,8.134825E-3,9.595E-1,3.5189938E1,6.329E1,1.0750744E1,1.3957E-2,8.282E-1,7.627E-1,1E0,1.9272047E1,1E0,8E-4,-3.7939455E-2,1E0,3.466E1,5.532E1,5.618E1,3.816E1,5.889E1,1E0,5.202E1,9.109E-1,7.633E-1,1E0,8.76E-2,4.427E1,6.318E-3,4.847E1,4E-1,1.4335E0,2.4127057E-1,6.184E-1,-1.6681268E-3,6.786E-1,1.17052115E-1,1.62E1,1.085E-1,3.6770298E1,2.6861915E-2,7.939282E-3,-1.4229367E-2,3.38395E-3,3.4316156E-2,-7.535069E-3,1.8865561E-2,4.259555E-2,-8.320896E-3,5.218059E-3,2.8834036E-2,-3.385036E-2,7.4001834E-2,2.9921645E-2,4.490465E-2,2.2043524E-2,-1.043606E-2,1.9798342E-2,-5.383153E-2,1.4408904E-2,5.294999E-2,-1.2535909E-2,-1.7140923E-2,1.0549602E-3,2.1160834E-2,-4.0753772E-3,4.6038893E-3,-2.0169524E-2,-2.8495172E-2,-5.5405617E-2,1.3624281E-2,-4.444414E-2,6.0708832E-2,1.7390264E-2,1.4592627E-2,-3.1679437E-2,-3.0187404E-2,3.864604E-2,3.1230364E-2,3.5990574E-3,4.406159E-2,2.6718227E-2,1.4434048E-3,4.3113187E-2,6.1547827E-2,7.692832E-2,-6.498514E-2,-2.8296972E-2,6.062456E-2,-1.2871357E-2,-1.6963646E-2,2.7254007E-3,-7.4353494E-2,-1.8030973E-2,2.150596E-3,6.682986E-2,1.0308124E-3,-2.2842098E-2,-4.9400765E-2,9.100139E-3,2.058137E-2,-1.1384255E-2],"split_indices":[77,27,65,12,8,27,24,26,26,61,62,27,23,24,21,79,41,12,41,65,53,8,9,26,64,13,26,12,8,12,30,27,26,61,32,76,29,0,82,8,41,41,51,41,65,41,27,23,61,23,8,29,8,22,26,20,24,9,24,9,22,25,12,0,0,0,0,0,0,0,0,0,0,0,0,0,0,0,0,0,0,0,0,0,0,0,0,0,0,0,0,0,0,0,0,0,0,0,0,0,0,0,0,0,0,0,0,0,0,0,0,0,0,0,0,0,0,0,0,0,0,0,0,0,0],"split_type":[0,0,0,0,0,0,0,0,0,0,0,0,0,0,0,0,0,0,0,0,0,0,0,0,0,0,0,0,0,0,0,0,0,0,0,0,0,0,0,0,0,0,0,0,0,0,0,0,0,0,0,0,0,0,0,0,0,0,0,0,0,0,0,0,0,0,0,0,0,0,0,0,0,0,0,0,0,0,0,0,0,0,0,0,0,0,0,0,0,0,0,0,0,0,0,0,0,0,0,0,0,0,0,0,0,0,0,0,0,0,0,0,0,0,0,0,0,0,0,0,0,0,0,0,0],"sum_hessian":[2.0505576E4,1.7926098E4,2.5794792E3,5.9024146E3,1.2023683E4,1.5997505E3,9.797286E2,4.0304717E3,1.8719427E3,2.5641204E3,9.4595625E3,7.1027106E2,8.894795E2,4.5754245E2,5.2218616E2,3.5443984E3,4.8607306E2,1.8054719E3,6.647083E1,2.213477E3,3.5064328E2,6.4472217E3,3.0123408E3,4.5599866E2,2.542724E2,4.2050452E2,4.6897495E2,1.1007693E2,3.474655E2,2.4453517E2,2.7765097E2,2.5078137E3,1.0365847E3,1.7517961E2,3.1089346E2,1.6449036E3,1.6056831E2,6.955181E0,5.9515656E1,1.1083695E3,1.1051075E3,3.361983E2,1.4444985E1,3.6682585E3,2.7789634E3,1.288358E3,1.7239828E3,3.9911548E2,5.688319E1,2.0208945E2,5.218295E1,1.342026E2,2.863019E2,1.7440703E2,2.9456793E2,9.904239E1,1.1034536E1,3.1791782E2,2.9547697E1,1.231155E1,2.3222363E2,2.531529E1,2.523357E2,4.538924E2,2.0539214E3,3.6096463E2,6.756201E2,8.143056E1,9.3749054E1,1.1834148E2,1.9255197E2,1.1038744E3,5.410292E2,1.3509695E1,1.4705862E2,1.5420846E1,4.409481E1,3.0205698E2,8.063125E2,1.01370734E3,9.140024E1,3.2368777E2,1.2510534E1,7.9784775E0,6.4665084E0,2.0291062E3,1.6391522E3,1.4158263E3,1.3631372E3,9.994966E2,2.888615E2,1.0589491E3,6.650337E2,3.8085147E2,1.8263998E1,2.8835754E1,2.8047438E1,2.627385E1,1.758156E2,1.2013582E1,4.016937E1,6.616574E1,6.8036865E1,1.2337068E2,1.6293123E2,7.610169E0,1.6679686E2,1.9691171E2,9.765621E1,2.1722193E1,7.73202E1,6.0293126E0,5.0052238E0,1.3656963E2,1.813482E2,1.1749983E1,1.7797712E1,6.0202737E0,6.291277E0,1.4675726E2,8.5466354E1,1.1266031E1,1.404926E1,2.270039E2,2.5331783E1],"tree_param":{"num_deleted":"0","num_feature":"104","num_nodes":"125","size_leaf_vector":"1"}},{"base_weights":[1.2427997E-3,-6.0923193E-2,9.0290546E-1,-1.7756197E-1,2.2091113E-1,7.045932E-1,1.2452484E0,9.639611E-2,-2.2813895E-1,5.232553E-1,1.3920964E-1,6.356745E-1,1.0765446E0,7.952321E-1,1.3961948E0,-5.3095835E-1,1.23625875E-1,-3.9034155E-1,-1.0616028E-1,5.8492243E-1,-2.3030367E-1,4.3934673E-2,5.375963E-1,1.9965991E-1,6.695805E-1,5.1359034E-1,1.2827556E0,-2.175914E-2,8.5453606E-1,1.2882876E0,1.4934729E0,3.293996E-1,-1.0025786E0,1.6315767E-1,-2.9454225E-1,-2.4469288E-1,-8.448885E-1,-1.4865997E-1,4.404E-3,8.269404E-1,4.7364613E-1,3.818243E-1,-6.576786E-1,1.6190252E-1,-2.6501906E-1,6.349162E-1,1.3233641E-1,4.3395945E-1,-3.26798E-1,6.2046736E-1,9.3465936E-1,1.0456109E0,8.030757E-2,3.3501323E-2,1.3221908E0,4.4085328E-2,9.406566E-1,1.3280965E0,7.978676E-1,4.916086E-2,7.555897E-2,-3.426921E-2,3.2606862E-2,-6.070566E-2,3.1484004E-2,3.6886933E-5,1.3032372E-2,-7.177555E-3,-4.1907735E-2,-1.0190724E-2,-4.0681854E-2,-3.4166943E-2,-5.770738E-2,1.8785874E-3,-9.118783E-3,6.0004736E-3,-3.3848353E-3,1.865578E-2,4.5566816E-2,3.324477E-2,1.8061066E-2,6.744461E-2,-2.512995E-3,-6.548838E-2,-1.7465351E-2,2.0305749E-2,3.13885E-3,-9.027062E-3,-3.3356067E-2,1.6628703E-2,4.125088E-2,-1.5771039E-2,2.6514513E-2,1.1963977E-2,4.8797853E-2,-4.277661E-2,2.2962509E-2,3.3005465E-2,-3.2326975E-3,6.4171635E-2,3.591028E-2,1.8287605E-2,7.387241E-2,-1.0860381E-2,3.795532E-2,3.683717E-2,6.907508E-2,2.9339606E-2,-2.6365284E-2,5.3320806E-2,2.5323546E-2,6.71857E-2,3.58649E-2,1.0849729E-2,5.2342027E-2],"categories":[],"categories_nodes":[],"categories_segments":[],"categories_sizes":[],"default_left":[0,1,1,0,0,1,0,0,0,1,1,0,0,0,0,0,1,0,1,0,0,0,1,0,0,0,0,0,1,0,0,0,0,1,0,1,0,0,1,0,0,0,1,0,0,0,0,0,0,0,0,0,0,0,0,0,0,0,0,0,0,0,0,0,0,0,0,0,0,0,0,0,0,0,0,0,0,0,0,0,0,0,0,0,0,0,0,0,0,0,0,0,0,0,0,0,0,0,0,0,0,0,0,0,0,0,0,0,0,0,0,0,0,0,0],"id":7,"left_children":[1,3,5,7,9,11,13,15,17,19,21,23,25,27,29,31,33,35,37,39,41,43,45,47,49,51,53,-1,55,57,59,61,63,65,67,69,71,73,75,77,79,81,83,85,87,89,91,93,95,97,99,101,103,-1,105,107,109,111,113,-1,-1,-1,-1,-1,-1,-1,-1,-1,-1,-1,-1,-1,-1,-1,-1,-1,-1,-1,-1,-1,-1,-1,-1,-1,-1,-1,-1,-1,-1,-1,-1,-1,-1,-1,-1,-1,-1,-1,-1,-1,-1,-1,-1,-1,-1,-1,-1,-1,-1,-1,-1,-1,-1,-1,-1],"loss_changes":[1.1509238E3,6.3147797E2,8.903381E1,1.8827591E2,1.3882782E2,2.0871185E1,3.1798828E1,3.6248207E1,2.2688354E2,5.5707123E1,1.6805356E2,1.039032E1,1.4433502E1,9.420624E0,1.8701782E0,3.6158234E1,3.3618793E1,3.256911E2,3.0768341E1,2.9385834E1,2.4104301E1,1.3032655E2,3.3618652E1,6.653214E0,8.013611E0,8.335048E0,1.397171E0,0E0,8.239494E0,2.42807E0,1.7492676E-1,1.09327545E1,2.0542492E1,2.9388653E1,1.4305878E1,8.657222E1,5.8872192E1,2.9704643E1,1.5170133E1,1.2947357E1,1.6096024E1,1.5996203E1,1.0413095E1,6.2612183E1,3.3445145E1,3.931476E1,2.9877363E1,3.6663623E0,7.3869333E0,1.5248703E1,6.7186813E0,4.248108E0,4.4487863E0,0E0,2.0289764E0,4.1687727E0,5.313263E0,5.979614E-1,2.0748177E0,0E0,0E0,0E0,0E0,0E0,0E0,0E0,0E0,0E0,0E0,0E0,0E0,0E0,0E0,0E0,0E0,0E0,0E0,0E0,0E0,0E0,0E0,0E0,0E0,0E0,0E0,0E0,0E0,0E0,0E0,0E0,0E0,0E0,0E0,0E0,0E0,0E0,0E0,0E0,0E0,0E0,0E0,0E0,0E0,0E0,0E0,0E0,0E0,0E0,0E0,0E0,0E0,0E0,0E0,0E0,0E0],"parents":[2147483647,0,0,1,1,2,2,3,3,4,4,5,5,6,6,7,7,8,8,9,9,10,10,11,11,12,12,13,13,14,14,15,15,16,16,17,17,18,18,19,19,20,20,21,21,22,22,23,23,24,24,25,25,26,26,28,28,29,29,30,30,31,31,32,32,33,33,34,34,35,35,36,36,37,37,38,38,39,39,40,40,41,41,42,42,43,43,44,44,45,45,46,46,47,47,48,48,49,49,50,50,51,51,52,52,54,54,55,55,56,56,57,57,58,58],"right_children":[2,4,6,8,10,12,14,16,18,20,22,24,26,28,30,32,34,36,38,40,42,44,46,48,50,52,54,-1,56,58,60,62,64,66,68,70,72,74,76,78,80,82,84,86,88,90,92,94,96,98,100,102,104,-1,106,108,110,112,114,-1,-1,-1,-1,-1,-1,-1,-1,-1,-1,-1,-1,-1,-1,-1,-1,-1,-1,-1,-1,-1,-1,-1,-1,-1,-1,-1,-1,-1,-1,-1,-1,-1,-1,-1,-1,-1,-1,-1,-1,-1,-1,-1,-1,-1,-1,-1,-1,-1,-1,-1,-1,-1,-1,-1,-1],"split_conditions":[1E0,1E0,5.543E-1,8.572E-1,4.359E1,1.2466E0,9.366E-1,3.367E1,0E0,4.813E1,6.182E1,4.977E-1,2.5E-1,1E0,1.336E0,1.291959E-3,6.625E1,9.087E-1,8.101E-1,8.751E-1,8.765E-1,9.017E-1,3.140322E1,4.626E-1,6.085648E-3,5.986E-3,1.4E0,-2.175914E-2,6.8E0,1.0820684E2,7.348811E-1,8.6328E-1,2.19E1,-1.8100649E-4,1.716E-3,6.753E1,9.289E-1,9.268E-1,1.5683143E1,3.3E0,3.67E1,9.6739197E-1,3.64E1,8.587E-1,9.323E-1,4.644921E-4,7.084E1,4.427E-1,7.406E-3,9.865758E1,2.4E3,1.4436E0,6.036E1,3.3501323E-2,1.58E1,1.319E-1,1E0,1.2107874E0,1.14991E2,4.916086E-2,7.555897E-2,-3.426921E-2,3.2606862E-2,-6.070566E-2,3.1484004E-2,3.6886933E-5,1.3032372E-2,-7.177555E-3,-4.1907735E-2,-1.0190724E-2,-4.0681854E-2,-3.4166943E-2,-5.770738E-2,1.8785874E-3,-9.118783E-3,6.0004736E-3,-3.3848353E-3,1.865578E-2,4.5566816E-2,3.324477E-2,1.8061066E-2,6.744461E-2,-2.512995E-3,-6.548838E-2,-1.7465351E-2,2.0305749E-2,3.13885E-3,-9.027062E-3,-3.3356067E-2,1.6628703E-2,4.125088E-2,-1.5771039E-2,2.6514513E-2,1.1963977E-2,4.8797853E-2,-4.277661E-2,2.2962509E-2,3.3005465E-2,-3.2326975E-3,6.4171635E-2,3.591028E-2,1.8287605E-2,7.387241E-2,-1.0860381E-2,3.795532E-2,3.683717E-2,6.907508E-2,2.9339606E-2,-2.6365284E-2,5.3320806E-2,2.5323546E-2,6.71857E-2,3.58649E-2,1.0849729E-2,5.2342027E-2],"split_indices":[63,28,23,27,8,26,26,41,28,41,41,26,23,22,26,13,41,27,24,27,27,27,52,26,11,29,22,0,18,6,7,34,22,10,29,41,27,27,42,22,8,39,51,27,27,43,41,26,29,6,19,26,8,0,18,24,74,13,1,0,0,0,0,0,0,0,0,0,0,0,0,0,0,0,0,0,0,0,0,0,0,0,0,0,0,0,0,0,0,0,0,0,0,0,0,0,0,0,0,0,0,0,0,0,0,0,0,0,0,0,0,0,0,0,0],"split_type":[0,0,0,0,0,0,0,0,0,0,0,0,0,0,0,0,0,0,0,0,0,0,0,0,0,0,0,0,0,0,0,0,0,0,0,0,0,0,0,0,0,0,0,0,0,0,0,0,0,0,0,0,0,0,0,0,0,0,0,0,0,0,0,0,0,0,0,0,0,0,0,0,0,0,0,0,0,0,0,0,0,0,0,0,0,0,0,0,0,0,0,0,0,0,0,0,0,0,0,0,0,0,0,0,0,0,0,0,0,0,0,0,0,0,0],"sum_hessian":[2.053089E4,1.9207541E4,1.3233499E3,1.35854795E4,5.62206E3,8.398818E2,4.8346805E2,2.1170803E3,1.1468399E4,1.1948816E3,4.4271787E3,7.108734E2,1.2900838E2,1.2300914E2,3.604589E2,8.729797E1,2.0297823E3,4.9216187E3,6.546781E3,1.1047026E3,9.0179054E1,3.5736445E3,8.53534E2,5.178848E1,6.590849E2,3.5522594E1,9.348578E1,5.3647733E0,1.1764437E2,1.7764597E2,1.8281294E2,3.1016811E1,5.6281162E1,1.8550261E3,1.7475629E2,3.7284612E3,1.1931576E3,4.728755E3,1.8180258E3,3.4592004E2,7.587826E2,3.7119488E1,5.3059566E1,2.5865122E3,9.871324E2,6.877982E2,1.657358E2,3.596015E1,1.5828328E1,5.5887805E2,1.0020686E2,1.5310215E1,2.0212381E1,6.7407665E0,8.674501E1,1.1445603E1,1.0619876E2,1.6272873E2,1.4917228E1,8.026884E0,1.7478606E2,7.213077E0,2.3803734E1,5.0050926E1,6.2302365E0,6.9618134E2,1.1588447E3,1.3775749E2,3.6998787E1,3.4797974E3,2.4866374E2,7.8585516E2,4.073025E2,7.248521E2,4.003903E3,6.9807526E2,1.1199504E3,5.509218E1,2.9082785E2,2.7909372E2,4.7968884E2,1.080793E1,2.6311558E1,1.5993022E1,3.7066544E1,7.4586096E2,1.8406512E3,8.1694836E2,1.7018402E2,2.6657693E2,4.2122128E2,7.808546E1,8.7650345E1,2.7517593E1,8.442557E0,9.410184E0,6.4181437E0,5.28344E2,3.0534088E1,3.648653E1,6.3720333E1,6.664691E0,8.645524E0,1.4525789E1,5.6865916E0,9.214249E0,7.753076E1,5.85632E0,5.589283E0,8.1218216E1,2.4980547E1,1.5750163E2,5.2271066E0,5.037024E0,9.880204E0],"tree_param":{"num_deleted":"0","num_feature":"104","num_nodes":"115","size_leaf_vector":"1"}},{"base_weights":[-1.8686384E-3,-6.2272992E-2,8.742657E-1,-8.646849E-2,1.4318968E-1,6.8286955E-1,1.2001786E0,-7.528681E-2,-4.830485E-1,6.720329E-2,4.0048254E-1,4.961423E-1,8.245542E-1,7.4903774E-1,1.3618937E0,-1.9496862E-2,-1.2258692E-1,-5.4044694E-1,1.7656085E-1,-1.02246575E-1,3.928493E-1,-7.051399E-2,7.5703925E-1,-2.5358337E-1,5.405483E-1,7.2701967E-1,1.1827291E0,-8.877724E-3,8.052061E-1,1.2487879E0,7.3446415E-2,-2.575469E-1,3.0600482E-1,5.1615972E-2,-3.9390615E-1,-4.720128E-1,-1.0678176E0,8.221303E-1,-3.3236057E-1,-4.698066E-1,4.1088283E-2,8.240584E-1,8.073536E-2,1.97089E-1,-4.6404713E-1,-3.1921715E-1,8.962132E-1,2.8765043E-2,-1.0070626E0,2.4667699E-2,5.9849745E-1,2.3650737E-1,7.615944E-1,1.0114923E0,1.3291336E0,7.2230065E-1,7.214561E-2,1.2901311E0,7.5683904E-1,-2.2102205E-2,-4.114105E-3,2.2550348E-2,-2.0085406E-3,-3.7957807E-3,1.0661125E-2,-7.898605E-3,-2.9042264E-2,-3.7934761E-3,-2.9069746E-2,-6.284441E-2,-2.405797E-3,6.936919E-2,9.135831E-3,-4.0538188E-2,5.4664236E-2,-2.6940474E-2,1.4014306E-2,-7.901028E-4,2.6118202E-2,4.3763068E-2,-5.1643092E-2,1.4854327E-2,-1.1147924E-2,-2.7790159E-2,1.9507231E-2,-5.3448398E-2,-5.7270518E-3,-4.4506196E-2,1.793584E-2,1.0029725E-2,5.13438E-2,-2.9550163E-2,-6.306559E-2,-3.5050545E-2,2.5967851E-2,-3.9070565E-3,3.161296E-2,-2.0203585E-2,3.71244E-2,6.476502E-2,3.6472406E-2,7.128085E-2,3.811449E-2,3.739855E-2,7.267341E-2,-1.58042E-2,4.0689863E-2,5.6372344E-2,7.014713E-2,5.880446E-2,-4.79E-3],"categories":[],"categories_nodes":[],"categories_segments":[],"categories_sizes":[],"default_left":[0,1,1,1,0,1,0,1,0,0,0,0,0,0,0,0,0,1,1,0,0,1,0,1,0,0,1,0,0,0,0,0,0,1,1,0,0,0,0,0,1,1,1,0,1,0,0,0,0,0,0,0,0,0,0,0,0,0,0,0,0,0,0,0,0,0,0,0,0,0,0,0,0,0,0,0,0,0,0,0,0,0,0,0,0,0,0,0,0,0,0,0,0,0,0,0,0,0,0,0,0,0,0,0,0,0,0,0,0,0,0],"id":8,"left_children":[1,3,5,7,9,11,13,15,17,19,21,23,25,27,29,31,33,35,37,39,41,43,45,47,49,51,53,-1,55,57,-1,59,61,63,65,67,69,71,73,75,77,79,81,83,85,87,89,-1,91,93,95,97,99,101,103,105,-1,107,109,-1,-1,-1,-1,-1,-1,-1,-1,-1,-1,-1,-1,-1,-1,-1,-1,-1,-1,-1,-1,-1,-1,-1,-1,-1,-1,-1,-1,-1,-1,-1,-1,-1,-1,-1,-1,-1,-1,-1,-1,-1,-1,-1,-1,-1,-1,-1,-1,-1,-1,-1,-1],"loss_changes":[1.0858517E3,9.543324E1,8.172888E1,7.611546E1,3.951639E1,2.1709778E1,3.460431E1,4.4074997E1,1.7917564E1,8.626848E1,7.74627E1,1.2228943E1,1.5693756E1,6.9645386E0,2.5023804E0,5.940045E2,4.272525E2,1.5133629E1,1.2901518E1,5.4211227E1,7.194194E1,2.1102507E1,3.959433E1,1.3688697E1,1.0245514E1,6.1800537E0,1.1580963E0,0E0,5.500862E0,2.7017822E0,0E0,1.431388E2,1.6256448E2,1.1348741E2,1.5579858E2,1.66521E1,9.381863E0,5.974558E0,1.6031218E1,1.5091961E1,2.0295496E1,2.2253906E1,2.0532406E1,1.7580465E1,1.7014334E1,1.2234972E1,2.0939102E1,0E0,4.561224E-1,1.3180878E1,7.0971375E0,8.773925E0,5.057968E0,4.0932503E0,2.5711594E0,1.0852917E1,0E0,1.453949E0,5.9892054E0,0E0,0E0,0E0,0E0,0E0,0E0,0E0,0E0,0E0,0E0,0E0,0E0,0E0,0E0,0E0,0E0,0E0,0E0,0E0,0E0,0E0,0E0,0E0,0E0,0E0,0E0,0E0,0E0,0E0,0E0,0E0,0E0,0E0,0E0,0E0,0E0,0E0,0E0,0E0,0E0,0E0,0E0,0E0,0E0,0E0,0E0,0E0,0E0,0E0,0E0,0E0,0E0],"parents":[2147483647,0,0,1,1,2,2,3,3,4,4,5,5,6,6,7,7,8,8,9,9,10,10,11,11,12,12,13,13,14,14,15,15,16,16,17,17,18,18,19,19,20,20,21,21,22,22,23,23,24,24,25,25,26,26,28,28,29,29,31,31,32,32,33,33,34,34,35,35,36,36,37,37,38,38,39,39,40,40,41,41,42,42,43,43,44,44,45,45,46,46,48,48,49,49,50,50,51,51,52,52,53,53,54,54,55,55,57,57,58,58],"right_children":[2,4,6,8,10,12,14,16,18,20,22,24,26,28,30,32,34,36,38,40,42,44,46,48,50,52,54,-1,56,58,-1,60,62,64,66,68,70,72,74,76,78,80,82,84,86,88,90,-1,92,94,96,98,100,102,104,106,-1,108,110,-1,-1,-1,-1,-1,-1,-1,-1,-1,-1,-1,-1,-1,-1,-1,-1,-1,-1,-1,-1,-1,-1,-1,-1,-1,-1,-1,-1,-1,-1,-1,-1,-1,-1,-1,-1,-1,-1,-1,-1,-1,-1,-1,-1,-1,-1,-1,-1,-1,-1,-1,-1],"split_conditions":[1E0,1.6546E0,5.543E-1,4.6797794E1,6.295E1,2.544E-1,9.215E-1,5.056E1,8.532E-1,1E0,1E0,1.319E-1,1.2347E0,1.9E0,1.336E0,1E0,1E0,9.707066E-4,1.0902177E0,4.642E1,4.399E1,5.848E1,5.257E1,4.9237052E-1,5.43E-1,1.1002452E-1,7.67E1,-8.877724E-3,8.512E-1,1.2995E0,7.3446415E-2,4.912E1,5.445E1,5.283E1,4.926E1,4.04E-2,1E0,6.5085E2,1.0485762E2,5.638E1,5.718E1,6.094E1,5.135E1,2.143E-1,2.058151E1,3.148E-1,1.4661858E-5,2.8765043E-2,3.638885E4,2.217599E1,8.3169013E-1,-1.3032333E-3,6.7340314E-2,4.2270203E-3,8.9E0,1.52E1,7.214561E-2,1.29507E0,3.87066E4,-2.2102205E-2,-4.114105E-3,2.2550348E-2,-2.0085406E-3,-3.7957807E-3,1.0661125E-2,-7.898605E-3,-2.9042264E-2,-3.7934761E-3,-2.9069746E-2,-6.284441E-2,-2.405797E-3,6.936919E-2,9.135831E-3,-4.0538188E-2,5.4664236E-2,-2.6940474E-2,1.4014306E-2,-7.901028E-4,2.6118202E-2,4.3763068E-2,-5.1643092E-2,1.4854327E-2,-1.1147924E-2,-2.7790159E-2,1.9507231E-2,-5.3448398E-2,-5.7270518E-3,-4.4506196E-2,1.793584E-2,1.0029725E-2,5.13438E-2,-2.9550163E-2,-6.306559E-2,-3.5050545E-2,2.5967851E-2,-3.9070565E-3,3.161296E-2,-2.0203585E-2,3.71244E-2,6.476502E-2,3.6472406E-2,7.128085E-2,3.811449E-2,3.739855E-2,7.267341E-2,-1.58042E-2,4.0689863E-2,5.6372344E-2,7.014713E-2,5.880446E-2,-4.79E-3],"split_indices":[63,26,23,12,8,23,26,8,24,62,61,24,26,22,26,62,62,53,38,41,8,31,41,20,26,21,19,0,23,26,0,31,31,31,31,25,61,17,36,31,51,41,31,24,32,24,43,0,17,12,7,10,20,13,22,19,0,1,17,0,0,0,0,0,0,0,0,0,0,0,0,0,0,0,0,0,0,0,0,0,0,0,0,0,0,0,0,0,0,0,0,0,0,0,0,0,0,0,0,0,0,0,0,0,0,0,0,0,0,0,0],"split_type":[0,0,0,0,0,0,0,0,0,0,0,0,0,0,0,0,0,0,0,0,0,0,0,0,0,0,0,0,0,0,0,0,0,0,0,0,0,0,0,0,0,0,0,0,0,0,0,0,0,0,0,0,0,0,0,0,0,0,0,0,0,0,0,0,0,0,0,0,0,0,0,0,0,0,0,0,0,0,0,0,0,0,0,0,0,0,0,0,0,0,0,0,0,0,0,0,0,0,0,0,0,0,0,0,0,0,0,0,0,0,0],"sum_hessian":[2.0515809E4,1.9193459E4,1.3223483E3,1.7171863E4,2.0215969E3,8.350505E2,4.872978E2,1.6702133E4,4.6973105E2,1.5616543E3,4.5994272E2,3.6220267E2,4.728478E2,1.300699E2,3.5722787E2,7.663973E3,9.038159E3,4.3229398E2,3.743707E1,1.0276189E3,5.3403534E2,1.9851495E2,2.6142776E2,1.9990145E1,3.4221252E2,3.7402655E2,9.882126E1,7.3104615E0,1.2275944E2,1.7984694E2,1.7738095E2,4.4267524E3,3.2372205E3,5.504656E3,3.5335032E3,3.8431802E2,4.7975937E1,1.6231672E1,2.1205399E1,2.876661E2,7.399528E2,2.235474E2,3.1048795E2,1.1846072E2,8.0054245E1,2.9786896E1,2.3164087E2,9.631374E0,1.0358769E1,3.470285E1,3.0750967E2,2.5144302E1,3.4888226E2,4.919315E1,4.9628113E1,1.1052341E2,1.22360325E1,1.6440765E2,1.5439285E1,2.155834E3,2.2709185E3,2.2813372E3,9.558834E2,3.0769863E3,2.4276694E3,1.5628683E3,1.9706349E3,8.352256E1,3.0079547E2,4.027554E1,7.700398E0,7.99456E0,8.237113E0,1.6200354E1,5.0050454E0,2.6369028E2,2.3975834E1,6.625962E2,7.735659E1,2.1806316E2,5.484242E0,1.8133023E2,1.2915771E2,2.3792814E1,9.46679E1,2.8561626E1,5.149262E1,1.5999925E1,1.378697E1,3.7031097E1,1.9460977E2,5.190089E0,5.1686797E0,1.389811E1,2.0804739E1,1.4551889E1,2.929578E2,1.1185146E1,1.3959155E1,1.7587814E1,3.3129443E2,1.6707653E1,3.2485493E1,9.982736E0,3.964538E1,8.751297E0,1.0177211E2,7.182443E1,9.258321E1,1.009576E1,5.3435254E0],"tree_param":{"num_deleted":"0","num_feature":"104","num_nodes":"111","size_leaf_vector":"1"}},{"base_weights":[-2.075801E-3,-5.754094E-2,8.2188785E-1,-1.6610707E-1,2.0378567E-1,5.1303416E-1,1.0308896E0,6.226452E-2,-2.1841002E-1,1.3514571E-1,6.652019E-1,4.1798022E-1,7.1906805E-1,9.251022E-1,1.2750273E0,-1.9766837E-1,1.347128E-1,-3.94349E-1,-9.528977E-2,3.918009E-1,-4.798729E-3,1.7805132E-1,8.101055E-1,-4.353161E-1,4.5517454E-1,9.6806246E-1,5.674939E-1,8.038951E-1,1.04157E0,1.2929283E0,2.6569486E-2,4.3277848E-1,-4.1428056E-1,2.2731185E-1,-1.7655005E-1,-2.0263542E-1,-7.173772E-1,-1.5494217E-1,-3.70329E-2,5.9219396E-1,1.16129845E-1,1.4768961E-1,-1.7413618E-1,6.196355E-1,-1.1116947E-1,-7.1087575E-1,8.480612E-1,1.5545781E-2,-5.9845418E-2,-7.069922E-2,5.0070006E-1,1.1717502E0,4.911299E-1,-2.2557592E-2,6.2700963E-1,9.637327E-1,6.6357297E-1,1.0843272E0,5.6547207E-1,2.6337901E-2,1.3091526E0,-1.176006E-3,3.8719796E-2,-1.4536286E-3,-2.7853752E-2,1.5270032E-2,-1.6451394E-3,8.252462E-3,-1.9874081E-2,-6.5392256E-3,-2.967867E-2,-2.843287E-2,-5.1564243E-2,-2.3856598E-3,-1.1333636E-2,-1.5702486E-3,-4.3082517E-2,3.581747E-2,1.8284878E-2,2.0942153E-2,-2.4884946E-3,-7.5469944E-3,1.3106464E-2,-1.821188E-2,5.207981E-3,5.103874E-2,-1.5891762E-3,3.0130737E-3,-3.2056417E-2,4.0560617E-4,-7.0416115E-2,-4.3830853E-2,4.3590795E-2,1.5616787E-2,-6.896692E-2,-1.4184757E-2,2.6363289E-2,3.1910997E-2,6.616144E-2,6.063634E-2,1.1692808E-3,3.5314318E-2,-5.777323E-3,1.963177E-2,5.3730287E-2,4.6438184E-2,2.5607785E-2,2.4242328E-2,5.5296242E-2,-9.472743E-3,4.7884103E-2,4.7957428E-2,6.670796E-2],"categories":[],"categories_nodes":[],"categories_segments":[],"categories_sizes":[],"default_left":[0,1,1,0,1,1,0,0,0,0,0,0,0,0,0,0,1,0,0,0,0,0,0,0,0,0,0,0,1,1,0,0,0,0,0,0,0,1,1,0,0,0,0,0,0,0,0,0,0,0,0,0,0,0,0,0,0,0,0,0,0,0,0,0,0,0,0,0,0,0,0,0,0,0,0,0,0,0,0,0,0,0,0,0,0,0,0,0,0,0,0,0,0,0,0,0,0,0,0,0,0,0,0,0,0,0,0,0,0,0,0,0,0],"id":9,"left_children":[1,3,5,7,9,11,13,15,17,19,21,23,25,27,29,31,33,35,37,39,41,43,45,47,49,51,53,55,57,59,-1,61,63,65,67,69,71,73,75,77,79,81,83,85,87,89,91,-1,-1,93,95,97,99,-1,101,103,105,107,109,-1,111,-1,-1,-1,-1,-1,-1,-1,-1,-1,-1,-1,-1,-1,-1,-1,-1,-1,-1,-1,-1,-1,-1,-1,-1,-1,-1,-1,-1,-1,-1,-1,-1,-1,-1,-1,-1,-1,-1,-1,-1,-1,-1,-1,-1,-1,-1,-1,-1,-1,-1,-1,-1],"loss_changes":[9.373756E2,5.452517E2,8.297522E1,1.621893E2,1.7856505E2,9.963226E0,1.8720764E1,4.7687668E1,2.3927026E2,1.7641579E2,5.1401306E1,1.1655998E1,5.642639E0,6.803131E0,2.378662E0,7.556972E1,5.7104282E1,2.8149866E2,2.2585152E1,9.567432E1,8.2126915E1,2.1613018E1,3.30773E1,9.232433E0,8.329094E0,5.317856E0,6.612179E0,5.407364E0,4.9366455E0,2.097168E0,0E0,2.2100557E1,2.2612846E1,3.1024826E1,3.4367336E1,8.012899E1,7.847046E1,2.469114E1,1.524202E1,2.7953064E1,3.6720985E1,5.7232414E1,7.976394E1,1.751714E1,9.3760605E0,7.1520762E0,2.3267822E1,0E0,0E0,1.4705235E1,6.7958527E0,2.5327644E0,6.6804895E0,0E0,5.9127502E0,7.4186554E0,5.4180603E0,2.6886597E0,7.4523625E0,0E0,6.359863E-1,0E0,0E0,0E0,0E0,0E0,0E0,0E0,0E0,0E0,0E0,0E0,0E0,0E0,0E0,0E0,0E0,0E0,0E0,0E0,0E0,0E0,0E0,0E0,0E0,0E0,0E0,0E0,0E0,0E0,0E0,0E0,0E0,0E0,0E0,0E0,0E0,0E0,0E0,0E0,0E0,0E0,0E0,0E0,0E0,0E0,0E0,0E0,0E0,0E0,0E0,0E0,0E0],"parents":[2147483647,0,0,1,1,2,2,3,3,4,4,5,5,6,6,7,7,8,8,9,9,10,10,11,11,12,12,13,13,14,14,15,15,16,16,17,17,18,18,19,19,20,20,21,21,22,22,23,23,24,24,25,25,26,26,27,27,28,28,29,29,31,31,32,32,33,33,34,34,35,35,36,36,37,37,38,38,39,39,40,40,41,41,42,42,43,43,44,44,45,45,46,46,49,49,50,50,51,51,52,52,54,54,55,55,56,56,57,57,58,58,60,60],"right_children":[2,4,6,8,10,12,14,16,18,20,22,24,26,28,30,32,34,36,38,40,42,44,46,48,50,52,54,56,58,60,-1,62,64,66,68,70,72,74,76,78,80,82,84,86,88,90,92,-1,-1,94,96,98,100,-1,102,104,106,108,110,-1,112,-1,-1,-1,-1,-1,-1,-1,-1,-1,-1,-1,-1,-1,-1,-1,-1,-1,-1,-1,-1,-1,-1,-1,-1,-1,-1,-1,-1,-1,-1,-1,-1,-1,-1,-1,-1,-1,-1,-1,-1,-1,-1,-1,-1,-1,-1,-1,-1,-1,-1,-1,-1],"split_conditions":[1E0,1E0,3.659E-1,8.616E-1,6.333E1,2.544E-1,7.158E-1,4.26E1,0E0,4.69E1,8.318437E-5,1.319E-1,2.907E-1,9.822302E-3,2.249E-1,1E0,6.077E1,8.998E-1,4.964471E-3,4.41E1,8.869E-1,8.550282E-1,1E0,3.0911E4,1.4588793E-1,2.76219E1,8.4712105E-3,1.0792263E0,1.384E4,7.01655E-1,2.6569486E-2,6.1102E1,5.6784123E-1,1E0,5.279E1,3.3402027E1,9.243E-1,1.0142945E0,5.8888683E1,1E0,8.719E-1,5.854E1,1.691986E0,3.928E-3,1.113E-3,6.528E1,6.025E1,1.5545781E-2,-5.9845418E-2,2.660559E1,5.9682475E-3,2.424E-1,1.10038E0,-2.2557592E-2,1.120251E5,4.167E-1,1.4020717E-2,7.072E-3,2.3323686E0,2.6337901E-2,1.157075E-1,-1.176006E-3,3.8719796E-2,-1.4536286E-3,-2.7853752E-2,1.5270032E-2,-1.6451394E-3,8.252462E-3,-1.9874081E-2,-6.5392256E-3,-2.967867E-2,-2.843287E-2,-5.1564243E-2,-2.3856598E-3,-1.1333636E-2,-1.5702486E-3,-4.3082517E-2,3.581747E-2,1.8284878E-2,2.0942153E-2,-2.4884946E-3,-7.5469944E-3,1.3106464E-2,-1.821188E-2,5.207981E-3,5.103874E-2,-1.5891762E-3,3.0130737E-3,-3.2056417E-2,4.0560617E-4,-7.0416115E-2,-4.3830853E-2,4.3590795E-2,1.5616787E-2,-6.896692E-2,-1.4184757E-2,2.6363289E-2,3.1910997E-2,6.616144E-2,6.063634E-2,1.1692808E-3,3.5314318E-2,-5.777323E-3,1.963177E-2,5.3730287E-2,4.6438184E-2,2.5607785E-2,2.4242328E-2,5.5296242E-2,-9.472743E-3,4.7884103E-2,4.7957428E-2,6.670796E-2],"split_indices":[63,28,23,27,31,23,23,31,28,8,53,24,23,13,24,61,31,27,13,31,27,20,61,17,20,12,40,6,18,6,0,54,21,79,8,12,27,39,42,93,27,51,21,30,29,31,17,0,0,12,40,24,0,0,17,23,40,30,20,0,21,0,0,0,0,0,0,0,0,0,0,0,0,0,0,0,0,0,0,0,0,0,0,0,0,0,0,0,0,0,0,0,0,0,0,0,0,0,0,0,0,0,0,0,0,0,0,0,0,0,0,0,0],"split_type":[0,0,0,0,0,0,0,0,0,0,0,0,0,0,0,0,0,0,0,0,0,0,0,0,0,0,0,0,0,0,0,0,0,0,0,0,0,0,0,0,0,0,0,0,0,0,0,0,0,0,0,0,0,0,0,0,0,0,0,0,0,0,0,0,0,0,0,0,0,0,0,0,0,0,0,0,0,0,0,0,0,0,0,0,0,0,0,0,0,0,0,0,0,0,0,0,0,0,0,0,0,0,0,0,0,0,0,0,0,0,0,0,0],"sum_hessian":[2.0508902E4,1.9216287E4,1.2926147E3,1.3576429E4,5.6398584E3,5.230819E2,7.6953284E2,2.5298955E3,1.1046533E4,4.910647E3,7.2921173E2,3.6001663E2,1.630653E2,5.402332E2,2.2929962E2,5.5105817E2,1.9788374E3,4.546861E3,6.4996724E3,1.7321393E3,3.1785076E3,1.6768872E2,5.61523E2,1.4590208E1,3.4542642E2,5.9665184E1,1.0340012E2,2.686028E2,2.716304E2,2.2318831E2,6.1113205E0,1.4066287E2,4.103953E2,1.5253296E3,4.535078E2,2.8544211E3,1.6924396E3,3.210552E3,3.2891204E3,1.0023527E3,7.297866E2,1.672526E3,1.5059816E3,6.591177E1,1.01776955E2,1.3239849E1,5.4828314E2,7.668313E0,6.921895E0,2.7477385E1,3.1794904E2,4.0788452E1,1.8876732E1,5.3445563E0,9.8055565E1,1.22826294E2,1.457765E2,2.4807394E2,2.3556479E1,5.3221755E0,2.1786613E2,6.0621647E1,8.004122E1,1.11313965E2,2.9908133E2,1.1731123E3,3.522173E2,1.7821259E2,2.7529523E2,2.4123816E3,4.4203955E2,1.1502826E3,5.4215704E2,1.2875208E3,1.9230312E3,3.2678557E3,2.1264694E1,6.460523E2,3.563004E2,2.578214E2,4.7196518E2,4.6328027E2,1.2092456E3,8.9458765E2,6.1139386E2,4.0441307E1,2.5470469E1,7.7570694E1,2.4206257E1,7.0059166E0,6.233933E0,6.961312E0,5.4132184E2,2.18448E1,5.632583E0,1.009841E1,3.0785062E2,1.0172529E1,3.0615923E1,6.7974615E0,1.207927E1,8.864094E1,9.414628E0,2.0707087E1,1.0211921E2,5.1116966E1,9.465954E1,9.442051E0,2.3863188E2,8.230789E0,1.5325689E1,1.7152092E1,2.0071404E2],"tree_param":{"num_deleted":"0","num_feature":"104","num_nodes":"113","size_leaf_vector":"1"}},{"base_weights":[1.7734383E-3,-5.068049E-2,7.923488E-1,-1.6057584E-1,1.8922913E-1,6.170653E-1,1.0870061E0,-1.3856599E-1,-4.900244E-1,1.3091147E-1,6.087433E-1,5.768883E-1,1.2450678E0,6.9908077E-1,1.2488593E0,-3.874291E-1,-1.0572196E-1,-7.454684E-2,-7.412339E-1,4.207622E-1,5.2958433E-2,1.8311895E-1,7.4871886E-1,4.6620533E-2,6.1546946E-1,1.382949E0,6.759602E-1,-2.3575455E-2,7.483239E-1,1.1226583E0,1.3619691E0,-4.5987874E-2,-6.671966E-1,-5.8425333E-2,-2.3183565E-1,1.7537509E-1,-4.5901716E-1,-6.471786E-1,-1.1995493E0,5.174059E-1,-2.1523948E-1,-7.44642E-2,1.6706517E-1,-8.8486426E-2,5.0765187E-1,-6.140502E-1,7.8854656E-1,-2.290736E-1,7.472099E-1,4.8656213E-1,7.1224374E-1,3.5571933E-2,7.492324E-2,-5.383732E-3,6.6665255E-2,6.362602E-2,8.148695E-1,2.1797247E-2,1.1492236E0,3.557308E-2,1.3808203E0,-7.3941215E-3,4.1475877E-2,-4.408506E-2,-1.7756002E-2,-5.0143845E-4,-1.4796157E-2,-1.3883384E-2,-2.0685808E-3,3.1483024E-3,4.6641976E-2,-6.624297E-2,-1.6421326E-2,2.974923E-2,-3.3990346E-2,-3.4222156E-3,-6.6161536E-2,3.232814E-2,7.1922145E-3,5.142758E-2,-1.5160456E-2,7.5203716E-3,-1.3742867E-2,4.985484E-3,2.253258E-2,1.1135145E-2,-2.8071513E-2,3.1202374E-2,-2.8280023E-2,8.797962E-3,-7.2694324E-2,4.5464303E-2,2.4110999E-2,1.3573628E-3,-6.6993915E-2,6.793502E-2,-1.2044626E-2,4.38493E-2,2.0195302E-2,5.2869912E-2,3.2831233E-2,-1.5337573E-2,2.3428962E-2,2.6935771E-2,4.8797395E-2,6.0781535E-2,4.455862E-2,6.996528E-2,4.672762E-2],"categories":[],"categories_nodes":[],"categories_segments":[],"categories_sizes":[],"default_left":[0,0,1,1,1,1,0,0,0,0,0,0,0,0,0,0,0,1,0,1,0,0,0,0,0,0,1,0,1,0,0,0,0,1,1,0,0,0,0,1,0,0,1,0,0,0,0,0,0,1,0,0,0,0,0,0,0,0,1,0,1,0,0,0,0,0,0,0,0,0,0,0,0,0,0,0,0,0,0,0,0,0,0,0,0,0,0,0,0,0,0,0,0,0,0,0,0,0,0,0,0,0,0,0,0,0,0,0,0],"id":10,"left_children":[1,3,5,7,9,11,13,15,17,19,21,23,25,27,29,31,33,35,37,39,41,43,45,47,49,51,53,-1,55,57,59,61,63,65,67,69,71,73,75,77,79,81,83,85,87,89,91,93,95,97,99,-1,-1,-1,-1,101,103,-1,105,-1,107,-1,-1,-1,-1,-1,-1,-1,-1,-1,-1,-1,-1,-1,-1,-1,-1,-1,-1,-1,-1,-1,-1,-1,-1,-1,-1,-1,-1,-1,-1,-1,-1,-1,-1,-1,-1,-1,-1,-1,-1,-1,-1,-1,-1,-1,-1,-1,-1],"loss_changes":[8.4677954E2,5.048977E2,6.4950134E1,9.516666E1,1.4711206E2,1.9440155E1,2.879889E1,1.0059883E2,8.574892E1,1.1935469E2,4.3592804E1,1.5371689E1,2.7670822E0,8.50354E0,3.2128296E0,1.3706096E2,6.487421E1,2.995234E1,2.1303894E1,6.893001E1,6.0567234E1,1.617339E1,3.0446167E1,1.0241372E1,8.4062805E0,1.8055496E0,5.8906083E0,0E0,6.1483E0,2.467041E0,1.1082153E0,5.7877514E1,5.2486816E1,9.0947556E1,2.5886032E1,1.6045046E1,1.3444302E1,1.7717575E1,1.1947067E1,4.6815277E1,1.6548872E1,8.873695E1,4.1929676E1,1.4910632E1,1.0785698E1,1.1029041E1,1.9415161E1,1.0902671E1,9.3649845E0,9.456856E0,6.957855E0,0E0,0E0,0E0,0E0,2.114315E0,4.9873276E0,0E0,1.5903931E0,0E0,5.0323486E-2,0E0,0E0,0E0,0E0,0E0,0E0,0E0,0E0,0E0,0E0,0E0,0E0,0E0,0E0,0E0,0E0,0E0,0E0,0E0,0E0,0E0,0E0,0E0,0E0,0E0,0E0,0E0,0E0,0E0,0E0,0E0,0E0,0E0,0E0,0E0,0E0,0E0,0E0,0E0,0E0,0E0,0E0,0E0,0E0,0E0,0E0,0E0,0E0],"parents":[2147483647,0,0,1,1,2,2,3,3,4,4,5,5,6,6,7,7,8,8,9,9,10,10,11,11,12,12,13,13,14,14,15,15,16,16,17,17,18,18,19,19,20,20,21,21,22,22,23,23,24,24,25,25,26,26,28,28,29,29,30,30,31,31,32,32,33,33,34,34,35,35,36,36,37,37,38,38,39,39,40,40,41,41,42,42,43,43,44,44,45,45,46,46,47,47,48,48,49,49,50,50,55,55,56,56,58,58,60,60],"right_children":[2,4,6,8,10,12,14,16,18,20,22,24,26,28,30,32,34,36,38,40,42,44,46,48,50,52,54,-1,56,58,60,62,64,66,68,70,72,74,76,78,80,82,84,86,88,90,92,94,96,98,100,-1,-1,-1,-1,102,104,-1,106,-1,108,-1,-1,-1,-1,-1,-1,-1,-1,-1,-1,-1,-1,-1,-1,-1,-1,-1,-1,-1,-1,-1,-1,-1,-1,-1,-1,-1,-1,-1,-1,-1,-1,-1,-1,-1,-1,-1,-1,-1,-1,-1,-1,-1,-1,-1,-1,-1,-1],"split_conditions":[1E0,1E0,5.417E-1,6.753E1,6.333E1,1.6062E0,9.595E-1,3.913E1,1E0,3.799E1,1.6854993E-4,5.054E-1,5.40854E4,4E-1,1.336E0,1E0,1E0,1.5655686E0,3.0413413E-4,4.733E1,5.788E1,6.527E1,1E0,3.1660227E1,2.568E-1,8.8187104E-1,1.71E3,-2.3575455E-2,6.0896933E-2,4.023E1,7.242057E-1,1E0,4.005E1,5.973E1,2.9352283E1,1.0994E-2,1.9563908E1,-2.448739E-2,1.852689E-1,3.602334E1,2.316E1,1.52583025E-5,5.737E1,2.2538675E1,3.5810433E-2,1.0106777E0,1E0,8.668833E1,2.544E-1,-8.506935E-3,4.335559E-3,3.5571933E-2,7.492324E-2,-5.383732E-3,6.6665255E-2,1.2609783E0,7.366E-1,2.1797247E-2,8.74497E4,3.557308E-2,3.6631306E1,-7.3941215E-3,4.1475877E-2,-4.408506E-2,-1.7756002E-2,-5.0143845E-4,-1.4796157E-2,-1.3883384E-2,-2.0685808E-3,3.1483024E-3,4.6641976E-2,-6.624297E-2,-1.6421326E-2,2.974923E-2,-3.3990346E-2,-3.4222156E-3,-6.6161536E-2,3.232814E-2,7.1922145E-3,5.142758E-2,-1.5160456E-2,7.5203716E-3,-1.3742867E-2,4.985484E-3,2.253258E-2,1.1135145E-2,-2.8071513E-2,3.1202374E-2,-2.8280023E-2,8.797962E-3,-7.2694324E-2,4.5464303E-2,2.4110999E-2,1.3573628E-3,-6.6993915E-2,6.793502E-2,-1.2044626E-2,4.38493E-2,2.0195302E-2,5.2869912E-2,3.2831233E-2,-1.5337573E-2,2.3428962E-2,2.6935771E-2,4.8797395E-2,6.0781535E-2,4.455862E-2,6.996528E-2,4.672762E-2],"split_indices":[63,28,23,41,31,26,26,41,62,31,53,26,17,22,26,61,79,20,11,51,41,41,61,12,23,7,19,0,20,31,14,62,31,31,42,30,12,53,20,42,31,11,31,52,43,21,79,16,23,10,13,0,0,0,0,14,26,0,17,0,32,0,0,0,0,0,0,0,0,0,0,0,0,0,0,0,0,0,0,0,0,0,0,0,0,0,0,0,0,0,0,0,0,0,0,0,0,0,0,0,0,0,0,0,0,0,0,0,0],"split_type":[0,0,0,0,0,0,0,0,0,0,0,0,0,0,0,0,0,0,0,0,0,0,0,0,0,0,0,0,0,0,0,0,0,0,0,0,0,0,0,0,0,0,0,0,0,0,0,0,0,0,0,0,0,0,0,0,0,0,0,0,0,0,0,0,0,0,0,0,0,0,0,0,0,0,0,0,0,0,0,0,0,0,0,0,0,0,0,0,0,0,0,0,0,0,0,0,0,0,0,0,0,0,0,0,0,0,0,0,0],"sum_hessian":[2.0417717E4,1.9148188E4,1.2695282E3,1.3132786E4,6.0154014E3,7.979462E2,4.7158203E2,1.2311686E4,8.211002E2,5.2823955E3,7.330063E2,7.517698E2,4.617646E1,1.4039832E2,3.3118372E2,1.4341517E3,1.0877534E4,3.0988144E2,5.1121878E2,1.1186289E3,4.1637666E3,1.8197679E2,5.510295E2,5.1137146E1,7.006326E2,3.6019714E1,1.0156747E1,5.321541E0,1.3507678E2,1.6169716E2,1.6948654E2,6.4640875E2,7.877429E2,7.911816E3,2.9657183E3,1.8813174E2,1.2174972E2,4.26172E2,8.504677E1,9.712317E2,1.4739719E2,1.9672699E3,2.1964966E3,9.946267E1,8.251413E1,1.5237474E1,5.35792E2,3.7179424E1,1.3957724E1,3.0302234E2,3.9761026E2,6.3375254E0,2.968219E1,5.014752E0,5.141995E0,1.213845E1,1.22938324E2,6.670684E0,1.5502647E2,5.8643327E0,1.6362222E2,5.797647E2,6.664407E1,4.6577142E2,3.219715E2,6.5733594E3,1.3384564E3,2.3901182E3,5.7560016E2,1.6476366E2,2.3368084E1,1.4757748E1,1.0699197E2,1.0466734E1,4.157053E2,8.535969E0,7.65108E1,7.2116284E2,2.5006886E2,9.030073E0,1.3836711E2,9.2713385E2,1.040136E3,1.77602E3,4.2047653E2,6.0309265E1,3.91534E1,7.481851E1,7.695617E0,8.258979E0,6.9784956E0,3.8290182E2,1.5289018E2,3.1003616E1,6.175807E0,8.390299E0,5.567425E0,5.126473E1,2.5175761E2,5.2680496E1,3.4492978E2,6.4665384E0,5.6719112E0,4.6891533E1,7.604679E1,1.203458E2,3.4680668E1,1.5506358E2,8.558628E0],"tree_param":{"num_deleted":"0","num_feature":"104","num_nodes":"109","size_leaf_vector":"1"}},{"base_weights":[-8.272017E-5,-1.1592501E-1,2.40054E-1,-7.4763335E-2,-3.4314412E-1,8.227126E-2,3.9251053E-1,-5.0888476E-3,-2.6707646E-1,-2.2459462E-2,-5.53851E-1,4.3545598E-1,-2.5037188E-2,3.2850325E-1,7.423457E-1,9.8682575E-2,-1.2450125E-1,-6.128091E-1,-5.7523232E-2,9.4192845E-1,-7.948256E-2,-3.1022564E-1,-9.54887E-1,5.108931E-1,-2.9990414E-1,6.889082E-2,-2.3963141E-1,2.524718E-1,5.915856E-1,7.9086053E-1,-9.273762E-1,4.288169E-1,-1.2387323E-1,2.3642201E-2,-3.0863264E-1,-1.3885178E-1,-7.51567E-1,3.024827E-2,-6.8898875E-1,2.0340164E-1,1.3403248E0,2.874985E-1,-2.1313944E-1,3.456682E-1,-3.7243158E-1,-1.3319561E-1,-1.032652E0,2.8998676E-1,6.2197435E-1,2.8824916E-1,-5.8238345E-1,4.3784046E-1,1.3274628E-2,-3.1080383E-1,2.471949E-1,5.2473634E-1,1.2814759E-1,3.8726607E-1,9.756365E-1,1.9740278E-1,8.391054E-1,-8.112535E-2,-4.74623E-3,2.7701855E-2,3.5558462E-3,1.2429375E-3,-9.920835E-3,3.6160395E-2,-1.6623198E-3,-5.6659593E-3,-3.798298E-2,-2.9210089E-2,-1.1143428E-4,-4.0625464E-2,2.5781058E-3,-1.3494263E-2,7.5954148E-3,-5.190297E-2,-1.0413426E-2,-2.8121179E-2,4.161377E-2,1.8955156E-2,7.761445E-2,2.2104885E-2,-1.9436253E-2,-2.1181072E-3,-1.9494437E-2,-3.353558E-2,2.6200825E-2,6.1955634E-3,-2.2463804E-2,1.612868E-2,-7.8223325E-2,-5.455066E-2,-1.7929884E-2,5.758546E-3,3.6959294E-2,-2.2568723E-2,3.2823943E-2,-6.936099E-3,7.859302E-2,-4.7065403E-2,4.9014116E-4,2.4866749E-2,-5.5382736E-2,-8.924364E-3,5.2587013E-3,-1.693534E-2,3.923538E-2,2.4740694E-2,-2.3512404E-2,3.0311018E-2,2.3166845E-4,1.0257713E-2,-1.217211E-2,2.7156075E-2,2.2221045E-3,3.2284167E-2,5.529779E-2,3.955888E-2,-1.5007287E-2,4.284305E-2,-3.144418E-2],"categories":[],"categories_nodes":[],"categories_segments":[],"categories_sizes":[],"default_left":[0,1,0,0,0,0,1,0,0,0,0,0,0,0,0,0,0,0,0,0,0,0,0,1,1,0,1,0,1,0,0,1,0,0,0,0,1,0,0,0,0,1,0,0,0,0,0,0,1,0,0,1,0,0,0,0,0,0,0,0,1,0,0,0,0,0,0,0,0,0,0,0,0,0,0,0,0,0,0,0,0,0,0,0,0,0,0,0,0,0,0,0,0,0,0,0,0,0,0,0,0,0,0,0,0,0,0,0,0,0,0,0,0,0,0,0,0,0,0,0,0,0,0],"id":11,"left_children":[1,3,5,7,9,11,13,15,17,19,21,23,25,27,29,31,33,35,37,39,41,43,45,47,49,51,53,55,57,59,61,63,65,67,69,71,73,75,77,79,81,83,85,87,89,91,93,95,97,99,101,103,105,107,109,111,113,115,117,119,121,-1,-1,-1,-1,-1,-1,-1,-1,-1,-1,-1,-1,-1,-1,-1,-1,-1,-1,-1,-1,-1,-1,-1,-1,-1,-1,-1,-1,-1,-1,-1,-1,-1,-1,-1,-1,-1,-1,-1,-1,-1,-1,-1,-1,-1,-1,-1,-1,-1,-1,-1,-1,-1,-1,-1,-1,-1,-1,-1,-1,-1,-1],"loss_changes":[5.657827E2,1.2829483E2,1.5917838E2,1.556604E2,1.4215471E2,1.2332727E2,7.512433E1,1.0569564E2,2.2379787E2,4.601066E1,1.2375391E2,4.221736E1,5.0336586E1,5.6799133E1,4.28396E1,3.3536493E2,1.0818884E2,7.6565735E1,1.0669657E2,1.34711E1,3.8790817E1,3.241533E1,3.0491913E1,1.6704468E1,1.1993885E1,3.5641132E1,2.6418919E1,7.475543E1,4.965291E1,1.431189E1,8.605E0,8.2283844E1,3.0236862E1,8.7524536E1,1.5568257E2,1.613732E1,4.4168823E1,6.1778442E1,3.920478E1,8.919022E0,5.557293E0,2.225437E1,1.7471706E1,1.2871402E1,2.76417E1,2.8288046E1,1.6829315E1,1.81415E1,1.7221054E1,1.3242075E1,1.0300243E1,2.147247E1,2.6641195E1,2.0554863E1,1.7558817E1,2.9350739E1,4.3511734E1,2.2301113E1,8.778046E0,1.1854998E1,1.2719757E1,0E0,0E0,0E0,0E0,0E0,0E0,0E0,0E0,0E0,0E0,0E0,0E0,0E0,0E0,0E0,0E0,0E0,0E0,0E0,0E0,0E0,0E0,0E0,0E0,0E0,0E0,0E0,0E0,0E0,0E0,0E0,0E0,0E0,0E0,0E0,0E0,0E0,0E0,0E0,0E0,0E0,0E0,0E0,0E0,0E0,0E0,0E0,0E0,0E0,0E0,0E0,0E0,0E0,0E0,0E0,0E0,0E0,0E0,0E0,0E0,0E0,0E0],"parents":[2147483647,0,0,1,1,2,2,3,3,4,4,5,5,6,6,7,7,8,8,9,9,10,10,11,11,12,12,13,13,14,14,15,15,16,16,17,17,18,18,19,19,20,20,21,21,22,22,23,23,24,24,25,25,26,26,27,27,28,28,29,29,30,30,31,31,32,32,33,33,34,34,35,35,36,36,37,37,38,38,39,39,40,40,41,41,42,42,43,43,44,44,45,45,46,46,47,47,48,48,49,49,50,50,51,51,52,52,53,53,54,54,55,55,56,56,57,57,58,58,59,59,60,60],"right_children":[2,4,6,8,10,12,14,16,18,20,22,24,26,28,30,32,34,36,38,40,42,44,46,48,50,52,54,56,58,60,62,64,66,68,70,72,74,76,78,80,82,84,86,88,90,92,94,96,98,100,102,104,106,108,110,112,114,116,118,120,122,-1,-1,-1,-1,-1,-1,-1,-1,-1,-1,-1,-1,-1,-1,-1,-1,-1,-1,-1,-1,-1,-1,-1,-1,-1,-1,-1,-1,-1,-1,-1,-1,-1,-1,-1,-1,-1,-1,-1,-1,-1,-1,-1,-1,-1,-1,-1,-1,-1,-1,-1,-1,-1,-1,-1,-1,-1,-1,-1,-1,-1,-1],"split_conditions":[1E0,5.991E1,6.041E1,1E0,1E0,4.237E1,6.561E1,5.188E1,4.641E1,8.909E-1,8.937E-1,4.758E1,9.017E-1,9.633E-1,1E0,1E0,1E0,8.502E-1,9.147E-1,6.319E1,5.228E1,4.701E1,4.654E1,7.476E-1,1.1287194E0,3.508E1,5.9E1,8.637E-1,4.951E-1,8.716442E-1,8.3075E3,5.149E1,-4.6331324E-3,1E0,8.98E-1,3.835E1,4.881E1,4.357E1,4.744E1,4.13E-3,6.127E1,3.6346256E1,1.15006354E-4,1.7078577E1,8.192E-1,9.268E-1,1.7304E0,7.736632E1,3.5639394E-3,4.5888303E-3,1E0,4.905E1,5.422E1,3.5798E0,9.283E-1,9.1E-3,4.571E-3,1E0,8.897E-1,1.231E-1,6.856E-1,-8.112535E-2,-4.74623E-3,2.7701855E-2,3.5558462E-3,1.2429375E-3,-9.920835E-3,3.6160395E-2,-1.6623198E-3,-5.6659593E-3,-3.798298E-2,-2.9210089E-2,-1.1143428E-4,-4.0625464E-2,2.5781058E-3,-1.3494263E-2,7.5954148E-3,-5.190297E-2,-1.0413426E-2,-2.8121179E-2,4.161377E-2,1.8955156E-2,7.761445E-2,2.2104885E-2,-1.9436253E-2,-2.1181072E-3,-1.9494437E-2,-3.353558E-2,2.6200825E-2,6.1955634E-3,-2.2463804E-2,1.612868E-2,-7.8223325E-2,-5.455066E-2,-1.7929884E-2,5.758546E-3,3.6959294E-2,-2.2568723E-2,3.2823943E-2,-6.936099E-3,7.859302E-2,-4.7065403E-2,4.9014116E-4,2.4866749E-2,-5.5382736E-2,-8.924364E-3,5.2587013E-3,-1.693534E-2,3.923538E-2,2.4740694E-2,-2.3512404E-2,3.0311018E-2,2.3166845E-4,1.0257713E-2,-1.217211E-2,2.7156075E-2,2.2221045E-3,3.2284167E-2,5.529779E-2,3.955888E-2,-1.5007287E-2,4.284305E-2,-3.144418E-2],"split_indices":[28,41,41,61,62,8,8,8,8,27,27,41,27,27,62,65,62,27,27,51,8,8,8,26,46,41,51,27,23,36,17,41,9,65,27,8,41,41,41,30,41,52,11,32,27,27,26,36,40,50,103,51,51,26,27,29,29,65,26,25,25,0,0,0,0,0,0,0,0,0,0,0,0,0,0,0,0,0,0,0,0,0,0,0,0,0,0,0,0,0,0,0,0,0,0,0,0,0,0,0,0,0,0,0,0,0,0,0,0,0,0,0,0,0,0,0,0,0,0,0,0,0,0],"split_type":[0,0,0,0,0,0,0,0,0,0,0,0,0,0,0,0,0,0,0,0,0,0,0,0,0,0,0,0,0,0,0,0,0,0,0,0,0,0,0,0,0,0,0,0,0,0,0,0,0,0,0,0,0,0,0,0,0,0,0,0,0,0,0,0,0,0,0,0,0,0,0,0,0,0,0,0,0,0,0,0,0,0,0,0,0,0,0,0,0,0,0,0,0,0,0,0,0,0,0,0,0,0,0,0,0,0,0,0,0,0,0,0,0,0,0,0,0,0,0,0,0,0,0],"sum_hessian":[2.0336734E4,1.3719126E4,6.6176084E3,1.1616143E4,2.1029832E3,3.2527556E3,3.364853E3,8.527633E3,3.08851E3,8.3431177E2,1.2686714E3,7.572751E2,2.4954805E3,2.8460642E3,5.187889E2,4.562722E3,3.9649102E3,1.1648126E3,1.9236974E3,4.571141E1,7.8860034E2,7.9032837E2,4.7834305E2,6.8709454E2,7.0180534E1,1.7362164E3,7.592639E2,2.209479E3,6.365851E2,5.0465222E2,1.4136649E1,1.8369318E3,2.7257908E3,2.1976536E3,1.7672568E3,2.6424115E2,9.005715E2,1.6897765E3,2.3392093E2,1.6547342E1,2.916407E1,2.1022781E2,5.783725E2,6.8068054E1,7.222603E2,4.159106E1,4.3675198E2,2.3110625E2,4.5598834E2,2.276365E1,4.741688E1,2.265362E2,1.5096803E3,6.627357E2,9.652822E1,6.9162665E2,1.5178524E3,4.1683334E2,2.1975175E2,3.8323895E1,4.663283E2,7.186533E0,6.950116E0,1.3602128E3,4.76719E2,9.102639E2,1.8155267E3,1.6439209E2,2.0332614E3,1.234094E3,5.3316284E2,6.1263767E1,2.0297737E2,8.3704407E2,6.3527416E1,4.8703925E2,1.2027372E3,1.3484503E2,9.90759E1,7.5088882E0,9.038453E0,5.7730036E0,2.3391066E1,1.713905E2,3.883731E1,2.947862E2,2.8358633E2,9.749045E0,5.8319008E1,9.674791E1,6.255124E2,3.213327E1,9.457788E0,4.0138095E2,3.5371044E1,1.6726697E2,6.383927E1,1.3825634E1,4.421627E2,1.775101E1,5.0126395E0,2.915591E1,1.826097E1,2.187919E2,7.744282E0,4.8879465E2,1.0208856E3,6.4694855E2,1.5787123E1,7.1991356E1,2.4536861E1,5.978038E2,9.3822876E1,1.2576669E3,2.6018552E2,2.861561E2,1.3067723E2,6.3905365E1,1.5584639E2,1.7203304E1,2.112059E1,4.6116675E2,5.1615863E0],"tree_param":{"num_deleted":"0","num_feature":"104","num_nodes":"123","size_leaf_vector":"1"}},{"base_weights":[-2.5506862E-3,-3.6683057E-2,2.3475839E-1,1.7872067E-1,-7.627161E-2,4.5183575E-1,-2.500531E-2,2.6435566E-1,-3.438078E-2,-1.2446711E-1,8.785339E-3,7.8097105E-2,7.269431E-1,-1.0589105E-1,2.2940192E-1,1.7045179E-1,4.0913492E-1,2.5225848E-1,-1.2722053E-1,-1.6880265E-2,-1.7241085E-1,1.6761054E-1,-6.62852E-2,3.9717793E-1,-2.3622127E-1,1.0201225E0,5.166341E-1,-2.3126957E-1,7.443386E-2,2.9884276E-1,-5.459579E-1,8.928733E-2,4.834028E-1,6.0978985E-1,2.6481822E-1,1.1676012E0,1.4333978E-1,-8.336466E-1,-7.0543565E-2,8.684104E-2,-1.9686371E-1,-9.560299E-2,-3.2890895E-1,5.988436E-1,1.2712035E-1,8.2040526E-2,-1.501321E-1,-1.8963078E-1,4.8221394E-1,-5.5020916E-1,8.513212E-2,9.048255E-1,1.2031701E0,6.8999606E-1,3.6874253E-1,-4.6534666E-1,-1.460342E-1,1.3837478E-2,5.051258E-1,1.9783995E-1,1.1469105E0,1.8199844E-2,-8.123165E-1,2.2207549E-2,1.9372611E-3,-3.1930115E-2,2.6976436E-2,-1.2555507E-2,3.24627E-2,1.4553885E-2,-4.957483E-2,2.5642922E-2,8.0519095E-2,-1.9777087E-2,1.5814407E-2,-5.9716653E-2,-1.817848E-3,-9.036953E-4,-3.7930604E-2,-6.6312994E-3,1.7995764E-2,1.5342531E-3,-2.1446869E-2,-1.55646E-2,5.3663007E-3,6.124338E-3,-2.8848907E-2,6.261326E-3,5.349133E-2,2.0166917E-2,4.5499816E-3,5.152628E-3,-4.6055194E-2,3.923801E-3,-1.0733538E-2,7.95231E-3,-5.0337773E-2,1.6210139E-2,4.924871E-2,-4.6700623E-2,-1.8207505E-2,3.0341852E-2,-5.6058127E-3,4.9892183E-2,2.8274035E-2,6.4200506E-2,5.1022984E-2,2.4832346E-2,4.369214E-2,7.632158E-3,3.3940732E-2,-1.7288124E-2,-7.553351E-2,-1.6352201E-3,-2.1933785E-2,7.361864E-3,-2.2879034E-2,3.5319053E-2,-7.4276985E-3,-1.0880156E-2,1.4295558E-2,3.2022484E-2,7.9004824E-2,-6.785853E-2,1.3772658E-2],"categories":[],"categories_nodes":[],"categories_segments":[],"categories_sizes":[],"default_left":[0,0,1,0,0,0,0,0,0,1,1,0,0,1,1,1,1,0,0,1,0,0,0,1,0,0,1,0,0,1,0,0,0,1,0,0,1,1,1,0,0,0,0,0,0,0,0,1,0,0,1,0,1,0,0,0,0,0,0,0,0,0,0,0,0,0,0,0,0,0,0,0,0,0,0,0,0,0,0,0,0,0,0,0,0,0,0,0,0,0,0,0,0,0,0,0,0,0,0,0,0,0,0,0,0,0,0,0,0,0,0,0,0,0,0,0,0,0,0,0,0,0,0,0,0],"id":12,"left_children":[1,3,5,7,9,11,13,15,17,19,21,23,25,27,29,31,33,35,37,39,41,43,45,47,49,51,53,55,57,59,61,63,65,67,69,71,73,75,77,79,81,83,85,87,89,91,93,95,97,99,101,103,105,107,109,111,113,115,117,119,121,-1,123,-1,-1,-1,-1,-1,-1,-1,-1,-1,-1,-1,-1,-1,-1,-1,-1,-1,-1,-1,-1,-1,-1,-1,-1,-1,-1,-1,-1,-1,-1,-1,-1,-1,-1,-1,-1,-1,-1,-1,-1,-1,-1,-1,-1,-1,-1,-1,-1,-1,-1,-1,-1,-1,-1,-1,-1,-1,-1,-1,-1,-1,-1],"loss_changes":[1.6499756E2,1.518781E2,1.4444885E2,5.047065E1,6.1674225E1,1.4341904E2,2.4039272E1,2.6748886E1,2.114948E1,4.9531647E1,6.490063E1,5.954507E1,4.9024963E1,2.0052711E1,1.53383255E1,3.039336E1,2.2291534E1,1.9221493E1,2.3966732E1,5.5300716E1,7.981734E1,3.0428463E1,4.5981873E1,1.478857E1,3.0240833E1,5.9743347E0,1.1795578E1,1.0366211E1,9.498197E0,2.1986338E1,5.9965854E0,1.7070356E1,1.5870377E1,1.1157356E1,1.5225416E1,5.128916E0,1.6428873E1,1.2746489E1,2.008076E1,1.12682434E2,5.7203213E1,1.9512854E2,2.449106E2,3.3256107E1,1.5910379E1,2.824532E1,3.486253E1,1.0985938E1,2.0139729E1,1.047781E1,1.5375549E1,6.0443573E0,5.552063E-1,7.216217E0,1.7034954E1,1.6870972E1,1.2748563E1,2.0210886E1,6.0109863E0,8.585059E0,4.997139E0,0E0,1.1341012E1,0E0,0E0,0E0,0E0,0E0,0E0,0E0,0E0,0E0,0E0,0E0,0E0,0E0,0E0,0E0,0E0,0E0,0E0,0E0,0E0,0E0,0E0,0E0,0E0,0E0,0E0,0E0,0E0,0E0,0E0,0E0,0E0,0E0,0E0,0E0,0E0,0E0,0E0,0E0,0E0,0E0,0E0,0E0,0E0,0E0,0E0,0E0,0E0,0E0,0E0,0E0,0E0,0E0,0E0,0E0,0E0,0E0,0E0,0E0,0E0,0E0,0E0],"parents":[2147483647,0,0,1,1,2,2,3,3,4,4,5,5,6,6,7,7,8,8,9,9,10,10,11,11,12,12,13,13,14,14,15,15,16,16,17,17,18,18,19,19,20,20,21,21,22,22,23,23,24,24,25,25,26,26,27,27,28,28,29,29,30,30,31,31,32,32,33,33,34,34,35,35,36,36,37,37,38,38,39,39,40,40,41,41,42,42,43,43,44,44,45,45,46,46,47,47,48,48,49,49,50,50,51,51,52,52,53,53,54,54,55,55,56,56,57,57,58,58,59,59,60,60,62,62],"right_children":[2,4,6,8,10,12,14,16,18,20,22,24,26,28,30,32,34,36,38,40,42,44,46,48,50,52,54,56,58,60,62,64,66,68,70,72,74,76,78,80,82,84,86,88,90,92,94,96,98,100,102,104,106,108,110,112,114,116,118,120,122,-1,124,-1,-1,-1,-1,-1,-1,-1,-1,-1,-1,-1,-1,-1,-1,-1,-1,-1,-1,-1,-1,-1,-1,-1,-1,-1,-1,-1,-1,-1,-1,-1,-1,-1,-1,-1,-1,-1,-1,-1,-1,-1,-1,-1,-1,-1,-1,-1,-1,-1,-1,-1,-1,-1,-1,-1,-1,-1,-1,-1,-1,-1,-1],"split_conditions":[1E0,8.572E-1,6E-1,2.8549145E1,1E0,9.633E-1,7.889E-1,1E0,1.096E-3,-1.7848588E-4,1.3956901E1,8.634E-1,2.165E-1,1.3991967E-3,3.6770298E1,1.8158593E0,9.099101E-1,8.6034226E-1,3.597E1,4.814E1,1E0,1.222E-1,8.948E-1,-2.0354295E-2,2.024E-1,7.228E-1,4.847E1,1.6765911E1,6.725E1,1.384E4,1.5099E4,4.33E1,1.7850181E-3,1.6067088E-2,2.944E-3,5.357E1,4.26E1,1.5899061E0,7.194E1,1E0,1E0,5.504E1,5.096E1,9.633E-1,8.683E-1,4.768918E1,4.33E1,7.771515E4,9.671975E4,4.3978012E-1,3.14E1,3.5E3,6.84484E4,8.164E-3,3.75E-1,1.01714E2,1.2725021E0,6.078E1,7.771515E4,-7.4105607E-3,2.5352749E1,1.8199844E-2,7.771515E4,2.2207549E-2,1.9372611E-3,-3.1930115E-2,2.6976436E-2,-1.2555507E-2,3.24627E-2,1.4553885E-2,-4.957483E-2,2.5642922E-2,8.0519095E-2,-1.9777087E-2,1.5814407E-2,-5.9716653E-2,-1.817848E-3,-9.036953E-4,-3.7930604E-2,-6.6312994E-3,1.7995764E-2,1.5342531E-3,-2.1446869E-2,-1.55646E-2,5.3663007E-3,6.124338E-3,-2.8848907E-2,6.261326E-3,5.349133E-2,2.0166917E-2,4.5499816E-3,5.152628E-3,-4.6055194E-2,3.923801E-3,-1.0733538E-2,7.95231E-3,-5.0337773E-2,1.6210139E-2,4.924871E-2,-4.6700623E-2,-1.8207505E-2,3.0341852E-2,-5.6058127E-3,4.9892183E-2,2.8274035E-2,6.4200506E-2,5.1022984E-2,2.4832346E-2,4.369214E-2,7.632158E-3,3.3940732E-2,-1.7288124E-2,-7.553351E-2,-1.6352201E-3,-2.1933785E-2,7.361864E-3,-2.2879034E-2,3.5319053E-2,-7.4276985E-3,-1.0880156E-2,1.4295558E-2,3.2022484E-2,7.9004824E-2,-6.785853E-2,1.3772658E-2],"split_indices":[77,27,24,12,76,27,24,76,29,11,42,27,25,10,12,21,49,7,41,8,62,24,27,10,25,23,8,12,8,18,4,8,50,21,29,41,31,37,31,62,62,8,8,27,27,12,8,17,17,20,18,18,17,29,23,1,20,8,17,10,12,0,17,0,0,0,0,0,0,0,0,0,0,0,0,0,0,0,0,0,0,0,0,0,0,0,0,0,0,0,0,0,0,0,0,0,0,0,0,0,0,0,0,0,0,0,0,0,0,0,0,0,0,0,0,0,0,0,0,0,0,0,0,0,0],"split_type":[0,0,0,0,0,0,0,0,0,0,0,0,0,0,0,0,0,0,0,0,0,0,0,0,0,0,0,0,0,0,0,0,0,0,0,0,0,0,0,0,0,0,0,0,0,0,0,0,0,0,0,0,0,0,0,0,0,0,0,0,0,0,0,0,0,0,0,0,0,0,0,0,0,0,0,0,0,0,0,0,0,0,0,0,0,0,0,0,0,0,0,0,0,0,0,0,0,0,0,0,0,0,0,0,0,0,0,0,0,0,0,0,0,0,0,0,0,0,0,0,0,0,0,0,0],"sum_hessian":[2.0368203E4,1.7807746E4,2.5604578E3,2.764177E3,1.5043568E4,1.394431E3,1.1660269E3,1.9716339E3,7.925432E2,9.6022295E3,5.4413384E3,5.917758E2,8.0265515E2,8.8517865E2,2.808482E2,1.1972649E3,7.743689E2,1.9347601E2,5.990672E2,2.9603923E3,6.6418374E3,1.7460415E3,3.6952969E3,2.9353235E2,2.9824347E2,3.3366357E2,4.6899158E2,5.219726E2,3.6320605E2,2.5832715E2,2.2521074E1,9.5171985E2,2.4554509E2,3.2260306E2,4.5176587E2,1.9540398E1,1.7393562E2,4.3475567E1,5.555916E2,1.8784133E3,1.0819791E3,4.4563247E3,2.1855127E3,1.4868723E2,1.5973542E3,1.3345286E3,2.3607686E3,3.699698E1,2.5653537E2,1.504903E2,1.4775317E2,2.0836368E2,1.25299904E2,2.1421646E2,2.547751E2,1.3814186E2,3.8383075E2,3.1931238E2,4.3893658E1,2.3193726E2,2.6389881E1,5.016557E0,1.7504517E1,1.17680435E2,8.340394E2,1.120332E1,2.3434178E2,1.3905055E1,3.08698E2,4.4326898E2,8.49689E0,8.754025E0,1.0786371E1,4.1947224E1,1.3198839E2,2.9590916E1,1.3884652E1,5.171796E2,3.841201E1,1.0417131E3,8.367002E2,5.4675366E2,5.3522546E2,2.1599863E3,2.2963384E3,7.7528394E2,1.4102288E3,7.476749E1,7.391974E1,1.835519E2,1.4138024E3,1.3080276E3,2.6500887E1,5.1969495E2,1.8410735E3,2.649612E1,1.0500856E1,1.9644122E2,6.0094147E1,4.7822304E1,1.0266799E2,3.996711E1,1.0778607E2,1.620135E2,4.6350178E1,8.2687416E1,4.2612488E1,1.0621402E2,1.0800244E2,1.51018E2,1.03757095E2,1.2515501E2,1.2986861E1,2.7748303E2,1.063477E2,2.4942024E2,6.989215E1,3.3499268E1,1.0394389E1,4.0311604E1,1.9162566E2,1.3308577E1,1.3081305E1,1.149774E1,6.006778E0],"tree_param":{"num_deleted":"0","num_feature":"104","num_nodes":"125","size_leaf_vector":"1"}},{"base_weights":[-1.0050255E-3,-4.874492E-2,7.2953117E-1,-1.441125E-1,1.8147145E-1,4.8206908E-1,9.728416E-1,3.493401E-2,-1.9311821E-1,7.539443E-2,3.2641342E-1,1.1009581E0,4.5528066E-1,1.1036639E0,5.73404E-1,-1.8339376E-1,1.1574281E-1,-3.721261E-1,-7.700322E-2,2.736009E-1,-9.441157E-2,4.6747124E-1,1.6395383E-1,6.0904365E-2,2.8413186E-2,6.2132508E-2,4.9775568E-1,1.1422378E0,1.2289681E-1,6.9314057E-1,3.9551735E-2,5.344951E-1,-2.436188E-1,1.7049254E-1,-3.4877658E-1,-2.8811938E-1,-9.6783656E-1,-1.3412194E-1,-2.1207785E-2,4.0258196E-1,-9.839325E-2,-1.4409946E-1,3.8108295E-1,3.8570482E-1,8.421986E-1,-8.232311E-2,4.3205044E-1,2.4301419E-1,-6.284412E-2,7.12101E-2,4.8182288E-1,1.0429085E0,1.3068569E0,-3.0145362E-2,4.907028E-1,4.977563E-1,1.0138175E0,-4.3416503E-1,7.7119774E-1,-1.7226687E-2,3.571061E-2,-1.7317276E-2,6.792822E-3,9.53758E-3,-3.4848973E-2,-2.0021746E-2,6.1988827E-2,-8.1023965E-3,-2.5938055E-2,-5.2589785E-2,3.5699364E-3,2.9359275E-2,-7.069213E-3,-5.4716324E-3,2.3855257E-3,2.7432088E-2,1.3342268E-2,1.5409893E-2,-1.0822426E-2,1.4475974E-3,-1.5648218E-2,2.5135538E-2,-3.0220656E-2,2.099916E-2,-1.0349542E-2,3.350753E-2,5.5297703E-2,2.1540576E-3,-2.8703162E-2,-2.9123654E-5,2.7664756E-2,2.0502303E-2,-3.3388894E-2,-1.5501479E-2,2.4961177E-2,4.8242804E-2,5.9127547E-2,6.6383295E-2,3.5109147E-2,-1.915559E-2,5.4662406E-2,1.4428382E-2,4.2889666E-2,5.648118E-2,2.6153733E-3,-5.0667554E-2,1.5527599E-2,1.7192705E-2,5.183531E-2],"categories":[],"categories_nodes":[],"categories_segments":[],"categories_sizes":[],"default_left":[0,1,1,0,0,0,0,1,0,0,0,1,0,0,0,0,1,0,0,0,1,1,1,0,0,0,1,0,1,0,1,0,0,0,0,0,1,0,0,1,0,0,1,1,0,0,0,0,0,0,0,0,0,0,0,0,0,0,0,0,0,0,0,0,0,0,0,0,0,0,0,0,0,0,0,0,0,0,0,0,0,0,0,0,0,0,0,0,0,0,0,0,0,0,0,0,0,0,0,0,0,0,0,0,0,0,0,0,0],"id":13,"left_children":[1,3,5,7,9,11,13,15,17,19,21,23,25,27,29,31,33,35,37,39,41,43,45,-1,-1,47,49,51,53,55,57,59,61,63,65,67,